svm_type c_svc
kernel_type rbf
gamma 0.00571429
nr_class 2
total_sv 23574
rho 0.999023
label 1 -1
nr_sv 23 23551
SV
1 69:2400 120:1800 
1 8:2000 57:1000 119:1800 
1 33:2200 39:2200 
1 8:2000 48:1000 119:1800 152:0 
1 45:1000 71:2200 120:1800 
1 8:2000 23:2300 
1 7:1900 40:2300 71:2200 120:1800 
1 19:2000 32:2200 99:1100 152:0 
1 40:2300 44:1000 120:1800 
1 32:2200 39:2200 
1 39:2200 68:2200 
1 39:2200 48:1000 67:2200 
1 17:2100 52:1000 67:2200 120:1800 
1 67:2200 119:1800 120:1800 
1 23:2300 69:2400 
1 27:1600 119:1800 
1 8:2000 40:2300 
0.9990234375 8:2000 120:1800 
1 68:2200 119:1800 174:650 
1 17:2100 40:2300 
1 8:2000 120:1800 
1 23:2300 99:1100 
1 23:2300 71:2200 
-0.0009765625 82:400 157:2500 
-0.0009765625 106:1600 117:500 144:2500 148:2500 
-0.0009765625 51:2500 91:1400 174:600 
-0.0009765625 2:1900 45:1200 76:1800 97:700 100:2400 107:800 124:500 
-0.0009765625 9:1200 31:2300 100:1800 121:700 126:700 138:1400 143:1400 144:1400 166:1700 
-0.0009765625 9:1200 63:900 89:1800 111:1400 142:1400 148:1400 164:1700 
-0.0009765625 9:1600 27:1800 36:2300 59:1200 162:700 
-0.0009765625 16:2400 54:1200 57:1200 74:1600 98:500 100:800 116:1600 123:1200 132:800 141:800 
-0.0009765625 14:2000 43:1200 63:1200 82:1400 94:700 105:1200 118:1600 159:700 
-0.0009765625 146:2500 150:800 
-0.0009765625 36:2300 66:2400 69:2500 91:1800 103:1200 151:0 154:700 172:800 
-0.0009765625 65:1000 81:400 116:500 143:2500 147:2500 148:2500 158:250 
-0.0009765625 24:1000 131:2500 146:2500 147:2500 
-0.0009765625 117:1600 168:1700 
-0.0009765625 21:2200 73:1900 81:2000 85:1400 88:1700 143:800 161:700 
-0.0009765625 116:1600 164:1700 
-0.0009765625 22:2000 29:2000 43:1200 110:1600 125:1200 128:500 168:1700 
-0.0009765625 7:1700 40:2300 62:1200 102:2400 
-0.0009765625 28:700 174:2500 
-0.0009765625 15:1700 55:2500 57:2500 87:1800 89:2100 97:1000 106:300 124:250 128:700 
-0.0009765625 1:2200 42:1400 94:1700 96:700 144:600 173:700 
-0.0009765625 37:1700 147:1700 172:600 
-0.0009765625 16:2400 23:2200 38:2200 69:2500 150:0 
-0.0009765625 21:2100 38:1900 45:2500 50:2500 51:2500 92:1900 112:200 136:500 143:500 151:200 
-0.0009765625 25:2300 100:800 114:1600 165:1700 
-0.0009765625 7:2300 29:2200 41:800 74:2100 78:1600 109:1400 149:1400 150:100 153:800 
-0.0009765625 2:2100 9:1200 13:2000 39:2300 70:1800 86:2100 96:200 
-0.0009765625 4:2000 61:1400 
-0.0009765625 129:2500 175:400 
-0.0009765625 148:2500 165:600 
-0.0009765625 45:400 111:500 123:800 133:2500 137:2500 150:800 175:400 
-0.0009765625 25:400 39:2400 79:950 104:1600 106:1600 111:500 129:2500 144:2500 152:800 
-0.0009765625 26:0 37:2200 44:2500 59:2500 87:1800 96:1000 149:500 164:1800 
-0.0009765625 8:2000 54:1200 79:2100 116:1600 136:800 
-0.0009765625 16:1400 39:2300 70:1800 75:2100 109:1400 137:1400 167:1700 
-0.0009765625 28:1900 52:1200 56:1600 71:2200 108:1200 111:1600 153:700 158:700 
-0.0009765625 19:1800 75:0 76:2500 104:1600 106:1600 124:800 130:2500 149:2500 
-0.0009765625 9:1600 20:1800 37:1700 38:2200 96:500 163:700 
-0.0009765625 91:1800 118:1600 164:1700 170:800 
-0.0009765625 31:2300 52:700 70:1800 134:1400 149:1400 175:1000 
-0.0009765625 55:1200 64:2200 86:2100 96:200 101:2200 114:1400 134:1400 
-0.0009765625 8:1100 38:1900 46:2500 58:2500 60:2500 131:500 161:100 166:1800 171:600 
-0.0009765625 46:2500 49:2500 52:2500 77:1900 85:1800 110:200 
-0.0009765625 7:1600 64:1000 132:2500 136:2500 
-0.0009765625 43:1300 64:1300 96:1800 
-0.0009765625 86:900 88:1400 96:1000 111:500 113:500 131:600 153:2500 155:2500 165:1600 171:1000 
-0.0009765625 22:2000 37:1700 45:1200 53:1600 81:2000 100:800 111:1600 121:1200 167:1700 173:800 
-0.0009765625 18:2200 39:2000 65:2400 90:1700 114:1600 121:1200 156:700 161:700 165:1700 171:800 
-0.0009765625 81:1400 146:1400 170:1000 
-0.0009765625 2:2100 48:200 53:1800 74:2100 147:1400 159:500 
-0.0009765625 12:1500 22:2000 23:2200 39:2000 82:1400 134:800 
-0.0009765625 4:2000 84:1400 148:800 164:1700 
-0.0009765625 83:1800 97:1000 142:500 
-0.0009765625 85:1500 133:1400 173:1000 
-0.0009765625 71:2200 79:2100 110:1600 154:700 163:700 
-0.0009765625 9:300 43:2400 51:2500 54:2500 114:200 144:500 
-0.0009765625 20:2100 110:500 140:2500 
-0.0009765625 2:1000 7:2100 24:2200 46:1200 90:1700 109:1600 172:800 
-0.0009765625 9:1600 33:2300 61:1400 
-0.0009765625 57:1000 119:1400 135:1400 167:1700 
-0.0009765625 4:2000 5:1600 63:1200 66:2400 108:1200 139:800 163:700 174:800 
-0.0009765625 94:1900 164:1800 
-0.0009765625 34:2300 51:1200 75:1600 77:2200 81:2000 102:1000 125:1200 150:0 
-0.0009765625 68:800 88:800 103:2100 133:2500 148:2500 149:2500 
-0.0009765625 39:2300 75:2100 86:2100 96:200 150:100 165:1700 
-0.0009765625 19:400 47:2500 51:2500 137:500 
-0.0009765625 11:1000 15:2300 82:1400 
-0.0009765625 49:1200 67:2200 78:2200 90:1700 100:800 125:1200 137:800 
-0.0009765625 41:2400 44:2500 111:200 118:200 
-0.0009765625 1:1200 22:2000 73:1900 76:2200 158:700 
-0.0009765625 43:700 106:700 162:2500 
-0.0009765625 81:1100 101:300 119:2400 125:2500 
-0.0009765625 25:2300 45:1200 98:500 103:1200 104:1200 110:1600 120:1600 160:700 174:800 
-0.0009765625 20:1800 33:2300 36:2300 50:1200 62:1200 106:1400 126:1200 164:1700 166:1700 
-0.0009765625 29:2000 45:1200 53:1600 60:1200 106:1400 115:1600 144:800 149:800 
-0.0009765625 9:200 11:1800 66:350 94:2500 96:2200 
-0.0009765625 7:2100 28:1900 69:2500 76:2200 142:800 163:700 
-0.0009765625 20:2000 35:2000 73:1900 88:1600 113:1400 134:1400 135:1400 156:800 
-0.0009765625 53:1600 71:2200 106:1400 
-0.0009765625 7:1600 10:100 121:2500 125:2500 129:1000 143:1000 175:700 
-0.0009765625 49:1200 58:1800 59:1200 65:2400 66:2400 72:1700 102:1000 
-0.0009765625 27:2400 41:2400 108:300 121:250 
-0.0009765625 8:800 41:200 128:2500 135:2500 174:400 
-0.0009765625 118:500 142:600 157:2500 161:1400 
-0.0009765625 20:500 56:2500 58:2500 62:2500 103:1800 
-0.0009765625 25:2300 81:2000 102:1000 173:800 
-0.0009765625 78:2200 167:1700 
-0.0009765625 4:1450 22:1300 31:2300 37:1200 74:2100 83:1900 136:1400 137:1400 163:500 167:1700 
-0.0009765625 44:2500 55:2500 84:1800 134:500 149:500 175:600 
-0.0009765625 56:1900 107:2500 128:2500 144:1700 166:500 
-0.0009765625 21:2200 72:1700 73:1900 75:1600 81:2000 174:800 
-0.0009765625 22:2300 55:2500 113:200 151:200 
-0.0009765625 51:1200 67:2200 68:2200 69:2500 167:1700 170:800 175:800 
-0.0009765625 58:1800 71:2200 75:1600 127:1500 160:700 
-0.0009765625 114:2500 162:650 
-0.0009765625 5:2100 39:2400 50:400 76:2200 123:2500 169:700 
-0.0009765625 54:1200 66:2400 71:2200 126:1200 145:800 159:700 166:1700 
-0.0009765625 31:2300 112:1400 142:1400 164:1700 
-0.0009765625 73:1900 113:1400 114:1400 130:1400 133:1400 157:800 
-0.0009765625 5:2100 29:900 98:600 119:2400 124:2500 137:1000 156:650 159:1300 
-0.0009765625 10:1200 169:2500 171:2500 
-0.0009765625 11:1000 18:2200 43:1200 66:2400 77:2200 94:700 109:1600 126:1200 
-0.0009765625 63:650 109:700 154:2500 164:1600 
-0.0009765625 148:600 156:2500 165:1600 
-0.0009765625 29:2200 79:1400 135:1400 150:100 165:1700 
-0.0009765625 22:2000 47:1200 74:1600 99:800 111:1600 
-0.0009765625 30:2200 53:1600 105:1200 159:700 
-0.0009765625 12:2200 22:2300 54:2500 61:2500 65:600 102:200 129:500 167:1800 172:600 
-0.0009765625 56:1600 58:1800 68:2200 174:800 
-0.0009765625 64:2400 69:2500 72:1700 90:1700 106:1400 149:800 156:700 
-0.0009765625 32:2300 69:2500 83:1400 152:0 
-0.0009765625 22:2000 68:2200 81:2000 145:800 
-0.0009765625 11:400 34:1000 46:400 57:400 135:2500 140:2500 145:2500 163:250 
-0.0009765625 1:2000 56:600 75:2100 108:1100 115:1400 171:1000 
-0.0009765625 21:1800 28:2200 55:1200 99:1200 150:100 155:800 169:1000 171:1000 
-0.0009765625 12:1500 28:1900 50:1200 54:1200 67:2200 85:1400 116:1600 
-0.0009765625 61:1500 74:2100 88:1600 146:1400 
-0.0009765625 5:1600 9:1600 33:2300 46:1200 56:1600 82:1400 95:700 111:1600 113:1600 
-0.0009765625 38:1900 53:2500 91:1400 
-0.0009765625 5:1600 15:2300 37:1700 41:700 55:1200 71:2200 123:1200 155:700 
-0.0009765625 9:1600 27:1800 34:2300 44:1200 62:1200 78:2200 107:1200 110:1600 138:800 
-0.0009765625 16:1700 44:400 72:1500 106:1300 119:2400 124:2500 152:500 
-0.0009765625 3:500 18:1600 126:800 136:2500 137:2500 
-0.0009765625 12:1500 13:2200 60:1200 69:2500 104:1200 110:1600 116:1600 136:800 173:800 
-0.0009765625 28:2200 86:2100 150:100 
-0.0009765625 17:2000 67:2200 79:2100 82:1400 96:500 118:1600 126:1200 146:800 171:800 175:800 
-0.0009765625 11:1000 33:2300 49:1200 66:2400 119:1600 143:800 
-0.0009765625 29:2000 65:2400 89:1700 98:500 108:1200 110:1600 
-0.0009765625 61:1500 64:2200 102:1400 157:800 
-0.0009765625 60:400 105:1600 130:2500 147:2500 
-0.0009765625 19:2200 80:1800 127:1500 
-0.0009765625 12:1500 14:2000 18:2200 59:1200 64:2400 71:2200 92:700 94:700 130:800 
-0.0009765625 62:2500 76:1900 83:1800 93:1900 101:200 122:250 161:100 166:1800 
-0.0009765625 15:2300 77:2200 
-0.0009765625 2:2100 31:2300 129:1400 141:1400 
-0.0009765625 40:1100 44:2500 49:2500 90:2100 129:500 168:1800 
-0.0009765625 10:2400 52:1200 
-0.0009765625 34:1800 152:300 160:2500 
-0.0009765625 28:800 81:900 133:750 160:2500 163:2500 
-0.0009765625 25:2300 29:2000 116:1600 
-0.0009765625 42:2400 97:1000 134:500 
-0.0009765625 23:2200 80:1800 97:500 106:1400 118:1600 149:800 163:700 167:1700 
-0.0009765625 6:2200 11:1600 23:2100 53:1800 85:1500 88:1600 132:1400 141:1400 
-0.0009765625 8:2000 18:2200 28:1900 52:1200 90:1700 98:500 102:1000 120:1600 170:800 
-0.0009765625 3:2400 9:1600 20:1800 40:2300 76:2200 143:800 
-0.0009765625 7:2300 84:1200 96:200 145:1400 174:1000 
-0.0009765625 18:2200 23:2200 30:2200 66:2400 113:1600 114:1600 152:0 156:700 163:700 172:800 
-0.0009765625 52:1200 115:1600 123:1200 162:700 175:800 
-0.0009765625 22:2000 29:2000 36:2300 125:1200 160:700 
-0.0009765625 5:1600 64:2400 66:2400 78:2200 
-0.0009765625 17:1700 62:1200 102:2400 104:800 166:1300 
-0.0009765625 50:2500 72:1800 73:2200 103:1800 130:500 166:1800 
-0.0009765625 34:2300 37:1700 61:1400 171:800 173:800 
-0.0009765625 40:2300 42:1400 46:1200 73:2200 75:1300 100:2400 124:500 139:600 160:50 
-0.0009765625 46:1200 68:2200 128:500 165:1700 
-0.0009765625 32:1200 72:1400 94:1300 97:1300 142:200 174:2500 
-0.0009765625 7:1600 47:400 66:1000 132:2500 147:2500 170:400 
-0.0009765625 6:1700 17:2200 38:2500 46:400 
-0.0009765625 15:1700 54:2500 62:2500 88:2100 93:1900 146:500 
-0.0009765625 27:1600 31:2300 144:1400 165:1700 
-0.0009765625 13:2200 130:2500 159:250 
-0.0009765625 21:2200 51:1200 68:2200 113:1600 131:800 150:0 167:1700 
-0.0009765625 10:2400 21:2200 39:2000 75:1600 108:1200 115:1600 
-0.0009765625 37:300 40:1700 131:2500 133:2500 
-0.0009765625 4:2000 18:2200 39:2000 49:1200 54:1200 126:1200 173:800 
-0.0009765625 16:1400 26:2300 90:800 101:2200 102:1400 138:1400 172:1000 
-0.0009765625 11:600 29:2000 71:1400 93:1300 145:200 157:600 172:2500 
-0.0009765625 10:2400 74:1600 117:1600 121:1200 175:800 
-0.0009765625 23:2200 25:2300 27:1800 42:1100 53:1600 74:1600 109:1600 157:700 159:700 
-0.0009765625 52:1200 79:2100 110:1600 138:800 
-0.0009765625 29:1200 134:2500 145:2500 147:2500 
-0.0009765625 15:2300 24:2200 35:800 57:1200 71:2200 115:1600 
-0.0009765625 44:1200 76:2200 113:1600 
-0.0009765625 11:1500 19:1900 150:500 
-0.0009765625 10:2400 17:2000 49:1200 51:1200 68:2200 75:1600 96:500 141:800 
-0.0009765625 54:2500 134:500 
-0.0009765625 42:600 126:2500 127:2500 167:1500 
-0.0009765625 7:2300 64:2200 134:1400 159:500 174:1000 
-0.0009765625 11:1600 47:400 88:1600 117:1400 118:1400 119:1400 132:1400 134:1400 155:800 166:1700 
-0.0009765625 45:2500 164:1800 165:1800 
-0.0009765625 71:2200 94:1700 95:1700 
-0.0009765625 46:650 154:2500 
-0.0009765625 2:100 124:800 129:2500 130:2500 
-0.0009765625 44:2500 45:2500 70:1800 110:200 160:100 174:600 
-0.0009765625 24:2200 36:2300 49:1200 56:1600 64:2400 76:2200 82:1400 145:800 
-0.0009765625 3:2400 15:2300 56:1600 68:2200 138:800 158:700 
-0.0009765625 15:2300 70:1700 85:1400 117:1600 150:0 161:700 175:800 
-0.0009765625 6:2050 85:400 105:2500 150:1000 161:100 
-0.0009765625 19:400 54:2500 59:2500 82:1800 103:1800 146:500 154:650 
-0.0009765625 26:2300 31:2300 61:1500 82:800 84:1200 131:1400 148:1400 
-0.0009765625 2:2100 14:2100 52:700 120:1400 142:1400 159:500 169:1000 
-0.0009765625 109:700 153:2500 
-0.0009765625 75:2100 82:800 144:1400 
-0.0009765625 9:300 18:1600 41:2400 52:2500 95:1900 134:500 
-0.0009765625 27:700 63:650 153:2500 155:2500 
-0.0009765625 4:2000 58:1800 63:1200 121:1200 147:800 152:0 167:1700 
-0.0009765625 23:2100 71:1300 72:1700 74:2100 101:2200 134:1400 146:1400 162:500 
-0.0009765625 9:300 28:1300 48:2500 70:1800 76:1900 94:1900 97:1000 151:200 160:100 168:1800 
-0.0009765625 20:2100 77:2500 139:2500 172:400 
-0.0009765625 37:1500 52:400 103:2200 104:1300 109:400 123:2500 134:1000 136:1000 161:1300 
-0.0009765625 2:450 20:2500 65:1200 106:1300 119:2400 126:2500 134:1000 142:1000 168:1500 
-0.0009765625 16:2400 50:1200 72:1700 80:1800 
-0.0009765625 34:2300 51:1200 61:1400 123:1200 173:800 
-0.0009765625 81:400 84:400 88:800 108:1600 139:2500 140:2500 152:800 154:500 
-0.0009765625 10:1800 15:2100 53:1800 83:1900 101:2200 157:800 175:1000 
-0.0009765625 5:700 60:2500 
-0.0009765625 109:700 159:2500 
-0.0009765625 11:1600 48:200 80:1600 101:2200 117:1400 172:1000 
-0.0009765625 2:2100 7:2300 38:1600 128:900 153:800 
-0.0009765625 11:2000 145:600 162:1400 
-0.0009765625 32:2300 77:2200 81:2000 83:1400 88:1700 97:500 113:1600 128:500 133:800 151:0 
-0.0009765625 68:2200 89:1700 113:1600 115:1600 137:800 158:700 160:700 172:800 
-0.0009765625 4:1250 63:400 64:1400 157:600 174:2500 175:2500 
-0.0009765625 2:2100 22:1300 23:2100 26:2300 63:900 87:500 135:1400 136:1400 156:800 167:1700 
-0.0009765625 18:2000 28:2200 35:2000 88:1600 105:1100 170:1000 
-0.0009765625 86:2100 106:1200 149:1400 156:800 
-0.0009765625 3:2400 16:2400 58:1800 60:1200 87:1200 126:1200 166:1700 173:800 
-0.0009765625 19:2200 34:2300 40:2300 54:1200 148:800 
-0.0009765625 3:2400 5:1600 23:2200 29:2000 47:1200 60:1200 68:2200 72:1700 109:1600 154:700 
-0.0009765625 13:2000 26:2300 73:1900 101:2200 110:1400 128:900 157:800 159:500 173:1000 
-0.0009765625 24:2200 36:2300 70:1700 126:1200 147:800 
-0.0009765625 78:2500 138:2500 
-0.0009765625 12:2200 22:2300 51:2500 76:1900 85:1800 124:250 175:600 
-0.0009765625 88:1600 101:2200 122:700 138:1400 175:1000 
-0.0009765625 32:1100 47:2500 50:2500 72:1800 140:500 160:100 165:1800 
-0.0009765625 25:2300 75:1600 163:700 175:800 
-0.0009765625 45:1200 61:1400 65:2400 105:1200 120:1600 133:800 142:800 
-0.0009765625 47:2500 88:2100 164:1800 
-0.0009765625 5:2000 36:2200 113:2500 116:2500 138:800 
-0.0009765625 13:2200 66:1000 72:600 104:1600 123:800 131:2500 136:2500 137:2500 171:400 
-0.0009765625 13:2000 15:2100 59:0 75:2100 135:1400 146:1400 173:1000 
-0.0009765625 1:1900 35:2500 54:700 139:1200 149:1200 
-0.0009765625 24:2200 31:2300 34:2300 49:1200 62:1200 71:2200 87:1200 108:1200 123:1200 124:1200 
-0.0009765625 42:1200 60:700 64:2200 95:1900 114:1400 118:1400 129:1400 146:1400 150:100 
-0.0009765625 2:200 28:1300 44:2500 46:2500 57:2500 61:2500 78:1900 135:500 145:500 174:600 
-0.0009765625 5:2200 65:1800 95:1900 101:2200 158:500 173:1000 
-0.0009765625 5:2200 23:2100 26:2300 67:2000 68:1300 75:2100 128:900 157:800 
-0.0009765625 11:1600 38:1600 57:1000 91:1600 99:1200 104:1100 112:1400 136:1400 139:1400 165:1700 
-0.0009765625 3:1300 77:2100 89:1300 100:700 141:300 150:2500 
-0.0009765625 13:2200 24:2200 30:2200 37:1700 63:1200 69:2500 102:1000 111:1600 136:800 173:800 
-0.0009765625 19:1800 22:1300 37:1200 101:2200 130:1400 
-0.0009765625 95:500 104:2500 127:800 138:1700 151:1000 
-0.0009765625 35:1500 37:2200 48:2500 51:2500 65:600 118:200 
-0.0009765625 155:2500 158:1400 
-0.0009765625 28:1000 99:2400 
-0.0009765625 24:2200 36:2300 85:1400 135:800 162:700 
-0.0009765625 5:2200 36:2300 51:800 57:1000 66:1900 135:1400 167:1700 
-0.0009765625 28:1300 35:1500 54:2500 57:2500 82:1800 97:1000 110:200 138:500 154:650 174:600 
-0.0009765625 4:2000 20:1800 
-0.0009765625 63:1200 68:2200 71:2200 105:1200 138:800 154:700 
-0.0009765625 89:1800 112:1400 135:1400 143:1400 157:800 170:1000 
-0.0009765625 58:400 120:200 142:2500 147:2500 150:800 157:500 174:400 
-0.0009765625 23:1400 49:2500 85:1800 88:2100 129:500 163:100 
-0.0009765625 6:400 21:2100 52:2500 53:2500 84:1800 92:1900 95:1900 126:250 134:500 169:600 
-0.0009765625 41:800 50:200 64:2200 88:1600 102:1400 132:1400 138:1400 150:100 161:500 
-0.0009765625 48:650 147:600 156:2500 
-0.0009765625 28:1300 46:2500 57:2500 77:1900 122:250 157:650 163:100 166:1800 167:1800 172:600 
-0.0009765625 52:400 106:1600 131:2500 134:2500 
-0.0009765625 50:2500 55:2500 83:1800 102:200 132:500 
-0.0009765625 41:800 161:2500 174:400 
-0.0009765625 105:2500 108:2500 
-0.0009765625 17:2000 26:2000 29:2000 53:1600 68:2200 90:1700 96:500 140:800 164:1700 
-0.0009765625 44:1200 53:1600 64:2400 86:1500 116:1600 152:0 
-0.0009765625 5:2200 21:1800 24:1500 29:2200 40:1500 95:1900 112:1400 137:1400 156:800 169:1000 
-0.0009765625 117:400 127:2500 152:500 
-0.0009765625 3:2400 11:1000 33:2300 35:800 59:1200 62:1200 70:1700 161:700 
-0.0009765625 9:1600 42:1100 71:2200 80:1800 87:1200 98:500 100:800 116:1600 117:1600 159:700 
-0.0009765625 49:1200 91:1800 111:1600 122:1200 161:700 
-0.0009765625 53:2500 70:1800 92:1900 127:250 153:650 
-0.0009765625 20:2000 23:2100 63:900 80:1600 86:2100 95:1900 149:1400 166:1700 
-0.0009765625 39:2400 106:2500 132:1700 
-0.0009765625 43:2400 48:2500 92:1900 98:1000 109:200 123:250 142:500 
-0.0009765625 127:2500 165:1500 
-0.0009765625 12:2200 45:2500 46:2500 54:2500 79:1200 83:1800 95:1900 116:200 
-0.0009765625 9:1600 106:1400 118:1600 138:800 
-0.0009765625 11:1000 52:1200 64:2400 69:2500 70:1700 76:2200 78:2200 103:1200 107:1200 169:800 
-0.0009765625 45:400 95:1300 96:1300 113:1000 124:200 158:450 166:1400 171:2500 
-0.0009765625 78:2500 105:2500 
-0.0009765625 23:2100 26:2300 131:1400 170:1000 
-0.0009765625 34:1800 65:2300 104:950 113:2500 163:650 
-0.0009765625 114:2500 138:800 
-0.0009765625 5:700 45:2500 49:2500 56:2500 99:300 105:300 170:600 
-0.0009765625 114:400 123:2500 
-0.0009765625 15:2100 17:2000 20:2000 40:1500 101:2200 109:1400 
-0.0009765625 11:1600 39:2300 69:1600 72:1700 128:900 141:1400 169:1000 
-0.0009765625 44:1200 56:1600 65:2400 100:800 154:700 
-0.0009765625 12:1500 19:2200 71:2200 79:2100 86:1500 100:800 115:1600 117:1600 118:1600 158:700 
-0.0009765625 56:1200 94:1700 101:2400 
-0.0009765625 72:1800 93:1900 
-0.0009765625 32:1400 129:2500 145:2500 165:600 
-0.0009765625 64:1300 102:1300 152:2500 
-0.0009765625 11:1000 24:2200 25:2300 26:2000 67:2200 83:1400 102:1000 124:1200 149:800 175:800 
-0.0009765625 1:1200 10:2400 17:2000 26:2000 30:2200 41:700 58:1800 170:800 
-0.0009765625 28:1900 31:2300 63:1200 64:2400 
-0.0009765625 3:2400 22:2000 49:1200 65:2400 
-0.0009765625 27:2400 45:2500 55:2500 62:2500 136:500 
-0.0009765625 7:2100 15:2300 30:2200 38:2200 63:1200 99:800 106:1400 149:800 155:700 
-0.0009765625 4:2000 13:2200 24:2200 113:1600 165:1700 
-0.0009765625 94:800 143:2500 
-0.0009765625 11:1000 15:2300 39:2000 60:1200 81:2000 92:700 113:1600 168:1700 174:800 
-0.0009765625 40:2300 53:1600 71:2200 90:1700 138:800 171:800 
-0.0009765625 5:2100 49:400 72:1500 73:2000 121:2500 136:1000 162:1300 
-0.0009765625 8:2000 73:1900 108:1200 112:1600 119:1600 174:800 
-0.0009765625 15:2000 17:2100 44:400 84:700 124:2500 144:1000 163:1300 
-0.0009765625 53:1600 63:1200 67:2200 77:2200 91:1800 133:800 168:1700 
-0.0009765625 39:2400 59:400 160:1300 
-0.0009765625 7:1600 59:400 83:400 94:800 126:800 133:2500 137:2500 140:2500 142:2500 145:2500 
-0.0009765625 31:2400 41:800 55:250 68:300 121:1400 131:750 160:2500 163:2500 
-0.0009765625 54:2500 56:2500 59:2500 83:1800 91:1400 139:500 144:500 173:600 174:600 
-0.0009765625 3:2400 10:2400 20:1800 42:1100 68:2200 126:1200 134:800 152:0 156:700 
-0.0009765625 6:2050 35:700 104:2500 119:200 128:2500 
-0.0009765625 110:2500 111:2500 164:400 
-0.0009765625 66:2400 75:1600 80:1800 98:500 108:1200 124:1200 
-0.0009765625 19:2200 24:2200 42:1100 150:0 
-0.0009765625 79:2100 114:1600 
-0.0009765625 10:2400 22:2000 28:1900 38:2200 53:1600 69:2500 174:800 
-0.0009765625 24:2200 27:1800 59:1200 116:1600 129:800 132:800 164:1700 
-0.0009765625 15:1800 26:800 86:900 94:1000 98:1000 103:1000 153:2500 159:1400 164:1600 
-0.0009765625 69:1900 78:1800 99:2400 132:600 164:1300 
-0.0009765625 5:1600 26:2000 27:1800 52:1200 90:1700 103:1200 112:1600 118:1600 121:1200 168:1700 
-0.0009765625 10:1900 17:1900 70:1400 112:2500 116:2500 139:800 158:650 
-0.0009765625 6:2200 17:2000 29:2200 38:1600 49:1000 52:700 164:1700 167:1700 171:1000 175:1000 
-0.0009765625 13:2200 52:1200 67:2200 107:1200 170:800 
-0.0009765625 1:2200 51:1200 58:1200 100:2400 139:600 146:600 151:200 152:200 
-0.0009765625 1:2000 20:2000 61:1500 64:2200 85:1500 149:1400 159:500 
-0.0009765625 32:1400 100:200 139:2500 146:2500 
-0.0009765625 59:1200 81:2000 108:1200 174:800 
-0.0009765625 145:2500 147:2500 
-0.0009765625 3:250 21:2100 22:2300 37:2200 42:2400 83:1800 96:1000 149:500 154:650 
-0.0009765625 20:1800 34:2300 52:1200 65:2400 69:2500 70:1700 81:2000 99:800 162:700 172:800 
-0.0009765625 112:2500 162:650 
-0.0009765625 16:2400 37:1700 38:2200 45:1200 73:1900 100:800 105:1200 146:800 154:700 
-0.0009765625 17:2000 34:2300 57:1200 
-0.0009765625 55:2500 98:1000 134:500 
-0.0009765625 83:1800 88:2100 174:600 
-0.0009765625 45:2500 52:2500 61:2500 87:1800 100:300 105:300 167:1800 174:600 
-0.0009765625 18:1600 29:800 45:2500 62:2500 96:1000 100:300 
-0.0009765625 17:2000 26:2000 27:1800 84:1400 88:1700 119:1600 
-0.0009765625 7:1600 15:2000 89:1000 119:2400 124:2500 151:500 152:500 163:1300 
-0.0009765625 42:2400 54:2500 61:2500 101:200 
-0.0009765625 16:2400 44:1200 131:800 
-0.0009765625 128:900 154:2500 164:1600 
-0.0009765625 11:1500 13:2200 41:600 104:1300 133:1000 163:1300 166:1500 172:700 
-0.0009765625 27:2400 54:2500 63:2500 116:200 118:200 144:500 
-0.0009765625 3:2400 19:2200 36:2300 89:1700 
-0.0009765625 21:1700 24:2000 72:1500 104:1300 126:2500 143:1000 150:500 157:650 162:1300 
-0.0009765625 42:2400 60:2500 109:200 138:500 151:200 161:100 
-0.0009765625 33:1800 125:2500 126:2500 153:650 
-0.0009765625 37:2200 57:2500 61:2500 93:1900 95:1900 149:500 158:100 160:100 
-0.0009765625 28:1300 57:2500 61:2500 
-0.0009765625 21:1400 22:600 84:400 103:2100 112:500 124:800 128:2500 132:2500 135:2500 
-0.0009765625 4:2000 28:1900 47:1200 58:1800 74:1600 89:1700 122:1200 168:1700 170:800 171:800 
-0.0009765625 35:1500 50:2500 
-0.0009765625 10:2400 26:2000 54:1200 104:1200 
-0.0009765625 4:2000 28:1900 38:2200 112:1600 116:1600 122:1200 155:700 164:1700 169:800 
-0.0009765625 21:2200 44:1200 88:1700 113:1600 123:1200 
-0.0009765625 33:1800 78:2200 109:400 119:2400 121:2500 162:1300 165:1500 
-0.0009765625 9:1600 18:2200 23:2200 29:2000 30:2200 36:2300 40:2300 52:1200 102:1000 
-0.0009765625 17:2000 46:400 53:1800 95:1900 121:700 128:900 141:1400 155:800 171:1000 
-0.0009765625 30:2100 39:2300 41:800 86:2100 101:2200 119:1400 136:1400 139:1400 169:1000 172:1000 
-0.0009765625 67:2200 70:1700 79:2100 171:800 
-0.0009765625 2:1000 16:2400 41:700 71:2200 117:1600 124:1200 141:800 154:700 166:1700 174:800 
-0.0009765625 21:1400 59:400 70:1400 111:500 141:2500 144:2500 
-0.0009765625 41:1400 93:1700 100:2400 107:800 149:600 167:1300 
-0.0009765625 8:2000 21:2200 25:2300 32:2300 50:1200 69:2500 77:2200 119:1600 131:800 168:1700 
-0.0009765625 14:2100 29:2200 60:700 80:1600 139:1400 144:1400 
-0.0009765625 28:1100 143:2500 
-0.0009765625 56:200 70:1400 111:2500 113:2500 118:2500 
-0.0009765625 6:2200 60:700 68:1300 89:1800 90:800 101:2200 117:1400 133:1400 
-0.0009765625 39:2000 64:2400 76:2200 77:2200 100:800 113:1600 114:1600 122:1200 
-0.0009765625 5:2200 15:2100 50:200 100:1800 101:2200 130:1400 156:800 
-0.0009765625 18:2200 21:2200 58:1800 77:2200 162:700 
-0.0009765625 12:1500 60:1200 64:2400 68:2200 92:700 113:1600 140:800 143:800 161:700 
-0.0009765625 10:1200 96:1300 131:200 172:2500 
-0.0009765625 9:1600 19:2200 28:1900 54:1200 78:2200 99:800 132:800 
-0.0009765625 22:2000 30:2200 39:2000 65:2400 122:1200 127:1500 168:1700 172:800 
-0.0009765625 39:2000 40:2300 47:1200 57:1200 85:1400 91:1800 119:1600 164:1700 
-0.0009765625 17:2000 23:2200 45:1200 68:2200 91:1800 103:1200 111:1600 138:800 
-0.0009765625 9:1600 29:2000 40:2300 42:1100 52:1200 55:1200 114:1600 128:500 157:700 167:1700 
-0.0009765625 65:1800 67:2000 80:1600 83:1900 92:500 106:1200 109:1400 137:1400 149:1400 157:800 
-0.0009765625 31:2300 52:1200 58:1800 74:1600 102:1000 
-0.0009765625 2:2100 16:1400 28:2200 80:1600 83:1900 113:1400 115:1400 151:100 171:1000 
-0.0009765625 2:1000 37:1700 38:2200 58:1800 62:1200 80:1800 88:1700 104:1200 119:1600 164:1700 
-0.0009765625 20:2000 39:2300 41:800 53:1800 55:1200 65:1800 99:1200 120:1400 132:1400 174:1000 
-0.0009765625 1:2000 28:2200 51:800 84:1200 85:1500 94:600 101:2200 112:1400 114:1400 118:1400 
-0.0009765625 71:2200 87:1200 98:500 139:800 164:1700 
-0.0009765625 35:2000 75:2100 83:1900 92:500 94:600 130:1400 151:100 
-0.0009765625 51:2500 56:2500 
-0.0009765625 2:2100 9:1200 33:2000 49:1000 73:1900 101:2200 126:700 160:500 162:500 
-0.0009765625 32:2300 35:800 37:1700 78:2200 90:1700 145:800 174:800 
-0.0009765625 1:100 3:500 13:2200 19:1800 22:600 128:2500 139:2500 141:2500 
-0.0009765625 39:2300 90:800 101:2200 117:1400 131:1400 158:500 
-0.0009765625 16:2400 31:2300 49:1200 59:1200 83:1400 87:1200 98:500 110:1600 144:800 
-0.0009765625 34:2300 37:1700 
-0.0009765625 29:2000 50:1200 69:2500 71:2200 88:1700 105:1200 111:1600 118:1600 161:700 165:1700 
-0.0009765625 41:1000 79:1700 102:1300 152:2500 154:100 
-0.0009765625 39:2400 54:400 132:2500 144:2500 156:500 175:400 
-0.0009765625 33:2300 42:1100 62:1200 64:2400 101:1000 112:1600 124:1200 146:800 155:700 
-0.0009765625 80:1800 113:1600 114:1600 121:1200 166:1700 
-0.0009765625 33:2300 36:2300 79:2100 99:800 129:800 
-0.0009765625 33:2300 57:1200 84:1400 90:1700 118:1600 167:1700 
-0.0009765625 59:250 105:700 158:2500 161:2500 
-0.0009765625 10:1800 75:2100 80:1600 94:600 133:1400 147:1400 
-0.0009765625 77:2500 140:2500 
-0.0009765625 29:900 124:2500 159:1300 165:1500 
-0.0009765625 12:1500 15:2300 24:2200 28:1900 29:2000 49:1200 87:1200 104:1200 128:500 
-0.0009765625 27:1800 76:2200 86:1500 93:700 111:1600 117:1600 119:1600 146:800 
-0.0009765625 3:2400 86:1500 89:1700 
-0.0009765625 51:800 74:2100 102:1400 107:1100 132:1400 142:1400 
-0.0009765625 101:2200 140:1400 157:800 
-0.0009765625 103:2200 106:1300 163:1300 
-0.0009765625 13:2200 25:2300 74:1600 93:700 130:800 151:0 165:1700 
-0.0009765625 30:2200 71:2200 79:2100 110:1600 128:500 132:800 154:700 
-0.0009765625 51:2500 60:2500 88:2100 96:1000 110:200 121:250 139:500 162:100 
-0.0009765625 93:2500 98:2200 155:700 
-0.0009765625 35:1500 48:2500 54:2500 89:2100 93:1900 100:300 128:700 131:500 146:500 148:500 
-0.0009765625 19:2200 44:1200 80:1800 111:1600 117:1600 128:500 139:800 151:0 
-0.0009765625 20:700 152:2500 
-0.0009765625 17:1700 93:1700 166:1300 
-0.0009765625 6:2200 11:1600 34:2200 36:2300 70:1800 80:1600 131:1400 
-0.0009765625 12:1100 18:2000 40:1500 80:1600 95:1900 103:1700 117:1400 125:700 129:1400 137:1400 
-0.0009765625 17:2000 53:1800 73:1900 83:1900 138:1400 147:1400 175:1000 
-0.0009765625 46:1200 57:1200 111:1600 112:1600 119:1600 123:1200 125:1200 131:800 143:800 
-0.0009765625 90:2100 93:1900 113:200 
-0.0009765625 35:2000 67:2000 164:1700 
-0.0009765625 49:1000 69:1600 89:1800 97:0 101:2200 133:1400 167:1700 
-0.0009765625 1:2000 7:2300 30:2100 42:1200 79:1400 83:1900 94:600 99:1200 118:1400 
-0.0009765625 3:2400 15:2300 82:1400 106:1400 113:1600 133:800 142:800 143:800 166:1700 168:1700 
-0.0009765625 3:2400 63:1200 
-0.0009765625 23:2200 31:2300 40:2300 41:700 49:1200 66:2400 96:500 126:1200 145:800 149:800 
-0.0009765625 10:2400 63:1200 96:500 117:1600 131:800 137:800 170:800 
-0.0009765625 55:1200 77:2200 81:2000 127:1500 161:700 
-0.0009765625 7:1900 71:2400 
-0.0009765625 16:2400 41:700 67:2200 69:2500 111:1600 123:1200 
-0.0009765625 58:650 89:1400 155:2500 157:2500 
-0.0009765625 31:2300 32:2300 49:1200 65:2400 71:2200 76:2200 85:1400 89:1700 112:1600 171:800 
-0.0009765625 20:2000 28:2200 99:1200 111:1400 126:700 139:1400 
-0.0009765625 26:2000 60:1200 73:1900 80:1800 92:700 96:500 125:1200 
-0.0009765625 33:2300 35:800 37:1700 65:2400 73:1900 77:2200 121:1200 158:700 
-0.0009765625 122:2500 169:700 
-0.0009765625 3:2400 104:1200 158:700 174:800 
-0.0009765625 4:0 18:1600 51:400 93:800 118:500 130:2500 142:2500 147:2500 
-0.0009765625 51:2500 52:2500 58:2500 87:1800 100:300 105:300 111:200 172:600 
-0.0009765625 2:1000 10:2400 59:1200 145:800 166:1700 
-0.0009765625 120:2400 167:1500 
-0.0009765625 29:2000 113:1600 161:700 166:1700 
-0.0009765625 5:700 53:2500 61:2500 77:1900 89:2100 96:1000 123:250 129:500 156:650 166:1800 
-0.0009765625 40:1100 51:2500 52:2500 61:2500 70:1800 112:200 142:500 166:1800 
-0.0009765625 63:1200 67:2200 88:1700 
-0.0009765625 17:2000 37:1200 83:1900 133:1400 152:100 173:1000 
-0.0009765625 2:2100 41:800 85:1500 95:1900 153:800 166:1700 
-0.0009765625 40:2300 53:1600 90:1700 110:1600 118:1600 
-0.0009765625 30:2200 61:1400 75:1600 80:1800 90:1700 91:1800 155:700 156:700 
-0.0009765625 52:400 61:400 93:800 104:1600 129:2500 143:2500 
-0.0009765625 95:1700 100:2400 
-0.0009765625 31:2300 50:1200 59:1200 62:1200 105:1200 119:1600 150:0 159:700 
-0.0009765625 17:2000 52:1200 67:2200 153:700 159:700 165:1700 
-0.0009765625 7:2100 9:1600 38:2200 44:1200 114:1600 125:1200 149:800 152:0 155:700 164:1700 
-0.0009765625 36:2300 44:1200 70:1700 89:1700 104:1200 117:1600 123:1200 152:0 166:1700 
-0.0009765625 3:1400 155:2500 175:1000 
-0.0009765625 13:2000 17:2000 29:2200 34:2200 119:1400 128:900 140:1400 150:100 175:1000 
-0.0009765625 41:700 108:2500 127:800 149:1700 
-0.0009765625 9:1300 15:1700 41:1400 62:1200 77:1800 92:1700 101:2400 167:1300 175:700 
-0.0009765625 29:2200 54:700 100:1800 135:1400 140:1400 153:800 158:500 
-0.0009765625 21:2100 37:2200 72:1800 84:1800 99:300 151:200 168:1800 
-0.0009765625 13:2200 106:1600 116:500 131:2500 143:2500 165:600 
-0.0009765625 10:1800 100:1800 112:1400 131:1400 154:800 
-0.0009765625 26:2000 39:2000 56:1600 76:2200 82:1400 90:1700 119:1600 135:800 144:800 
-0.0009765625 22:2000 36:2300 93:700 125:1200 147:800 171:800 
-0.0009765625 12:1500 14:2000 51:1200 69:2500 
-0.0009765625 17:2200 51:400 56:1600 132:2500 
-0.0009765625 33:1100 43:2400 45:2500 131:500 133:500 165:1800 168:1800 
-0.0009765625 5:1600 13:2200 25:2300 46:1200 48:1200 54:1200 104:1200 119:1600 120:1600 161:700 
-0.0009765625 13:2000 57:1000 87:500 101:2200 105:1100 109:1400 115:1400 130:1400 144:1400 
-0.0009765625 52:700 53:1800 57:1000 70:1800 86:2100 102:1400 109:1400 117:1400 157:800 
-0.0009765625 45:2500 60:2500 72:1800 140:500 160:100 
-0.0009765625 29:2200 82:800 83:1900 104:1100 121:700 139:1400 144:1400 
-0.0009765625 38:1800 94:1700 102:2400 
-0.0009765625 29:2000 52:1200 64:2400 69:2500 77:2200 97:500 120:1600 135:800 156:700 
-0.0009765625 81:1100 124:2500 
-0.0009765625 20:1300 49:650 54:650 136:600 154:2500 159:1400 171:1000 
-0.0009765625 16:2400 18:2200 33:2300 76:2200 94:700 110:1600 
-0.0009765625 56:1600 108:1600 134:2500 139:2500 
-0.0009765625 8:2100 155:800 
-0.0009765625 2:1000 16:2400 21:2200 30:2200 37:1700 90:1700 104:1200 171:800 
-0.0009765625 18:2000 26:2300 157:800 168:1700 
-0.0009765625 4:2000 15:2300 17:2000 46:1200 112:1600 134:800 144:800 155:700 174:800 
-0.0009765625 1:1200 44:1200 56:1600 89:1700 91:1800 99:800 113:1600 119:1600 165:1700 
-0.0009765625 107:1600 134:2500 163:250 
-0.0009765625 28:1900 77:2200 82:1400 109:1600 119:1600 163:700 
-0.0009765625 20:2500 31:1700 60:400 72:1500 87:1600 106:1300 123:2500 139:1000 143:1000 
-0.0009765625 14:2000 66:2400 80:1800 82:1400 
-0.0009765625 35:800 49:1200 58:1800 99:800 110:1600 125:1200 140:800 155:700 163:700 
-0.0009765625 86:900 154:2500 173:1000 
-0.0009765625 18:1600 60:2500 78:1900 85:1800 
-0.0009765625 31:2300 86:2100 123:700 147:1400 
-0.0009765625 30:1300 32:1400 44:400 77:2500 124:800 128:2500 135:2500 148:2500 154:500 169:400 
-0.0009765625 14:1800 33:1800 92:700 120:2400 132:1000 148:1000 150:500 159:1300 
-0.0009765625 95:1900 103:1700 111:1400 127:1200 
-0.0009765625 78:2500 128:2500 
-0.0009765625 19:2200 34:2300 90:1700 91:1800 114:1600 165:1700 169:800 
-0.0009765625 32:2000 67:2000 145:1400 
-0.0009765625 110:2500 143:800 
-0.0009765625 2:2100 10:1800 29:2200 62:400 99:1200 109:1400 114:1400 130:1400 136:1400 
-0.0009765625 7:2100 13:2200 64:2400 76:2200 90:1700 118:1600 
-0.0009765625 61:2500 89:2100 124:250 
-0.0009765625 1:2000 33:2000 55:1200 75:2100 131:1400 145:1400 
-0.0009765625 10:2400 43:1200 76:2200 
-0.0009765625 32:2300 76:2200 167:1700 
-0.0009765625 10:2400 12:1500 38:2200 87:1200 164:1700 
-0.0009765625 29:1200 109:500 134:2500 138:2500 
-0.0009765625 32:2000 112:1400 146:1400 
-0.0009765625 16:2400 57:1200 84:1400 105:1200 107:1200 124:1200 163:700 171:800 
-0.0009765625 61:2500 148:500 166:1800 
-0.0009765625 42:900 118:2500 172:600 
-0.0009765625 2:1000 5:1600 56:1600 67:2200 79:2100 97:500 104:1200 118:1600 124:1200 168:1700 
-0.0009765625 33:2300 106:1400 117:1600 152:0 154:700 166:1700 167:1700 175:800 
-0.0009765625 64:1400 98:1300 99:700 125:200 174:2500 
-0.0009765625 48:1200 67:2200 87:1200 104:1200 106:1400 113:1600 152:0 160:700 167:1700 175:800 
-0.0009765625 38:400 56:800 71:1400 92:1300 148:200 174:2500 175:2500 
-0.0009765625 68:2200 108:1200 114:1600 
-0.0009765625 20:1900 24:1300 49:300 105:2500 146:1700 
-0.0009765625 35:1500 37:2200 44:2500 121:250 
-0.0009765625 29:1800 56:1900 69:350 82:400 105:2500 122:800 134:1700 144:1700 150:1000 
-0.0009765625 6:2000 48:400 57:400 122:2500 132:1000 154:650 
-0.0009765625 49:2500 57:2500 82:1800 104:300 139:500 147:500 156:650 164:1800 
-0.0009765625 7:2300 11:1600 35:2000 42:1200 82:800 84:1200 124:700 132:1400 174:1000 
-0.0009765625 20:1800 46:1200 61:1400 62:1200 80:1800 84:1400 117:1600 121:1200 
-0.0009765625 5:1850 25:400 39:2400 46:400 60:400 103:2100 134:2500 140:2500 145:2500 161:250 
-0.0009765625 10:2400 26:2000 156:700 
-0.0009765625 25:2300 43:1200 59:1200 66:2400 68:2200 71:2200 79:2100 121:1200 145:800 147:800 
-0.0009765625 56:2500 145:500 167:1800 
-0.0009765625 50:200 104:950 106:950 114:2500 115:2500 118:2500 129:800 146:800 
-0.0009765625 29:800 82:1800 93:1900 
-0.0009765625 22:1600 74:1300 94:1700 
-0.0009765625 44:650 74:0 92:1000 146:600 151:100 153:2500 162:1400 
-0.0009765625 5:1600 36:2300 62:1200 
-0.0009765625 9:1200 43:1600 49:1000 102:1400 138:1400 143:1400 153:800 
-0.0009765625 159:2500 162:2500 
-0.0009765625 6:1400 16:2400 58:1800 69:2500 99:800 136:800 
-0.0009765625 19:1800 53:400 133:2500 140:2500 144:2500 
-0.0009765625 28:1300 44:2500 51:2500 52:2500 119:200 128:700 129:500 
-0.0009765625 56:1600 66:2400 73:1900 133:800 
-0.0009765625 9:1600 15:2300 24:2200 87:1200 93:700 141:800 
-0.0009765625 25:2300 35:800 67:2200 69:2500 73:1900 133:800 149:800 
-0.0009765625 31:2400 89:1700 97:300 119:1600 145:750 150:300 162:2500 165:1500 
-0.0009765625 3:1600 37:1300 45:1200 74:1300 87:650 93:1700 94:1700 100:2400 152:200 
-0.0009765625 65:2400 96:500 147:800 
-0.0009765625 7:2100 22:2000 63:1200 79:2100 88:1700 107:1200 120:1600 154:700 174:800 
-0.0009765625 16:2400 24:2200 61:1400 86:1500 122:1200 135:800 139:800 154:700 173:800 
-0.0009765625 126:2500 172:700 
-0.0009765625 13:2200 27:1800 
-0.0009765625 17:2000 19:2200 23:2200 29:2000 68:2200 114:1600 133:800 148:800 163:700 
-0.0009765625 26:2300 34:2200 63:900 67:2000 85:1500 86:2100 119:1400 173:1000 
-0.0009765625 7:2100 9:1600 19:2200 65:2400 81:2000 119:1600 138:800 144:800 173:800 
-0.0009765625 45:1200 54:1200 74:1600 88:1700 99:800 105:1200 123:1200 136:800 141:800 
-0.0009765625 5:700 45:2500 50:2500 70:1800 90:2100 98:1000 129:500 150:200 167:1800 
-0.0009765625 17:2000 26:2300 28:2200 59:0 73:1900 139:1400 140:1400 166:1700 173:1000 
-0.0009765625 32:2300 42:1100 65:2400 77:2200 88:1700 94:700 105:1200 109:1600 110:1600 132:800 
-0.0009765625 38:2200 81:2000 94:700 107:1200 111:1600 113:1600 132:800 
-0.0009765625 9:1600 21:2200 40:2300 69:2500 149:800 
-0.0009765625 36:900 48:2500 54:2500 55:2500 61:2500 83:1800 88:2100 94:1900 99:300 170:600 
-0.0009765625 12:1800 14:1800 78:2200 158:1300 165:1500 
-0.0009765625 8:2100 17:2000 43:1600 158:500 175:1000 
-0.0009765625 59:400 86:1000 124:2500 137:1000 148:1000 166:1500 
-0.0009765625 3:2400 20:1800 25:2300 39:2000 61:1400 70:1700 92:700 98:500 106:1400 
-0.0009765625 4:2000 13:2200 16:2400 21:2200 95:700 112:1600 144:800 
-0.0009765625 49:2500 70:1800 
-0.0009765625 106:1600 144:2500 158:250 
-0.0009765625 72:1800 82:1800 
-0.0009765625 52:1200 76:2200 80:1800 114:1600 
-0.0009765625 111:1000 175:2500 
-0.0009765625 91:1400 120:2400 124:2500 166:1500 
-0.0009765625 20:2100 97:50 98:50 135:2500 136:2500 137:2500 146:2500 152:800 
-0.0009765625 29:2200 53:1800 65:1800 100:1800 101:2200 109:1400 128:900 130:1400 
-0.0009765625 35:2000 57:1000 98:100 110:1400 122:700 129:1400 147:1400 162:500 
-0.0009765625 24:2000 85:700 107:1300 127:2500 
-0.0009765625 32:1100 57:2500 
-0.0009765625 42:1100 52:1200 75:1600 77:2200 93:700 97:500 105:1200 120:1600 127:1500 146:800 
-0.0009765625 5:2100 124:2500 
-0.0009765625 8:2000 18:2200 70:1700 77:2200 94:700 116:1600 127:1500 148:800 153:700 
-0.0009765625 3:2400 56:1600 86:1500 104:1200 146:800 
-0.0009765625 35:2000 36:2300 41:800 53:1800 64:2200 138:1400 140:1400 143:1400 
-0.0009765625 23:1400 27:2400 42:2400 59:2500 70:1800 80:0 100:300 
-0.0009765625 8:2100 14:2100 80:1600 99:1200 
-0.0009765625 60:700 75:2100 95:1900 124:700 152:100 170:1000 
-0.0009765625 9:1200 39:2300 64:2200 73:1900 95:1900 147:1400 152:100 175:1000 
-0.0009765625 29:1200 61:400 146:2500 149:2500 
-0.0009765625 4:2000 20:1800 44:1200 66:2400 80:1800 127:1500 160:700 
-0.0009765625 14:2100 53:1800 137:1400 166:1700 167:1700 174:1000 
-0.0009765625 28:1300 43:2400 56:2500 164:1800 
-0.0009765625 17:900 28:1300 45:2500 51:2500 53:2500 121:250 131:500 148:500 169:600 
-0.0009765625 31:2300 63:900 79:1400 82:800 129:1400 130:1400 137:1400 162:500 169:1000 
-0.0009765625 1:2000 10:1800 74:2100 92:500 161:500 162:500 
-0.0009765625 6:1400 16:2400 71:2200 151:0 
-0.0009765625 60:2500 103:1800 
-0.0009765625 6:2200 26:2300 31:2300 114:1400 152:100 167:1700 
-0.0009765625 16:2400 18:2200 29:2000 38:2200 41:700 55:1200 80:1800 102:1000 126:1200 170:800 
-0.0009765625 10:2400 33:2300 35:800 47:1200 54:1200 93:700 106:1400 123:1200 141:800 
-0.0009765625 11:2000 88:1400 
-0.0009765625 10:2400 26:2000 40:2300 91:1800 125:1200 139:800 149:800 175:800 
-0.0009765625 10:200 23:1800 38:2500 53:400 56:1600 63:400 129:2500 138:2500 149:2500 150:800 
-0.0009765625 55:400 61:400 128:2500 130:2500 136:2500 155:500 
-0.0009765625 46:2500 51:2500 60:2500 61:2500 114:200 118:200 
-0.0009765625 4:2000 24:2200 91:1800 93:700 109:1600 145:800 162:700 167:1700 168:1700 
-0.0009765625 29:2000 40:2300 57:1200 80:1800 91:1800 119:1600 150:0 
-0.0009765625 35:2500 133:1200 
-0.0009765625 14:2100 23:2100 41:800 67:2000 100:1800 106:1200 132:1400 138:1400 139:1400 
-0.0009765625 41:800 75:2100 81:1400 126:700 144:1400 145:1400 156:800 163:500 166:1700 
-0.0009765625 11:1600 88:1600 91:1600 114:1400 166:1700 
-0.0009765625 31:2300 36:2300 90:1700 168:1700 
-0.0009765625 19:1800 136:2500 141:2500 149:2500 165:600 
-0.0009765625 78:2500 128:2500 169:600 
-0.0009765625 12:1800 42:600 126:2500 145:1000 148:1000 164:1500 169:700 
-0.0009765625 3:2400 75:1600 89:1700 165:1700 
-0.0009765625 2:1000 22:2000 46:1200 56:1600 108:1200 111:1600 126:1200 130:800 143:800 172:800 
-0.0009765625 2:2100 7:2300 51:800 80:1600 111:1400 155:800 
-0.0009765625 13:2200 18:2200 31:2300 37:1700 56:1600 123:1200 142:800 
-0.0009765625 9:1200 26:2300 34:2200 109:1400 138:1400 143:1400 174:1000 
-0.0009765625 4:2400 117:2500 136:800 175:600 
-0.0009765625 28:1900 50:1200 76:2200 115:1600 136:800 162:700 
-0.0009765625 77:2200 79:2100 158:700 
-0.0009765625 11:1600 17:2000 26:2300 95:1900 131:1400 135:1400 142:1400 
-0.0009765625 31:2300 59:1200 62:1200 67:2200 122:1200 147:800 
-0.0009765625 9:1600 66:2400 79:2100 103:1200 132:800 
-0.0009765625 5:2200 36:2300 65:1800 75:2100 76:1600 138:1400 143:1400 
-0.0009765625 13:2000 42:1200 113:1400 133:1400 
-0.0009765625 60:1200 71:2200 81:2000 85:1400 94:700 113:1600 118:1600 124:1200 127:1500 
-0.0009765625 38:2200 104:1300 119:2400 121:2500 137:1000 
-0.0009765625 7:1400 21:2100 45:2500 48:2500 86:1500 89:2100 122:250 131:500 141:500 172:600 
-0.0009765625 7:1600 53:400 121:800 133:2500 149:2500 
-0.0009765625 50:1200 64:2400 80:1800 91:1800 94:700 163:700 169:800 174:800 
-0.0009765625 87:1200 118:1600 
-0.0009765625 63:400 65:1000 79:950 97:50 108:1600 135:2500 140:2500 144:2500 163:250 
-0.0009765625 63:2500 130:500 170:600 
-0.0009765625 7:2300 27:1600 132:1400 155:800 
-0.0009765625 1:500 17:2100 20:2500 123:2500 162:1300 169:700 
-0.0009765625 16:2400 25:2300 87:1200 173:800 
-0.0009765625 12:1500 99:2400 108:800 
-0.0009765625 97:600 123:2500 124:2500 135:1000 138:1000 146:1000 155:650 160:1300 165:1500 168:1500 
-0.0009765625 6:2200 101:2200 106:1200 172:1000 
-0.0009765625 20:1800 25:2300 31:2300 33:2300 70:1700 74:1600 80:1800 82:1400 120:1600 159:700 
-0.0009765625 72:1700 115:1600 
-0.0009765625 12:1800 16:1700 36:1400 42:600 78:2200 91:1400 103:2200 123:2500 140:1000 162:1300 
-0.0009765625 5:1600 20:1800 21:2200 62:1200 116:1600 118:1600 120:1600 127:1500 159:700 171:800 
-0.0009765625 43:200 67:800 87:1400 94:800 96:50 133:2500 139:2500 144:2500 
-0.0009765625 12:2200 22:2300 37:2200 55:2500 61:2500 67:200 121:250 144:500 
-0.0009765625 29:2000 43:1200 81:2000 90:1700 
-0.0009765625 13:1700 68:500 93:1000 150:100 155:2500 160:1400 
-0.0009765625 26:2000 37:1700 76:2200 85:1400 88:1700 98:500 165:1700 
-0.0009765625 15:2300 59:1200 80:1800 84:1400 86:1500 115:1600 143:800 
-0.0009765625 65:2400 105:1200 115:1600 127:1500 157:700 
-0.0009765625 22:2300 44:2500 136:500 
-0.0009765625 20:700 33:1900 35:1800 57:1200 67:2200 69:1900 92:1700 100:2400 161:50 
-0.0009765625 65:1200 123:2500 141:1000 
-0.0009765625 78:1200 155:2500 
-0.0009765625 38:2500 75:0 122:800 124:800 132:2500 143:2500 151:800 
-0.0009765625 20:2500 85:700 107:1300 117:400 122:2500 155:650 
-0.0009765625 65:600 85:1800 89:2100 94:1900 
-0.0009765625 5:2200 11:1600 12:1100 33:2000 110:1400 
-0.0009765625 11:400 26:300 92:800 130:2500 137:2500 143:2500 147:2500 149:2500 
-0.0009765625 1:300 54:2500 63:2500 84:1800 121:250 
-0.0009765625 89:1700 105:700 160:2500 
-0.0009765625 22:2300 27:2400 48:2500 53:2500 91:1400 141:500 
-0.0009765625 14:2100 31:2300 89:1800 99:1200 123:700 
-0.0009765625 13:2200 68:800 87:1400 128:2500 152:800 162:250 
-0.0009765625 56:1600 60:400 129:2500 141:2500 
-0.0009765625 31:2300 42:1200 57:1000 77:1600 101:2200 113:1400 116:1400 130:1400 133:1400 162:500 
-0.0009765625 56:650 72:1600 78:1200 96:1000 136:600 138:600 156:2500 160:1400 166:1600 168:1600 
-0.0009765625 6:2050 77:2500 104:2500 135:1700 
-0.0009765625 39:2400 122:800 133:2500 141:2500 149:2500 152:800 159:250 
-0.0009765625 7:2100 14:2000 27:1800 50:1200 58:1800 67:2200 72:1700 79:2100 84:1400 155:700 
-0.0009765625 48:1200 50:1200 64:2400 79:2100 174:800 
-0.0009765625 8:2000 16:2400 33:2300 37:1700 43:1200 79:2100 82:1400 159:700 168:1700 
-0.0009765625 14:2000 46:1200 104:1200 117:1600 118:1600 125:1200 173:800 
-0.0009765625 6:1400 13:2200 36:2300 41:700 56:1600 68:2200 79:2100 104:1200 159:700 
-0.0009765625 9:1600 31:2300 50:1200 130:800 
-0.0009765625 114:2500 144:800 169:600 
-0.0009765625 40:1700 49:400 78:2500 110:500 111:500 125:800 136:2500 143:2500 144:2500 163:250 
-0.0009765625 22:1300 30:2100 61:1500 86:2100 89:1800 135:1400 168:1700 171:1000 173:1000 
-0.0009765625 18:1900 107:1300 108:1300 114:400 121:2500 147:1000 150:500 160:1300 163:1300 
-0.0009765625 10:2400 50:1200 62:1200 91:1800 96:500 102:1000 105:1200 118:1600 128:500 
-0.0009765625 3:2400 6:1400 49:1200 60:1200 119:1600 155:700 163:700 171:800 
-0.0009765625 24:2200 65:2400 90:1700 126:1200 149:800 
-0.0009765625 6:2200 27:1600 89:1800 120:1400 127:1200 155:800 
-0.0009765625 17:2000 22:2000 25:2300 28:1900 52:1200 68:2200 124:1200 157:700 
-0.0009765625 15:2100 26:2300 89:1800 112:1400 135:1400 173:1000 
-0.0009765625 51:800 72:1700 74:2100 88:1600 126:700 149:1400 157:800 
-0.0009765625 56:600 74:2100 83:1900 86:2100 
-0.0009765625 16:2400 24:2200 33:2300 34:2300 64:2400 111:1600 133:800 135:800 150:0 
-0.0009765625 114:400 124:2500 
-0.0009765625 9:0 10:200 25:400 76:2500 125:800 128:2500 135:2500 139:2500 141:2500 
-0.0009765625 90:800 110:500 145:2500 149:2500 
-0.0009765625 18:1600 68:800 93:800 133:2500 136:2500 148:2500 
-0.0009765625 11:2000 100:1000 153:2500 161:1400 170:1000 
-0.0009765625 9:300 13:2200 39:2400 41:600 72:1500 73:2000 87:1600 123:2500 134:1000 164:1500 
-0.0009765625 25:2300 30:2200 43:1200 65:2400 75:1600 93:700 136:800 139:800 162:700 170:800 
-0.0009765625 51:800 103:1700 114:1400 117:1400 148:1400 154:800 
-0.0009765625 68:2200 124:1200 164:1700 
-0.0009765625 101:2200 136:1400 155:800 164:1700 
-0.0009765625 11:1500 16:1700 120:2400 128:1000 
-0.0009765625 15:1700 18:1600 38:1900 51:2500 57:2500 86:1500 97:1000 104:300 169:600 
-0.0009765625 77:1800 92:1700 101:2400 114:500 
-0.0009765625 15:1600 24:1000 72:600 108:1600 129:2500 130:2500 132:2500 133:2500 
-0.0009765625 43:1200 71:2200 83:1400 87:1200 90:1700 121:1200 144:800 174:800 
-0.0009765625 80:0 88:1400 95:1000 118:500 120:700 128:900 139:600 154:2500 155:2500 156:2500 
-0.0009765625 18:1900 34:1700 93:1700 100:2400 137:600 152:200 157:400 
-0.0009765625 9:1600 41:700 77:2200 80:1800 88:1700 112:1600 166:1700 
-0.0009765625 29:2200 116:1400 130:1400 155:800 161:500 
-0.0009765625 25:2300 39:2000 76:2200 79:2100 81:2000 93:700 103:1200 118:1600 
-0.0009765625 7:2100 20:1800 26:2000 50:1200 58:1800 64:2400 89:1700 98:500 127:1500 168:1700 
-0.0009765625 21:2200 117:1600 147:800 
-0.0009765625 34:2300 47:1200 134:800 
-0.0009765625 11:1800 96:2200 
-0.0009765625 10:2400 24:2200 56:1600 64:2400 125:1200 165:1700 
-0.0009765625 17:2100 40:1600 70:700 95:700 124:2500 127:2500 139:1000 163:1300 173:700 
-0.0009765625 11:200 65:1300 96:1800 151:2500 
-0.0009765625 60:1200 114:1600 121:1200 
-0.0009765625 65:1300 96:1800 
-0.0009765625 20:2500 84:700 107:1300 162:1300 
-0.0009765625 42:2400 46:2500 123:250 133:500 153:650 168:1800 
-0.0009765625 55:400 126:2500 127:2500 
-0.0009765625 22:1200 39:1400 59:650 138:600 156:2500 157:2500 163:1400 171:1000 
-0.0009765625 22:2300 60:2500 61:2500 162:100 
-0.0009765625 24:2200 25:2300 35:800 120:1600 139:800 165:1700 
-0.0009765625 32:1100 47:2500 73:2200 129:500 
-0.0009765625 4:0 65:1000 105:1600 129:2500 147:2500 
-0.0009765625 33:2000 35:2000 60:700 76:1600 80:1600 131:1400 165:1700 
-0.0009765625 14:1800 127:2500 
-0.0009765625 16:2400 56:1600 67:2200 74:1600 85:1400 
-0.0009765625 30:600 169:2500 
-0.0009765625 29:900 82:700 87:1600 105:1300 120:2400 122:2500 123:2500 139:1000 
-0.0009765625 4:2000 123:1200 171:800 
-0.0009765625 29:2200 95:1900 116:1400 160:500 
-0.0009765625 17:900 48:2500 53:2500 103:1800 133:500 167:1800 171:600 
-0.0009765625 4:1450 28:2200 35:2000 71:1300 94:600 117:1400 125:700 143:1400 150:100 172:1000 
-0.0009765625 26:2300 29:2200 56:600 89:1800 102:1400 140:1400 171:1000 
-0.0009765625 2:2100 13:2000 43:1600 80:1600 138:1400 158:500 171:1000 
-0.0009765625 143:2500 168:600 
-0.0009765625 13:2200 52:1200 75:1600 79:2100 81:2000 113:1600 114:1600 174:800 
-0.0009765625 21:2100 46:2500 87:1800 175:600 
-0.0009765625 123:2500 165:1500 
-0.0009765625 9:1600 19:2200 41:700 48:1200 62:1200 109:1600 121:1200 134:800 
-0.0009765625 51:2500 83:1800 150:200 153:650 
-0.0009765625 12:600 19:1800 141:2500 
-0.0009765625 60:1200 77:2200 81:2000 120:1600 
-0.0009765625 34:1000 41:2400 45:2500 80:0 84:1800 
-0.0009765625 1:2000 43:1600 66:1900 72:1700 115:1400 136:1400 138:1400 
-0.0009765625 12:1500 38:2200 56:1600 58:1800 95:700 113:1600 114:1600 149:800 157:700 162:700 
-0.0009765625 58:2500 129:500 
-0.0009765625 11:1000 17:2000 26:2000 45:1200 50:1200 111:1600 123:1200 130:800 144:800 160:700 
-0.0009765625 38:2200 74:1600 79:2100 93:700 107:1200 
-0.0009765625 17:2000 39:2000 73:1900 82:1400 84:1400 96:500 153:700 173:800 174:800 
-0.0009765625 2:100 82:400 88:800 134:2500 136:2500 141:2500 148:2500 150:800 152:800 
-0.0009765625 12:1800 18:1900 70:700 73:2000 77:2200 109:400 123:2500 126:2500 
-0.0009765625 9:1600 14:2000 17:2000 35:800 39:2000 68:2200 81:2000 109:1600 158:700 165:1700 
-0.0009765625 7:1400 27:2400 37:2200 61:2500 93:1900 94:1900 98:1000 135:500 145:500 
-0.0009765625 23:2500 166:1500 
-0.0009765625 26:2000 30:2200 56:1600 88:1700 90:1700 129:800 140:800 157:700 169:800 172:800 
-0.0009765625 14:2000 24:2200 46:1200 49:1200 54:1200 137:800 159:700 163:700 
-0.0009765625 5:1600 6:1400 28:1900 44:1200 50:1200 59:1200 104:1200 119:1600 164:1700 169:800 
-0.0009765625 14:2000 20:1800 32:2300 91:1800 97:500 109:1600 175:800 
-0.0009765625 31:2300 54:1200 61:1400 67:2200 111:1600 117:1600 137:800 163:700 
-0.0009765625 111:400 124:2500 136:1000 161:1300 
-0.0009765625 48:2500 54:2500 76:1900 108:300 155:650 162:100 168:1800 
-0.0009765625 43:2400 59:2500 120:200 152:200 164:1800 
-0.0009765625 10:2400 38:2200 53:1600 119:1600 
-0.0009765625 7:2100 32:2300 82:1400 175:800 
-0.0009765625 30:600 32:1200 41:300 170:2500 175:2500 
-0.0009765625 27:2400 58:2500 61:2500 79:1200 86:1500 93:1900 106:300 115:200 
-0.0009765625 19:1800 29:2200 35:2000 61:1500 73:1900 75:2100 115:1400 139:1400 149:1400 155:800 
-0.0009765625 24:2200 48:1200 79:2100 80:1800 83:1400 163:700 
-0.0009765625 22:1600 92:1700 102:2400 142:600 
-0.0009765625 10:2400 32:2300 33:2300 40:2300 45:1200 68:2200 80:1800 85:1400 139:800 144:800 
-0.0009765625 6:2200 18:2000 26:2300 30:2100 83:1900 97:0 
-0.0009765625 27:2400 95:1900 121:250 
-0.0009765625 28:2200 106:1200 157:800 
-0.0009765625 6:1400 10:2400 33:2300 39:2000 58:1800 64:2400 125:1200 169:800 
-0.0009765625 73:1900 83:1900 135:1400 142:1400 144:1400 159:500 167:1700 
-0.0009765625 4:2000 38:2200 51:1200 56:1600 102:1000 111:1600 126:1200 133:800 154:700 164:1700 
-0.0009765625 15:1800 37:1600 47:650 152:100 154:2500 156:2500 
-0.0009765625 14:800 18:1600 42:2400 49:2500 56:2500 61:2500 91:1400 100:300 
-0.0009765625 52:1200 68:2200 83:1400 
-0.0009765625 3:2400 5:1600 23:2200 49:1200 57:1200 90:1700 102:1000 122:1200 126:1200 
-0.0009765625 11:1600 28:2200 91:1600 105:1100 
-0.0009765625 14:2000 60:1200 67:2200 98:500 99:800 106:1400 115:1600 151:0 161:700 165:1700 
-0.0009765625 8:2100 13:2000 43:1600 55:1200 120:1400 123:700 133:1400 141:1400 164:1700 167:1700 
-0.0009765625 8:2000 21:2200 91:1800 
-0.0009765625 40:1600 121:2500 149:1000 152:500 163:1300 
-0.0009765625 5:2200 8:2100 72:1700 83:1900 98:100 104:1100 133:1400 170:1000 172:1000 
-0.0009765625 39:2300 64:2200 69:1600 72:1700 74:2100 114:1400 138:1400 139:1400 155:800 167:1700 
-0.0009765625 20:2500 65:1200 73:2000 90:1000 94:700 105:1300 108:1300 119:2400 139:1000 148:1000 
-0.0009765625 1:1300 10:1900 76:1400 109:2500 113:2500 144:800 
-0.0009765625 1:500 13:2200 44:400 124:2500 151:500 
-0.0009765625 37:2200 38:1900 46:2500 62:2500 92:1900 143:500 159:100 170:600 174:600 
-0.0009765625 15:1800 100:1000 149:600 156:2500 158:1400 
-0.0009765625 48:1200 84:1400 96:500 108:1200 113:1600 118:1600 159:700 
-0.0009765625 62:400 126:2500 174:700 
-0.0009765625 63:900 74:2100 113:1400 153:800 167:1700 173:1000 
-0.0009765625 30:700 51:2500 60:2500 70:1800 121:250 170:600 
-0.0009765625 100:1800 102:1400 105:1100 124:700 128:900 133:1400 167:1700 
-0.0009765625 21:2200 98:500 108:1200 112:1600 114:1600 123:1200 
-0.0009765625 43:2400 46:2500 122:250 143:500 155:650 169:600 
-0.0009765625 88:1000 120:2400 175:700 
-0.0009765625 2:2100 22:1300 29:2200 115:1400 145:1400 164:1700 
-0.0009765625 54:2500 95:1900 105:300 155:650 
-0.0009765625 7:1400 27:2400 46:2500 86:1500 174:600 
-0.0009765625 3:1500 65:1800 101:2200 114:1400 142:1400 
-0.0009765625 5:2100 104:2500 
-0.0009765625 51:800 55:1200 64:2200 86:2100 147:1400 157:800 
-0.0009765625 22:2000 30:2200 31:2300 49:1200 70:1700 90:1700 100:800 147:800 156:700 
-0.0009765625 50:2500 54:2500 126:250 
-0.0009765625 37:1700 67:2200 72:1700 91:1800 146:800 
-0.0009765625 23:2200 37:1700 58:1800 59:1200 77:2200 80:1800 95:700 120:1600 127:1500 164:1700 
-0.0009765625 4:1450 8:2100 19:1800 97:0 117:1400 131:1400 138:1400 149:1400 157:800 
-0.0009765625 78:2300 94:2500 
-0.0009765625 29:2200 66:1900 79:1400 99:1200 126:700 139:1400 148:1400 157:800 168:1700 
-0.0009765625 17:2200 147:2500 
-0.0009765625 40:1100 57:2500 61:2500 62:2500 70:1800 91:1400 131:500 
-0.0009765625 15:2000 45:400 123:2500 125:2500 163:1300 164:1500 
-0.0009765625 5:2200 86:2100 88:1600 115:1400 125:700 151:100 164:1700 
-0.0009765625 12:1500 13:2200 34:2300 50:1200 70:1700 86:1500 107:1200 136:800 165:1700 168:1700 
-0.0009765625 30:2100 38:1600 82:800 86:2100 99:1200 100:1800 110:1400 148:1400 152:100 
-0.0009765625 19:1800 47:400 77:2500 78:2500 91:800 144:2500 149:2500 150:800 156:500 
-0.0009765625 19:1900 23:2500 123:2500 158:1300 
-0.0009765625 33:2300 73:1900 76:2200 77:2200 91:1800 171:800 
-0.0009765625 5:1850 79:950 94:800 103:2100 131:2500 144:2500 150:800 158:250 
-0.0009765625 3:2400 77:2200 
-0.0009765625 42:1200 86:2100 142:1400 152:100 
-0.0009765625 121:200 169:2500 173:2500 
-0.0009765625 27:1800 65:2400 93:700 102:1000 118:1600 133:800 
-0.0009765625 15:2300 17:2000 21:2200 37:1700 38:2200 
-0.0009765625 20:2500 25:900 129:1000 159:1300 173:700 
-0.0009765625 10:1000 12:1500 34:1700 45:1200 92:1700 99:2400 100:2400 103:800 149:600 
-0.0009765625 71:2200 134:800 168:1700 
-0.0009765625 5:2200 31:2300 64:2200 65:1800 76:1600 95:1900 109:1400 151:100 159:500 164:1700 
-0.0009765625 4:200 42:700 107:2500 108:2500 144:1700 
-0.0009765625 49:2500 51:2500 92:1900 103:1800 116:200 157:650 
-0.0009765625 7:2300 67:2000 117:1400 138:1400 141:1400 158:500 
-0.0009765625 6:1700 41:200 58:400 77:2500 92:800 132:2500 133:2500 
-0.0009765625 24:2200 31:2300 37:1700 73:1900 82:1400 145:800 161:700 
-0.0009765625 2:2100 36:2300 55:1200 70:1800 86:2100 107:1100 112:1400 130:1400 158:500 
-0.0009765625 46:400 120:2400 125:2500 135:1000 
-0.0009765625 28:1300 47:2500 61:2500 72:1800 77:1900 125:250 152:200 173:600 
-0.0009765625 1:1200 25:2300 53:1600 72:1700 80:1800 126:1200 171:800 
-0.0009765625 2:2100 27:1600 70:1800 81:1400 95:1900 155:800 169:1000 
-0.0009765625 7:2300 13:2000 38:1600 60:700 83:1900 145:1400 155:800 157:800 171:1000 
-0.0009765625 10:2400 47:1200 132:800 158:700 
-0.0009765625 110:400 121:2500 
-0.0009765625 2:1000 13:2200 68:2200 76:2200 85:1400 109:1600 141:800 161:700 165:1700 
-0.0009765625 11:1000 14:2000 19:2200 32:2300 62:1200 97:500 117:1600 147:800 155:700 
-0.0009765625 44:2500 50:2500 82:1800 94:1900 103:1800 104:300 131:500 156:650 169:600 
-0.0009765625 21:2100 37:2200 41:2400 91:1400 92:1900 115:200 135:500 160:100 173:600 
-0.0009765625 3:1200 95:400 159:2500 
-0.0009765625 36:2300 53:1800 
-0.0009765625 13:2200 68:2200 79:2100 93:700 160:700 167:1700 169:800 
-0.0009765625 28:1100 38:2500 146:2500 
-0.0009765625 64:2200 135:1400 
-0.0009765625 70:600 96:300 128:750 158:2500 159:2500 166:1500 
-0.0009765625 32:1400 117:500 128:2500 
-0.0009765625 19:1800 63:900 74:2100 125:700 144:1400 163:500 170:1000 171:1000 172:1000 
-0.0009765625 101:2200 174:1000 
-0.0009765625 9:1600 10:2400 71:2200 95:700 114:1600 153:700 
-0.0009765625 11:2000 156:2500 
-0.0009765625 30:1300 58:400 122:800 128:2500 132:2500 141:2500 160:250 163:250 
-0.0009765625 3:2400 22:2000 28:1900 39:2000 57:1200 61:1400 88:1700 106:1400 171:800 
-0.0009765625 26:2300 41:800 66:1900 101:2200 102:1400 129:1400 150:100 162:500 
-0.0009765625 7:2300 11:1600 35:2000 61:1500 63:900 70:1800 108:1100 124:700 153:800 
-0.0009765625 20:1800 33:2300 89:1700 97:500 
-0.0009765625 28:1100 138:2500 145:2500 155:500 
-0.0009765625 99:1000 157:2500 171:1000 
-0.0009765625 9:300 31:1700 49:400 103:2200 119:2400 123:2500 124:2500 
-0.0009765625 7:1600 92:700 122:2500 161:1300 
-0.0009765625 14:2000 25:2300 79:2100 110:1600 
-0.0009765625 41:2400 42:2400 47:2500 60:2500 83:1800 90:2100 101:200 
-0.0009765625 11:1000 33:2300 53:1600 56:1600 68:2200 85:1400 139:800 161:700 171:800 
-0.0009765625 82:400 135:2500 
-0.0009765625 98:300 161:2500 
-0.0009765625 152:200 167:1800 168:1800 
-0.0009765625 54:2500 92:1900 
-0.0009765625 7:2100 21:2200 22:2000 60:1200 104:1200 159:700 175:800 
-0.0009765625 19:2200 21:2200 56:1600 
-0.0009765625 18:2200 84:1400 118:1600 
-0.0009765625 13:1300 44:2500 87:1800 
-0.0009765625 99:2400 135:600 
-0.0009765625 33:2000 57:1000 139:1400 148:1400 167:1700 
-0.0009765625 45:2500 54:2500 85:1800 160:100 
-0.0009765625 41:700 115:1600 127:1500 
-0.0009765625 60:1200 70:1700 74:1600 79:2100 87:1200 88:1700 112:1600 148:800 150:0 170:800 
-0.0009765625 45:2500 49:2500 99:300 135:500 145:500 
-0.0009765625 7:2100 33:2300 39:2000 48:1200 85:1400 100:800 118:1600 123:1200 154:700 158:700 
-0.0009765625 17:2000 111:1600 116:1600 119:1600 153:700 159:700 165:1700 
-0.0009765625 27:1800 31:2300 66:2400 79:2100 115:1600 
-0.0009765625 21:2100 78:1900 90:2100 96:1000 137:500 
-0.0009765625 5:2100 13:2300 38:2500 92:500 171:600 
-0.0009765625 77:2500 92:800 117:500 145:2500 
-0.0009765625 7:2300 15:2100 146:1400 166:1700 171:1000 
-0.0009765625 44:2500 73:2200 
-0.0009765625 5:2100 18:1900 160:1300 
-0.0009765625 1:1200 21:2200 25:2300 56:1600 69:2500 70:1700 78:2200 108:1200 110:1600 140:800 
-0.0009765625 11:1000 48:1200 54:1200 65:2400 92:700 100:800 117:1600 147:800 157:700 
-0.0009765625 22:2000 36:2300 65:2400 80:1800 91:1800 93:700 132:800 134:800 168:1700 
-0.0009765625 3:1500 35:2000 54:700 88:1600 113:1400 133:1400 134:1400 139:1400 
-0.0009765625 7:2300 21:1800 34:2200 75:2100 
-0.0009765625 28:1900 32:2300 53:1600 61:1400 73:1900 78:2200 81:2000 103:1200 154:700 163:700 
-0.0009765625 14:1800 18:1900 122:2500 
-0.0009765625 55:400 112:1000 173:2500 
-0.0009765625 53:400 115:400 123:2500 127:2500 148:1000 
-0.0009765625 22:2000 58:1800 70:1700 88:1700 100:800 122:1200 158:700 162:700 173:800 175:800 
-0.0009765625 47:2500 58:2500 139:500 
-0.0009765625 5:1600 11:1000 64:2400 69:2500 98:500 
-0.0009765625 27:1800 43:1200 56:1600 68:2200 93:700 114:1600 117:1600 133:800 171:800 
-0.0009765625 4:0 17:2200 38:2500 57:400 72:600 103:2100 107:1600 125:800 136:2500 147:2500 
-0.0009765625 3:1500 11:1600 138:1400 
-0.0009765625 28:1300 55:2500 61:2500 81:1200 82:1800 85:1800 96:1000 143:500 158:100 
-0.0009765625 5:2200 28:2200 58:400 100:1800 158:500 170:1000 
-0.0009765625 55:2500 94:1900 133:500 
-0.0009765625 12:2200 36:900 50:2500 70:1800 92:1900 95:1900 121:250 146:500 171:600 
-0.0009765625 23:1400 44:2500 70:1800 
-0.0009765625 1:2000 33:2000 57:1000 71:1300 110:1400 113:1400 134:1400 135:1400 166:1700 
-0.0009765625 47:1200 74:1600 83:1400 160:700 164:1700 
-0.0009765625 45:1200 86:1200 100:2400 104:800 168:1300 
-0.0009765625 20:2500 65:1200 79:1200 82:700 123:2500 125:2500 126:2500 143:1000 165:1500 167:1500 
-0.0009765625 18:1600 51:2500 93:1900 
-0.0009765625 12:1500 30:2200 37:1700 71:2200 87:1200 107:1200 123:1200 134:800 152:0 174:800 
-0.0009765625 6:2100 173:2500 
-0.0009765625 19:1800 108:1600 128:2500 131:2500 151:800 
-0.0009765625 117:500 155:800 158:2500 160:2500 168:1500 
-0.0009765625 6:2000 24:2000 49:400 85:700 122:2500 150:500 174:700 
-0.0009765625 41:700 107:2500 128:2500 165:500 
-0.0009765625 33:1400 54:400 93:800 95:800 121:800 132:2500 137:2500 141:2500 145:2500 
-0.0009765625 1:2000 11:1600 
-0.0009765625 11:1600 23:2100 88:1600 91:1600 101:2200 152:100 
-0.0009765625 17:2000 83:1900 131:1400 151:100 155:800 164:1700 
-0.0009765625 69:500 145:2500 149:2500 
-0.0009765625 5:2200 6:2200 62:400 83:1900 103:1700 112:1400 144:1400 164:1700 
-0.0009765625 4:1500 68:2400 94:1400 
-0.0009765625 38:1900 54:2500 79:1200 98:1000 
-0.0009765625 17:2100 91:1400 107:1300 123:2500 
-0.0009765625 14:2000 20:1800 24:2200 62:1200 77:2200 166:1700 175:800 
-0.0009765625 17:900 42:2400 
-0.0009765625 5:2100 16:1700 36:1400 41:600 79:1200 92:700 126:2500 144:1000 163:1300 
-0.0009765625 25:2300 40:2300 68:2200 74:1600 100:800 112:1600 166:1700 
-0.0009765625 7:2100 56:1600 78:2200 93:700 97:500 99:800 109:1600 115:1600 124:1200 172:800 
-0.0009765625 2:2100 35:2000 36:2300 61:1500 88:1600 105:1100 116:1400 143:1400 154:800 163:500 
-0.0009765625 1:1200 17:2000 36:2300 81:2000 126:1200 
-0.0009765625 26:2300 49:1000 91:1600 113:1400 136:1400 147:1400 161:500 
-0.0009765625 47:2500 81:1200 141:500 
-0.0009765625 62:400 155:600 173:2500 174:2500 
-0.0009765625 1:2000 6:2200 14:2100 17:2000 23:2100 60:700 61:1500 120:1400 142:1400 
-0.0009765625 74:1600 78:2200 112:1600 169:800 
-0.0009765625 2:2100 18:2000 26:2300 103:1700 
-0.0009765625 13:2000 28:2200 35:2000 45:200 94:600 116:1400 148:1400 
-0.0009765625 5:2200 49:1000 51:800 77:1600 100:1800 103:1700 149:1400 165:1700 
-0.0009765625 17:2000 53:1800 114:1400 154:800 160:500 175:1000 
-0.0009765625 28:1300 47:2500 63:2500 94:1900 147:500 
-0.0009765625 5:1600 15:2300 44:1200 51:1200 57:1200 66:2400 110:1600 122:1200 131:800 156:700 
-0.0009765625 20:700 22:1400 34:800 41:1000 78:2100 98:1800 101:1300 150:2500 
-0.0009765625 8:2000 63:1200 161:700 
-0.0009765625 12:2200 53:2500 145:500 
-0.0009765625 5:1600 21:2200 43:1200 111:1600 119:1600 162:700 
-0.0009765625 13:2200 40:2300 
-0.0009765625 10:2400 28:1900 59:1200 68:2200 103:1200 
-0.0009765625 49:2500 51:2500 93:1900 146:500 
-0.0009765625 65:2400 104:1200 
-0.0009765625 78:2100 79:1700 97:1800 111:100 128:1200 
-0.0009765625 6:2200 18:2000 69:1600 74:2100 100:1800 109:1400 110:1400 151:100 171:1000 
-0.0009765625 39:2400 49:400 86:400 125:800 135:2500 142:2500 
-0.0009765625 12:1500 37:1700 116:1600 143:800 170:800 
-0.0009765625 20:2100 39:2400 70:1400 123:800 134:2500 
-0.0009765625 1:250 61:650 99:1000 136:600 139:600 152:100 154:2500 156:2500 159:1400 161:1400 
-0.0009765625 48:2500 87:1800 
-0.0009765625 14:1600 41:1400 50:1200 66:1000 92:1700 99:2400 100:2400 135:600 147:600 
-0.0009765625 37:2200 43:2400 55:2500 59:2500 69:400 70:1800 113:200 132:500 
-0.0009765625 34:2300 52:1200 
-0.0009765625 35:400 42:600 120:2400 125:2500 150:500 
-0.0009765625 9:1600 17:2000 54:1200 87:1200 99:800 120:1600 136:800 159:700 172:800 
-0.0009765625 21:2100 25:300 37:2200 45:2500 53:2500 144:500 164:1800 
-0.0009765625 84:300 110:1000 171:2500 
-0.0009765625 27:1800 79:2100 131:800 172:800 
-0.0009765625 1:2000 10:1800 46:400 55:1200 138:1400 142:1400 144:1400 171:1000 174:1000 
-0.0009765625 19:1800 27:200 53:400 92:800 131:2500 134:2500 135:2500 136:2500 165:600 
-0.0009765625 122:2500 131:1000 
-0.0009765625 48:1200 67:2200 71:2200 94:1700 101:2400 106:800 142:600 157:400 169:700 
-0.0009765625 54:2500 72:1800 75:0 82:1800 
-0.0009765625 7:2100 39:2000 55:1200 59:1200 62:1200 71:2200 72:1700 127:1500 137:800 146:800 
-0.0009765625 30:700 61:2500 63:2500 
-0.0009765625 12:2200 22:2300 23:1400 45:2500 57:2500 90:2100 99:300 167:1800 
-0.0009765625 5:2200 27:1600 47:400 49:1000 101:2200 121:700 134:1400 157:800 168:1700 
-0.0009765625 21:1800 29:2200 70:1800 149:1400 167:1700 
-0.0009765625 30:2100 64:2200 75:2100 78:1600 88:1600 93:100 99:1200 119:1400 129:1400 144:1400 
-0.0009765625 11:600 22:700 76:400 82:300 169:2500 170:2500 173:2500 
-0.0009765625 129:2500 131:2500 
-0.0009765625 19:2200 24:2200 43:1200 50:1200 53:1600 55:1200 111:1600 147:800 153:700 
-0.0009765625 74:2100 158:500 
-0.0009765625 8:2100 34:2200 61:1500 
-0.0009765625 5:1600 10:2400 15:2300 25:2300 77:2200 103:1200 104:1200 154:700 175:800 
-0.0009765625 8:2100 24:1500 29:2200 95:1900 
-0.0009765625 10:2400 58:1800 82:1400 92:700 100:800 113:1600 147:800 
-0.0009765625 64:2400 71:2200 89:1700 97:500 100:800 113:1600 154:700 175:800 
-0.0009765625 15:1600 57:400 62:400 103:2100 114:500 136:2500 146:2500 
-0.0009765625 68:1300 81:1400 100:1800 133:1400 147:1400 
-0.0009765625 1:2000 4:1450 16:1400 24:1500 34:2200 48:200 95:1900 136:1400 144:1400 149:1400 
-0.0009765625 5:2200 19:1800 20:2000 136:1400 153:800 171:1000 
-0.0009765625 10:2400 17:2000 23:2200 97:500 114:1600 
-0.0009765625 28:2200 99:1200 129:1400 153:800 166:1700 174:1000 
-0.0009765625 10:2400 25:2300 30:2200 31:2300 34:2300 61:1400 70:1700 116:1600 140:800 164:1700 
-0.0009765625 17:2000 53:1600 89:1700 107:1200 113:1600 114:1600 157:700 
-0.0009765625 22:2300 94:1900 157:650 
-0.0009765625 1:100 38:2500 53:400 56:1600 77:2500 128:2500 134:2500 142:2500 152:800 165:600 
-0.0009765625 17:2000 85:1400 113:1600 
-0.0009765625 19:2200 25:2300 59:1200 99:800 107:1200 112:1600 114:1600 138:800 142:800 
-0.0009765625 3:2400 9:1600 32:2300 45:1200 99:800 103:1200 
-0.0009765625 67:800 103:2100 148:2500 
-0.0009765625 39:1500 42:2400 48:2500 49:2500 78:1900 80:0 87:1800 91:1400 108:300 
-0.0009765625 5:2000 6:2400 30:1400 111:2500 151:100 158:650 
-0.0009765625 19:400 42:2400 94:1900 152:200 175:600 
-0.0009765625 36:2300 48:1200 59:1200 65:2400 123:1200 128:500 
-0.0009765625 14:1500 69:1300 157:2500 164:1600 
-0.0009765625 15:2300 34:2300 54:1200 114:1600 
-0.0009765625 18:1600 74:0 76:2500 90:800 97:50 100:200 107:1600 137:2500 145:2500 152:800 
-0.0009765625 29:2000 36:2300 50:1200 60:1200 78:2200 82:1400 160:700 168:1700 174:800 
-0.0009765625 31:1100 81:400 94:800 107:1600 130:2500 135:2500 147:2500 171:400 
-0.0009765625 27:1800 75:1600 76:2200 118:1600 119:1600 127:1500 132:800 
-0.0009765625 12:1500 13:2200 28:1900 68:2200 89:1700 93:700 166:1700 
-0.0009765625 17:2000 57:1200 63:1200 79:2100 82:1400 125:1200 148:800 149:800 170:800 
-0.0009765625 22:2000 25:2300 31:2300 49:1200 95:700 133:800 150:0 167:1700 
-0.0009765625 10:2400 28:1900 42:1100 51:1200 57:1200 92:700 112:1600 116:1600 164:1700 
-0.0009765625 9:1600 36:2300 39:2000 58:1800 80:1800 96:500 112:1600 120:1600 
-0.0009765625 10:2400 21:2200 64:2400 68:2200 83:1400 104:1200 117:1600 158:700 161:700 162:700 
-0.0009765625 18:1600 41:2400 94:1900 164:1800 172:600 
-0.0009765625 11:1000 25:2300 48:1200 79:2100 124:1200 141:800 
-0.0009765625 16:2400 29:2000 68:2200 69:2500 72:1700 75:1600 104:1200 123:1200 151:0 168:1700 
-0.0009765625 57:1000 74:2100 158:500 169:1000 
-0.0009765625 25:300 46:2500 54:2500 56:2500 89:2100 104:300 
-0.0009765625 10:2400 27:1800 35:800 56:1600 62:1200 78:2200 79:2100 85:1400 125:1200 149:800 
-0.0009765625 7:2100 25:2300 27:1800 34:2300 37:1700 43:1200 96:500 119:1600 146:800 169:800 
-0.0009765625 24:300 28:1300 47:2500 49:2500 56:2500 58:2500 125:250 130:500 134:500 
-0.0009765625 60:2500 139:500 
-0.0009765625 14:2000 36:2300 85:1400 106:1400 108:1200 
-0.0009765625 7:2300 43:1600 129:1400 161:500 
-0.0009765625 16:500 48:300 104:2500 106:2500 120:200 136:1700 146:1700 150:1000 173:600 175:600 
-0.0009765625 72:1700 102:1400 164:1700 174:1000 
-0.0009765625 7:1850 118:2500 157:150 
-0.0009765625 22:1200 157:2500 
-0.0009765625 10:2400 36:2300 43:1200 52:1200 77:2200 116:1600 140:800 
-0.0009765625 19:1800 32:1400 136:2500 
-0.0009765625 6:2050 13:2300 24:1300 43:1200 128:2500 144:1700 172:600 
-0.0009765625 9:1600 25:2300 48:1200 89:1700 125:1200 130:800 157:700 
-0.0009765625 46:2500 166:1800 
-0.0009765625 72:1700 84:1200 86:2100 97:0 117:1400 129:1400 137:1400 
-0.0009765625 17:2200 34:1000 70:1400 78:2500 87:1400 103:2100 104:1600 127:800 138:2500 
-0.0009765625 1:1200 68:2200 82:1400 104:1200 115:1600 165:1700 169:800 
-0.0009765625 18:2200 28:1900 36:2300 90:1700 145:800 169:800 
-0.0009765625 6:1400 69:2500 72:1700 78:2200 80:1800 96:500 
-0.0009765625 31:2300 72:1700 81:2000 85:1400 92:700 
-0.0009765625 3:2400 49:1200 58:1800 80:1800 82:1400 104:1200 106:1400 130:800 165:1700 
-0.0009765625 24:2200 53:1600 64:2400 144:800 166:1700 
-0.0009765625 130:2500 164:600 
-0.0009765625 14:2000 16:2400 57:1200 61:1400 145:800 153:700 
-0.0009765625 5:1850 17:2200 20:2100 38:2500 48:400 72:600 136:2500 139:2500 142:2500 149:2500 
-0.0009765625 21:2200 55:1200 67:2200 79:2100 89:1700 93:700 97:500 115:1600 152:0 
-0.0009765625 23:2200 25:2300 87:1200 110:1600 132:800 135:800 154:700 174:800 
-0.0009765625 24:1500 31:2300 67:2000 70:1800 94:600 131:1400 135:1400 159:500 165:1700 
-0.0009765625 17:2200 24:1000 110:500 132:2500 133:2500 154:500 
-0.0009765625 11:2000 140:600 156:2500 
-0.0009765625 64:1400 72:1400 83:300 155:600 170:2500 175:2500 
-0.0009765625 50:300 108:2500 128:2500 146:1700 
-0.0009765625 145:2500 175:400 
-0.0009765625 47:2500 56:2500 62:2500 75:0 129:500 
-0.0009765625 5:2100 46:400 92:700 98:600 120:2400 152:500 161:1300 165:1500 
-0.0009765625 6:1400 48:1200 56:1600 74:1600 90:1700 108:1200 116:1600 142:800 
-0.0009765625 27:1800 66:2400 67:2200 102:1000 161:700 175:800 
-0.0009765625 75:2100 83:1900 116:1400 126:700 169:1000 
-0.0009765625 4:2000 22:2000 23:2200 66:2400 81:2000 89:1700 120:1600 126:1200 141:800 
-0.0009765625 12:1100 13:2000 29:2200 67:2000 73:1900 109:1400 144:1400 149:1400 151:100 157:800 
-0.0009765625 96:200 104:2500 
-0.0009765625 3:1300 41:1000 59:500 117:100 128:1200 151:2500 152:2500 162:150 164:400 171:200 
-0.0009765625 19:2200 24:2200 25:2300 77:2200 79:2100 83:1400 96:500 102:1000 111:1600 
-0.0009765625 10:2400 19:2200 39:2000 51:1200 109:1600 156:700 
-0.0009765625 8:2100 9:1200 20:2000 50:200 98:100 132:1400 135:1400 140:1400 158:500 167:1700 
-0.0009765625 5:1850 138:2500 145:2500 
-0.0009765625 18:2200 28:1900 53:1600 71:2200 79:2100 110:1600 129:800 
-0.0009765625 71:800 78:2500 132:2500 
-0.0009765625 66:1400 171:2500 
-0.0009765625 19:2200 22:2000 101:1000 110:1600 
-0.0009765625 11:1200 42:2400 54:2500 58:2500 62:2500 125:250 165:1800 169:600 
-0.0009765625 14:800 45:2500 48:2500 142:500 150:200 157:650 
-0.0009765625 8:1100 49:2500 154:650 
-0.0009765625 2:2100 3:1500 54:700 89:1800 107:1100 140:1400 153:800 
-0.0009765625 9:1600 12:1500 24:2200 57:1200 108:1200 109:1600 168:1700 174:800 
-0.0009765625 14:2000 15:2300 39:2000 80:1800 82:1400 83:1400 90:1700 94:700 98:500 171:800 
-0.0009765625 53:1800 137:1400 143:1400 167:1700 
-0.0009765625 44:400 140:2500 142:2500 169:400 
-0.0009765625 38:2200 40:2300 45:1200 52:1200 115:1600 148:800 150:0 
-0.0009765625 18:1600 53:2500 54:2500 73:2200 83:1800 119:200 157:650 
-0.0009765625 15:2300 19:2200 25:2300 92:700 93:700 98:500 165:1700 
-0.0009765625 55:2500 157:650 166:1800 167:1800 
-0.0009765625 13:2000 67:2000 86:2100 117:1400 139:1400 152:100 164:1700 
-0.0009765625 19:1800 20:2000 63:900 95:1900 101:2200 168:1700 
-0.0009765625 30:2200 69:2500 71:2200 87:1200 94:700 96:500 140:800 157:700 
-0.0009765625 42:600 123:2500 
-0.0009765625 24:1000 39:2400 93:800 109:500 127:800 128:2500 140:2500 157:500 
-0.0009765625 70:1800 83:1800 92:1900 96:1000 123:250 155:650 167:1800 171:600 
-0.0009765625 3:2400 10:2400 23:2200 39:2000 42:1100 67:2200 73:1900 79:2100 114:1600 167:1700 
-0.0009765625 48:2500 58:2500 76:1900 87:1800 101:200 
-0.0009765625 5:1600 16:2400 47:1200 113:1600 118:1600 128:500 135:800 139:800 166:1700 
-0.0009765625 13:2200 48:1200 60:1200 114:1600 120:1600 155:700 158:700 
-0.0009765625 7:2100 12:1500 19:2200 26:2000 49:1200 50:1200 67:2200 77:2200 
-0.0009765625 13:2300 45:300 77:2500 104:2500 107:2500 
-0.0009765625 8:1100 42:2400 66:600 86:1500 89:2100 92:1900 94:1900 157:650 168:1800 175:600 
-0.0009765625 11:1600 20:2000 42:1200 75:2100 101:2200 109:1400 141:1400 
-0.0009765625 7:2100 36:2300 38:2200 47:1200 56:1600 147:800 
-0.0009765625 32:2300 44:1200 54:1200 70:1700 71:2200 
-0.0009765625 3:2400 67:2200 106:1400 118:1600 135:800 142:800 153:700 
-0.0009765625 4:2000 34:2300 81:2000 90:1700 93:700 115:1600 133:800 144:800 172:800 
-0.0009765625 51:1200 65:2400 74:1600 88:1700 120:1600 124:1200 129:800 
-0.0009765625 55:2500 91:1400 147:500 
-0.0009765625 40:2300 70:1700 85:1400 139:800 163:700 167:1700 
-0.0009765625 10:2400 65:2400 
-0.0009765625 42:1200 61:1500 80:1600 101:2200 
-0.0009765625 3:2400 14:2000 16:2400 49:1200 71:2200 134:800 135:800 142:800 
-0.0009765625 52:2500 70:1800 95:1900 159:100 
-0.0009765625 6:2200 11:1600 13:2000 25:900 41:800 44:700 53:1800 95:1900 143:1400 175:1000 
-0.0009765625 7:2100 8:2000 25:2300 56:1600 57:1200 82:1400 104:1200 106:1400 144:800 
-0.0009765625 8:1100 43:2400 46:2500 61:2500 66:600 172:600 
-0.0009765625 64:2200 97:0 101:2200 109:1400 121:700 136:1400 142:1400 148:1400 172:1000 
-0.0009765625 11:1500 19:1900 
-0.0009765625 15:2100 26:2300 46:400 74:2100 83:1900 89:1800 103:1700 105:1100 112:1400 151:100 
-0.0009765625 12:1500 13:2200 56:1600 83:1400 120:1600 159:700 
-0.0009765625 25:2300 59:1200 76:2200 96:500 108:1200 137:800 168:1700 171:800 
-0.0009765625 7:2300 10:1800 70:1800 91:1600 101:2200 119:1400 135:1400 151:100 166:1700 168:1700 
-0.0009765625 87:1800 88:2100 
-0.0009765625 5:2000 18:1800 116:2500 
-0.0009765625 24:1100 42:700 109:700 153:2500 158:1400 
-0.0009765625 55:650 103:1000 128:900 142:600 153:2500 157:2500 159:1400 172:1000 
-0.0009765625 26:2000 57:1200 75:1600 81:2000 90:1700 113:1600 116:1600 127:1500 146:800 148:800 
-0.0009765625 24:2200 50:1200 58:1800 116:1600 127:1500 131:800 
-0.0009765625 74:2100 119:1400 
-0.0009765625 13:1300 38:1900 49:2500 61:2500 83:1800 90:2100 114:200 139:500 169:600 
-0.0009765625 60:2500 91:1400 144:500 
-0.0009765625 45:1200 60:1200 75:1600 94:700 112:1600 116:1600 118:1600 145:800 161:700 
-0.0009765625 120:2400 125:2500 
-0.0009765625 45:250 72:1500 138:750 163:2500 
-0.0009765625 7:2100 18:2200 21:2200 24:2200 85:1400 99:800 126:1200 162:700 169:800 
-0.0009765625 39:2400 57:300 107:2500 169:600 
-0.0009765625 49:400 106:1600 134:2500 144:2500 
-0.0009765625 45:2500 48:2500 55:2500 70:1800 73:2200 80:0 125:250 132:500 173:600 
-0.0009765625 2:2100 8:2100 36:2300 99:1200 133:1400 143:1400 152:100 
-0.0009765625 25:2300 42:1100 78:2200 86:1500 112:1600 170:800 
-0.0009765625 17:2000 63:900 81:1400 83:1900 138:1400 175:1000 
-0.0009765625 131:2500 138:2500 
-0.0009765625 19:2200 23:2200 31:2300 41:700 42:1100 161:700 
-0.0009765625 4:50 8:1100 21:2100 46:2500 58:2500 70:1800 95:1900 
-0.0009765625 4:1450 36:2300 120:1400 135:1400 154:800 171:1000 
-0.0009765625 36:2300 84:1200 94:600 99:1200 106:1200 133:1400 160:500 
-0.0009765625 20:500 59:2500 98:1000 
-0.0009765625 51:2500 140:500 
-0.0009765625 36:1500 110:500 122:1400 160:2500 
-0.0009765625 18:2000 31:2300 32:2000 71:1300 94:600 110:1400 128:900 139:1400 145:1400 174:1000 
-0.0009765625 32:1400 59:400 139:2500 143:2500 171:400 
-0.0009765625 26:2300 27:1600 65:1800 72:1700 132:1400 138:1400 155:800 
-0.0009765625 42:2400 43:2400 170:600 
-0.0009765625 88:2100 94:1900 
-0.0009765625 34:2200 57:1000 139:1400 167:1700 169:1000 
-0.0009765625 64:2400 73:1900 83:1400 112:1600 120:1600 124:1200 169:800 
-0.0009765625 7:1400 21:2100 35:1500 38:1900 49:2500 60:2500 77:1900 105:300 123:250 151:200 
-0.0009765625 16:2400 21:2200 35:800 37:1700 44:1200 66:2400 121:1200 162:700 173:800 
-0.0009765625 9:1600 11:1000 63:1200 64:2400 68:2200 98:500 118:1600 175:800 
-0.0009765625 31:2300 42:1100 50:1200 61:1400 67:2200 84:1400 107:1200 127:1500 166:1700 
-0.0009765625 69:2500 78:2200 144:800 167:1700 170:800 
-0.0009765625 39:2000 85:1400 87:1200 96:500 97:500 100:800 117:1600 153:700 
-0.0009765625 23:2200 32:2300 50:1200 69:2500 70:1700 74:1600 162:700 
-0.0009765625 61:1400 83:1400 90:1700 97:500 106:1400 120:1600 
-0.0009765625 11:1500 13:2200 122:2500 129:1000 148:1000 157:650 158:1300 170:700 174:700 
-0.0009765625 9:1600 75:1600 87:1200 97:500 171:800 
-0.0009765625 32:1400 56:1900 107:2500 128:2500 161:100 
-0.0009765625 17:2000 21:1800 26:2300 64:2200 67:2000 100:1800 107:1100 
-0.0009765625 5:2200 9:1200 13:2000 32:2000 118:1400 133:1400 
-0.0009765625 2:1000 16:2400 37:1700 58:1800 81:2000 88:1700 99:800 124:1200 140:800 174:800 
-0.0009765625 41:800 69:1600 83:1900 99:1200 107:1100 128:900 137:1400 146:1400 157:800 175:1000 
-0.0009765625 68:800 130:2500 133:2500 173:400 
-0.0009765625 17:2000 31:2300 32:2000 40:1500 83:1900 95:1900 104:1100 118:1400 133:1400 147:1400 
-0.0009765625 41:2400 55:2500 126:250 
-0.0009765625 28:1900 49:1200 70:1700 104:1200 115:1600 121:1200 172:800 
-0.0009765625 8:2000 23:2200 71:2200 75:1600 93:700 99:800 104:1200 110:1600 157:700 
-0.0009765625 32:1400 78:2500 130:2500 133:2500 147:2500 
-0.0009765625 17:2000 83:1900 106:1200 117:1400 
-0.0009765625 1:1300 5:2000 8:1500 66:2300 112:2500 116:2500 
-0.0009765625 6:2200 42:1200 91:1600 149:1400 
-0.0009765625 3:2500 118:2500 
-0.0009765625 54:650 94:1000 131:600 150:100 157:2500 158:1400 
-0.0009765625 7:2100 10:2400 28:1900 44:1200 47:1200 72:1700 162:700 
-0.0009765625 23:1800 67:800 71:800 106:1600 129:2500 134:2500 
-0.0009765625 32:2000 36:2300 106:1200 110:1400 120:1400 129:1400 137:1400 155:800 163:500 169:1000 
-0.0009765625 6:400 37:2200 46:2500 62:2500 79:1200 92:1900 122:250 172:600 
-0.0009765625 39:2400 85:400 129:2500 
-0.0009765625 84:700 125:2500 135:1000 167:1500 
-0.0009765625 85:1800 167:1800 
-0.0009765625 9:1600 38:2200 68:2200 69:2500 77:2200 92:700 103:1200 118:1600 134:800 172:800 
-0.0009765625 29:2000 49:400 92:1300 93:1300 118:1000 149:200 155:600 159:450 174:2500 
-0.0009765625 51:800 114:1400 120:1400 139:1400 144:1400 
-0.0009765625 86:1000 105:1300 127:2500 149:1000 
-0.0009765625 49:2500 62:2500 72:1800 77:1900 
-0.0009765625 26:2300 60:700 94:600 137:1400 139:1400 153:800 170:1000 
-0.0009765625 17:2000 20:2000 66:1900 75:2100 83:1900 86:2100 113:1400 154:800 160:500 
-0.0009765625 36:2300 49:1200 112:1600 116:1600 157:700 161:700 171:800 
-0.0009765625 12:1800 34:1500 84:700 95:700 96:600 124:2500 135:1000 140:1000 155:650 163:1300 
-0.0009765625 19:2200 40:2300 51:1200 61:1400 78:2200 102:1000 116:1600 167:1700 
-0.0009765625 5:2200 12:1100 75:2100 104:1100 145:1400 167:1700 
-0.0009765625 11:1000 78:2200 113:1600 
-0.0009765625 4:2000 51:1200 59:1200 85:1400 111:1600 134:800 136:800 138:800 175:800 
-0.0009765625 6:1400 30:2200 57:1200 78:2200 90:1700 122:1200 138:800 172:800 
-0.0009765625 6:2200 7:2300 30:2100 142:1400 
-0.0009765625 34:1800 90:1700 102:200 163:2500 165:1500 
-0.0009765625 9:1200 53:1800 103:1700 118:1400 135:1400 161:500 175:1000 
-0.0009765625 84:400 139:2500 
-0.0009765625 15:2000 38:2200 64:1200 87:1600 112:400 125:2500 127:2500 131:1000 143:1000 159:1300 
-0.0009765625 18:2000 52:700 85:1500 92:500 102:1400 105:1100 147:1400 149:1400 
-0.0009765625 22:1300 32:2000 90:800 99:1200 102:1400 124:700 129:1400 141:1400 142:1400 
-0.0009765625 16:2400 30:2200 68:2200 69:2500 89:1700 107:1200 114:1600 156:700 169:800 
-0.0009765625 24:1000 32:1400 40:1700 123:800 140:2500 143:2500 
-0.0009765625 32:2300 66:2400 70:1700 110:1600 115:1600 124:1200 160:700 165:1700 
-0.0009765625 36:2300 39:2300 49:1000 57:1000 88:1600 102:1400 132:1400 159:500 168:1700 173:1000 
-0.0009765625 81:400 83:400 94:800 128:2500 133:2500 
-0.0009765625 20:1800 29:2000 56:1600 106:1400 113:1600 115:1600 160:700 
-0.0009765625 5:700 27:2400 44:2500 70:1800 82:1800 137:500 
-0.0009765625 20:2100 56:1600 78:2500 81:400 115:500 137:2500 143:2500 147:2500 151:800 
-0.0009765625 93:800 98:50 100:200 116:500 137:2500 143:2500 150:800 155:500 
-0.0009765625 2:2100 28:2200 78:1600 85:1500 96:200 119:1400 129:1400 130:1400 141:1400 155:800 
-0.0009765625 16:2400 45:1200 51:1200 69:2500 75:1600 82:1400 109:1600 
-0.0009765625 8:2000 60:1200 64:2400 112:1600 123:1200 126:1200 138:800 140:800 
-0.0009765625 28:1900 62:1200 81:2000 
-0.0009765625 4:2000 39:2000 57:1200 89:1700 
-0.0009765625 5:1600 27:1800 31:2300 45:1200 114:1600 129:800 171:800 
-0.0009765625 4:2000 16:2400 62:1200 137:800 
-0.0009765625 18:1600 29:800 43:2400 48:2500 50:2500 84:1800 158:100 164:1800 165:1800 
-0.0009765625 30:700 37:2200 50:2500 51:2500 73:2200 94:1900 130:500 163:100 
-0.0009765625 23:1400 47:2500 157:650 
-0.0009765625 6:1400 22:2000 27:1800 37:1700 52:1200 90:1700 111:1600 117:1600 123:1200 140:800 
-0.0009765625 20:2000 72:1700 74:2100 83:1900 112:1400 136:1400 145:1400 161:500 163:500 
-0.0009765625 34:1000 45:2500 98:1000 168:1800 
-0.0009765625 40:2300 46:1200 67:2200 79:2100 92:700 115:1600 143:800 149:800 
-0.0009765625 30:2200 33:2300 51:1200 79:2100 97:500 99:800 101:1000 159:700 162:700 
-0.0009765625 1:2000 13:2000 27:1600 161:500 172:1000 175:1000 
-0.0009765625 3:2400 87:1200 88:1700 110:1600 144:800 165:1700 
-0.0009765625 12:1500 17:2000 32:2300 46:1200 79:2100 89:1700 98:500 116:1600 163:700 167:1700 
-0.0009765625 4:2000 27:1800 68:2200 141:800 
-0.0009765625 22:2300 41:2400 
-0.0009765625 48:2500 83:1800 103:1800 158:100 
-0.0009765625 1:300 46:2500 56:2500 93:1900 124:250 125:250 141:500 164:1800 
-0.0009765625 16:2400 28:1900 80:1800 96:500 106:1400 127:1500 128:500 137:800 
-0.0009765625 10:200 56:1600 77:2500 78:2500 94:800 126:800 145:2500 149:2500 
-0.0009765625 28:1300 32:1100 38:1900 55:2500 57:2500 93:1900 97:1000 121:250 139:500 164:1800 
-0.0009765625 19:2200 53:1600 172:800 
-0.0009765625 76:2200 94:700 119:2400 123:2500 139:1000 145:1000 156:650 165:1500 175:700 
-0.0009765625 8:2000 9:1600 11:1000 12:1500 
-0.0009765625 23:2200 42:1100 74:1600 115:1600 159:700 163:700 
-0.0009765625 126:2500 166:1500 
-0.0009765625 20:2500 52:400 119:2400 143:1000 149:1000 167:1500 
-0.0009765625 33:2300 64:2400 73:1900 78:2200 89:1700 160:700 162:700 174:800 
-0.0009765625 2:2100 99:1200 113:1400 118:1400 126:700 130:1400 141:1400 163:500 
-0.0009765625 57:400 121:2500 
-0.0009765625 40:2500 67:2400 95:1400 161:300 
-0.0009765625 17:1700 18:1900 41:1400 46:1200 71:2200 91:2000 102:2400 113:500 
-0.0009765625 45:400 61:400 114:500 132:2500 135:2500 136:2500 146:2500 175:400 
-0.0009765625 6:2000 18:1900 47:400 122:2500 143:1000 168:1500 
-0.0009765625 23:1400 42:2400 63:2500 
-0.0009765625 52:2500 60:2500 127:250 131:500 
-0.0009765625 8:1100 9:300 46:2500 51:2500 151:200 
-0.0009765625 13:1300 41:2400 53:2500 155:650 
-0.0009765625 5:2200 9:1200 15:2100 26:2300 74:2100 82:800 89:1800 137:1400 144:1400 167:1700 
-0.0009765625 41:700 58:1800 68:2200 111:1600 136:800 142:800 
-0.0009765625 24:1000 76:2500 78:2500 103:2100 105:1600 143:2500 
-0.0009765625 60:1200 118:1600 
-0.0009765625 4:2000 14:2000 25:2300 28:1900 59:1200 65:2400 68:2200 113:1600 135:800 
-0.0009765625 31:2300 37:1700 38:2200 43:1200 63:1200 80:1800 100:800 126:1200 
-0.0009765625 6:1700 17:2200 21:1400 106:1600 140:2500 
-0.0009765625 34:800 39:1700 65:1300 98:1800 108:900 150:2500 
-0.0009765625 15:2300 29:2000 31:2300 33:2300 34:2300 90:1700 96:500 115:1600 
-0.0009765625 44:1200 89:1700 109:1600 124:1200 147:800 
-0.0009765625 102:1400 142:1400 165:1700 
-0.0009765625 57:650 89:1400 125:700 155:2500 173:1000 
-0.0009765625 7:1400 63:2500 
-0.0009765625 2:1900 54:1200 69:1900 98:700 
-0.0009765625 19:1800 41:800 43:1600 74:2100 79:1400 116:1400 119:1400 136:1400 139:1400 154:800 
-0.0009765625 10:2400 26:2000 70:1700 78:2200 93:700 122:1200 154:700 
-0.0009765625 21:1800 88:1600 100:1800 119:1400 151:100 
-0.0009765625 19:2200 24:2200 54:1200 65:2400 86:1500 89:1700 100:800 126:1200 160:700 
-0.0009765625 22:600 129:2500 
-0.0009765625 41:2400 57:2500 60:2500 73:2200 76:1900 83:1800 103:1800 106:300 146:500 169:600 
-0.0009765625 18:2200 80:1800 151:0 161:700 164:1700 
-0.0009765625 2:1000 50:1200 69:2500 111:1600 
-0.0009765625 109:2500 140:800 
-0.0009765625 72:1800 103:1800 164:1800 
-0.0009765625 7:2300 19:1800 53:1800 74:2100 77:1600 83:1900 133:1400 134:1400 137:1400 174:1000 
-0.0009765625 28:1900 49:1200 66:2400 83:1400 111:1600 116:1600 121:1200 123:1200 158:700 166:1700 
-0.0009765625 27:2400 51:2500 57:2500 92:1900 93:1900 95:1900 115:200 148:500 
-0.0009765625 4:2000 22:2000 39:2000 44:1200 121:1200 125:1200 146:800 
-0.0009765625 2:1000 5:1600 33:2300 47:1200 58:1800 88:1700 92:700 123:1200 139:800 156:700 
-0.0009765625 8:2000 66:2400 70:1700 73:1900 91:1800 116:1600 
-0.0009765625 18:2200 56:1600 70:1700 74:1600 125:1200 129:800 164:1700 
-0.0009765625 51:250 77:1000 162:2500 163:2500 
-0.0009765625 60:1200 99:2400 142:600 
-0.0009765625 13:2200 31:2300 46:1200 71:2200 91:1800 119:1600 127:1500 145:800 166:1700 174:800 
-0.0009765625 2:1900 93:1700 165:1300 
-0.0009765625 5:700 27:2400 46:2500 50:2500 51:2500 90:2100 137:500 172:600 
-0.0009765625 31:2300 44:1200 84:1400 116:1600 117:1600 122:1200 157:700 
-0.0009765625 10:1800 53:1800 95:1900 102:1400 165:1700 
-0.0009765625 30:2100 66:1900 95:1900 108:1100 115:1400 
-0.0009765625 32:1200 173:2500 
-0.0009765625 75:1600 90:1700 113:1600 123:1200 
-0.0009765625 30:2200 64:2400 89:1700 122:1200 123:1200 
-0.0009765625 31:1100 56:1600 105:1600 113:500 144:2500 147:2500 
-0.0009765625 4:2000 15:2300 24:2200 68:2200 79:2100 86:1500 115:1600 128:500 132:800 
-0.0009765625 7:1600 14:1400 55:400 68:800 131:2500 137:2500 138:2500 148:2500 160:250 166:600 
-0.0009765625 25:2300 144:800 
-0.0009765625 1:2000 5:2200 49:1000 111:1400 170:1000 
-0.0009765625 2:1000 3:2400 58:1800 84:1400 172:800 
-0.0009765625 37:2200 49:2500 94:1900 127:250 138:500 
-0.0009765625 9:1600 18:2200 60:1200 67:2200 
-0.0009765625 69:500 104:1600 143:2500 
-0.0009765625 41:600 80:0 100:400 121:2500 126:2500 148:1000 
-0.0009765625 28:2200 135:1400 172:1000 
-0.0009765625 21:2100 33:1100 38:1900 41:2400 82:1800 143:500 
-0.0009765625 21:2200 25:2300 61:1400 76:2200 83:1400 93:700 125:1200 168:1700 
-0.0009765625 24:2200 30:2200 36:2300 43:1200 98:500 149:800 152:0 
-0.0009765625 10:2400 32:2300 37:1700 55:1200 94:700 171:800 
-0.0009765625 8:2100 17:2000 18:2000 92:500 102:1400 108:1100 135:1400 139:1400 157:800 168:1700 
-0.0009765625 91:1100 160:2500 
-0.0009765625 78:2200 80:1800 145:800 158:700 
-0.0009765625 20:2000 23:2100 31:2300 61:1500 89:1800 90:800 108:1100 130:1400 142:1400 159:500 
-0.0009765625 36:2300 43:1600 
-0.0009765625 2:2100 10:1800 63:900 83:1900 88:1600 89:1800 145:1400 146:1400 165:1700 
-0.0009765625 48:1200 79:2100 81:2000 148:800 
-0.0009765625 14:2100 20:2000 41:800 91:1600 97:0 99:1200 142:1400 159:500 172:1000 175:1000 
-0.0009765625 12:2200 21:2100 42:2400 44:2500 55:2500 72:1800 87:1800 164:1800 169:600 
-0.0009765625 3:2400 49:1200 144:800 
-0.0009765625 66:2400 92:700 127:1500 156:700 
-0.0009765625 33:1100 58:2500 82:1800 95:1900 129:500 158:100 
-0.0009765625 30:1300 108:1600 134:2500 139:2500 
-0.0009765625 79:1100 102:2400 169:700 
-0.0009765625 7:2100 50:1200 105:1200 140:800 165:1700 
-0.0009765625 38:1400 118:2500 
-0.0009765625 4:1450 11:1600 68:1300 101:2200 106:1200 124:700 132:1400 151:100 154:800 159:500 
-0.0009765625 2:2100 57:1000 61:1500 66:1900 75:2100 138:1400 143:1400 158:500 163:500 169:1000 
-0.0009765625 19:2200 36:2300 38:2200 44:1200 91:1800 118:1600 119:1600 140:800 171:800 174:800 
-0.0009765625 13:2200 28:1900 47:1200 56:1600 69:2500 86:1500 139:800 163:700 
-0.0009765625 7:1400 70:1600 129:200 171:2500 174:2500 
-0.0009765625 4:50 48:2500 55:2500 56:2500 60:2500 62:2500 148:500 150:200 
-0.0009765625 26:2300 45:200 64:2200 111:1400 128:900 134:1400 148:1400 
-0.0009765625 28:1100 64:1000 68:800 76:2500 105:1600 107:1600 131:2500 135:2500 141:2500 168:600 
-0.0009765625 24:2200 48:1200 57:1200 69:2500 71:2200 86:1500 123:1200 154:700 
-0.0009765625 81:400 91:800 105:1600 143:2500 145:2500 146:2500 150:800 163:250 
-0.0009765625 60:2500 61:2500 78:1900 126:250 161:100 168:1800 174:600 
-0.0009765625 19:1800 32:1400 113:500 135:2500 142:2500 149:2500 151:800 
-0.0009765625 34:1800 77:1400 109:2500 112:2500 175:600 
-0.0009765625 1:2200 48:1200 102:2400 113:500 145:600 155:400 
-0.0009765625 39:2300 66:1900 83:1900 128:900 167:1700 
-0.0009765625 4:0 38:2500 42:200 90:800 106:1600 129:2500 137:2500 
-0.0009765625 20:2000 99:1200 
-0.0009765625 8:2100 12:1100 101:2200 142:1400 170:1000 
-0.0009765625 18:2200 45:1200 115:1600 
-0.0009765625 28:1900 29:2000 51:1200 82:1400 92:700 109:1600 120:1600 155:700 167:1700 
-0.0009765625 2:2100 8:2100 28:2200 49:1000 56:600 75:2100 84:1200 
-0.0009765625 14:2100 65:1800 73:1900 130:1400 145:1400 
-0.0009765625 13:2000 32:2000 72:1700 81:1400 95:1900 131:1400 135:1400 
-0.0009765625 43:1600 87:500 99:1200 109:1400 129:1400 171:1000 
-0.0009765625 2:1000 4:2000 14:2000 21:2200 42:1100 52:1200 70:1700 106:1400 123:1200 152:0 
-0.0009765625 11:1000 33:2300 49:1200 71:2200 72:1700 133:800 167:1700 170:800 
-0.0009765625 18:2000 42:1200 100:1800 128:900 149:1400 
-0.0009765625 55:1200 100:2400 150:200 164:1300 174:700 
-0.0009765625 1:2200 7:1700 54:1200 82:700 96:700 99:2400 148:600 
-0.0009765625 22:600 62:400 97:50 99:200 110:500 129:2500 146:2500 148:2500 
-0.0009765625 26:300 70:1400 92:800 129:2500 133:2500 150:800 151:800 
-0.0009765625 34:1000 38:1900 48:2500 54:2500 64:600 88:2100 89:2100 94:1900 95:1900 121:250 
-0.0009765625 63:1200 64:2400 76:2200 77:2200 90:1700 112:1600 133:800 158:700 169:800 
-0.0009765625 6:2200 13:2000 57:1000 131:1400 140:1400 143:1400 163:500 164:1700 173:1000 175:1000 
-0.0009765625 3:500 98:50 118:500 135:2500 146:2500 149:2500 
-0.0009765625 55:1200 86:2100 146:1400 
-0.0009765625 19:1800 70:1400 121:800 134:2500 138:2500 143:2500 171:400 
-0.0009765625 6:1400 28:1900 40:2300 56:1600 81:2000 95:700 162:700 167:1700 
-0.0009765625 8:2100 20:2000 23:2100 60:700 67:2000 88:1600 105:1100 109:1400 132:1400 139:1400 
-0.0009765625 93:800 144:2500 
-0.0009765625 71:2200 110:1600 123:1200 
-0.0009765625 18:2200 27:1800 55:1200 74:1600 84:1400 85:1400 123:1200 
-0.0009765625 16:2400 46:1200 166:1700 169:800 
-0.0009765625 66:1000 145:2500 
-0.0009765625 44:2500 49:2500 90:2100 109:200 115:200 
-0.0009765625 6:2200 31:2300 34:2200 39:2300 132:1400 140:1400 141:1400 172:1000 173:1000 
-0.0009765625 29:1200 148:2500 
-0.0009765625 16:1700 87:1600 106:1300 124:2500 157:650 
-0.0009765625 114:1000 170:2500 
-0.0009765625 12:1500 29:2000 81:2000 
-0.0009765625 40:1500 73:1900 109:1400 136:1400 138:1400 164:1700 171:1000 
-0.0009765625 72:600 90:800 126:800 136:2500 143:2500 
-0.0009765625 6:400 13:1300 51:2500 59:2500 62:2500 63:2500 
-0.0009765625 25:400 31:1100 116:500 129:2500 139:2500 143:2500 147:2500 152:800 162:250 
-0.0009765625 1:1200 8:2000 16:2400 33:2300 44:1200 116:1600 157:700 166:1700 
-0.0009765625 7:2100 18:2200 45:1200 62:1200 71:2200 72:1700 105:1200 113:1600 115:1600 160:700 
-0.0009765625 27:1600 43:1600 49:1000 80:1600 97:0 115:1400 132:1400 144:1400 157:800 163:500 
-0.0009765625 1:1200 21:2200 59:1200 65:2400 72:1700 
-0.0009765625 8:2100 31:2300 72:1700 117:1400 141:1400 155:800 160:500 
-0.0009765625 2:2100 35:2000 135:1400 151:100 153:800 156:800 167:1700 
-0.0009765625 13:2300 37:1700 38:2500 106:2500 117:200 
-0.0009765625 60:2500 89:2100 147:500 
-0.0009765625 21:2100 60:2500 86:1500 
-0.0009765625 5:2200 51:800 72:1700 86:2100 123:700 140:1400 146:1400 
-0.0009765625 40:2300 63:1200 78:2200 79:2100 100:800 123:1200 127:1500 132:800 
-0.0009765625 12:1500 66:2400 73:1900 97:500 168:1700 
-0.0009765625 12:1500 69:2500 85:1400 108:1200 134:800 
-0.0009765625 80:1800 85:1400 
-0.0009765625 5:2100 32:1800 45:400 53:400 103:2200 121:2500 134:1000 146:1000 151:500 160:1300 
-0.0009765625 46:2500 60:2500 72:1800 93:1900 106:300 165:1800 
-0.0009765625 21:2100 26:0 43:2400 48:2500 57:2500 73:2200 99:300 117:200 
-0.0009765625 86:900 154:2500 
-0.0009765625 3:1500 5:2200 77:1600 99:1200 129:1400 154:800 
-0.0009765625 11:1200 46:2500 51:2500 78:1900 91:1400 105:300 130:500 152:200 167:1800 174:600 
-0.0009765625 22:2300 37:2200 93:1900 98:1000 116:200 132:500 153:650 
-0.0009765625 34:1500 77:2200 126:2500 150:500 170:700 
-0.0009765625 24:2200 27:1800 96:500 135:800 145:800 158:700 174:800 
-0.0009765625 53:1600 78:2200 81:2000 92:700 109:1600 120:1600 123:1200 138:800 
-0.0009765625 12:2200 36:900 39:1500 44:2500 63:2500 93:1900 107:300 
-0.0009765625 3:2400 4:2000 14:2000 39:2000 89:1700 92:700 141:800 146:800 160:700 
-0.0009765625 96:700 100:2400 
-0.0009765625 55:1200 61:1500 84:1200 101:2200 103:1700 132:1400 161:500 
-0.0009765625 5:700 37:2200 38:1900 42:2400 48:2500 58:2500 85:1800 125:250 144:500 148:500 
-0.0009765625 5:2100 21:1700 73:2000 89:1000 128:1000 163:1300 
-0.0009765625 14:2000 58:1800 64:2400 109:1600 115:1600 125:1200 169:800 170:800 
-0.0009765625 67:2000 75:2100 82:800 96:200 136:1400 154:800 
-0.0009765625 97:600 107:1300 120:2400 121:2500 
-0.0009765625 38:2200 54:1200 79:2100 81:2000 
-0.0009765625 11:2000 40:1700 41:700 94:1000 158:1400 
-0.0009765625 60:650 72:1600 94:1000 144:600 157:2500 162:1400 170:1000 
-0.0009765625 1:1200 18:2200 21:2200 62:1200 75:1600 98:500 113:1600 116:1600 139:800 
-0.0009765625 3:2400 25:2300 73:1900 135:800 164:1700 
-0.0009765625 9:1600 15:2300 63:1200 67:2200 
-0.0009765625 38:1900 55:2500 63:2500 70:1800 
-0.0009765625 6:2200 9:1200 66:1900 74:2100 84:1200 95:1900 122:700 134:1400 150:100 
-0.0009765625 11:1000 30:2200 52:1200 98:500 112:1600 114:1600 118:1600 125:1200 141:800 161:700 
-0.0009765625 6:2400 19:900 117:2500 
-0.0009765625 30:2200 50:1200 51:1200 111:1600 123:1200 138:800 144:800 153:700 156:700 
-0.0009765625 27:1600 80:1600 96:200 112:1400 117:1400 133:1400 136:1400 139:1400 168:1700 173:1000 
-0.0009765625 10:2400 37:1700 47:1200 75:1600 82:1400 94:700 111:1600 159:700 
-0.0009765625 66:2300 112:2500 
-0.0009765625 31:2300 54:1200 
-0.0009765625 33:1100 54:2500 85:1800 172:600 
-0.0009765625 63:250 162:2500 
-0.0009765625 2:200 23:1400 44:2500 47:2500 86:1500 94:1900 
-0.0009765625 46:2500 51:2500 76:1900 81:1200 146:500 
-0.0009765625 14:1800 17:2100 20:2500 70:700 161:1300 
-0.0009765625 14:2000 21:2200 75:1600 116:1600 126:1200 161:700 170:800 
-0.0009765625 134:2500 173:400 
-0.0009765625 73:1900 81:2000 114:1600 140:800 160:700 163:700 166:1700 
-0.0009765625 4:2000 42:1100 49:1200 51:1200 61:1400 66:2400 68:2200 69:2500 86:1500 127:1500 
-0.0009765625 4:2000 53:1600 54:1200 73:1900 75:1600 97:500 98:500 131:800 147:800 160:700 
-0.0009765625 23:1800 129:2500 
-0.0009765625 4:2000 15:2300 21:2200 31:2300 36:2300 85:1400 107:1200 117:1600 154:700 173:800 
-0.0009765625 57:250 140:750 158:2500 
-0.0009765625 18:1300 34:1800 136:750 160:2500 
-0.0009765625 5:700 50:2500 55:2500 56:2500 75:0 138:500 150:200 155:650 
-0.0009765625 34:1500 97:600 126:2500 166:1500 
-0.0009765625 43:900 69:1500 81:1100 93:700 119:2400 121:2500 133:1000 169:700 
-0.0009765625 22:2000 25:2300 67:2200 71:2200 80:1800 84:1400 89:1700 146:800 159:700 174:800 
-0.0009765625 7:2300 23:2100 35:2000 82:800 86:2100 118:1400 121:700 164:1700 172:1000 
-0.0009765625 29:1800 47:300 108:2500 141:1700 
-0.0009765625 8:2100 80:1600 137:1400 143:1400 144:1400 164:1700 167:1700 
-0.0009765625 6:2000 120:2400 
-0.0009765625 1:2000 11:1600 28:2200 62:400 78:1600 86:2100 100:1800 132:1400 134:1400 142:1400 
-0.0009765625 24:2200 27:1800 51:1200 61:1400 66:2400 117:1600 123:1200 132:800 138:800 
-0.0009765625 12:2200 22:2300 31:700 49:2500 51:2500 63:2500 65:600 124:250 143:500 
-0.0009765625 18:2200 25:2300 54:1200 63:1200 77:2200 84:1400 98:500 119:1600 151:0 
-0.0009765625 37:1700 72:1700 115:1600 140:800 
-0.0009765625 4:2000 29:2000 30:2200 53:1600 62:1200 95:700 110:1600 121:1200 143:800 162:700 
-0.0009765625 12:1100 115:1400 123:700 137:1400 147:1400 165:1700 173:1000 175:1000 
-0.0009765625 31:800 155:2500 165:1600 
-0.0009765625 23:2200 26:2000 42:1100 54:1200 85:1400 105:1200 111:1600 123:1200 164:1700 165:1700 
-0.0009765625 69:2500 82:1400 97:500 
-0.0009765625 16:800 138:2500 139:2500 170:400 
-0.0009765625 1:2000 19:1800 50:200 69:1600 75:2100 88:1600 101:2200 
-0.0009765625 22:800 31:1600 106:2500 127:800 128:2500 173:600 
-0.0009765625 17:1200 156:2500 
-0.0009765625 11:1000 12:1500 14:2000 70:1700 79:2100 96:500 115:1600 152:0 170:800 
-0.0009765625 5:2200 20:2000 39:2300 53:1800 144:1400 
-0.0009765625 8:2000 62:1200 65:2400 97:500 98:500 113:1600 130:800 
-0.0009765625 57:400 70:1400 78:2500 98:50 147:2500 149:2500 156:500 
-0.0009765625 36:2300 54:1200 72:1700 87:1200 90:1700 111:1600 126:1200 130:800 
-0.0009765625 21:1800 49:1000 78:1600 86:2100 113:1400 115:1400 139:1400 142:1400 167:1700 
-0.0009765625 22:2000 97:500 104:1200 112:1600 174:800 
-0.0009765625 16:1700 41:600 76:2200 93:700 127:2500 140:1000 
-0.0009765625 3:2400 11:1000 40:2300 41:700 48:1200 53:1600 57:1200 66:2400 125:1200 
-0.0009765625 42:1100 98:500 107:1200 117:1600 125:1200 146:800 167:1700 174:800 
-0.0009765625 61:1500 86:2100 139:1400 144:1400 
-0.0009765625 5:1600 31:2300 51:1200 54:1200 57:1200 74:1600 105:1200 122:1200 154:700 
-0.0009765625 78:2500 106:2500 
-0.0009765625 21:2200 39:2000 55:1200 69:2500 120:1600 150:0 
-0.0009765625 44:400 52:400 75:0 122:2500 125:2500 134:1000 149:1000 152:500 159:1300 
-0.0009765625 24:1200 48:1200 60:1200 71:2200 78:1800 101:2400 102:2400 130:600 
-0.0009765625 9:300 48:400 69:1500 95:700 98:600 103:2200 124:2500 127:2500 175:700 
-0.0009765625 2:1000 9:1600 60:1200 79:2100 84:1400 119:1600 146:800 160:700 164:1700 
-0.0009765625 5:2200 31:2300 35:2000 52:700 53:1800 61:1500 127:1200 129:1400 141:1400 
-0.0009765625 52:1200 56:1600 70:1700 114:1600 117:1600 126:1200 136:800 163:700 
-0.0009765625 7:2300 15:2100 37:1200 57:1000 101:2200 134:1400 149:1400 157:800 
-0.0009765625 6:1700 134:2500 143:2500 
-0.0009765625 7:2100 16:2400 59:1200 111:1600 113:1600 147:800 166:1700 174:800 
-0.0009765625 18:2200 30:2200 45:1200 49:1200 56:1600 76:2200 80:1800 114:1600 123:1200 147:800 
-0.0009765625 39:1500 47:2500 
-0.0009765625 7:2300 17:2000 39:2300 117:1400 140:1400 160:500 169:1000 
-0.0009765625 25:2300 34:2300 63:1200 90:1700 99:800 145:800 169:800 
-0.0009765625 18:600 38:1200 86:900 96:1000 97:1000 146:600 156:2500 157:2500 
-0.0009765625 40:2100 175:2500 
-0.0009765625 78:1900 90:2100 
-0.0009765625 8:2100 31:2300 83:1900 122:700 156:800 
-0.0009765625 10:2400 20:1800 25:2300 28:1900 161:700 166:1700 170:800 174:800 
-0.0009765625 21:1700 126:2500 142:1000 
-0.0009765625 145:200 169:2500 175:2500 
-0.0009765625 10:1800 75:2100 95:1900 104:1100 135:1400 
-0.0009765625 70:1700 71:2200 80:1800 105:1200 118:1600 143:800 170:800 
-0.0009765625 115:2500 141:800 172:600 
-0.0009765625 1:1200 34:2300 51:1200 88:1700 108:1200 125:1200 
-0.0009765625 37:1700 39:2000 42:1100 56:1600 60:1200 69:2500 110:1600 111:1600 119:1600 
-0.0009765625 116:2500 148:800 
-0.0009765625 13:1600 22:1600 46:1200 50:1200 78:1800 95:1700 101:2400 102:2400 134:600 147:600 
-0.0009765625 18:1600 100:200 121:800 131:2500 141:2500 155:500 
-0.0009765625 6:2200 28:2200 31:2300 40:1500 53:1800 100:1800 135:1400 143:1400 147:1400 
-0.0009765625 38:2500 81:400 131:2500 141:2500 142:2500 151:800 155:500 175:400 
-0.0009765625 62:300 108:2500 145:1700 
-0.0009765625 18:2200 39:2000 47:1200 50:1200 58:1800 96:500 118:1600 124:1200 127:1500 170:800 
-0.0009765625 68:150 105:2500 128:2500 
-0.0009765625 6:2200 49:1000 66:1900 84:1200 93:100 120:1400 134:1400 140:1400 157:800 158:500 
-0.0009765625 1:1200 3:2400 26:2000 45:1200 62:1200 70:1700 92:700 109:1600 144:800 172:800 
-0.0009765625 66:2400 93:700 101:1000 125:1200 158:700 171:800 
-0.0009765625 8:1100 39:1500 47:2500 97:1000 
-0.0009765625 8:800 11:400 14:1400 38:2500 87:1400 136:2500 139:2500 145:2500 154:500 162:250 
-0.0009765625 37:1700 39:2400 56:1900 79:700 104:2500 135:1700 
-0.0009765625 5:2200 15:2100 44:700 134:1400 
-0.0009765625 25:2500 71:2400 
-0.0009765625 6:2200 18:2000 20:2000 28:2200 54:700 57:1000 102:1400 120:1400 133:1400 147:1400 
-0.0009765625 4:50 48:2500 55:2500 63:2500 146:500 149:500 
