svm_type c_svc
kernel_type rbf
gamma 0.00571429
nr_class 2
total_sv 42014
rho 0.999023
label 1 -1
nr_sv 41 41973
SV
1 67:2400 71:2400 
0.9990234375 25:2500 67:2400 
1 63:1000 68:2400 
1 67:2400 97:800 166:1200 
1 79:1800 93:1400 
1 32:1900 67:2400 92:1400 160:300 
0.9990234375 7:1900 12:1900 
1 12:1900 25:2500 174:200 
1 25:2500 67:2400 
0.9990234375 25:2500 95:1400 
1 12:1900 56:1000 71:2400 
0.9990234375 25:2500 40:2500 
1 12:1900 32:1900 
1 25:2500 40:2500 
1 25:2500 95:1400 
0.9990234375 16:2200 93:1400 
1 16:2200 98:800 
1 16:2200 68:2400 71:2400 
1 25:2500 94:1400 138:50 
1 16:2200 93:1400 
1 1:1000 25:2500 68:2400 
1 25:2500 99:1300 
0.9990234375 79:1800 92:1400 
1 25:2500 33:1900 71:2400 
1 79:1800 92:1400 
1 16:2200 71:2400 
1 68:2400 69:1900 93:1400 105:800 151:400 
1 12:1900 63:1000 71:2400 
1 25:2500 33:1900 94:1400 
0.9990234375 68:2400 
1 68:2400 
0.9990234375 25:2500 
1 25:2500 
0.9990234375 67:2400 
0.9990234375 40:2500 
0.9990234375 71:2400 
1 71:2400 
1 25:2500 67:2400 93:1400 113:300 152:400 
1 67:2400 
1 7:1900 12:1900 
1 40:2500 
-0.0009765625 27:1800 70:1700 82:1400 119:1600 
-0.0009765625 32:2300 45:1200 50:1200 63:1200 69:2500 75:1600 89:1700 136:800 145:800 
-0.0009765625 21:2200 27:1800 52:1200 66:2400 107:1200 140:800 
-0.0009765625 1:1200 7:2100 20:1800 54:1200 61:1400 68:2200 86:1500 93:700 107:1200 
-0.0009765625 15:2300 63:1200 74:1600 77:2200 101:1000 120:1600 124:1200 163:700 
-0.0009765625 81:400 97:50 142:2500 149:2500 
-0.0009765625 25:2300 30:2200 55:1200 77:2200 121:1200 135:800 
-0.0009765625 3:2400 29:2000 50:1200 53:1600 78:2200 152:0 165:1700 
-0.0009765625 26:2000 78:2200 172:800 
-0.0009765625 29:2200 31:2300 88:1600 99:1200 109:1400 
-0.0009765625 4:2000 27:1800 54:1200 58:1800 89:1700 101:1000 132:800 158:700 
-0.0009765625 5:700 35:1500 41:2400 55:2500 59:2500 113:200 128:700 138:500 
-0.0009765625 26:2300 39:2300 46:400 95:1900 96:200 115:1400 145:1400 155:800 167:1700 
-0.0009765625 29:2000 47:1200 74:1600 
-0.0009765625 7:2100 13:2200 32:2300 71:2200 105:1200 134:800 
-0.0009765625 9:1600 25:2300 27:1800 31:2300 34:2300 84:1400 100:800 138:800 144:800 
-0.0009765625 5:1600 32:2300 34:2300 37:1700 66:2400 69:2500 114:1600 136:800 142:800 
-0.0009765625 3:500 22:600 63:400 134:2500 137:2500 138:2500 175:400 
-0.0009765625 8:2000 24:2200 40:2300 104:1200 120:1600 
-0.0009765625 55:650 107:950 143:600 156:2500 172:1000 
-0.0009765625 3:2400 16:2400 27:1800 51:1200 65:2400 79:2100 98:500 123:1200 125:1200 
-0.0009765625 18:1600 62:2500 84:1800 97:1000 103:1800 104:300 116:200 128:700 155:650 
-0.0009765625 27:1800 62:1200 85:1400 91:1800 99:800 104:1200 108:1200 
-0.0009765625 32:1400 133:2500 
-0.0009765625 38:2200 57:1200 68:2200 92:700 107:1200 119:1600 171:800 
-0.0009765625 1:1200 26:2000 30:2200 38:2200 51:1200 66:2400 99:800 122:1200 150:0 155:700 
-0.0009765625 19:2200 33:2300 37:1700 87:1200 
-0.0009765625 52:700 82:800 101:2200 137:1400 139:1400 158:500 
-0.0009765625 9:1600 43:1200 59:1200 67:2200 75:1600 99:800 117:1600 161:700 173:800 
-0.0009765625 4:2000 69:2500 75:1600 82:1400 122:1200 142:800 
-0.0009765625 29:2000 84:1400 97:500 125:1200 146:800 
-0.0009765625 44:2500 57:2500 89:2100 136:500 149:500 154:650 158:100 174:600 
-0.0009765625 18:2200 20:1800 33:2300 34:2300 57:1200 77:2200 152:0 
-0.0009765625 60:400 126:2500 135:1000 160:1300 
-0.0009765625 87:200 108:700 144:750 159:2500 163:2500 
-0.0009765625 3:2400 23:2200 66:2400 72:1700 108:1200 
-0.0009765625 29:2200 72:1700 
-0.0009765625 31:2300 77:2200 87:1200 
-0.0009765625 15:1700 42:2400 57:2500 59:2500 82:1800 106:300 110:200 136:500 146:500 164:1800 
-0.0009765625 83:1900 102:1400 142:1400 161:500 
-0.0009765625 56:1600 77:2200 94:700 118:1600 126:1200 133:800 167:1700 173:800 
-0.0009765625 20:1800 26:2000 41:700 63:1200 71:2200 114:1600 145:800 
-0.0009765625 30:700 35:1500 50:2500 93:1900 171:600 
-0.0009765625 3:500 7:1600 8:800 40:1700 79:950 128:2500 137:2500 142:2500 148:2500 
-0.0009765625 92:400 161:2500 163:2500 
-0.0009765625 26:2000 44:1200 70:1700 90:1700 
-0.0009765625 26:2000 42:1100 50:1200 67:2200 92:700 109:1600 113:1600 134:800 157:700 
-0.0009765625 6:2000 45:400 55:400 76:2200 93:700 101:300 123:2500 126:2500 152:500 
-0.0009765625 2:1000 3:2400 16:2400 25:2300 74:1600 105:1200 119:1600 124:1200 125:1200 
-0.0009765625 11:1200 54:2500 94:1900 127:250 167:1800 174:600 
-0.0009765625 11:1600 20:2000 41:800 49:1000 73:1900 138:1400 146:1400 
-0.0009765625 7:2100 25:2300 32:2300 34:2300 98:500 119:1600 174:800 
-0.0009765625 22:600 42:200 78:2500 133:2500 134:2500 157:500 
-0.0009765625 18:800 39:2400 42:700 70:1400 76:2500 106:2500 149:1700 171:600 
-0.0009765625 50:1200 66:2400 91:1800 100:800 123:1200 127:1500 145:800 164:1700 173:800 
-0.0009765625 7:2100 47:1200 71:2200 83:1400 87:1200 104:1200 123:1200 140:800 158:700 174:800 
-0.0009765625 18:2200 21:2200 23:2200 30:2200 48:1200 77:2200 79:2100 105:1200 111:1600 164:1700 
-0.0009765625 123:2500 130:1000 
-0.0009765625 26:2300 29:2200 46:400 72:1700 74:2100 75:2100 76:1600 121:700 136:1400 151:100 
-0.0009765625 20:2000 24:1500 91:1600 95:1900 112:1400 130:1400 151:100 161:500 
-0.0009765625 16:2400 60:1200 62:1200 64:2400 96:500 98:500 111:1600 115:1600 172:800 
-0.0009765625 116:2500 117:2500 157:150 173:600 
-0.0009765625 1:2000 64:2200 161:500 
-0.0009765625 7:2100 10:2400 30:2200 37:1700 88:1700 89:1700 113:1600 121:1200 
-0.0009765625 15:2100 115:1400 139:1400 
-0.0009765625 13:2200 32:2300 43:1200 55:1200 59:1200 71:2200 74:1600 80:1800 94:700 
-0.0009765625 29:2000 58:1800 66:2400 111:1600 113:1600 174:800 
-0.0009765625 40:1500 75:2100 139:1400 
-0.0009765625 1:2000 39:2300 41:800 80:1600 123:700 129:1400 133:1400 165:1700 174:1000 
-0.0009765625 29:2000 32:2300 69:2500 87:1200 119:1600 134:800 153:700 
-0.0009765625 5:2200 22:1300 26:2300 88:1600 89:1800 120:1400 139:1400 168:1700 
-0.0009765625 3:2400 45:1200 68:2200 106:1400 124:1200 125:1200 135:800 166:1700 168:1700 
-0.0009765625 15:2100 18:2000 35:2000 49:1000 67:2000 82:800 98:100 101:2200 120:1400 133:1400 
-0.0009765625 32:2000 41:800 71:1300 82:800 86:2100 111:1400 144:1400 149:1400 175:1000 
-0.0009765625 37:2200 61:2500 81:1200 136:500 
-0.0009765625 69:1500 72:1500 125:2500 
-0.0009765625 27:2400 39:1500 56:2500 72:1800 100:300 
-0.0009765625 40:2300 62:1200 64:2400 75:1600 103:1200 118:1600 143:800 
-0.0009765625 60:400 92:800 94:800 110:500 131:2500 149:2500 
-0.0009765625 25:2300 65:2400 87:1200 90:1700 94:700 111:1600 134:800 163:700 172:800 
-0.0009765625 2:1900 40:2300 49:1200 100:2400 
-0.0009765625 16:2400 35:800 87:1200 98:500 109:1600 125:1200 156:700 166:1700 
-0.0009765625 13:2200 24:1000 53:400 77:2500 93:800 108:1600 136:2500 148:2500 153:500 159:250 
-0.0009765625 60:400 93:800 94:800 127:800 132:2500 135:2500 138:2500 142:2500 
-0.0009765625 66:2400 67:2200 80:1800 114:1600 141:800 154:700 
-0.0009765625 17:2100 23:2500 119:2400 157:650 
-0.0009765625 36:900 45:2500 90:2100 94:1900 98:1000 137:500 149:500 160:100 166:1800 
-0.0009765625 3:2400 15:2300 42:1100 76:2200 81:2000 124:1200 160:700 
-0.0009765625 48:400 54:400 101:300 121:2500 122:2500 
-0.0009765625 139:750 163:2500 
-0.0009765625 1:1200 43:1200 45:1200 68:2200 69:2500 120:1600 123:1200 164:1700 170:800 
-0.0009765625 22:2300 43:2400 45:2500 158:100 
-0.0009765625 49:2500 52:2500 90:2100 94:1900 140:500 174:600 
-0.0009765625 5:1850 15:1600 30:1300 39:2400 123:800 129:2500 137:2500 143:2500 162:250 
-0.0009765625 16:2400 20:1800 21:2200 42:1100 89:1700 117:1600 121:1200 122:1200 
-0.0009765625 8:800 60:400 70:1400 123:800 132:2500 144:2500 
-0.0009765625 17:2000 29:2200 113:1400 155:800 
-0.0009765625 19:400 41:2400 46:2500 
-0.0009765625 13:2200 21:2200 23:2200 32:2300 51:1200 67:2200 87:1200 95:700 97:500 
-0.0009765625 6:1400 54:1200 79:2100 83:1400 88:1700 90:1700 102:1000 118:1600 160:700 168:1700 
-0.0009765625 23:2200 35:800 62:1200 64:2400 72:1700 79:2100 83:1400 85:1400 164:1700 
-0.0009765625 29:2000 76:2200 111:1600 118:1600 128:500 164:1700 
-0.0009765625 2:750 94:1000 129:600 130:600 155:2500 159:1400 
-0.0009765625 50:2500 152:200 169:600 
-0.0009765625 42:2400 72:1800 
-0.0009765625 19:2200 63:1200 84:1400 109:1600 
-0.0009765625 37:2200 51:2500 59:2500 77:1900 98:1000 117:200 125:250 150:200 160:100 
-0.0009765625 10:2400 11:1000 21:2200 22:2000 77:2200 145:800 146:800 151:0 
-0.0009765625 122:2500 129:1000 151:500 155:650 
-0.0009765625 16:2400 69:2500 
-0.0009765625 6:1700 84:400 87:1400 99:200 129:2500 131:2500 148:2500 
-0.0009765625 22:2000 23:2200 
-0.0009765625 14:2000 23:2200 45:1200 47:1200 109:1600 139:800 144:800 159:700 
-0.0009765625 7:2300 35:2000 42:1200 66:1900 97:0 121:700 143:1400 144:1400 152:100 
-0.0009765625 66:2400 93:700 
-0.0009765625 1:2000 75:2100 132:1400 
-0.0009765625 2:2100 39:2300 43:1600 70:1800 90:800 169:1000 
-0.0009765625 34:1000 75:0 137:2500 138:2500 141:2500 
-0.0009765625 27:2400 42:2400 45:2500 55:2500 82:1800 90:2100 97:1000 145:500 160:100 
-0.0009765625 20:2100 36:200 47:400 76:2500 113:500 128:2500 131:2500 133:2500 164:600 174:400 
-0.0009765625 10:2400 21:2200 76:2200 97:500 102:1000 106:1400 142:800 160:700 163:700 
-0.0009765625 2:2100 39:2300 42:1200 51:800 57:1000 60:700 100:1800 126:700 140:1400 142:1400 
-0.0009765625 25:2300 102:1000 112:1600 
-0.0009765625 30:2100 73:1900 117:1400 143:1400 
-0.0009765625 1:2000 13:2000 91:1600 163:500 
-0.0009765625 8:2000 9:1600 37:1700 60:1200 97:500 104:1200 107:1200 152:0 
-0.0009765625 37:1700 42:1100 58:1800 65:2400 108:1200 110:1600 119:1600 138:800 145:800 146:800 
-0.0009765625 71:1300 75:2100 88:1600 143:1400 144:1400 148:1400 173:1000 
-0.0009765625 15:2300 32:2300 56:1600 115:1600 147:800 156:700 
-0.0009765625 54:1200 65:2400 67:2200 68:2200 85:1400 111:1600 115:1600 120:1600 135:800 
-0.0009765625 24:2200 38:2200 102:1000 109:1600 141:800 
-0.0009765625 10:200 23:1800 48:400 135:2500 142:2500 144:2500 160:250 165:600 
-0.0009765625 8:800 13:2200 23:1800 61:400 103:2100 107:1600 128:2500 148:2500 
-0.0009765625 25:2300 28:1900 40:2300 116:1600 121:1200 122:1200 
-0.0009765625 17:2200 30:1300 57:400 98:50 129:2500 149:2500 152:800 
-0.0009765625 7:1400 45:2500 53:2500 59:2500 145:500 158:100 
-0.0009765625 15:1700 35:1500 45:2500 47:2500 50:2500 73:2200 90:2100 102:200 131:500 
-0.0009765625 1:2200 38:1800 56:1200 84:700 95:1700 98:700 100:2400 104:800 147:600 157:400 
-0.0009765625 25:1000 34:1800 150:300 159:2500 
-0.0009765625 24:2200 38:2200 58:1800 102:1000 164:1700 165:1700 
-0.0009765625 4:2000 47:1200 54:1200 113:1600 127:1500 131:800 135:800 136:800 158:700 
-0.0009765625 36:2300 87:1200 
-0.0009765625 13:2200 17:2000 33:2300 54:1200 65:2400 72:1700 100:800 147:800 159:700 175:800 
-0.0009765625 74:1600 90:1700 91:1800 110:1600 171:800 
-0.0009765625 26:2300 33:2000 67:2000 89:1800 101:2200 157:800 164:1700 165:1700 
-0.0009765625 5:2000 34:1800 112:2500 157:150 158:650 
-0.0009765625 8:2000 9:1600 10:2400 16:2400 73:1900 143:800 144:800 174:800 
-0.0009765625 14:2000 48:1200 62:1200 81:2000 82:1400 87:1200 101:1000 119:1600 
-0.0009765625 14:2000 34:2300 42:1100 62:1200 72:1700 118:1600 132:800 167:1700 
-0.0009765625 8:1100 44:2500 51:2500 53:2500 73:2200 117:200 137:500 144:500 150:200 167:1800 
-0.0009765625 2:900 19:950 42:1000 53:500 78:2100 98:1800 150:2500 162:150 
-0.0009765625 6:2200 9:1200 13:2000 36:2300 38:1600 67:2000 101:2200 124:700 152:100 171:1000 
-0.0009765625 49:2500 173:600 
-0.0009765625 6:400 69:1000 75:0 98:1800 106:900 108:900 150:2500 151:2500 163:150 
-0.0009765625 9:1600 32:2300 58:1800 91:1800 163:700 
-0.0009765625 4:2400 49:200 118:2500 128:400 
-0.0009765625 35:400 36:1400 122:2500 151:500 160:1300 
-0.0009765625 48:400 68:600 94:700 124:2500 126:2500 172:700 
-0.0009765625 26:2300 85:1500 153:800 
-0.0009765625 25:2300 56:1600 89:1700 91:1800 146:800 163:700 167:1700 
-0.0009765625 2:1000 19:2200 39:2000 46:1200 56:1600 167:1700 
-0.0009765625 25:2300 31:2300 46:1200 69:2500 101:1000 119:1600 125:1200 131:800 
-0.0009765625 6:1400 68:2200 84:1400 108:1200 111:1600 124:1200 127:1500 175:800 
-0.0009765625 3:1500 6:2200 11:1600 34:2200 66:1900 131:1400 
-0.0009765625 13:2000 15:2100 30:2100 86:2100 
-0.0009765625 1:1900 12:2000 41:900 71:1900 136:1200 144:1200 153:500 
-0.0009765625 29:2000 59:1200 69:2500 129:800 163:700 
-0.0009765625 18:1900 102:2400 173:700 
-0.0009765625 51:2500 91:1400 
-0.0009765625 62:1200 65:2400 96:500 111:1600 
-0.0009765625 4:1450 26:2300 27:1600 65:1800 127:1200 134:1400 141:1400 143:1400 151:100 
-0.0009765625 32:2000 35:2000 42:1200 78:1600 79:1400 100:1800 126:700 152:100 168:1700 
-0.0009765625 34:2200 64:2200 95:1900 
-0.0009765625 34:2200 71:1300 80:1600 110:1400 113:1400 130:1400 136:1400 146:1400 152:100 170:1000 
-0.0009765625 5:2100 36:1400 63:400 77:2200 92:700 97:600 122:2500 129:1000 137:1000 
-0.0009765625 59:1200 108:1200 112:1600 
-0.0009765625 4:2000 10:2400 55:1200 88:1700 150:0 
-0.0009765625 16:800 102:0 141:2500 146:2500 148:2500 151:800 163:250 171:400 
-0.0009765625 9:1600 43:1200 49:1200 71:2200 75:1600 79:2100 86:1500 109:1600 146:800 
-0.0009765625 47:1000 67:2200 120:1800 
-0.0009765625 25:2300 140:800 174:800 
-0.0009765625 98:1000 115:500 137:600 156:2500 
-0.0009765625 13:2200 25:2300 30:2200 46:1200 138:800 163:700 165:1700 
-0.0009765625 23:2100 28:2200 109:1400 133:1400 
-0.0009765625 47:2500 60:2500 75:0 129:500 162:100 
-0.0009765625 26:2000 32:2300 50:1200 
-0.0009765625 9:1600 42:1100 47:1200 64:2400 76:2200 98:500 
-0.0009765625 13:2200 91:800 96:50 102:0 103:2100 133:2500 135:2500 143:2500 148:2500 153:500 
-0.0009765625 30:2100 39:2300 44:700 112:1400 145:1400 158:500 164:1700 171:1000 
-0.0009765625 37:1700 76:2200 80:1800 90:1700 113:1600 125:1200 129:800 130:800 142:800 
-0.0009765625 3:2400 4:2000 153:700 
-0.0009765625 38:2200 49:1200 62:1200 65:2400 86:1500 104:1200 143:800 159:700 
-0.0009765625 18:1600 43:2400 55:2500 70:1800 88:2100 136:500 139:500 150:200 168:1800 170:600 
-0.0009765625 34:2300 45:1200 61:1400 62:1200 68:2200 90:1700 102:1000 116:1600 124:1200 147:800 
-0.0009765625 67:2000 83:1900 
-0.0009765625 35:2000 79:1400 83:1900 88:1600 142:1400 
-0.0009765625 34:1800 108:700 151:300 158:2500 
-0.0009765625 19:2200 44:1200 
-0.0009765625 23:1400 50:2500 60:2500 61:2500 158:100 
-0.0009765625 41:1000 43:1300 97:1800 98:1800 143:300 150:2500 152:2500 168:400 
-0.0009765625 32:2300 37:1700 49:1200 56:1600 121:1200 138:800 161:700 171:800 
-0.0009765625 32:1400 82:400 91:800 143:2500 148:2500 153:500 
-0.0009765625 20:500 48:2500 59:2500 
-0.0009765625 49:1200 87:1200 109:1600 126:1200 129:800 155:700 
-0.0009765625 5:2200 12:1100 20:2000 100:1800 142:1400 166:1700 171:1000 
-0.0009765625 6:400 50:2500 58:2500 59:2500 83:1800 86:1500 94:1900 167:1800 
-0.0009765625 23:2200 58:1800 86:1500 91:1800 107:1200 135:800 164:1700 169:800 
-0.0009765625 17:2000 20:1800 26:2000 42:1100 82:1400 109:1600 110:1600 121:1200 138:800 
-0.0009765625 6:2200 55:1200 74:2100 99:1200 115:1400 124:700 134:1400 144:1400 167:1700 
-0.0009765625 65:2400 80:1800 87:1200 88:1700 170:800 173:800 
-0.0009765625 10:2400 32:2300 49:1200 65:2400 146:800 171:800 
-0.0009765625 19:2200 25:2300 64:2400 126:1200 134:800 137:800 
-0.0009765625 1:2200 9:1300 51:1200 53:1200 100:2400 163:50 
-0.0009765625 63:900 74:2100 113:1400 138:1400 175:1000 
-0.0009765625 3:2400 23:2200 68:2200 100:800 104:1200 153:700 
-0.0009765625 37:1300 61:1200 100:2400 102:2400 171:700 
-0.0009765625 6:1700 134:2500 
-0.0009765625 37:1100 85:300 89:500 132:200 166:1400 170:2500 171:2500 172:2500 
-0.0009765625 55:1200 63:1200 77:2200 86:1500 112:1600 133:800 162:700 
-0.0009765625 24:2000 60:400 120:2400 130:1000 
-0.0009765625 2:2100 26:2300 111:1400 124:700 131:1400 156:800 
-0.0009765625 1:1200 8:2000 25:2300 41:700 63:1200 64:2400 70:1700 102:1000 107:1200 165:1700 
-0.0009765625 20:500 42:2400 48:2500 59:2500 75:0 138:500 145:500 154:650 166:1800 
-0.0009765625 23:2200 32:2300 50:1200 55:1200 79:2100 99:800 118:1600 130:800 137:800 165:1700 
-0.0009765625 10:2400 15:2300 50:1200 61:1400 66:2400 69:2500 113:1600 148:800 
-0.0009765625 5:2100 12:1800 78:2200 110:400 127:2500 163:1300 172:700 
-0.0009765625 1:2000 11:1600 84:1200 100:1800 107:1100 121:700 
-0.0009765625 1:1200 3:2400 9:1600 25:2300 36:2300 48:1200 64:2400 112:1600 131:800 165:1700 
-0.0009765625 7:1400 44:2500 53:2500 77:1900 84:1800 143:500 
-0.0009765625 9:1600 20:1800 27:1800 44:1200 56:1600 68:2200 72:1700 73:1900 144:800 147:800 
-0.0009765625 15:2300 70:1700 77:2200 158:700 
-0.0009765625 67:400 92:2500 93:2500 98:2200 103:1100 120:500 
-0.0009765625 14:2000 25:2300 60:1200 141:800 
-0.0009765625 51:2500 92:1900 
-0.0009765625 4:2000 29:2000 60:1200 65:2400 83:1400 108:1200 115:1600 124:1200 127:1500 
-0.0009765625 73:1900 105:1100 148:1400 173:1000 
-0.0009765625 11:1200 37:2200 70:1800 
-0.0009765625 11:300 104:2500 152:1000 
-0.0009765625 39:2400 43:200 54:400 62:400 126:800 127:800 129:2500 143:2500 148:2500 
-0.0009765625 7:1600 38:2500 47:400 60:400 134:2500 145:2500 160:250 
-0.0009765625 32:2300 63:1200 90:1700 109:1600 112:1600 141:800 
-0.0009765625 10:2400 16:2400 17:2000 37:1700 110:1600 127:1500 130:800 134:800 
-0.0009765625 34:2300 60:1200 62:1200 64:2400 70:1700 94:700 102:1000 131:800 141:800 
-0.0009765625 1:1200 4:2000 49:1200 71:2200 75:1600 85:1400 107:1200 113:1600 161:700 172:800 
-0.0009765625 6:2200 71:1300 117:1400 139:1400 
-0.0009765625 82:1800 84:1800 89:2100 126:250 
-0.0009765625 21:1600 41:700 107:950 156:2500 
-0.0009765625 31:2300 34:2300 74:1600 97:500 117:1600 
-0.0009765625 6:750 93:1700 100:2400 167:1300 
-0.0009765625 8:2000 76:2200 
-0.0009765625 5:2100 23:2500 37:1500 119:2400 166:1500 
-0.0009765625 32:2000 74:2100 75:2100 88:1600 123:700 
-0.0009765625 25:2300 28:1900 34:2300 43:1200 73:1900 76:2200 98:500 101:1000 105:1200 122:1200 
-0.0009765625 8:2100 29:2200 34:2200 
-0.0009765625 16:2400 37:1700 48:1200 60:1200 65:2400 117:1600 130:800 144:800 151:0 
-0.0009765625 57:400 77:2500 135:2500 171:400 
-0.0009765625 5:1600 10:2400 29:2000 32:2300 69:2500 105:1200 113:1600 116:1600 124:1200 171:800 
-0.0009765625 17:900 47:2500 57:2500 96:1000 158:100 
-0.0009765625 32:2300 33:2300 69:2500 86:1500 107:1200 129:800 162:700 168:1700 173:800 174:800 
-0.0009765625 63:2500 93:1900 159:100 
-0.0009765625 13:2000 28:2200 52:700 63:900 68:1300 101:2200 112:1400 135:1400 157:800 167:1700 
-0.0009765625 132:2500 133:2500 139:2500 
-0.0009765625 28:1900 68:2200 82:1400 136:800 
-0.0009765625 8:2100 39:2300 101:2200 132:1400 
-0.0009765625 5:2100 122:2500 149:1000 168:1500 
-0.0009765625 20:2500 93:700 
-0.0009765625 2:1000 46:1200 70:1700 81:2000 91:1800 96:500 110:1600 137:800 
-0.0009765625 8:200 62:650 93:1000 118:500 153:2500 154:2500 167:1600 173:1000 175:1000 
-0.0009765625 75:0 157:2500 163:1400 166:1600 
-0.0009765625 3:2400 5:1600 15:2300 16:2400 158:700 
-0.0009765625 10:2400 54:1200 66:2400 85:1400 106:1400 119:1600 121:1200 147:800 165:1700 
-0.0009765625 23:2200 65:2400 87:1200 90:1700 109:1600 162:700 
-0.0009765625 7:2100 19:2200 38:2200 68:2200 76:2200 94:700 112:1600 122:1200 130:800 174:800 
-0.0009765625 1:1200 14:2000 18:2200 36:2300 48:1200 59:1200 74:1600 77:2200 121:1200 137:800 
-0.0009765625 19:2200 24:2200 108:1200 173:800 175:800 
-0.0009765625 9:1600 15:2300 34:2300 76:2200 79:2100 88:1700 89:1700 113:1600 114:1600 
-0.0009765625 12:1800 33:1800 59:400 126:2500 144:1000 
-0.0009765625 64:2200 74:2100 121:700 130:1400 131:1400 140:1400 163:500 175:1000 
-0.0009765625 11:1200 23:1400 35:1500 54:2500 59:2500 127:250 128:700 134:500 
-0.0009765625 1:1200 9:1600 15:2300 19:2200 60:1200 69:2500 109:1600 114:1600 140:800 175:800 
-0.0009765625 1:2000 6:2200 26:2300 46:400 51:800 52:700 65:1800 86:2100 145:1400 174:1000 
-0.0009765625 16:1700 93:1700 99:2400 105:800 144:600 
-0.0009765625 12:1500 29:2000 79:2100 105:1200 123:1200 135:800 
-0.0009765625 54:1200 100:2400 
-0.0009765625 10:2400 24:2200 34:2300 169:800 
-0.0009765625 14:1800 16:1700 42:600 43:900 127:2500 138:1000 161:1300 172:700 
-0.0009765625 66:1200 123:2500 170:700 
-0.0009765625 16:2400 18:2200 46:1200 63:1200 64:2400 100:800 115:1600 170:800 173:800 
-0.0009765625 6:2000 37:1500 64:1200 73:2000 87:1600 157:650 160:1300 
-0.0009765625 3:2400 34:2300 68:2200 94:700 108:1200 124:1200 146:800 
-0.0009765625 73:2000 89:1000 103:2200 106:1300 123:2500 160:1300 
-0.0009765625 17:1900 50:200 98:100 112:2500 115:2500 116:2500 162:650 
-0.0009765625 20:500 44:2500 55:2500 58:2500 59:2500 61:2500 162:100 
-0.0009765625 28:1200 43:1200 78:2500 105:2500 106:2500 165:500 172:600 
-0.0009765625 38:2200 44:1200 111:1600 
-0.0009765625 4:1450 53:1800 91:1600 141:1400 148:1400 168:1700 172:1000 
-0.0009765625 20:1800 31:2300 43:1200 49:1200 53:1600 77:2200 81:2000 141:800 164:1700 
-0.0009765625 14:2100 19:1800 88:1600 120:1400 133:1400 140:1400 165:1700 
-0.0009765625 11:1200 27:2400 62:2500 77:1900 104:300 172:600 
-0.0009765625 49:2500 88:2100 
-0.0009765625 12:1500 33:2300 79:2100 86:1500 97:500 99:800 154:700 
-0.0009765625 39:2000 62:1200 64:2400 77:2200 87:1200 88:1700 117:1600 124:1200 164:1700 172:800 
-0.0009765625 1:2000 15:2100 65:1800 80:1600 93:100 108:1100 110:1400 138:1400 140:1400 168:1700 
-0.0009765625 33:2000 95:1900 113:1400 131:1400 
-0.0009765625 8:1100 46:2500 48:2500 66:600 73:2200 77:1900 85:1800 88:2100 174:600 
-0.0009765625 21:1800 32:2000 43:1600 85:1500 86:2100 113:1400 146:1400 167:1700 172:1000 
-0.0009765625 17:2200 20:2100 59:400 67:800 103:2100 107:1600 130:2500 136:2500 167:600 
-0.0009765625 43:2400 49:2500 59:2500 79:1200 143:500 
-0.0009765625 22:2000 72:1700 119:1600 140:800 167:1700 
-0.0009765625 22:2000 40:2300 69:2500 73:1900 84:1400 91:1800 110:1600 170:800 
-0.0009765625 5:2100 65:1200 124:2500 175:700 
-0.0009765625 52:2500 62:2500 66:600 84:1800 133:500 136:500 150:200 153:650 164:1800 
-0.0009765625 11:1200 12:2200 41:2400 74:0 77:1900 82:1800 160:100 170:600 
-0.0009765625 36:2300 58:1800 68:2200 87:1200 124:1200 148:800 150:0 162:700 172:800 
-0.0009765625 40:1100 52:2500 61:2500 93:1900 97:1000 160:100 
-0.0009765625 5:2100 29:900 85:700 119:2400 120:2400 159:1300 
-0.0009765625 66:1000 131:2500 145:2500 169:400 
-0.0009765625 92:1300 130:200 171:2500 
-0.0009765625 14:2100 28:2200 72:1700 87:500 97:0 144:1400 145:1400 170:1000 
-0.0009765625 4:1450 6:2200 14:2100 43:1600 67:2000 83:1900 107:1100 143:1400 156:800 159:500 
-0.0009765625 73:2000 122:2500 163:1300 
-0.0009765625 22:1300 29:2200 55:1200 72:1700 84:1200 100:1800 110:1400 146:1400 162:500 172:1000 
-0.0009765625 25:2300 136:800 
-0.0009765625 40:2300 70:1400 100:1100 119:1800 
-0.0009765625 97:1000 157:2500 171:1000 
-0.0009765625 35:600 41:1000 77:2100 151:2500 
-0.0009765625 25:2300 56:1600 115:1600 117:1600 164:1700 168:1700 
-0.0009765625 30:2200 34:2300 37:1700 64:2400 79:2100 98:500 150:0 
-0.0009765625 4:1450 52:700 53:1800 97:0 100:1800 104:1100 133:1400 145:1400 150:100 
-0.0009765625 34:2200 39:2300 57:1000 60:700 101:2200 112:1400 129:1400 146:1400 152:100 
-0.0009765625 11:1200 29:800 51:2500 63:2500 93:1900 153:650 174:600 
-0.0009765625 20:1800 24:2200 25:2300 76:2200 116:1600 
-0.0009765625 46:400 98:50 131:2500 133:2500 147:2500 
-0.0009765625 19:1900 63:400 127:2500 136:1000 
-0.0009765625 12:1500 17:2000 24:2200 68:2200 155:700 
-0.0009765625 100:300 108:2500 136:1700 
-0.0009765625 31:1100 81:400 125:800 133:2500 141:2500 144:2500 149:2500 160:250 166:600 
-0.0009765625 21:2100 50:2500 70:1800 
-0.0009765625 40:1600 48:400 97:600 121:2500 125:2500 140:1000 
-0.0009765625 8:2000 16:2400 49:1200 54:1200 125:1200 
-0.0009765625 6:2200 15:2100 35:2000 45:200 47:400 89:1800 123:700 131:1400 136:1400 168:1700 
-0.0009765625 1:1200 24:2200 57:1200 71:2200 140:800 
-0.0009765625 19:1800 79:950 121:800 136:2500 143:2500 146:2500 149:2500 162:250 
-0.0009765625 65:2400 69:2500 143:800 153:700 
-0.0009765625 12:600 70:1400 108:1600 129:2500 149:2500 
-0.0009765625 15:2300 24:2200 68:2200 72:1700 117:1600 132:800 134:800 137:800 157:700 161:700 
-0.0009765625 56:250 161:2500 
-0.0009765625 16:2400 67:2200 75:1600 80:1800 97:500 155:700 158:700 162:700 168:1700 
-0.0009765625 6:1300 155:2500 
-0.0009765625 151:2500 169:200 
-0.0009765625 20:1800 24:2200 54:1200 58:1800 88:1700 137:800 165:1700 
-0.0009765625 9:1600 15:2300 23:2200 
-0.0009765625 7:2100 24:2200 25:2300 32:2300 34:2300 67:2200 75:1600 112:1600 129:800 162:700 
-0.0009765625 8:2000 61:1400 68:2200 82:1400 103:1200 110:1600 121:1200 140:800 143:800 
-0.0009765625 13:2200 34:1000 55:400 106:1600 122:800 132:2500 133:2500 
-0.0009765625 43:200 57:400 97:50 110:500 122:800 128:2500 132:2500 140:2500 151:800 
-0.0009765625 66:2400 88:1700 156:700 
-0.0009765625 40:2300 73:2200 92:1700 99:2400 101:2400 108:800 144:600 147:600 153:400 
-0.0009765625 37:2200 44:2500 51:2500 59:2500 71:200 129:500 
-0.0009765625 32:1100 43:2400 61:2500 62:2500 132:500 144:500 
-0.0009765625 4:2000 25:2300 94:700 100:800 124:1200 126:1200 132:800 
-0.0009765625 4:1450 11:1600 47:400 74:2100 111:1400 113:1400 146:1400 157:800 
-0.0009765625 6:1400 9:1600 10:2400 25:2300 82:1400 139:800 
-0.0009765625 2:200 48:2500 60:2500 74:0 166:1800 
-0.0009765625 12:800 72:1400 173:2500 
-0.0009765625 39:2000 80:1800 116:1600 118:1600 121:1200 128:500 158:700 
-0.0009765625 40:2300 41:1400 51:1200 62:1200 102:2400 119:800 140:600 148:600 162:50 174:700 
-0.0009765625 4:1450 6:2200 35:2000 46:400 120:1400 150:100 163:500 
-0.0009765625 11:1200 48:2500 59:2500 95:1900 108:300 123:250 136:500 149:500 173:600 
-0.0009765625 25:2300 68:2200 89:1700 105:1200 106:1400 150:0 173:800 
-0.0009765625 17:2200 56:1600 58:400 77:2500 119:200 130:2500 140:2500 148:2500 155:500 
-0.0009765625 1:2000 7:2300 77:1600 83:1900 131:1400 145:1400 150:100 
-0.0009765625 29:1200 65:1000 78:2500 102:0 105:1600 119:200 129:2500 132:2500 135:2500 
-0.0009765625 75:0 94:800 105:1600 123:800 126:800 139:2500 142:2500 145:2500 168:600 170:400 
-0.0009765625 10:2400 39:2000 70:1700 95:700 113:1600 124:1200 125:1200 151:0 
-0.0009765625 62:2500 85:1800 100:300 162:100 164:1800 
-0.0009765625 18:2200 37:1700 66:2400 94:700 112:1600 137:800 
-0.0009765625 3:2400 30:2200 59:1200 141:800 146:800 156:700 167:1700 168:1700 
-0.0009765625 119:2400 126:2500 136:1000 166:1500 167:1500 
-0.0009765625 8:800 77:2500 80:0 94:800 105:1600 112:500 124:800 131:2500 135:2500 151:800 
-0.0009765625 11:1200 37:2200 52:2500 58:2500 68:200 83:1800 144:500 
-0.0009765625 31:2300 38:2200 68:2200 84:1400 108:1200 126:1200 140:800 146:800 163:700 
-0.0009765625 15:1700 42:1400 43:1600 100:2400 173:700 
-0.0009765625 69:2500 76:2200 117:1600 168:1700 
-0.0009765625 15:2300 18:2200 30:2200 50:1200 57:1200 74:1600 78:2200 110:1600 
-0.0009765625 21:1400 76:2500 130:2500 
-0.0009765625 128:1200 152:2500 
-0.0009765625 19:2200 44:1200 61:1400 64:2400 86:1500 90:1700 113:1600 
-0.0009765625 3:1400 39:1400 54:650 98:1000 127:700 154:2500 155:2500 
-0.0009765625 35:2000 53:1800 172:1000 
-0.0009765625 38:1800 54:1200 60:1200 65:1000 76:1800 93:1700 100:2400 102:2400 118:500 126:500 
-0.0009765625 138:600 153:2500 
-0.0009765625 25:300 43:2400 86:1500 92:1900 95:1900 135:500 
-0.0009765625 20:1800 43:1200 47:1200 85:1400 114:1600 163:700 173:800 175:800 
-0.0009765625 25:900 100:1800 120:1400 132:1400 135:1400 172:1000 174:1000 
-0.0009765625 33:2300 38:2200 40:2300 45:1200 60:1200 68:2200 82:1400 130:800 133:800 152:0 
-0.0009765625 45:2500 51:2500 53:2500 55:2500 59:2500 141:500 143:500 160:100 165:1800 
-0.0009765625 8:2000 13:2200 15:2300 16:2400 87:1200 125:1200 
-0.0009765625 4:2000 21:2200 26:2000 41:700 67:2200 71:2200 78:2200 160:700 170:800 175:800 
-0.0009765625 8:2000 31:2300 60:1200 70:1700 76:2200 78:2200 102:1000 114:1600 116:1600 155:700 
-0.0009765625 70:1800 74:2100 99:1200 113:1400 148:1400 168:1700 171:1000 
-0.0009765625 38:2500 124:800 131:2500 143:2500 
-0.0009765625 16:2400 34:2300 98:500 101:1000 121:1200 147:800 173:800 
-0.0009765625 33:1800 160:2500 161:2500 
-0.0009765625 33:1800 97:600 121:2500 133:1000 144:1000 151:500 168:1500 173:700 
-0.0009765625 35:400 73:2000 125:2500 147:1000 151:500 175:700 
-0.0009765625 36:800 173:2500 
-0.0009765625 1:2000 13:2000 36:2300 57:1000 110:1400 138:1400 173:1000 
-0.0009765625 5:2200 7:2300 101:2200 
-0.0009765625 25:2300 51:1200 67:2200 117:1600 119:1600 172:800 173:800 
-0.0009765625 55:400 69:1500 87:1600 109:400 121:2500 123:2500 136:1000 153:650 
-0.0009765625 12:1100 74:2100 156:800 
-0.0009765625 29:2000 34:2300 46:1200 72:1700 91:1800 93:700 110:1600 140:800 156:700 171:800 
-0.0009765625 22:2300 54:2500 62:2500 108:300 166:1800 174:600 
-0.0009765625 25:2300 31:2300 
-0.0009765625 12:1500 28:1900 63:1200 100:800 110:1600 124:1200 
-0.0009765625 8:2000 16:2400 31:2300 42:1100 49:1200 51:1200 122:1200 138:800 142:800 157:700 
-0.0009765625 12:1100 21:1800 24:1500 41:800 101:2200 113:1400 131:1400 141:1400 147:1400 163:500 
-0.0009765625 81:900 146:750 163:2500 
-0.0009765625 21:1600 46:1200 101:2400 144:600 
-0.0009765625 55:1200 68:2200 72:1700 82:1400 90:1700 111:1600 149:800 163:700 
-0.0009765625 11:1600 15:2100 52:700 79:1400 90:800 99:1200 101:2200 106:1200 143:1400 169:1000 
-0.0009765625 142:2500 143:2500 
-0.0009765625 2:2100 5:2200 17:2000 83:1900 84:1200 90:800 94:600 97:0 148:1400 
-0.0009765625 32:2000 37:1200 61:1500 85:1500 88:1600 133:1400 147:1400 153:800 
-0.0009765625 19:2200 49:1200 93:700 120:1600 
-0.0009765625 53:2500 58:2500 70:1800 78:1900 136:500 156:650 
-0.0009765625 3:1400 72:1600 128:900 146:600 157:2500 159:1400 
-0.0009765625 5:1600 63:1200 66:2400 118:1600 127:1500 
-0.0009765625 1:2000 3:1500 18:2000 83:1900 112:1400 156:800 
-0.0009765625 63:900 64:2200 130:1400 135:1400 154:800 158:500 173:1000 
-0.0009765625 14:800 170:2500 
-0.0009765625 6:2200 8:2100 9:1200 41:800 73:1900 90:800 99:1200 138:1400 144:1400 158:500 
-0.0009765625 128:2500 147:2500 173:400 174:400 
-0.0009765625 41:0 94:300 115:2500 117:2500 
-0.0009765625 51:1200 58:1200 70:700 74:1300 100:2400 102:2400 167:1300 172:700 
-0.0009765625 27:1800 63:1200 66:2400 73:1900 140:800 159:700 169:800 
-0.0009765625 15:1600 143:2500 151:800 
-0.0009765625 114:2500 141:800 170:600 
-0.0009765625 25:2300 57:1200 64:2400 81:2000 84:1400 115:1600 
-0.0009765625 22:1400 29:400 74:0 150:2500 151:2500 174:200 
-0.0009765625 31:1100 56:1600 104:1600 110:500 131:2500 144:2500 
-0.0009765625 29:2000 87:1200 117:1600 
-0.0009765625 39:2300 45:200 74:2100 149:1400 169:1000 
-0.0009765625 17:2000 18:2200 24:2200 49:1200 52:1200 60:1200 78:2200 80:1800 142:800 143:800 
-0.0009765625 12:1500 18:2200 41:700 68:2200 125:1200 173:800 
-0.0009765625 25:2300 26:2000 61:1400 113:1600 131:800 132:800 159:700 
-0.0009765625 31:2300 55:1200 114:1600 159:700 
-0.0009765625 5:700 43:2400 54:2500 56:2500 72:1800 83:1800 108:300 143:500 165:1800 
-0.0009765625 10:2400 25:2300 40:2300 41:700 48:1200 51:1200 82:1400 150:0 165:1700 
-0.0009765625 25:2300 48:1200 53:1600 71:2200 77:2200 104:1200 108:1200 110:1600 
-0.0009765625 2:2100 5:2200 30:2100 42:1200 43:1600 160:500 173:1000 
-0.0009765625 37:1700 69:2500 110:1600 116:1600 124:1200 134:800 137:800 151:0 156:700 
-0.0009765625 19:2200 52:1200 64:2400 80:1800 103:1200 122:1200 150:0 156:700 157:700 172:800 
-0.0009765625 11:1600 14:2100 28:2200 31:2300 53:1800 96:200 114:1400 139:1400 
-0.0009765625 6:1400 10:2400 25:2300 67:2200 92:700 107:1200 118:1600 149:800 158:700 169:800 
-0.0009765625 53:400 97:1300 124:200 169:2500 
-0.0009765625 27:2400 28:1300 45:2500 54:2500 
-0.0009765625 28:1600 66:2300 118:2500 
-0.0009765625 39:1500 45:2500 48:2500 49:2500 61:2500 131:500 137:500 161:100 171:600 174:600 
-0.0009765625 29:2000 39:2000 58:1800 139:800 162:700 173:800 
-0.0009765625 4:2000 5:1600 31:2300 34:2300 84:1400 93:700 110:1600 164:1700 173:800 
-0.0009765625 14:800 37:2200 57:2500 
-0.0009765625 4:1450 44:700 95:1900 99:1200 101:2200 116:1400 139:1400 169:1000 
-0.0009765625 61:1200 100:2400 128:600 
-0.0009765625 1:100 77:2500 104:1600 129:2500 130:2500 141:2500 142:2500 150:800 155:500 
-0.0009765625 11:1000 16:2400 26:2000 47:1200 60:1200 84:1400 114:1600 127:1500 135:800 169:800 
-0.0009765625 3:1500 75:2100 133:1400 
-0.0009765625 60:700 95:1900 115:1400 117:1400 140:1400 148:1400 
-0.0009765625 24:2200 26:2000 49:1200 88:1700 96:500 114:1600 127:1500 
-0.0009765625 64:2300 118:2500 172:600 
-0.0009765625 4:2000 24:2200 55:1200 74:1600 119:1600 121:1200 138:800 152:0 174:800 
-0.0009765625 36:2300 61:1500 69:1600 102:1400 136:1400 140:1400 141:1400 
-0.0009765625 26:2300 29:2200 30:2100 83:1900 105:1100 111:1400 142:1400 169:1000 173:1000 
-0.0009765625 87:1200 88:1700 100:800 112:1600 
-0.0009765625 12:2200 27:2400 57:2500 134:500 151:200 
-0.0009765625 67:2000 73:1900 74:2100 118:1400 141:1400 
-0.0009765625 93:800 103:2100 135:2500 
-0.0009765625 3:1500 20:2000 30:2100 35:2000 80:1600 96:200 134:1400 152:100 158:500 168:1700 
-0.0009765625 47:2500 92:1900 93:1900 
-0.0009765625 3:250 42:2400 73:2200 93:1900 94:1900 123:250 135:500 165:1800 
-0.0009765625 31:2300 38:2200 65:2400 79:2100 128:500 152:0 
-0.0009765625 22:2000 36:2300 151:0 
-0.0009765625 12:2200 46:2500 55:2500 60:2500 73:2200 105:300 133:500 148:500 164:1800 
-0.0009765625 68:2200 72:1700 76:2200 104:1200 119:1600 139:800 
-0.0009765625 13:2200 53:1600 64:2400 
-0.0009765625 31:2300 48:1200 50:1200 82:1400 88:1700 108:1200 122:1200 127:1500 162:700 
-0.0009765625 10:2400 67:2200 92:700 153:700 
-0.0009765625 129:2500 173:400 
-0.0009765625 75:1600 79:2100 82:1400 101:1000 111:1600 119:1600 159:700 166:1700 168:1700 
-0.0009765625 21:1600 39:1400 86:900 90:1400 153:2500 154:2500 163:1400 
-0.0009765625 3:1200 5:2100 7:1600 17:2100 18:1900 23:2500 39:2400 126:2500 158:1300 175:700 
-0.0009765625 28:1100 33:1400 92:800 145:2500 147:2500 
-0.0009765625 27:1800 30:2200 32:2300 39:2000 53:1600 57:1200 82:1400 105:1200 110:1600 129:800 
-0.0009765625 98:600 120:2400 
-0.0009765625 8:2000 39:2000 47:1200 71:2200 75:1600 97:500 114:1600 160:700 161:700 
-0.0009765625 4:2000 34:2300 51:1200 92:700 96:500 114:1600 123:1200 135:800 138:800 
-0.0009765625 73:500 170:2500 
-0.0009765625 3:2400 22:2000 80:1800 
-0.0009765625 11:1600 50:200 69:1600 74:2100 141:1400 150:100 164:1700 171:1000 
-0.0009765625 35:800 46:1200 66:2400 80:1800 96:500 158:700 172:800 
-0.0009765625 2:2100 5:2200 32:2000 36:2300 51:800 66:1900 127:1200 128:900 136:1400 169:1000 
-0.0009765625 13:2200 24:2200 37:1700 53:1600 66:2400 69:2500 72:1700 77:2200 86:1500 141:800 
-0.0009765625 28:2200 89:1800 123:700 139:1400 
-0.0009765625 49:500 91:1100 98:1800 116:100 151:2500 
-0.0009765625 17:2100 45:400 127:2500 143:1000 
-0.0009765625 58:400 60:400 102:0 114:500 132:2500 133:2500 134:2500 
-0.0009765625 65:2400 67:2200 
-0.0009765625 33:2300 49:1200 89:1700 110:1600 151:0 
-0.0009765625 13:2200 32:2300 58:1800 85:1400 99:800 117:1600 124:1200 134:800 144:800 159:700 
-0.0009765625 27:1800 41:700 55:1200 69:2500 124:1200 132:800 134:800 157:700 164:1700 175:800 
-0.0009765625 62:2500 168:1800 
-0.0009765625 13:2200 27:1800 85:1400 124:1200 
-0.0009765625 29:2000 57:1200 163:700 
-0.0009765625 36:2300 38:2200 40:2300 113:1600 149:800 150:0 159:700 
-0.0009765625 12:1500 14:2000 43:1200 114:1600 
-0.0009765625 108:700 162:2500 
-0.0009765625 47:1200 53:1600 63:1200 68:2200 105:1200 106:1400 121:1200 128:500 140:800 153:700 
-0.0009765625 150:100 155:2500 167:1600 170:1000 
-0.0009765625 7:2300 39:2300 141:1400 165:1700 
-0.0009765625 5:1600 6:1400 30:2200 48:1200 96:500 115:1600 116:1600 122:1200 154:700 
-0.0009765625 37:1700 76:2500 87:1400 92:500 108:2500 
-0.0009765625 35:1500 56:2500 115:200 150:200 
-0.0009765625 22:2000 111:1600 141:800 
-0.0009765625 49:1000 57:1000 75:2100 91:1600 100:1800 117:1400 145:1400 169:1000 
-0.0009765625 113:2500 139:800 173:600 
-0.0009765625 18:2200 75:1600 80:1800 99:800 105:1200 123:1200 
-0.0009765625 54:400 74:0 128:2500 134:2500 159:250 
-0.0009765625 4:2000 23:2200 90:1700 95:700 113:1600 164:1700 175:800 
-0.0009765625 21:2100 33:1100 37:2200 55:2500 133:500 
-0.0009765625 22:2000 29:2000 35:800 47:1200 55:1200 64:2400 81:2000 92:700 102:1000 140:800 
-0.0009765625 16:2400 63:1200 
-0.0009765625 8:2000 62:1200 127:1500 
-0.0009765625 15:2300 21:2200 41:700 67:2200 78:2200 95:700 104:1200 116:1600 123:1200 
-0.0009765625 38:2200 64:2400 
-0.0009765625 6:1700 13:2200 36:200 38:2500 39:2400 59:400 106:1600 133:2500 139:2500 173:400 
-0.0009765625 55:2500 57:2500 106:300 124:250 
-0.0009765625 45:2500 46:2500 63:2500 101:200 104:300 165:1800 
-0.0009765625 41:800 45:200 86:2100 117:1400 120:1400 132:1400 133:1400 
-0.0009765625 29:2000 33:2300 48:1200 93:700 103:1200 115:1600 141:800 152:0 154:700 169:800 
-0.0009765625 37:1100 48:250 91:1100 96:300 133:750 136:750 151:300 159:2500 160:2500 
-0.0009765625 1:2000 35:2000 78:1600 90:800 99:1200 162:500 163:500 168:1700 172:1000 
-0.0009765625 46:2500 51:2500 56:2500 64:600 128:700 153:650 160:100 
-0.0009765625 1:2000 2:2100 70:1800 160:500 164:1700 166:1700 
-0.0009765625 5:2200 36:2300 53:1800 
-0.0009765625 10:2400 20:1800 48:1200 57:1200 68:2200 69:2500 107:1200 112:1600 158:700 
-0.0009765625 22:600 65:1000 131:2500 140:2500 
-0.0009765625 27:1800 40:2300 87:1200 90:1700 106:1400 127:1500 148:800 
-0.0009765625 63:400 118:400 121:2500 122:2500 123:2500 168:1500 
-0.0009765625 9:1600 62:1200 98:500 116:1600 
-0.0009765625 15:1800 34:700 57:650 98:1000 138:600 154:2500 156:2500 166:1600 
-0.0009765625 24:2200 38:2200 141:800 166:1700 
-0.0009765625 7:1600 12:1800 76:2200 85:700 124:2500 125:2500 135:1000 152:500 
-0.0009765625 7:1400 52:2500 83:1800 165:1800 
-0.0009765625 18:2200 26:2000 52:1200 84:1400 111:1600 175:800 
-0.0009765625 11:200 17:1900 40:1100 112:2500 114:2500 115:2500 155:150 
-0.0009765625 8:2000 9:1600 30:2200 41:700 64:2400 
-0.0009765625 3:2400 21:2200 22:2000 24:2200 42:1100 64:2400 70:1700 114:1600 129:800 166:1700 
-0.0009765625 2:1000 32:2300 40:2300 127:1500 175:800 
-0.0009765625 23:2100 47:400 69:1600 101:2200 104:1100 105:1100 111:1400 135:1400 146:1400 173:1000 
-0.0009765625 29:2200 35:2000 114:1400 120:1400 136:1400 154:800 
-0.0009765625 32:1100 49:2500 50:2500 52:2500 78:1900 137:500 146:500 153:650 169:600 
-0.0009765625 54:650 156:2500 175:1000 
-0.0009765625 17:900 34:1000 48:2500 56:2500 61:2500 88:2100 121:250 156:650 168:1800 175:600 
-0.0009765625 20:1800 62:1200 74:1600 112:1600 151:0 167:1700 
-0.0009765625 2:1000 34:2300 67:2200 88:1700 93:700 112:1600 
-0.0009765625 21:1600 99:2400 147:600 
-0.0009765625 6:1400 9:1600 26:2000 27:1800 31:2300 47:1200 68:2200 94:700 135:800 
-0.0009765625 42:1100 71:2200 85:1400 108:1200 115:1600 117:1600 131:800 145:800 
-0.0009765625 4:2000 14:2000 46:1200 78:2200 170:800 
-0.0009765625 40:1900 78:2100 97:1800 
-0.0009765625 10:100 47:2500 59:2500 145:500 152:200 
-0.0009765625 50:200 108:950 109:2500 114:2500 147:800 
-0.0009765625 4:50 63:2500 73:2200 95:1900 
-0.0009765625 35:1500 42:2400 63:2500 92:1900 118:200 138:500 
-0.0009765625 40:1700 48:400 135:2500 142:2500 164:600 171:400 
-0.0009765625 2:2100 3:1500 83:1900 88:1600 90:800 110:1400 144:1400 
-0.0009765625 58:400 100:1800 104:1100 118:1400 119:1400 135:1400 141:1400 166:1700 167:1700 175:1000 
-0.0009765625 24:2000 87:1600 126:2500 141:1000 
-0.0009765625 12:1500 34:2300 84:1400 93:700 116:1600 
-0.0009765625 113:1600 127:1500 
-0.0009765625 28:1900 31:2300 50:1200 56:1600 84:1400 97:500 110:1600 120:1600 122:1200 170:800 
-0.0009765625 102:800 123:700 155:2500 
-0.0009765625 130:2500 131:2500 
-0.0009765625 58:2500 129:500 
-0.0009765625 7:2300 42:1200 54:700 96:200 115:1400 118:1400 137:1400 142:1400 154:800 164:1700 
-0.0009765625 4:2000 54:1200 89:1700 102:1000 105:1200 128:500 165:1700 
-0.0009765625 5:2200 8:2100 26:2300 58:400 101:2200 171:1000 
-0.0009765625 1:1200 45:1200 67:2200 87:1200 108:1200 118:1600 119:1600 153:700 
-0.0009765625 18:2200 24:2200 59:1200 68:2200 105:1200 110:1600 121:1200 129:800 141:800 152:0 
-0.0009765625 5:2200 7:2300 35:2000 57:1000 121:700 124:700 130:1400 139:1400 149:1400 
-0.0009765625 34:2300 46:1200 54:1200 112:1600 125:1200 
-0.0009765625 42:200 58:400 130:2500 134:2500 136:2500 139:2500 140:2500 174:400 
-0.0009765625 57:400 70:1400 71:800 126:800 137:2500 148:2500 149:2500 158:250 160:250 
-0.0009765625 115:500 133:2500 148:2500 
-0.0009765625 1:2000 20:2000 28:2200 66:1900 68:1300 89:1800 120:1400 147:1400 
-0.0009765625 29:1700 116:2500 
-0.0009765625 56:1900 76:2500 
-0.0009765625 69:2500 88:1700 89:1700 143:800 155:700 
-0.0009765625 4:2000 39:2000 56:1600 78:2200 87:1200 110:1600 132:800 142:800 153:700 165:1700 
-0.0009765625 45:400 78:2500 103:2100 142:2500 157:500 
-0.0009765625 29:1700 66:2300 113:2500 114:2500 153:150 
-0.0009765625 28:800 97:600 126:2500 146:1000 
-0.0009765625 13:2200 29:1200 56:1600 91:800 142:2500 146:2500 
-0.0009765625 38:1900 51:2500 55:2500 73:2200 95:1900 100:300 119:200 155:650 
-0.0009765625 22:600 163:2500 
-0.0009765625 15:2300 27:1800 28:1900 29:2000 34:2300 58:1800 61:1400 84:1400 108:1200 134:800 
-0.0009765625 13:1300 21:2100 27:2400 41:2400 57:2500 59:2500 125:250 128:700 130:500 
-0.0009765625 14:2100 43:1600 45:200 73:1900 111:1400 125:700 132:1400 134:1400 148:1400 162:500 
-0.0009765625 55:2500 86:1500 90:2100 108:300 
-0.0009765625 19:2200 81:2000 90:1700 91:1800 96:500 103:1200 105:1200 115:1600 119:1600 
-0.0009765625 134:2500 138:2500 141:2500 
-0.0009765625 24:1000 141:2500 
-0.0009765625 5:1300 34:1800 51:250 88:1700 152:300 160:2500 
-0.0009765625 1:2000 15:2100 19:1800 128:900 156:800 
-0.0009765625 78:2500 128:2500 174:600 
-0.0009765625 26:2000 78:2200 93:700 110:1600 155:700 165:1700 
-0.0009765625 9:0 38:2500 130:2500 139:2500 149:2500 171:400 
-0.0009765625 11:1600 31:2300 144:1400 165:1700 
-0.0009765625 19:1800 139:2500 147:2500 
-0.0009765625 4:2000 21:2200 57:1200 75:1600 77:2200 80:1800 84:1400 142:800 
-0.0009765625 65:2300 90:200 111:2500 118:2500 132:800 158:650 
-0.0009765625 16:2400 70:1700 136:800 
-0.0009765625 19:2200 52:1200 61:1400 87:1200 100:800 102:1000 124:1200 125:1200 172:800 
-0.0009765625 13:2200 25:900 39:2400 51:400 64:1200 121:2500 126:2500 127:2500 164:1500 165:1500 
-0.0009765625 68:2200 82:1400 
-0.0009765625 18:1800 113:2500 
-0.0009765625 12:1500 51:1200 89:1700 94:700 102:1000 105:1200 109:1600 116:1600 121:1200 160:700 
-0.0009765625 22:2000 34:2300 36:2300 44:1200 56:1600 101:1000 149:800 
-0.0009765625 7:1400 12:2200 41:2400 48:2500 63:2500 95:1900 136:500 143:500 161:100 167:1800 
-0.0009765625 51:400 73:800 76:2500 78:2500 82:400 106:1600 142:2500 149:2500 152:800 
-0.0009765625 45:1200 48:1200 64:2400 67:2200 81:2000 120:1600 171:800 
-0.0009765625 17:2000 24:2200 56:1600 62:1200 90:1700 150:0 168:1700 
-0.0009765625 40:1700 74:0 92:800 132:2500 134:2500 140:2500 
-0.0009765625 34:2300 51:1200 112:1600 122:1200 140:800 144:800 
-0.0009765625 12:1500 21:2200 89:1700 94:700 109:1600 119:1600 139:800 
-0.0009765625 8:2000 13:2200 85:1400 107:1200 125:1200 
-0.0009765625 14:1600 43:1600 45:1200 71:2200 77:1800 93:1700 104:800 136:600 
-0.0009765625 28:1900 30:2200 56:1600 80:1800 91:1800 114:1600 148:800 167:1700 
-0.0009765625 6:1400 90:1700 165:1700 
-0.0009765625 60:400 131:2500 140:2500 
-0.0009765625 55:1200 60:1200 100:800 117:1600 126:1200 174:800 
-0.0009765625 14:2100 39:2300 70:1800 75:2100 98:100 102:1400 115:1400 121:700 
-0.0009765625 15:2100 30:2100 57:1000 110:1400 131:1400 137:1400 
-0.0009765625 22:2300 76:1900 81:1200 92:1900 
-0.0009765625 19:1800 40:1700 143:2500 
-0.0009765625 37:1200 99:1200 113:1400 132:1400 146:1400 155:800 164:1700 
-0.0009765625 8:1100 54:2500 59:2500 86:1500 98:1000 146:500 171:600 
-0.0009765625 8:2000 27:1800 30:2200 40:2300 85:1400 106:1400 120:1600 158:700 169:800 
-0.0009765625 61:1400 80:1800 85:1400 90:1700 116:1600 124:1200 151:0 152:0 153:700 165:1700 
-0.0009765625 60:1200 68:2200 71:2200 88:1700 108:1200 121:1200 137:800 161:700 162:700 
-0.0009765625 13:1700 156:2500 
-0.0009765625 31:2300 88:1700 168:1700 
-0.0009765625 45:400 83:400 103:2100 120:200 123:800 128:2500 131:2500 136:2500 153:500 
-0.0009765625 3:2400 18:2200 19:2200 59:1200 93:700 102:1000 106:1400 146:800 151:0 
-0.0009765625 25:2300 97:500 107:1200 161:700 
-0.0009765625 22:2300 48:2500 49:2500 97:1000 104:300 144:500 150:200 
-0.0009765625 18:2200 29:2000 37:1700 63:1200 68:2200 102:1000 115:1600 124:1200 145:800 172:800 
-0.0009765625 17:2000 32:2300 54:1200 71:2200 124:1200 126:1200 134:800 154:700 
-0.0009765625 8:2000 51:1200 60:1200 65:2400 76:2200 99:800 117:1600 135:800 164:1700 
-0.0009765625 31:2300 88:1700 90:1700 112:1600 164:1700 171:800 
-0.0009765625 29:2200 39:2300 41:800 46:400 102:1400 117:1400 130:1400 137:1400 
-0.0009765625 24:2200 88:1700 131:800 
-0.0009765625 17:2100 126:2500 137:1000 159:1300 169:700 
-0.0009765625 3:2500 82:300 110:2500 149:800 152:100 
-0.0009765625 89:800 124:800 133:2500 145:2500 
-0.0009765625 2:2100 8:2100 24:1500 54:700 89:1800 129:1400 159:500 
-0.0009765625 10:2400 14:2000 23:2200 29:2000 38:2200 45:1200 51:1200 106:1400 134:800 165:1700 
-0.0009765625 50:400 108:1600 109:500 147:2500 157:500 
-0.0009765625 1:1300 59:200 104:950 110:2500 111:2500 112:2500 131:800 133:800 144:800 
-0.0009765625 16:2400 18:2200 24:2200 75:1600 77:2200 99:800 127:1500 129:800 157:700 
-0.0009765625 3:500 81:400 107:1600 132:2500 138:2500 
-0.0009765625 7:2300 33:2000 36:2300 61:1500 80:1600 143:1400 144:1400 153:800 160:500 161:500 
-0.0009765625 14:800 41:2400 51:2500 80:0 81:1200 96:1000 103:1800 166:1800 167:1800 
-0.0009765625 100:2400 102:2400 109:500 169:700 
-0.0009765625 48:2500 49:2500 137:500 
-0.0009765625 69:1400 162:2500 168:1500 173:400 
-0.0009765625 84:1200 134:1400 172:1000 
-0.0009765625 14:2100 21:1800 30:2100 85:1500 130:1400 161:500 166:1700 169:1000 172:1000 
-0.0009765625 5:2200 8:2100 63:900 67:2000 79:1400 129:1400 137:1400 153:800 164:1700 
-0.0009765625 4:2000 17:2000 24:2200 86:1500 112:1600 137:800 150:0 
-0.0009765625 26:2000 28:1900 78:2200 81:2000 124:1200 
-0.0009765625 66:2400 164:1700 
-0.0009765625 29:1200 30:1300 33:1400 45:400 51:400 70:1400 132:2500 141:2500 149:2500 153:500 
-0.0009765625 10:2400 94:700 149:800 159:700 164:1700 
-0.0009765625 1:2000 32:2000 33:2000 44:700 67:2000 117:1400 149:1400 155:800 175:1000 
-0.0009765625 28:2200 61:1500 117:1400 133:1400 
-0.0009765625 55:400 106:1600 107:1600 110:500 129:2500 132:2500 148:2500 150:800 155:500 
-0.0009765625 92:800 134:2500 
-0.0009765625 2:2100 5:2200 61:1500 66:1900 73:1900 86:2100 137:1400 160:500 165:1700 
-0.0009765625 20:1800 58:1800 135:800 167:1700 
-0.0009765625 58:1800 72:1700 77:2200 121:1200 130:800 168:1700 
-0.0009765625 26:2000 58:1800 111:1600 167:1700 
-0.0009765625 29:2200 32:2000 57:1000 94:600 98:100 100:1800 143:1400 161:500 163:500 
-0.0009765625 2:2100 64:2200 122:700 127:1200 143:1400 164:1700 
-0.0009765625 43:2400 97:1000 130:500 
-0.0009765625 54:1200 67:2200 136:800 168:1700 
-0.0009765625 42:200 109:500 128:2500 141:2500 
-0.0009765625 94:1000 110:500 155:2500 
-0.0009765625 17:1700 75:1300 99:2400 100:2400 107:800 121:500 
-0.0009765625 10:2400 25:2300 49:1200 94:700 96:500 113:1600 125:1200 167:1700 
-0.0009765625 37:2200 56:2500 85:1800 97:1000 108:300 127:250 
-0.0009765625 83:1900 134:1400 164:1700 
-0.0009765625 3:2400 18:2200 21:2200 28:1900 44:1200 105:1200 106:1400 110:1600 148:800 163:700 
-0.0009765625 3:1200 9:300 73:2000 99:400 103:2200 127:2500 159:1300 160:1300 
-0.0009765625 8:2000 23:2200 25:2300 47:1200 61:1400 102:1000 
-0.0009765625 6:2200 86:2100 97:0 130:1400 
-0.0009765625 18:2200 33:2300 57:1200 127:1500 146:800 
-0.0009765625 18:700 151:2500 
-0.0009765625 26:2000 81:2000 
-0.0009765625 41:700 64:2400 81:2000 133:800 
-0.0009765625 2:200 11:1200 18:1600 26:0 46:2500 49:2500 55:2500 87:1800 167:1800 
-0.0009765625 41:2400 52:2500 112:200 
-0.0009765625 100:1800 113:1400 114:1400 133:1400 154:800 
-0.0009765625 5:2200 72:1700 112:1400 
-0.0009765625 18:2200 25:2300 34:2300 43:1200 87:1200 124:1200 144:800 164:1700 173:800 
-0.0009765625 104:2500 126:800 148:1700 
-0.0009765625 3:2400 37:1700 39:2000 47:1200 72:1700 109:1600 162:700 
-0.0009765625 16:2400 31:2300 54:1200 60:1200 84:1400 90:1700 104:1200 114:1600 128:500 155:700 
-0.0009765625 36:900 46:2500 52:2500 134:500 
-0.0009765625 70:1800 77:1900 85:1800 157:650 
-0.0009765625 14:2000 38:2200 45:1200 56:1600 58:1800 118:1600 130:800 166:1700 175:800 
-0.0009765625 70:1800 119:1400 129:1400 
-0.0009765625 12:1100 74:2100 101:2200 139:1400 145:1400 
-0.0009765625 51:400 100:200 147:2500 149:2500 
-0.0009765625 27:2400 61:2500 94:1900 103:1800 112:200 150:200 164:1800 
-0.0009765625 15:1700 22:2300 46:2500 133:500 
-0.0009765625 18:1600 54:400 71:800 92:800 131:2500 139:2500 
-0.0009765625 7:2100 23:2200 30:2200 70:1700 79:2100 83:1400 90:1700 114:1600 144:800 
-0.0009765625 42:2400 48:2500 60:2500 62:2500 71:200 111:200 153:650 
-0.0009765625 1:2000 15:2100 29:2200 78:1600 136:1400 147:1400 156:800 
-0.0009765625 105:1600 146:2500 157:500 
-0.0009765625 31:2300 34:2300 82:1400 117:1600 122:1200 133:800 168:1700 
-0.0009765625 26:2000 53:1600 59:1200 90:1700 116:1600 125:1200 138:800 152:0 170:800 
-0.0009765625 18:2200 40:2300 53:1600 58:1800 64:2400 75:1600 77:2200 109:1600 113:1600 
-0.0009765625 143:2500 148:2500 163:250 
-0.0009765625 26:2000 30:2200 34:2300 113:1600 115:1600 119:1600 
-0.0009765625 7:1600 138:2500 145:2500 165:600 
-0.0009765625 69:500 108:1600 134:2500 
-0.0009765625 13:2000 35:2000 42:1200 119:1400 123:700 131:1400 137:1400 143:1400 170:1000 
-0.0009765625 31:2300 34:2300 70:1700 
-0.0009765625 19:1800 28:2200 42:1200 77:1600 104:1100 115:1400 148:1400 168:1700 172:1000 175:1000 
-0.0009765625 48:2500 54:2500 63:2500 103:1800 164:1800 167:1800 
-0.0009765625 96:700 102:2400 119:800 
-0.0009765625 45:2500 47:2500 83:1800 93:1900 136:500 154:650 156:650 
-0.0009765625 11:1600 18:2000 
-0.0009765625 70:700 119:2400 127:2500 
-0.0009765625 14:2000 22:2000 28:1900 29:2000 36:2300 48:1200 98:500 117:1600 149:800 
-0.0009765625 26:800 154:2500 163:1400 
-0.0009765625 24:2000 35:400 51:400 92:700 122:2500 125:2500 129:1000 
-0.0009765625 2:450 92:700 94:700 121:2500 122:2500 148:1000 166:1500 
-0.0009765625 12:1800 31:1700 92:700 106:1300 110:400 120:2400 121:2500 
-0.0009765625 40:1100 53:2500 60:2500 89:2100 97:1000 
-0.0009765625 6:2200 9:1200 36:2300 77:1600 104:1100 114:1400 122:700 143:1400 148:1400 
-0.0009765625 12:1500 18:2200 71:2200 74:1600 84:1400 88:1700 115:1600 119:1600 146:800 159:700 
-0.0009765625 5:2200 34:2200 37:1200 149:1400 150:100 166:1700 
-0.0009765625 91:800 143:2500 
-0.0009765625 23:2200 67:2200 80:1800 96:500 116:1600 151:0 
-0.0009765625 30:2200 34:2300 72:1700 73:1900 81:2000 82:1400 104:1200 118:1600 141:800 171:800 
-0.0009765625 4:2000 17:2000 22:2000 43:1200 56:1600 64:2400 95:700 158:700 
-0.0009765625 3:1300 11:200 54:500 68:1800 78:2100 83:700 134:300 150:2500 151:2500 
-0.0009765625 18:1900 61:400 126:2500 159:1300 
-0.0009765625 25:2300 26:2000 81:2000 108:1200 
-0.0009765625 22:2300 61:2500 122:250 
-0.0009765625 49:2500 56:2500 87:1800 93:1900 95:1900 128:700 142:500 173:600 
-0.0009765625 34:1000 55:2500 61:2500 126:250 168:1800 
-0.0009765625 6:1300 7:1100 98:1000 153:2500 155:2500 165:1600 174:1000 
-0.0009765625 18:2200 23:2200 80:1800 87:1200 114:1600 126:1200 
-0.0009765625 55:400 73:2000 78:2200 81:1100 122:2500 140:1000 142:1000 
-0.0009765625 23:1800 106:1600 133:2500 148:2500 
-0.0009765625 31:2300 72:1700 136:1400 146:1400 
-0.0009765625 4:2000 7:2100 32:2300 44:1200 58:1800 67:2200 96:500 129:800 138:800 148:800 
-0.0009765625 21:2100 29:800 35:1500 42:2400 51:2500 59:2500 105:300 156:650 
-0.0009765625 3:2400 40:2300 94:700 115:1600 129:800 146:800 
-0.0009765625 45:2500 84:1800 86:1500 127:250 
-0.0009765625 13:2200 16:2400 17:2000 44:1200 84:1400 107:1200 116:1600 121:1200 147:800 
-0.0009765625 27:1600 39:2300 53:1800 81:1400 83:1900 115:1400 128:900 151:100 158:500 163:500 
-0.0009765625 6:2200 10:1800 57:1000 82:800 93:100 101:2200 111:1400 130:1400 136:1400 
-0.0009765625 3:2400 6:1400 9:1600 41:700 59:1200 119:1600 122:1200 135:800 155:700 
-0.0009765625 48:1200 110:1600 
-0.0009765625 16:2400 28:1900 55:1200 80:1800 130:800 
-0.0009765625 3:2400 38:2200 67:2200 81:2000 88:1700 108:1200 167:1700 
-0.0009765625 3:2400 74:1600 109:1600 111:1600 166:1700 
-0.0009765625 43:200 132:2500 149:2500 
-0.0009765625 33:2300 57:1200 69:2500 74:1600 159:700 160:700 167:1700 174:800 
-0.0009765625 13:2200 22:2000 36:2300 130:800 160:700 164:1700 
-0.0009765625 6:2200 31:2300 74:2100 87:500 139:1400 
-0.0009765625 3:2400 90:1700 97:500 98:500 120:1600 
-0.0009765625 49:300 108:2500 
-0.0009765625 14:2000 23:2200 44:1200 55:1200 74:1600 93:700 105:1200 119:1600 149:800 
-0.0009765625 10:2400 39:2000 62:1200 66:2400 90:1700 128:500 151:0 154:700 
-0.0009765625 12:1500 30:2200 106:1400 
-0.0009765625 8:1200 124:2500 140:1000 158:1300 
-0.0009765625 6:1400 8:2000 29:2000 30:2200 59:1200 61:1400 85:1400 93:700 107:1200 
-0.0009765625 6:2200 18:2000 39:2300 64:2200 84:1200 133:1400 139:1400 146:1400 159:500 169:1000 
-0.0009765625 22:2000 64:2400 68:2200 102:1000 128:500 
-0.0009765625 15:2300 21:2200 27:1800 48:1200 135:800 150:0 159:700 161:700 
-0.0009765625 2:1000 21:2200 76:2200 117:1600 120:1600 
-0.0009765625 95:1000 96:1000 99:1000 128:900 143:600 149:600 157:2500 162:1400 170:1000 
-0.0009765625 4:1450 100:1800 128:900 141:1400 155:800 
-0.0009765625 25:2300 52:1200 
-0.0009765625 15:2300 79:2100 120:1600 143:800 
-0.0009765625 35:1800 52:1200 67:2200 
-0.0009765625 33:2300 51:1200 52:1200 70:1700 80:1800 116:1600 157:700 
-0.0009765625 91:1600 133:1400 172:1000 
-0.0009765625 27:500 90:300 104:2500 108:2500 133:1700 171:600 
-0.0009765625 11:1000 69:2500 93:700 102:1000 113:1600 116:1600 137:800 175:800 
-0.0009765625 62:1200 115:1600 
-0.0009765625 26:0 27:2400 41:2400 49:2500 62:2500 72:1800 93:1900 104:300 133:500 135:500 
-0.0009765625 2:2100 5:2200 6:2200 41:800 109:1400 140:1400 
-0.0009765625 90:800 123:800 144:2500 145:2500 
-0.0009765625 1:2000 9:1200 49:1000 69:1600 83:1900 112:1400 129:1400 
-0.0009765625 22:2300 27:2400 41:2400 46:2500 55:2500 67:200 127:250 
-0.0009765625 17:2000 82:1400 104:1200 108:1200 118:1600 157:700 167:1700 172:800 
-0.0009765625 11:1600 23:2100 35:2000 91:1600 168:1700 
-0.0009765625 1:2000 31:2300 100:1800 110:1400 118:1400 162:500 175:1000 
-0.0009765625 88:1700 130:750 158:2500 
-0.0009765625 41:2400 129:500 
-0.0009765625 17:2100 71:2200 
-0.0009765625 18:1600 61:400 136:2500 148:2500 
-0.0009765625 17:1900 18:1800 114:2500 161:650 
-0.0009765625 42:2400 52:2500 152:200 
-0.0009765625 70:1400 131:2500 139:2500 153:500 165:600 
-0.0009765625 24:2200 53:1600 97:500 102:1000 113:1600 
-0.0009765625 12:600 16:800 76:2500 94:800 104:1600 116:500 134:2500 136:2500 154:500 
-0.0009765625 1:2200 78:1800 79:1100 97:700 101:2400 139:600 
-0.0009765625 39:2000 49:1200 79:2100 113:1600 142:800 156:700 
-0.0009765625 31:2300 99:1200 134:1400 143:1400 165:1700 174:1000 
-0.0009765625 78:2100 101:1300 103:2400 
-0.0009765625 98:600 103:2200 119:2400 145:1000 
-0.0009765625 45:2500 52:2500 89:2100 108:300 140:500 161:100 
-0.0009765625 22:2000 25:2300 71:2200 82:1400 84:1400 90:1700 131:800 162:700 173:800 
-0.0009765625 46:1200 56:1600 112:1600 116:1600 120:1600 157:700 
-0.0009765625 14:2000 18:2200 23:2200 48:1200 96:500 99:800 112:1600 147:800 166:1700 
-0.0009765625 99:1000 106:950 149:600 156:2500 
-0.0009765625 7:1600 69:500 135:2500 145:2500 
-0.0009765625 24:2200 49:1200 119:1600 157:700 
-0.0009765625 33:2300 58:1800 61:1400 116:1600 125:1200 
-0.0009765625 7:2100 16:2400 19:2200 22:2000 48:1200 
-0.0009765625 46:2500 55:2500 97:1000 119:200 
-0.0009765625 14:1400 47:400 64:1000 96:50 102:0 129:2500 138:2500 140:2500 149:2500 
-0.0009765625 36:2300 43:1200 49:1200 66:2400 91:1800 114:1600 133:800 
-0.0009765625 10:2400 32:2300 91:1800 98:500 174:800 
-0.0009765625 47:1200 66:2400 68:2200 152:0 153:700 
-0.0009765625 51:2500 58:2500 105:300 124:250 
-0.0009765625 7:2100 13:2200 27:1800 108:1200 109:1600 151:0 160:700 161:700 
-0.0009765625 25:2300 26:2000 59:1200 76:2200 101:1000 121:1200 125:1200 158:700 170:800 
-0.0009765625 66:1200 87:1600 106:1300 151:500 161:1300 
-0.0009765625 60:2500 95:1900 171:600 
-0.0009765625 10:2400 33:2300 44:1200 55:1200 68:2200 136:800 143:800 144:800 
-0.0009765625 2:1000 49:1200 79:2100 81:2000 110:1600 174:800 
-0.0009765625 26:2000 40:2300 47:1200 49:1200 86:1500 106:1400 120:1600 135:800 140:800 164:1700 
-0.0009765625 2:1900 16:1700 41:1400 91:2000 96:700 109:500 169:700 
-0.0009765625 20:2100 31:1100 46:400 94:800 111:500 135:2500 138:2500 140:2500 153:500 
-0.0009765625 29:1200 114:500 130:2500 140:2500 
-0.0009765625 25:2300 55:1200 64:2400 78:2200 118:1600 137:800 153:700 173:800 
-0.0009765625 1:2000 35:2000 42:1200 113:1400 117:1400 151:100 163:500 165:1700 
-0.0009765625 3:2400 10:2400 86:1500 142:800 
-0.0009765625 1:2000 2:2100 6:2200 37:1200 77:1600 84:1200 111:1400 130:1400 153:800 
-0.0009765625 4:1450 75:2100 85:1500 
-0.0009765625 13:2200 31:2300 51:1200 64:2400 112:1600 
-0.0009765625 53:1800 94:600 112:1400 117:1400 136:1400 139:1400 
-0.0009765625 5:700 42:2400 87:1800 
-0.0009765625 10:2400 50:1200 92:700 97:500 101:1000 110:1600 132:800 151:0 167:1700 171:800 
-0.0009765625 62:400 81:400 125:800 135:2500 143:2500 173:400 
-0.0009765625 10:2400 23:2200 43:1200 116:1600 175:800 
-0.0009765625 22:600 159:2500 
-0.0009765625 63:400 120:2400 127:2500 
-0.0009765625 40:1700 68:500 95:1000 145:600 153:2500 158:1400 164:1600 167:1600 
-0.0009765625 9:300 27:2400 49:2500 97:1000 122:250 
-0.0009765625 10:1900 113:2500 117:2500 
-0.0009765625 11:1200 13:1300 48:2500 132:500 167:1800 173:600 
-0.0009765625 19:2200 24:2200 39:2000 42:1100 56:1600 68:2200 85:1400 129:800 140:800 155:700 
-0.0009765625 23:2100 26:2300 27:1600 95:1900 97:0 107:1100 
-0.0009765625 16:2400 36:2300 130:800 158:700 164:1700 
-0.0009765625 3:2400 9:1600 22:2000 33:2300 41:700 56:1600 
-0.0009765625 5:2100 87:1400 92:500 96:200 101:50 104:2500 108:2500 128:2500 144:1700 170:600 
-0.0009765625 29:2200 38:1600 69:1600 99:1200 101:2200 108:1100 121:700 147:1400 
-0.0009765625 71:1400 79:800 97:1300 175:2500 
-0.0009765625 75:2100 83:1900 119:1400 134:1400 
-0.0009765625 92:500 102:1400 114:1400 127:1200 137:1400 170:1000 
-0.0009765625 53:1800 114:1400 150:100 173:1000 
-0.0009765625 11:1600 41:800 42:1200 45:200 74:2100 107:1100 132:1400 133:1400 156:800 
-0.0009765625 63:900 74:2100 89:1800 99:1200 101:2200 107:1100 111:1400 134:1400 139:1400 153:800 
-0.0009765625 71:1300 75:2100 91:1600 101:2200 105:1100 135:1400 160:500 
-0.0009765625 12:2200 43:2400 51:2500 61:2500 109:200 122:250 166:1800 
-0.0009765625 12:1800 143:750 156:800 163:2500 167:1500 
-0.0009765625 28:2200 30:2100 137:1400 
-0.0009765625 8:2100 172:1000 
-0.0009765625 12:1500 39:2000 49:1200 78:2200 80:1800 98:500 123:1200 157:700 
-0.0009765625 26:2000 41:700 65:2400 68:2200 73:1900 161:700 
-0.0009765625 2:2100 23:2100 24:1500 31:2300 41:800 76:1600 100:1800 130:1400 150:100 
-0.0009765625 10:2400 44:1200 96:500 104:1200 112:1600 115:1600 128:500 137:800 
-0.0009765625 70:1700 90:1700 105:1200 166:1700 
-0.0009765625 2:2100 43:1600 173:1000 
-0.0009765625 38:2500 84:400 113:500 114:500 132:2500 144:2500 146:2500 166:600 
-0.0009765625 48:2500 49:2500 50:2500 64:600 159:100 
-0.0009765625 34:2300 73:1900 
-0.0009765625 48:1200 59:1200 74:1600 112:1600 130:800 167:1700 
-0.0009765625 1:1200 27:1800 79:2100 108:1200 112:1600 118:1600 154:700 
-0.0009765625 13:2200 15:2300 30:2200 53:1600 96:500 98:500 137:800 
-0.0009765625 108:1300 120:2400 
-0.0009765625 67:2200 81:2000 89:1700 114:1600 123:1200 145:800 
-0.0009765625 75:2100 88:1600 91:1600 153:800 172:1000 173:1000 
-0.0009765625 38:2200 63:1200 112:1600 140:800 165:1700 172:800 
-0.0009765625 64:2200 95:1900 99:1200 135:1400 142:1400 154:800 156:800 166:1700 
-0.0009765625 5:1600 52:1200 78:2200 79:2100 86:1500 88:1700 91:1800 125:1200 158:700 172:800 
-0.0009765625 69:2400 113:2500 115:2500 156:150 
-0.0009765625 10:1800 28:2200 35:2000 57:1000 75:2100 99:1200 108:1100 158:500 170:1000 
-0.0009765625 17:900 22:2300 47:2500 52:2500 75:0 
-0.0009765625 10:2400 25:2300 26:2000 125:1200 143:800 
-0.0009765625 1:1200 56:1600 112:1600 115:1600 119:1600 123:1200 
-0.0009765625 7:2100 11:1000 24:2200 28:1900 42:1100 44:1200 56:1600 66:2400 90:1700 
-0.0009765625 11:1600 29:2200 36:2300 55:1200 60:700 158:500 
-0.0009765625 18:2200 20:1800 34:2300 58:1800 78:2200 171:800 
-0.0009765625 23:2100 38:1600 70:1800 144:1400 153:800 165:1700 
-0.0009765625 20:2500 39:2400 45:400 66:1200 87:1600 103:2200 157:650 
-0.0009765625 1:1200 32:2300 56:1600 82:1400 99:800 118:1600 124:1200 142:800 143:800 160:700 
-0.0009765625 44:650 63:650 70:900 121:700 123:700 153:2500 157:2500 
-0.0009765625 100:1000 125:700 154:2500 165:1600 
-0.0009765625 14:2000 42:1100 71:2200 94:700 109:1600 122:1200 132:800 140:800 168:1700 
-0.0009765625 3:2400 16:2400 27:1800 116:1600 152:0 
-0.0009765625 43:1600 112:1400 120:1400 171:1000 
-0.0009765625 153:2500 159:1400 
-0.0009765625 36:2300 42:1100 65:2400 69:2500 106:1400 121:1200 125:1200 149:800 157:700 161:700 
-0.0009765625 38:2200 41:700 51:1200 66:2400 75:1600 80:1800 95:700 110:1600 157:700 
-0.0009765625 1:2000 32:2000 69:1600 95:1900 113:1400 135:1400 158:500 161:500 173:1000 
-0.0009765625 21:2100 51:2500 174:600 
-0.0009765625 26:2000 40:2300 41:700 62:1200 96:500 109:1600 
-0.0009765625 5:450 51:800 78:2300 94:2500 95:2500 98:2200 109:0 121:200 140:200 
-0.0009765625 3:2400 28:1900 39:2000 54:1200 111:1600 118:1600 127:1500 147:800 
-0.0009765625 3:1200 17:2100 40:1600 122:2500 123:2500 141:1000 153:650 154:650 168:1500 169:700 
-0.0009765625 41:2400 63:2500 78:1900 91:1400 108:300 155:650 
-0.0009765625 11:2000 46:650 86:900 91:1000 98:1000 99:1000 157:2500 160:1400 171:1000 
-0.0009765625 102:2400 106:800 169:700 
-0.0009765625 10:2400 49:1200 65:2400 
-0.0009765625 9:1300 44:1200 81:1200 99:2400 164:1300 169:700 
-0.0009765625 28:1900 39:2000 51:1200 65:2400 76:2200 110:1600 158:700 166:1700 
-0.0009765625 51:2500 52:2500 63:2500 68:200 
-0.0009765625 48:2500 63:2500 77:1900 94:1900 117:200 123:250 124:250 
-0.0009765625 11:2000 16:1200 38:1200 70:900 95:1000 106:950 147:600 154:2500 156:2500 157:2500 
-0.0009765625 7:1400 48:2500 49:2500 50:2500 95:1900 114:200 131:500 133:500 
-0.0009765625 53:1600 65:2400 94:700 123:1200 146:800 156:700 
-0.0009765625 1:2000 73:1900 131:1400 140:1400 
-0.0009765625 19:2200 31:2300 57:1200 64:2400 80:1800 83:1400 88:1700 96:500 124:1200 126:1200 
-0.0009765625 5:2100 52:400 105:1300 121:2500 145:1000 154:650 165:1500 174:700 
-0.0009765625 28:800 60:400 119:2400 125:2500 
-0.0009765625 19:2200 24:2200 28:1900 47:1200 70:1700 81:2000 105:1200 135:800 156:700 163:700 
-0.0009765625 16:2400 21:2200 40:2300 77:2200 82:1400 103:1200 116:1600 147:800 164:1700 175:800 
-0.0009765625 37:2200 58:2500 
-0.0009765625 2:200 45:2500 46:2500 103:1800 126:250 157:650 174:600 
-0.0009765625 39:2300 165:1700 
-0.0009765625 66:2400 71:2200 113:1600 
-0.0009765625 11:200 68:1800 87:1000 94:600 114:100 150:2500 152:2500 160:150 164:400 
-0.0009765625 58:1800 77:2200 87:1200 90:1700 96:500 109:1600 119:1600 156:700 165:1700 
-0.0009765625 22:2000 24:2200 46:1200 70:1700 75:1600 91:1800 106:1400 151:0 168:1700 
-0.0009765625 47:650 81:400 93:1000 98:1000 104:950 146:600 151:100 155:2500 156:2500 
-0.0009765625 78:2500 92:800 136:2500 
-0.0009765625 1:2200 40:2300 47:1200 93:1700 124:500 126:500 172:700 
-0.0009765625 3:2400 10:2400 13:2200 38:2200 45:1200 74:1600 83:1400 116:1600 
-0.0009765625 10:1800 35:2000 64:2200 
-0.0009765625 4:50 7:1400 41:2400 52:2500 54:2500 56:2500 59:2500 95:1900 128:700 152:200 
-0.0009765625 74:0 104:1600 121:800 131:2500 140:2500 141:2500 150:800 167:600 
-0.0009765625 21:2200 38:2200 69:2500 80:1800 93:700 122:1200 144:800 146:800 158:700 171:800 
-0.0009765625 7:2100 49:1200 110:1600 
-0.0009765625 51:800 115:1400 131:1400 142:1400 157:800 168:1700 
-0.0009765625 8:1500 116:2500 
-0.0009765625 16:2400 37:1700 114:1600 
-0.0009765625 30:2200 32:2300 44:1200 83:1400 108:1200 123:1200 161:700 
-0.0009765625 4:1300 57:250 90:1700 160:2500 
-0.0009765625 9:1600 42:1100 68:2200 71:2200 86:1500 120:1600 164:1700 166:1700 
-0.0009765625 13:1700 81:400 150:100 153:2500 174:1000 
-0.0009765625 15:2000 115:400 119:2400 121:2500 124:2500 171:700 
-0.0009765625 22:2000 63:1200 101:1000 108:1200 114:1600 160:700 
-0.0009765625 17:900 55:2500 
-0.0009765625 14:2000 18:2200 22:2000 30:2200 55:1200 61:1400 66:2400 158:700 159:700 171:800 
-0.0009765625 62:400 74:0 135:2500 144:2500 
-0.0009765625 6:2200 9:1200 23:2100 42:1200 43:1600 52:700 85:1500 123:700 129:1400 166:1700 
-0.0009765625 23:2500 57:400 158:1300 
-0.0009765625 2:1000 19:2200 32:2300 41:700 58:1800 76:2200 
-0.0009765625 12:1500 56:1600 80:1800 83:1400 116:1600 131:800 164:1700 166:1700 170:800 
-0.0009765625 5:1600 6:1400 10:2400 20:1800 33:2300 48:1200 53:1600 164:1700 
-0.0009765625 1:2000 22:1300 49:1000 114:1400 137:1400 
-0.0009765625 17:2100 23:2500 38:2200 43:900 152:500 
-0.0009765625 47:2500 49:2500 88:2100 
-0.0009765625 7:2100 36:2300 52:1200 56:1600 78:2200 89:1700 111:1600 122:1200 133:800 
-0.0009765625 25:2300 26:2000 27:1800 40:2300 57:1200 77:2200 131:800 
-0.0009765625 39:2000 71:2200 79:2100 82:1400 123:1200 127:1500 136:800 
-0.0009765625 29:2200 85:1500 94:600 138:1400 
-0.0009765625 29:2000 81:2000 89:1700 106:1400 
-0.0009765625 3:1400 93:1000 107:950 148:600 154:2500 167:1600 
-0.0009765625 15:2300 30:2200 58:1800 84:1400 90:1700 130:800 
-0.0009765625 11:1600 139:1400 
-0.0009765625 24:2200 32:2300 57:1200 83:1400 106:1400 159:700 160:700 167:1700 
-0.0009765625 15:2000 119:2400 
-0.0009765625 10:2400 17:2000 30:2200 32:2300 76:2200 107:1200 123:1200 132:800 
-0.0009765625 7:2300 22:1300 23:2100 39:2300 82:800 101:2200 125:700 128:900 149:1400 
-0.0009765625 3:2400 23:2200 54:1200 70:1700 152:0 
-0.0009765625 1:300 12:2200 42:2400 50:2500 59:2500 74:0 77:1900 129:500 
-0.0009765625 22:2000 52:1200 63:1200 81:2000 84:1400 111:1600 123:1200 133:800 
-0.0009765625 36:250 77:2500 107:2500 108:2500 
-0.0009765625 1:300 37:2200 44:2500 46:2500 47:2500 94:1900 99:300 141:500 162:100 
-0.0009765625 22:600 43:200 78:2500 84:400 94:800 115:500 121:800 132:2500 145:2500 148:2500 
-0.0009765625 1:1200 8:2000 22:2000 24:2200 30:2200 57:1200 63:1200 69:2500 88:1700 103:1200 
-0.0009765625 78:2200 90:1000 121:2500 157:650 172:700 
-0.0009765625 21:1800 63:900 75:2100 83:1900 102:1400 110:1400 170:1000 
-0.0009765625 67:2200 71:2200 99:2400 100:2400 102:2400 114:500 123:500 147:600 153:400 
-0.0009765625 5:1850 41:200 71:800 88:800 93:800 127:800 128:2500 141:2500 147:2500 155:500 
-0.0009765625 19:2200 43:1200 50:1200 61:1400 62:1200 106:1400 109:1600 114:1600 
-0.0009765625 17:2000 34:2200 49:1000 61:1500 108:1100 114:1400 135:1400 
-0.0009765625 30:1400 81:1600 111:2500 115:2500 133:800 174:600 
-0.0009765625 6:2200 28:2200 144:1400 155:800 163:500 
-0.0009765625 2:2100 20:2000 70:1800 93:100 98:100 116:1400 118:1400 120:1400 140:1400 145:1400 
-0.0009765625 23:1400 53:2500 54:2500 62:2500 95:1900 133:500 139:500 147:500 
-0.0009765625 32:2300 56:1600 65:2400 77:2200 95:700 98:500 128:500 162:700 163:700 
-0.0009765625 5:2200 99:1200 115:1400 122:700 
-0.0009765625 28:1900 82:1400 126:1200 156:700 
-0.0009765625 15:1700 44:2500 54:2500 72:1800 106:300 132:500 152:200 173:600 
-0.0009765625 2:2100 36:2300 72:1700 119:1400 155:800 
-0.0009765625 12:1700 94:2500 
-0.0009765625 8:2100 85:1500 98:100 108:1100 146:1400 
-0.0009765625 156:2500 163:1400 
-0.0009765625 27:1600 36:2300 40:1500 49:1000 137:1400 140:1400 168:1700 171:1000 
-0.0009765625 12:2200 27:2400 53:2500 70:1800 75:0 80:0 87:1800 94:1900 157:650 166:1800 
-0.0009765625 3:1500 34:2200 70:1800 85:1500 101:2200 172:1000 
-0.0009765625 20:2500 81:1100 97:600 102:300 124:2500 133:1000 165:1500 
-0.0009765625 31:2300 35:2000 128:900 
-0.0009765625 3:2400 27:1800 40:2300 83:1400 103:1200 132:800 174:800 
-0.0009765625 17:2000 27:1600 73:1900 86:2100 105:1100 108:1100 115:1400 117:1400 141:1400 149:1400 
-0.0009765625 58:1800 77:2200 86:1500 92:700 127:1500 130:800 166:1700 174:800 
-0.0009765625 10:2400 30:2200 39:2000 53:1600 66:2400 107:1200 166:1700 
-0.0009765625 20:2100 41:200 77:2500 90:800 105:1600 131:2500 146:2500 164:600 175:400 
-0.0009765625 15:2300 21:2200 23:2200 33:2300 45:1200 66:2400 75:1600 97:500 146:800 
-0.0009765625 50:1200 118:1600 119:1600 
-0.0009765625 15:2300 17:2000 34:2300 92:700 
-0.0009765625 2:2100 17:2000 74:2100 127:1200 130:1400 172:1000 
-0.0009765625 49:1200 90:1700 100:800 107:1200 112:1600 114:1600 
-0.0009765625 37:2200 43:2400 44:2500 53:2500 102:200 108:300 122:250 142:500 163:100 170:600 
-0.0009765625 15:1800 40:1700 61:650 154:2500 169:1000 
-0.0009765625 8:2000 27:1800 38:2200 65:2400 109:1600 111:1600 166:1700 
-0.0009765625 24:2200 53:1600 70:1700 104:1200 114:1600 
-0.0009765625 4:800 93:1700 99:2400 107:800 129:600 170:700 
-0.0009765625 10:1800 20:2000 26:2300 52:700 75:2100 91:1600 120:1400 137:1400 144:1400 161:500 
-0.0009765625 35:1500 82:1800 98:1000 
-0.0009765625 63:1200 65:2400 89:1700 107:1200 
-0.0009765625 81:1200 101:2400 
-0.0009765625 10:800 34:1800 44:250 128:750 136:750 158:2500 163:2500 166:1500 
-0.0009765625 37:1300 100:2400 
-0.0009765625 138:2500 149:2500 153:500 
-0.0009765625 8:2000 30:2200 36:2300 165:1700 
-0.0009765625 13:2200 30:2200 62:1200 82:1400 
-0.0009765625 3:2400 42:1100 57:1200 68:2200 80:1800 94:700 132:800 166:1700 
-0.0009765625 14:2000 49:1200 82:1400 111:1600 123:1200 132:800 139:800 157:700 
-0.0009765625 55:2500 76:1900 83:1800 90:2100 95:1900 112:200 137:500 
-0.0009765625 59:2500 78:1900 
-0.0009765625 11:600 169:2500 
-0.0009765625 5:1850 20:2100 94:800 107:1600 131:2500 135:2500 166:600 
-0.0009765625 12:1500 70:1700 111:1600 115:1600 134:800 167:1700 
-0.0009765625 32:2300 48:1200 51:1200 80:1800 92:700 108:1200 123:1200 154:700 157:700 169:800 
-0.0009765625 2:1000 20:1800 37:1700 38:2200 64:2400 90:1700 108:1200 145:800 
-0.0009765625 22:2000 33:2300 40:2300 59:1200 69:2500 94:700 125:1200 131:800 145:800 162:700 
-0.0009765625 35:2000 43:1600 131:1400 149:1400 156:800 
-0.0009765625 30:2200 47:1200 97:500 99:800 109:1600 136:800 172:800 
-0.0009765625 2:1000 39:2000 46:1200 51:1200 56:1600 74:1600 96:500 126:1200 163:700 175:800 
-0.0009765625 39:2400 65:1200 87:1600 126:2500 143:1000 
-0.0009765625 32:2000 135:1400 168:1700 
-0.0009765625 1:1200 3:2400 59:1200 61:1400 78:2200 94:700 127:1500 144:800 156:700 
-0.0009765625 17:2000 48:1200 68:2200 70:1700 96:500 101:1000 109:1600 143:800 
-0.0009765625 8:2000 47:1200 57:1200 78:2200 84:1400 120:1600 125:1200 149:800 156:700 
-0.0009765625 22:2000 109:1600 128:500 160:700 
-0.0009765625 74:0 107:1600 135:2500 143:2500 
-0.0009765625 8:2000 35:800 58:1800 72:1700 91:1800 92:700 112:1600 144:800 153:700 
-0.0009765625 29:900 77:2200 126:2500 157:650 173:700 
-0.0009765625 32:2000 83:1900 108:1100 110:1400 143:1400 
-0.0009765625 31:2400 79:1200 82:700 84:700 155:800 158:2500 162:2500 
-0.0009765625 22:2300 27:2400 41:2400 83:1800 123:250 141:500 
-0.0009765625 27:1800 48:1200 79:2100 109:1600 133:800 154:700 170:800 
-0.0009765625 15:2300 29:2000 33:2300 45:1200 48:1200 95:700 118:1600 151:0 156:700 165:1700 
-0.0009765625 53:250 88:1700 122:1400 161:2500 
-0.0009765625 53:1600 67:2200 122:1200 146:800 157:700 162:700 
-0.0009765625 14:1400 112:500 134:2500 149:2500 
-0.0009765625 21:2200 22:2000 32:2300 62:1200 65:2400 69:2500 126:1200 129:800 156:700 
-0.0009765625 3:250 50:2500 58:2500 85:1800 89:2100 94:1900 101:200 117:200 128:700 151:200 
-0.0009765625 2:2100 20:2000 21:1800 86:2100 87:500 104:1100 115:1400 140:1400 148:1400 158:500 
-0.0009765625 24:2200 79:2100 153:700 
-0.0009765625 37:1200 74:2100 150:100 165:1700 173:1000 
-0.0009765625 22:2000 34:2300 54:1200 107:1200 124:1200 129:800 154:700 172:800 
-0.0009765625 24:2200 55:1200 117:1600 138:800 174:800 
-0.0009765625 48:2500 50:2500 55:2500 73:2200 82:1800 107:300 116:200 134:500 135:500 156:650 
-0.0009765625 6:2000 12:1800 36:1400 125:2500 134:1000 150:500 151:500 
-0.0009765625 3:2400 22:2000 25:2300 47:1200 56:1600 65:2400 67:2200 70:1700 146:800 171:800 
-0.0009765625 21:1800 31:2300 117:1400 133:1400 151:100 
-0.0009765625 11:1000 24:2200 38:2200 50:1200 62:1200 67:2200 89:1700 98:500 116:1600 117:1600 
-0.0009765625 43:2400 58:2500 59:2500 62:2500 126:250 137:500 146:500 159:100 171:600 
-0.0009765625 30:2200 38:2200 62:1200 70:1700 105:1200 
-0.0009765625 63:1200 80:1800 97:500 163:700 172:800 
-0.0009765625 27:1800 29:2000 31:2300 49:1200 65:2400 73:1900 97:500 104:1200 111:1600 128:500 
-0.0009765625 94:2500 96:2200 135:200 
-0.0009765625 1:1200 4:2000 10:2400 17:2000 37:1700 88:1700 121:1200 153:700 
-0.0009765625 1:2000 9:1200 17:2000 19:1800 35:2000 68:1300 95:1900 101:2200 116:1400 147:1400 
-0.0009765625 18:2000 75:2100 106:1200 117:1400 150:100 155:800 
-0.0009765625 28:1900 38:2200 65:2400 66:2400 67:2200 75:1600 86:1500 109:1600 175:800 
-0.0009765625 1:1200 33:2300 73:1900 82:1400 94:700 118:1600 121:1200 174:800 
-0.0009765625 11:2000 39:1400 153:2500 
-0.0009765625 4:2000 21:2200 30:2200 111:1600 118:1600 134:800 
-0.0009765625 30:2200 59:1200 164:1700 
-0.0009765625 86:2100 164:1700 
-0.0009765625 18:1600 20:500 41:2400 48:2500 54:2500 95:1900 120:200 126:250 152:200 
-0.0009765625 44:1200 71:2200 80:1800 123:1200 143:800 
-0.0009765625 40:2300 55:1200 69:2500 79:2100 82:1400 96:500 120:1600 
-0.0009765625 6:2200 73:1900 167:1700 
-0.0009765625 24:2200 40:2300 49:1200 57:1200 83:1400 96:500 160:700 
-0.0009765625 47:1200 66:2400 81:2000 
-0.0009765625 2:1000 47:1200 66:2400 
-0.0009765625 11:1000 16:2400 19:2200 
-0.0009765625 144:750 158:2500 
-0.0009765625 12:1800 32:1800 38:2200 39:2400 123:2500 144:1000 
-0.0009765625 53:400 121:2500 175:700 
-0.0009765625 15:2300 16:2400 35:800 37:1700 54:1200 88:1700 111:1600 113:1600 134:800 165:1700 
-0.0009765625 13:2200 117:500 119:200 138:2500 146:2500 
-0.0009765625 32:2300 45:1200 49:1200 74:1600 81:2000 102:1000 104:1200 
-0.0009765625 65:2400 66:2400 148:800 
-0.0009765625 62:1200 67:2200 102:1000 118:1600 124:1200 153:700 
-0.0009765625 12:1100 25:900 31:2300 39:2300 87:500 100:1800 131:1400 132:1400 153:800 
-0.0009765625 98:1800 150:2500 
-0.0009765625 43:2400 50:2500 62:2500 129:500 134:500 146:500 168:1800 175:600 
-0.0009765625 91:800 144:2500 
-0.0009765625 18:800 105:2500 106:2500 108:2500 
-0.0009765625 12:1500 20:1800 77:2200 79:2100 85:1400 147:800 165:1700 168:1700 
-0.0009765625 8:2100 12:1100 14:2100 61:1500 78:1600 102:1400 145:1400 156:800 
-0.0009765625 41:2400 86:1500 173:600 
-0.0009765625 14:1400 149:2500 
-0.0009765625 3:2400 12:1500 54:1200 56:1600 80:1800 90:1700 99:800 121:1200 133:800 147:800 
-0.0009765625 16:2400 18:2200 46:1200 50:1200 99:800 118:1600 162:700 172:800 
-0.0009765625 126:800 130:2500 139:2500 143:2500 149:2500 169:400 
-0.0009765625 48:2500 78:1900 87:1800 
-0.0009765625 9:1600 73:1900 77:2200 85:1400 106:1400 116:1600 120:1600 132:800 137:800 171:800 
-0.0009765625 30:2200 89:1700 104:1200 
-0.0009765625 3:2400 33:2300 68:2200 
-0.0009765625 18:2200 68:2200 83:1400 120:1600 
-0.0009765625 18:2200 22:2000 60:1200 61:1400 66:2400 71:2200 105:1200 121:1200 
-0.0009765625 49:2500 140:500 173:600 
-0.0009765625 8:2000 61:1400 65:2400 67:2200 79:2100 100:800 107:1200 121:1200 165:1700 
-0.0009765625 87:1400 138:2500 
-0.0009765625 76:2500 171:600 
-0.0009765625 37:1700 43:1200 135:1700 139:1700 158:100 
-0.0009765625 35:600 39:1700 71:1800 92:600 97:1800 149:300 151:2500 
-0.0009765625 19:1800 74:2100 101:2200 158:500 172:1000 
-0.0009765625 24:2200 116:1600 134:800 153:700 169:800 
-0.0009765625 3:2400 14:2000 60:1200 63:1200 69:2500 89:1700 169:800 
-0.0009765625 37:1700 59:1200 89:1700 112:1600 121:1200 130:800 139:800 
-0.0009765625 5:1600 8:2000 33:2300 62:1200 88:1700 121:1200 153:700 
-0.0009765625 16:1700 32:1900 101:2400 152:200 166:1300 
-0.0009765625 7:2100 9:1600 18:2200 41:700 49:1200 60:1200 64:2400 73:1900 123:1200 172:800 
-0.0009765625 45:2500 57:2500 113:200 124:250 
-0.0009765625 10:2400 58:1800 63:1200 119:1600 135:800 
-0.0009765625 5:2100 29:900 121:2500 162:1300 
-0.0009765625 32:2300 52:1200 62:1200 68:2200 92:700 114:1600 151:0 159:700 162:700 
-0.0009765625 18:2200 79:2100 82:1400 
-0.0009765625 9:0 39:2400 129:2500 136:2500 
-0.0009765625 22:2300 48:2500 59:2500 86:1500 149:500 
-0.0009765625 14:2100 26:2300 83:1900 99:1200 110:1400 153:800 
-0.0009765625 42:2400 57:2500 84:1800 91:1400 140:500 156:650 168:1800 
-0.0009765625 9:1600 45:1200 71:2200 80:1800 87:1200 110:1600 144:800 148:800 153:700 155:700 
-0.0009765625 1:2000 13:2000 37:1200 70:1800 123:700 141:1400 151:100 175:1000 
-0.0009765625 17:2200 130:2500 140:2500 149:2500 
-0.0009765625 18:1600 58:2500 96:1000 
-0.0009765625 18:1600 41:2400 55:2500 62:2500 69:400 105:300 
-0.0009765625 4:2000 8:2000 9:1600 47:1200 71:2200 91:1800 171:800 
-0.0009765625 2:1000 32:2300 50:1200 65:2400 93:700 104:1200 123:1200 124:1200 145:800 
-0.0009765625 19:900 114:2500 116:2500 
-0.0009765625 7:1600 14:1800 20:2500 120:2400 125:2500 172:700 
-0.0009765625 3:2400 13:2200 93:700 106:1400 128:500 167:1700 
-0.0009765625 6:2200 101:2200 128:900 
-0.0009765625 11:1600 56:600 75:2100 86:2100 110:1400 136:1400 160:500 168:1700 
-0.0009765625 19:2200 29:2000 32:2300 39:2000 73:1900 77:2200 112:1600 120:1600 
-0.0009765625 18:1600 30:1300 126:800 132:2500 144:2500 157:500 
-0.0009765625 12:2200 28:1300 43:2400 58:2500 108:300 170:600 173:600 
-0.0009765625 117:1600 119:1600 
-0.0009765625 48:2500 60:2500 142:500 
-0.0009765625 5:1600 7:2100 21:2200 24:2200 33:2300 99:800 109:1600 
-0.0009765625 31:2400 41:800 86:800 89:1700 90:1700 105:700 124:1400 141:750 159:2500 
-0.0009765625 138:2500 164:600 
-0.0009765625 36:2300 76:2200 
-0.0009765625 3:2400 10:2400 16:2400 
-0.0009765625 30:2100 51:800 118:1400 137:1400 157:800 166:1700 173:1000 
-0.0009765625 60:2500 83:1800 104:300 161:100 
-0.0009765625 50:400 126:2500 146:1000 159:1300 
-0.0009765625 18:2000 35:2000 54:700 66:1900 88:1600 130:1400 166:1700 169:1000 173:1000 
-0.0009765625 1:1200 10:2400 24:2200 32:2300 42:1100 55:1200 64:2400 75:1600 
-0.0009765625 65:2400 67:2200 71:2200 127:1500 
-0.0009765625 18:2200 51:1200 92:700 111:1600 162:700 
-0.0009765625 24:2200 41:700 
-0.0009765625 5:2000 33:1200 109:2500 113:2500 117:2500 128:400 171:600 175:600 
-0.0009765625 35:1500 38:1900 44:2500 54:2500 70:1800 173:600 
-0.0009765625 49:1200 58:1800 72:1700 87:1200 106:1400 110:1600 126:1200 127:1500 147:800 
-0.0009765625 26:700 169:2500 173:2500 
-0.0009765625 4:2000 29:2000 31:2300 68:2200 80:1800 135:800 160:700 170:800 
-0.0009765625 39:2000 53:1600 79:2100 81:2000 98:500 113:1600 115:1600 128:500 156:700 
-0.0009765625 30:2200 58:1800 86:1500 145:800 
-0.0009765625 87:1200 97:500 114:1600 129:800 158:700 164:1700 
-0.0009765625 10:2400 19:2200 85:1400 87:1200 91:1800 103:1200 105:1200 142:800 
-0.0009765625 4:2000 10:2400 51:1200 93:700 101:1000 111:1600 113:1600 127:1500 131:800 172:800 
-0.0009765625 51:2500 78:1900 82:1800 89:2100 127:250 
-0.0009765625 12:1500 24:2200 26:2000 44:1200 61:1400 86:1500 119:1600 
-0.0009765625 34:700 37:1600 92:1000 132:600 153:2500 
-0.0009765625 34:2200 77:1600 101:2200 132:1400 135:1400 139:1400 166:1700 
-0.0009765625 127:2500 143:1000 154:650 
-0.0009765625 7:1600 38:2500 114:500 127:800 135:2500 146:2500 170:400 
-0.0009765625 17:2000 65:2400 74:1600 110:1600 162:700 173:800 
-0.0009765625 10:2400 16:2400 30:2200 42:1100 59:1200 75:1600 117:1600 126:1200 136:800 
-0.0009765625 26:2000 82:1400 
-0.0009765625 80:0 93:1000 155:2500 
-0.0009765625 49:2500 52:2500 59:2500 66:600 141:500 156:650 162:100 
-0.0009765625 43:2400 49:2500 56:2500 160:100 
-0.0009765625 34:2300 47:1200 
-0.0009765625 15:2300 30:2200 33:2300 104:1200 120:1600 142:800 
-0.0009765625 14:2000 25:2300 81:2000 
-0.0009765625 13:1600 40:2300 99:2400 150:200 161:50 
-0.0009765625 16:2400 55:1200 79:2100 113:1600 145:800 164:1700 
-0.0009765625 14:1800 87:1600 174:700 
-0.0009765625 10:2400 37:1700 55:1200 65:2400 98:500 124:1200 133:800 148:800 163:700 
-0.0009765625 10:2400 31:2300 37:1700 58:1800 63:1200 67:2200 77:2200 122:1200 146:800 
-0.0009765625 8:2000 68:2200 73:1900 127:1500 167:1700 169:800 
-0.0009765625 4:2000 19:2200 40:2300 56:1600 68:2200 127:1500 129:800 139:800 159:700 
-0.0009765625 70:1700 116:1600 124:1200 160:700 
-0.0009765625 15:2100 75:2100 134:1400 
-0.0009765625 43:2400 73:2200 159:100 170:600 
-0.0009765625 120:2400 126:2500 144:1000 146:1000 
-0.0009765625 10:2400 33:2300 70:1700 83:1400 94:700 118:1600 119:1600 127:1500 158:700 167:1700 
-0.0009765625 30:2100 52:700 60:700 100:1800 108:1100 133:1400 
-0.0009765625 7:2100 12:1500 81:2000 137:800 173:800 
-0.0009765625 19:2200 41:700 48:1200 102:1000 126:1200 140:800 157:700 
-0.0009765625 3:2400 9:1600 25:2300 39:2000 53:1600 73:1900 87:1200 119:1600 143:800 149:800 
-0.0009765625 64:2200 136:1400 
-0.0009765625 30:1400 115:2500 
-0.0009765625 2:2100 5:2200 8:2100 37:1200 62:400 116:1400 129:1400 143:1400 155:800 160:500 
-0.0009765625 3:2400 57:1200 138:800 174:800 
-0.0009765625 25:2300 28:1900 49:1200 77:2200 83:1400 87:1200 107:1200 129:800 153:700 175:800 
-0.0009765625 3:2400 16:2400 17:2000 21:2200 72:1700 82:1400 92:700 
-0.0009765625 34:2300 68:2200 71:2200 127:1500 133:800 136:800 
-0.0009765625 29:2200 78:1600 100:1800 138:1400 170:1000 
-0.0009765625 33:1800 35:400 121:2500 127:2500 161:1300 166:1500 
-0.0009765625 22:2000 51:1200 75:1600 77:2200 108:1200 144:800 
-0.0009765625 83:1900 119:1400 130:1400 
-0.0009765625 7:1400 22:2300 43:2400 62:2500 
-0.0009765625 11:1000 25:2300 33:2300 135:800 
-0.0009765625 70:1800 85:1500 91:1600 95:1900 119:1400 139:1400 146:1400 151:100 160:500 
-0.0009765625 9:1600 23:2200 25:2300 39:2000 62:1200 94:700 95:700 
-0.0009765625 4:2000 26:2000 27:1800 40:2300 84:1400 120:1600 141:800 171:800 
-0.0009765625 70:600 150:300 159:2500 167:1500 
-0.0009765625 76:1600 86:2100 103:1700 118:1400 132:1400 160:500 170:1000 
-0.0009765625 17:2000 23:2200 36:2300 41:700 47:1200 65:2400 92:700 106:1400 120:1600 124:1200 
-0.0009765625 7:1400 26:0 48:2500 63:2500 84:1800 87:1800 
-0.0009765625 8:1800 26:1200 57:1200 76:1800 90:900 93:1700 99:2400 145:600 
-0.0009765625 8:2100 14:2100 109:1400 132:1400 
-0.0009765625 15:2000 22:1300 23:2500 29:900 38:2200 39:2400 57:400 94:700 121:2500 127:2500 
-0.0009765625 95:700 121:2500 133:1000 
-0.0009765625 7:2300 14:2100 19:1800 34:2200 42:1200 50:200 83:1900 95:1900 159:500 
-0.0009765625 38:2300 92:2500 
-0.0009765625 12:1500 54:1200 65:2400 70:1700 80:1800 122:1200 127:1500 
-0.0009765625 25:2300 70:1700 80:1800 105:1200 
-0.0009765625 21:2100 39:1500 47:2500 
-0.0009765625 51:2500 72:1800 149:500 
-0.0009765625 3:2400 41:700 54:1200 62:1200 70:1700 107:1200 112:1600 136:800 155:700 
-0.0009765625 118:1600 167:1700 
-0.0009765625 74:2100 86:2100 110:1400 126:700 158:500 
-0.0009765625 75:2100 113:1400 168:1700 
-0.0009765625 19:600 97:1000 154:2500 
-0.0009765625 17:2000 24:2200 69:2500 72:1700 86:1500 107:1200 112:1600 129:800 132:800 154:700 
-0.0009765625 87:1200 113:1600 
-0.0009765625 79:700 84:400 108:2500 128:2500 162:100 
-0.0009765625 33:1400 56:1600 94:800 133:2500 
-0.0009765625 16:2400 38:2200 49:1200 70:1700 81:2000 108:1200 113:1600 129:800 150:0 
-0.0009765625 2:2100 11:1600 14:2100 20:2000 32:2000 87:500 89:1800 95:1900 107:1100 161:500 
-0.0009765625 15:2300 19:2200 89:1700 
-0.0009765625 7:2100 13:2200 25:2300 74:1600 167:1700 
-0.0009765625 31:2300 45:1200 133:800 154:700 
-0.0009765625 83:1900 99:1200 100:1800 119:1400 159:500 
-0.0009765625 25:400 136:2500 140:2500 
-0.0009765625 18:2000 97:0 101:2200 139:1400 159:500 
-0.0009765625 93:1300 127:200 173:2500 
-0.0009765625 96:50 97:50 133:2500 137:2500 146:2500 151:800 
-0.0009765625 1:2000 15:2100 16:1400 30:2100 35:2000 52:700 83:1900 101:2200 134:1400 135:1400 
-0.0009765625 20:2100 50:400 68:800 80:0 133:2500 138:2500 143:2500 149:2500 162:250 
-0.0009765625 7:1400 44:2500 46:2500 87:1800 92:1900 104:300 116:200 137:500 162:100 
-0.0009765625 28:1900 57:1200 79:2100 103:1200 110:1600 157:700 166:1700 171:800 
-0.0009765625 70:1400 104:2500 
-0.0009765625 35:700 37:1700 56:1900 84:400 105:2500 118:200 130:1700 135:1700 152:1000 175:600 
-0.0009765625 15:1700 41:2400 48:2500 81:1200 112:200 155:650 
-0.0009765625 1:1200 15:2300 51:1200 108:1200 122:1200 
-0.0009765625 10:2400 24:2200 77:2200 85:1400 102:1000 103:1200 114:1600 
-0.0009765625 5:2200 21:1800 31:2300 
-0.0009765625 5:700 6:400 46:2500 57:2500 59:2500 86:1500 88:2100 160:100 
-0.0009765625 81:1200 90:2100 96:1000 
-0.0009765625 44:400 138:2500 145:2500 165:600 
-0.0009765625 76:2500 103:1200 108:2500 
-0.0009765625 26:2300 35:2000 46:400 101:2200 114:1400 150:100 162:500 175:1000 
-0.0009765625 17:2200 20:2100 24:1000 59:400 83:400 94:800 106:1600 132:2500 138:2500 173:400 
-0.0009765625 39:2100 41:0 66:2300 106:950 115:2500 116:2500 140:800 159:650 
-0.0009765625 49:1000 55:1200 71:1300 89:1800 95:1900 100:1800 128:900 140:1400 141:1400 152:100 
-0.0009765625 55:2500 62:2500 138:500 173:600 
-0.0009765625 28:2200 92:500 124:700 143:1400 173:1000 
-0.0009765625 64:1000 94:800 131:2500 140:2500 
-0.0009765625 26:0 32:1100 46:2500 47:2500 49:2500 57:2500 136:500 
-0.0009765625 1:1200 27:1800 38:2200 51:1200 108:1200 114:1600 127:1500 143:800 172:800 
-0.0009765625 5:1600 33:2300 35:800 45:1200 51:1200 69:2500 138:800 174:800 
-0.0009765625 10:2400 51:1200 55:1200 123:1200 134:800 137:800 171:800 
-0.0009765625 46:2500 130:500 
-0.0009765625 16:2400 24:2200 38:2200 67:2200 72:1700 101:1000 133:800 167:1700 
-0.0009765625 5:1600 20:1800 48:1200 71:2200 78:2200 88:1700 121:1200 
-0.0009765625 1:2000 39:2300 52:700 61:1500 91:1600 105:1100 132:1400 135:1400 159:500 172:1000 
-0.0009765625 8:2000 50:1200 73:1900 110:1600 116:1600 170:800 
-0.0009765625 2:1000 10:2400 19:2200 22:2000 50:1200 73:1900 101:1000 105:1200 117:1600 145:800 
-0.0009765625 36:2300 55:1200 65:1800 95:1900 97:0 100:1800 105:1100 129:1400 131:1400 175:1000 
-0.0009765625 3:2400 37:1700 60:1200 72:1700 101:1000 103:1200 107:1200 
-0.0009765625 22:2000 25:2300 132:800 145:800 165:1700 
-0.0009765625 22:2000 44:1200 47:1200 48:1200 77:2200 80:1800 101:1000 123:1200 160:700 164:1700 
-0.0009765625 4:2000 20:1800 30:2200 55:1200 57:1200 96:500 105:1200 114:1600 148:800 153:700 
-0.0009765625 20:2100 93:800 133:2500 163:250 
-0.0009765625 30:1200 154:2500 
-0.0009765625 63:1200 79:2100 81:2000 116:1600 164:1700 
-0.0009765625 23:1400 28:1300 43:2400 47:2500 48:2500 50:2500 97:1000 109:200 117:200 162:100 
-0.0009765625 49:1000 81:1400 101:2200 110:1400 138:1400 160:500 173:1000 
-0.0009765625 48:500 96:1800 129:300 151:2500 
-0.0009765625 2:1000 5:1600 20:1800 22:2000 32:2300 45:1200 68:2200 82:1400 125:1200 160:700 
-0.0009765625 29:2000 50:1200 66:2400 160:700 
-0.0009765625 14:2000 28:1900 58:1800 69:2500 108:1200 114:1600 134:800 161:700 
-0.0009765625 30:1200 93:1000 154:2500 163:1400 
-0.0009765625 4:700 93:2500 
-0.0009765625 3:1500 26:2300 30:2100 74:2100 129:1400 130:1400 152:100 163:500 166:1700 
-0.0009765625 3:2400 17:2000 19:2200 83:1400 107:1200 108:1200 155:700 163:700 
-0.0009765625 52:1200 58:1800 74:1600 81:2000 118:1600 148:800 155:700 174:800 
-0.0009765625 5:2200 43:1600 85:1500 102:1400 110:1400 149:1400 152:100 169:1000 
-0.0009765625 20:1800 30:2200 77:2200 86:1500 108:1200 165:1700 
-0.0009765625 9:1600 18:2200 82:1400 129:800 
-0.0009765625 10:2400 54:1200 173:800 
-0.0009765625 15:2300 18:2200 31:2300 55:1200 87:1200 90:1700 127:1500 163:700 
-0.0009765625 77:2500 81:400 107:1600 137:2500 142:2500 150:800 
-0.0009765625 39:2400 105:1300 125:2500 
-0.0009765625 58:1800 68:2200 69:2500 97:500 167:1700 171:800 
-0.0009765625 11:1000 15:2300 20:1800 25:2300 58:1800 69:2500 91:1800 152:0 166:1700 
-0.0009765625 63:2500 91:1400 175:600 
-0.0009765625 14:2100 20:2000 43:1600 60:700 109:1400 141:1400 157:800 
-0.0009765625 5:2200 9:1200 35:2000 48:200 84:1200 109:1400 120:1400 132:1400 164:1700 167:1700 
-0.0009765625 69:1600 74:2100 83:1900 125:700 134:1400 170:1000 
-0.0009765625 37:2200 42:2400 45:2500 57:2500 126:250 147:500 164:1800 
-0.0009765625 21:2200 22:2000 44:1200 74:1600 89:1700 91:1800 107:1200 137:800 
-0.0009765625 12:2200 21:2100 57:2500 78:1900 82:1800 104:300 146:500 156:650 168:1800 
-0.0009765625 118:400 126:2500 
-0.0009765625 32:2300 50:1200 80:1800 81:2000 123:1200 162:700 
-0.0009765625 10:1200 99:700 163:450 169:2500 170:2500 171:2500 
-0.0009765625 29:1000 45:650 150:100 154:2500 162:1400 163:1400 166:1600 168:1600 
-0.0009765625 4:2000 54:1200 85:1400 107:1200 157:700 159:700 165:1700 173:800 
-0.0009765625 144:2500 147:2500 
-0.0009765625 40:2300 111:1600 114:1600 165:1700 
-0.0009765625 1:2200 68:2200 77:1800 91:2000 157:400 
-0.0009765625 49:2500 52:2500 61:2500 120:200 141:500 146:500 151:200 164:1800 174:600 175:600 
-0.0009765625 17:2000 26:2000 78:2200 90:1700 139:800 
-0.0009765625 14:2000 20:1800 36:2300 71:2200 112:1600 137:800 155:700 158:700 160:700 
-0.0009765625 18:1600 142:2500 
-0.0009765625 5:1600 19:2200 32:2300 71:2200 114:1600 137:800 168:1700 
-0.0009765625 10:2400 32:2300 72:1700 73:1900 144:800 157:700 170:800 
-0.0009765625 61:2500 143:500 
-0.0009765625 11:1600 31:2300 80:1600 101:2200 104:1100 113:1400 140:1400 
-0.0009765625 1:2000 35:2000 36:2300 60:700 67:2000 74:2100 124:700 158:500 172:1000 
-0.0009765625 70:1400 93:800 115:500 125:800 144:2500 
-0.0009765625 1:2000 146:1400 156:800 
-0.0009765625 20:2000 89:1800 93:100 100:1800 139:1400 153:800 
-0.0009765625 30:2200 31:2300 32:2300 78:2200 90:1700 124:1200 134:800 139:800 155:700 172:800 
-0.0009765625 1:2000 49:1000 110:1400 118:1400 129:1400 154:800 157:800 158:500 174:1000 
-0.0009765625 98:1800 101:1300 106:900 
-0.0009765625 36:2300 85:1500 121:700 138:1400 149:1400 167:1700 173:1000 
-0.0009765625 43:700 134:750 151:300 163:2500 
-0.0009765625 67:2200 73:1900 110:1600 149:800 161:700 162:700 
-0.0009765625 11:1500 22:1300 79:1200 89:1000 91:1400 120:2400 122:2500 136:1000 140:1000 
-0.0009765625 5:2200 8:2100 10:1800 47:400 101:2200 105:1100 111:1400 147:1400 159:500 171:1000 
-0.0009765625 10:100 42:2400 92:1900 97:1000 148:500 150:200 164:1800 
-0.0009765625 42:200 60:400 77:2500 99:200 131:2500 139:2500 142:2500 166:600 
-0.0009765625 7:1400 22:2300 57:2500 83:1800 121:250 128:700 
-0.0009765625 4:2000 60:1200 71:2200 72:1700 123:1200 153:700 170:800 
-0.0009765625 43:1600 118:1400 
-0.0009765625 15:1600 36:200 77:2500 88:800 130:2500 131:2500 140:2500 152:800 154:500 
-0.0009765625 12:1500 28:1900 70:1700 82:1400 90:1700 123:1200 144:800 151:0 155:700 
-0.0009765625 4:2000 7:2100 30:2200 59:1200 74:1600 88:1700 90:1700 96:500 
-0.0009765625 42:200 96:50 107:1600 115:500 135:2500 145:2500 
-0.0009765625 71:800 87:1400 89:800 109:500 135:2500 149:2500 154:500 
-0.0009765625 76:2500 109:500 130:2500 
-0.0009765625 15:2300 32:2300 
-0.0009765625 9:1600 72:1700 96:500 109:1600 117:1600 120:1600 130:800 157:700 174:800 
-0.0009765625 5:2200 15:2100 34:2200 37:1200 71:1300 80:1600 83:1900 92:500 101:2200 128:900 
-0.0009765625 4:2000 13:2200 25:2300 49:1200 56:1600 79:2100 80:1800 119:1600 127:1500 130:800 
-0.0009765625 42:1100 69:2500 78:2200 146:800 168:1700 
-0.0009765625 72:1700 89:1800 100:1800 136:1400 172:1000 
-0.0009765625 7:2100 11:1000 25:2300 75:1600 
-0.0009765625 28:1300 47:2500 166:1800 
-0.0009765625 5:1600 18:2200 45:1200 69:2500 104:1200 115:1600 
-0.0009765625 44:2500 66:600 94:1900 
-0.0009765625 12:1500 14:2000 30:2200 58:1800 79:2100 86:1500 89:1700 108:1200 110:1600 117:1600 
-0.0009765625 5:1600 16:2400 164:1700 
-0.0009765625 26:0 35:1500 59:2500 62:2500 81:1200 90:2100 97:1000 100:300 147:500 173:600 
-0.0009765625 79:1400 101:2200 
-0.0009765625 53:400 57:400 72:1500 125:2500 127:2500 160:1300 
-0.0009765625 39:2300 114:1400 119:1400 144:1400 145:1400 165:1700 170:1000 
-0.0009765625 1:2000 2:2100 39:2300 48:200 63:900 89:1800 100:1800 144:1400 162:500 172:1000 
-0.0009765625 12:1500 18:2200 91:1800 
-0.0009765625 18:800 96:2200 98:2200 134:200 
-0.0009765625 11:1000 18:2200 33:2300 50:1200 97:500 106:1400 
-0.0009765625 7:1700 102:2400 
-0.0009765625 11:1600 130:1400 
-0.0009765625 41:2400 54:2500 58:2500 62:2500 93:1900 
-0.0009765625 35:2500 68:1900 82:200 143:1200 
-0.0009765625 61:400 111:500 131:2500 145:2500 
-0.0009765625 39:2400 108:1600 118:500 121:800 138:2500 154:500 
-0.0009765625 19:400 22:2300 41:2400 46:2500 
-0.0009765625 10:1800 12:1100 19:1800 39:2300 49:1000 95:1900 153:800 157:800 168:1700 
-0.0009765625 8:2000 12:1500 31:2300 50:1200 67:2200 75:1600 150:0 171:800 
-0.0009765625 3:2400 7:2100 17:2000 21:2200 81:2000 82:1400 121:1200 129:800 134:800 
-0.0009765625 5:1600 9:1600 43:1200 66:2400 71:2200 120:1600 160:700 
-0.0009765625 1:150 21:1500 159:2500 163:2500 
-0.0009765625 7:2100 29:2000 37:1700 87:1200 96:500 98:500 100:800 113:1600 121:1200 154:700 
-0.0009765625 8:2000 57:1200 63:1200 116:1600 123:1200 137:800 
-0.0009765625 70:600 120:1600 152:300 159:2500 
-0.0009765625 77:2500 92:800 95:800 112:500 133:2500 143:2500 
-0.0009765625 39:2400 41:700 42:700 56:1900 106:2500 114:200 138:1700 146:1700 153:50 172:600 
-0.0009765625 25:1800 43:1300 133:300 150:2500 158:150 
-0.0009765625 18:2200 81:2000 105:1200 
-0.0009765625 17:2000 37:1700 89:1700 105:1200 114:1600 
-0.0009765625 7:2100 25:2300 52:1200 80:1800 87:1200 159:700 160:700 172:800 173:800 
-0.0009765625 34:1800 115:2500 
-0.0009765625 11:400 15:1600 37:300 130:2500 132:2500 135:2500 145:2500 147:2500 165:600 
-0.0009765625 6:2200 26:2300 38:1600 67:2000 79:1400 139:1400 144:1400 158:500 172:1000 
-0.0009765625 49:2500 52:2500 169:600 
-0.0009765625 17:2000 19:2200 50:1200 72:1700 112:1600 124:1200 149:800 
-0.0009765625 3:2400 8:2000 9:1600 56:1600 67:2200 69:2500 126:1200 171:800 
-0.0009765625 36:2300 143:1400 
-0.0009765625 85:300 173:2500 
-0.0009765625 41:700 54:300 106:2500 124:800 144:1700 
-0.0009765625 26:2300 32:2000 137:1400 147:1400 153:800 169:1000 173:1000 
-0.0009765625 23:2200 62:1200 79:2100 87:1200 98:500 108:1200 112:1600 159:700 
-0.0009765625 7:1100 85:400 109:700 153:2500 154:2500 172:1000 
-0.0009765625 1:2200 3:1600 5:1000 93:1700 94:1700 97:700 119:800 135:600 
-0.0009765625 26:1200 63:400 106:1300 122:2500 135:1000 154:650 160:1300 166:1500 
-0.0009765625 111:1000 172:2500 
-0.0009765625 23:2100 34:2200 42:1200 43:1600 66:1900 74:2100 94:600 114:1400 147:1400 167:1700 
-0.0009765625 5:1600 11:1000 33:2300 37:1700 51:1200 53:1600 118:1600 
-0.0009765625 5:700 37:2200 46:2500 72:1800 83:1800 165:1800 
-0.0009765625 21:2100 33:1100 48:2500 61:2500 
-0.0009765625 57:2500 85:1800 93:1900 175:600 
-0.0009765625 53:1800 91:1600 100:1800 114:1400 117:1400 154:800 160:500 165:1700 175:1000 
-0.0009765625 2:2100 61:1500 65:1800 83:1900 126:700 146:1400 148:1400 166:1700 
-0.0009765625 82:400 132:2500 
-0.0009765625 8:2000 17:2000 28:1900 32:2300 119:1600 
-0.0009765625 2:2100 6:2200 10:1800 41:800 51:800 62:400 123:700 138:1400 145:1400 
-0.0009765625 22:2000 57:1200 102:1000 111:1600 124:1200 129:800 
-0.0009765625 4:50 25:300 35:1500 41:2400 48:2500 87:1800 98:1000 
-0.0009765625 85:700 93:700 125:2500 171:700 
-0.0009765625 1:1200 54:1200 61:1400 66:2400 77:2200 84:1400 109:1600 118:1600 155:700 
-0.0009765625 56:250 65:1600 93:400 120:1600 162:2500 163:2500 166:1500 
-0.0009765625 4:200 100:300 106:2500 128:2500 130:1700 
-0.0009765625 11:1300 35:1800 60:1200 71:2200 76:1800 92:1700 115:500 124:500 129:600 150:200 
-0.0009765625 7:2100 29:2000 60:1200 76:2200 78:2200 102:1000 125:1200 163:700 173:800 
-0.0009765625 58:1800 76:2200 77:2200 126:1200 
-0.0009765625 51:400 110:500 140:2500 142:2500 
-0.0009765625 33:2000 34:2200 42:1200 100:1800 162:500 172:1000 
-0.0009765625 12:2200 52:2500 138:500 
-0.0009765625 76:2200 80:1800 85:1400 
-0.0009765625 1:1200 21:2200 25:2300 47:1200 59:1200 89:1700 123:1200 145:800 165:1700 
-0.0009765625 82:700 84:700 163:2500 
-0.0009765625 56:1600 69:500 122:800 132:2500 136:2500 155:500 159:250 
-0.0009765625 29:2000 48:1200 58:1800 64:2400 87:1200 108:1200 128:500 153:700 
-0.0009765625 24:2200 62:1200 85:1400 138:800 174:800 
-0.0009765625 51:300 104:2500 
-0.0009765625 11:2000 35:200 89:1400 98:1000 156:2500 157:2500 161:1400 
-0.0009765625 24:2200 29:2000 30:2200 77:2200 100:800 120:1600 128:500 162:700 168:1700 
-0.0009765625 22:600 53:400 69:500 130:2500 132:2500 142:2500 
-0.0009765625 6:2200 82:800 167:1700 
-0.0009765625 94:800 143:2500 150:800 
-0.0009765625 21:1400 30:1300 93:800 112:500 128:2500 139:2500 140:2500 141:2500 153:500 171:400 
-0.0009765625 25:400 68:800 108:1600 114:500 116:500 134:2500 136:2500 144:2500 
-0.0009765625 1:1200 14:2000 22:2000 29:2000 38:2200 112:1600 118:1600 123:1200 127:1500 163:700 
-0.0009765625 19:2200 23:2200 77:2200 114:1600 118:1600 131:800 170:800 
-0.0009765625 72:1600 92:1000 154:2500 156:2500 175:1000 
-0.0009765625 7:2100 10:2400 36:2300 78:2200 104:1200 106:1400 108:1200 119:1600 121:1200 156:700 
-0.0009765625 23:2200 24:2200 32:2300 42:1100 53:1600 68:2200 152:0 
-0.0009765625 48:2500 56:2500 121:250 
-0.0009765625 145:600 154:2500 
-0.0009765625 29:2200 42:1200 166:1700 
-0.0009765625 18:2200 107:1200 
-0.0009765625 83:1900 113:1400 
-0.0009765625 57:2500 83:1800 132:500 167:1800 
-0.0009765625 1:2000 7:2300 113:1400 156:800 
-0.0009765625 26:300 98:50 143:2500 147:2500 
-0.0009765625 15:1700 58:2500 87:1800 146:500 154:650 
-0.0009765625 4:2000 16:2400 27:1800 43:1200 119:1600 144:800 165:1700 168:1700 
-0.0009765625 27:1600 32:2000 74:2100 75:2100 88:1600 104:1100 152:100 156:800 
-0.0009765625 24:2200 70:1700 73:1900 87:1200 96:500 107:1200 141:800 157:700 
-0.0009765625 44:2500 50:2500 53:2500 61:2500 79:1200 108:300 119:200 137:500 157:650 171:600 
-0.0009765625 19:2200 42:1100 64:2400 71:2200 72:1700 86:1500 114:1600 147:800 171:800 175:800 
-0.0009765625 5:2200 13:2000 23:2100 26:2300 68:1300 79:1400 83:1900 126:700 131:1400 146:1400 
-0.0009765625 142:2500 149:2500 
-0.0009765625 52:1200 63:1200 64:2400 66:2400 68:2200 97:500 102:1000 118:1600 126:1200 
-0.0009765625 9:1600 31:2300 35:800 38:2200 53:1600 58:1800 78:2200 138:800 146:800 
-0.0009765625 23:1800 47:400 52:400 63:400 128:2500 134:2500 142:2500 147:2500 167:600 
-0.0009765625 44:1200 54:1200 58:1800 107:1200 120:1600 124:1200 136:800 
-0.0009765625 5:2200 39:2300 63:900 64:2200 107:1100 130:1400 174:1000 
-0.0009765625 15:1600 72:600 126:800 128:2500 133:2500 
-0.0009765625 1:100 106:1600 129:2500 148:2500 
-0.0009765625 34:400 87:2100 92:2500 
-0.0009765625 31:2300 53:1800 118:1400 141:1400 
-0.0009765625 6:2000 120:2400 
-0.0009765625 24:2200 69:2500 129:800 
-0.0009765625 41:0 69:2400 114:2500 150:100 172:600 
-0.0009765625 2:2100 21:1800 25:900 89:1800 95:1900 104:1100 156:800 
-0.0009765625 19:1800 81:400 105:1600 128:2500 149:2500 
-0.0009765625 19:2200 53:1600 75:1600 82:1400 
-0.0009765625 90:1700 111:1600 120:1600 144:800 
-0.0009765625 17:2000 27:1800 68:2200 78:2200 103:1200 118:1600 122:1200 
-0.0009765625 7:1400 53:2500 94:1900 
-0.0009765625 30:2200 45:1200 66:2400 67:2200 87:1200 130:800 151:0 175:800 
-0.0009765625 36:2300 107:1100 143:1400 164:1700 
-0.0009765625 24:2200 80:1800 88:1700 104:1200 114:1600 116:1600 129:800 
-0.0009765625 28:2200 31:2300 72:1700 133:1400 140:1400 147:1400 173:1000 
-0.0009765625 3:2400 7:2100 24:2200 
