svm_type c_svc
kernel_type rbf
gamma 0.00571429
nr_class 2
total_sv 9330
rho 0.364218
label 1 -1
nr_sv 3582 5748
SV
1 9:1600 17:2000 22:2000 32:2300 79:2100 134:800 142:800 153:700 168:1700 
1 25:2300 59:1200 60:1200 75:1600 95:700 104:1200 122:1200 131:800 148:800 
1 30:2200 51:1200 63:1200 80:1800 158:700 
1 11:1000 18:2200 25:2300 28:1900 49:1200 64:2400 72:1700 78:2200 105:1200 158:700 
1 2:1000 4:2000 9:1600 18:2200 60:1200 82:1400 101:1000 162:700 
1 9:1600 13:2200 19:2200 70:1700 77:2200 127:1500 
1 39:2000 48:1200 67:2200 74:1600 80:1800 87:1200 91:1800 126:1200 133:800 142:800 
1 12:1500 18:2200 56:1600 61:1400 89:1700 102:1000 116:1600 121:1200 122:1200 150:0 
1 3:2400 33:2300 82:1400 85:1400 87:1200 89:1700 110:1600 127:1500 
1 3:2400 30:2200 41:700 56:1600 70:1700 82:1400 97:500 137:800 
1 16:2400 24:2200 148:800 154:700 170:800 
1 13:2200 33:2300 93:700 96:500 105:1200 164:1700 
1 18:2200 23:2200 42:1100 49:1200 65:2400 99:800 127:1500 155:700 
1 61:1400 63:1200 71:2200 75:1600 96:500 122:1200 142:800 175:800 
1 31:2300 46:1200 48:1200 61:1400 71:2200 85:1400 91:1800 148:800 173:800 
1 6:1400 52:1200 54:1200 58:1800 79:2100 81:2000 109:1600 147:800 153:700 
1 24:2200 37:1700 65:2400 70:1700 94:700 116:1600 127:1500 160:700 168:1700 
1 12:1500 34:2300 86:1500 110:1600 113:1600 120:1600 161:700 
1 3:2400 31:2300 74:1600 88:1700 89:1700 166:1700 
1 29:2000 60:1200 61:1400 109:1600 116:1600 155:700 160:700 165:1700 
1 18:2200 29:2000 34:2300 51:1200 59:1200 64:2400 85:1400 109:1600 143:800 
1 8:2000 72:1700 73:1900 75:1600 80:1800 122:1200 124:1200 125:1200 146:800 
1 9:1600 22:2000 50:1200 62:1200 64:2400 105:1200 123:1200 146:800 148:800 163:700 
1 26:2000 71:2200 85:1400 89:1700 97:500 146:800 175:800 
1 7:2100 50:1200 66:2400 83:1400 159:700 
1 4:2000 34:2300 74:1600 90:1700 116:1600 150:0 
1 25:2300 46:1200 166:1700 
1 58:1800 61:1400 111:1600 117:1600 127:1500 170:800 
1 4:2000 49:1200 50:1200 65:2400 69:2500 131:800 142:800 144:800 148:800 156:700 
1 24:2200 45:1200 79:2100 96:500 117:1600 155:700 
1 29:2000 32:2300 54:1200 81:2000 116:1600 133:800 142:800 
1 6:1400 26:2000 68:2200 74:1600 80:1800 81:2000 82:1400 96:500 124:1200 
1 13:2200 61:1400 70:1700 82:1400 90:1700 109:1600 
1 8:2000 34:2300 57:1200 72:1700 126:1200 
1 46:1200 53:1600 57:1200 75:1600 114:1600 163:700 
1 24:2200 33:2300 56:1600 73:1900 87:1200 91:1800 122:1200 165:1700 166:1700 174:800 
1 3:2400 26:2000 27:1800 126:1200 151:0 
1 9:1600 16:2400 57:1200 74:1600 102:1000 123:1200 138:800 162:700 
1 11:1000 19:2200 68:2200 81:2000 84:1400 116:1600 
1 3:2400 19:2200 35:800 41:700 78:2200 89:1700 119:1600 152:0 173:800 
1 17:2000 57:1200 68:2200 81:2000 116:1600 123:1200 140:800 144:800 166:1700 175:800 
1 19:2200 44:1200 47:1200 54:1200 112:1600 140:800 142:800 159:700 
1 4:2000 58:1800 79:2100 87:1200 91:1800 106:1400 110:1600 174:800 
1 3:2400 7:2100 27:1800 90:1700 118:1600 155:700 167:1700 
1 4:2000 19:2200 33:2300 108:1200 158:700 
1 25:2300 70:1700 77:2200 78:2200 113:1600 123:1200 
1 3:2400 17:2000 45:1200 65:2400 82:1400 93:700 164:1700 170:800 
1 60:1200 97:500 116:1600 160:700 
1 38:2200 72:1700 
1 13:2200 30:2200 84:1400 93:700 97:500 99:800 109:1600 117:1600 126:1200 157:700 
1 24:2200 25:2300 62:1200 82:1400 121:1200 143:800 145:800 155:700 174:800 175:800 
1 12:1500 14:2000 16:2400 19:2200 25:2300 75:1600 94:700 137:800 152:0 165:1700 
1 8:2000 28:1900 42:1100 76:2200 113:1600 117:1600 121:1200 153:700 
1 2:1000 3:2400 6:1400 12:1500 51:1200 59:1200 67:2200 112:1600 
1 21:2200 37:1700 48:1200 75:1600 99:800 104:1200 126:1200 140:800 156:700 170:800 
1 4:2000 35:800 57:1200 58:1800 112:1600 113:1600 131:800 138:800 155:700 167:1700 
1 32:2300 65:2400 78:2200 83:1400 109:1600 116:1600 158:700 164:1700 169:800 
1 26:2000 77:2200 157:700 
1 18:2200 82:1400 129:800 154:700 160:700 165:1700 171:800 
1 9:1600 21:2200 23:2200 39:2000 57:1200 71:2200 96:500 
1 15:2300 168:1700 
1 78:2200 168:1700 
1 2:1000 52:1200 54:1200 56:1600 69:2500 88:1700 124:1200 130:800 137:800 172:800 
1 11:1000 23:2200 24:2200 49:1200 51:1200 74:1600 96:500 101:1000 106:1400 126:1200 
1 21:2200 24:2200 64:2400 139:800 
1 16:2400 25:2300 94:700 120:1600 121:1200 166:1700 172:800 
1 10:2400 62:1200 70:1700 143:800 164:1700 170:800 
1 40:2300 43:1200 66:2400 68:2200 69:2500 166:1700 
1 8:2000 20:1800 32:2300 59:1200 68:2200 89:1700 117:1600 137:800 155:700 
1 29:2000 30:2200 31:2300 46:1200 118:1600 134:800 163:700 
1 28:1900 34:2300 53:1600 76:2200 161:700 175:800 
1 16:2400 25:2300 30:2200 73:1900 81:2000 98:500 104:1200 117:1600 163:700 165:1700 
1 24:2200 79:2100 92:700 118:1600 
1 4:2000 23:2200 61:1400 80:1800 82:1400 103:1200 107:1200 125:1200 143:800 175:800 
1 3:2400 41:700 68:2200 80:1800 90:1700 114:1600 
1 15:2300 67:2200 73:1900 77:2200 119:1600 169:800 
1 18:2200 31:2300 56:1600 121:1200 132:800 
1 37:1700 76:2200 87:1200 102:1000 114:1600 137:800 146:800 166:1700 
1 27:1800 56:1600 74:1600 98:500 110:1600 122:1200 125:1200 129:800 163:700 171:800 
1 8:2000 28:1900 30:2200 40:2300 65:2400 77:2200 81:2000 88:1700 
1 10:2400 16:2400 51:1200 131:800 139:800 155:700 170:800 
1 50:1200 71:2200 85:1400 155:700 
1 3:2400 22:2000 40:2300 54:1200 56:1600 136:800 
1 25:2300 37:1700 83:1400 118:1600 123:1200 154:700 168:1700 
1 4:2000 14:2000 40:2300 54:1200 91:1800 115:1600 117:1600 165:1700 
1 48:1200 55:1200 64:2400 77:2200 98:500 105:1200 112:1600 123:1200 156:700 
1 7:2100 13:2200 36:2300 67:2200 87:1200 119:1600 150:0 159:700 160:700 
1 12:1500 27:1800 61:1400 112:1600 113:1600 159:700 173:800 
1 3:2400 5:1600 12:1500 47:1200 54:1200 83:1400 109:1600 121:1200 143:800 157:700 
1 25:2300 148:800 173:800 
1 30:2200 34:2300 45:1200 48:1200 81:2000 112:1600 126:1200 132:800 
1 19:2200 36:2300 42:1100 51:1200 52:1200 76:2200 86:1500 113:1600 115:1600 173:800 
1 18:2200 47:1200 91:1800 92:700 107:1200 108:1200 129:800 159:700 174:800 
1 3:2400 17:2000 18:2200 31:2300 64:2400 70:1700 85:1400 121:1200 175:800 
1 14:2000 73:1900 79:2100 98:500 
1 51:1200 68:2200 113:1600 121:1200 141:800 167:1700 
1 22:2000 26:2000 37:1700 57:1200 73:1900 163:700 168:1700 
1 20:1800 34:2300 82:1400 84:1400 111:1600 
1 14:2000 31:2300 34:2300 97:500 173:800 
1 1:1200 3:2400 87:1200 104:1200 106:1400 112:1600 156:700 166:1700 
1 10:2400 40:2300 44:1200 66:2400 75:1600 108:1200 160:700 
1 6:1400 21:2200 24:2200 62:1200 64:2400 91:1800 104:1200 127:1500 161:700 162:700 
1 1:1200 6:1400 29:2000 32:2300 59:1200 110:1600 159:700 165:1700 
1 10:2400 35:800 68:2200 72:1700 77:2200 134:800 155:700 
1 28:1900 30:2200 32:2300 120:1600 125:1200 
1 30:2200 81:2000 126:1200 175:800 
1 6:1400 23:2200 27:1800 60:1200 68:2200 90:1700 148:800 158:700 
1 67:2200 89:1700 97:500 105:1200 106:1400 121:1200 129:800 
1 10:2400 71:2200 113:1600 
1 3:2400 10:2400 61:1400 117:1600 122:1200 162:700 
1 7:2100 23:2200 30:2200 39:2000 44:1200 68:2200 97:500 161:700 
1 1:1200 10:2400 13:2200 19:2200 28:1900 52:1200 97:500 137:800 139:800 159:700 
1 20:1800 71:2200 
1 9:1600 20:1800 37:1700 66:2400 88:1700 96:500 106:1400 124:1200 153:700 171:800 
1 11:1000 48:1200 68:2200 120:1600 132:800 142:800 
1 21:2200 61:1400 68:2200 84:1400 118:1600 153:700 156:700 
1 71:2200 76:2200 88:1700 91:1800 138:800 
1 16:2400 44:1200 60:1200 64:2400 80:1800 86:1500 153:700 
1 34:2300 54:1200 55:1200 66:2400 82:1400 91:1800 99:800 161:700 162:700 166:1700 
1 39:2000 80:1800 159:700 
1 37:1700 47:1200 72:1700 109:1600 145:800 162:700 
1 31:2300 59:1200 71:2200 82:1400 92:700 98:500 112:1600 113:1600 123:1200 136:800 
1 19:2200 25:2300 59:1200 79:2100 96:500 110:1600 158:700 
1 18:2200 24:2200 58:1800 77:2200 84:1400 107:1200 114:1600 131:800 
1 18:2200 19:2200 39:2000 57:1200 105:1200 106:1400 111:1600 124:1200 
1 6:1400 32:2300 90:1700 106:1400 
1 23:2200 48:1200 57:1200 110:1600 111:1600 113:1600 144:800 158:700 160:700 170:800 
1 10:2400 55:1200 61:1400 62:1200 74:1600 75:1600 93:700 105:1200 117:1600 
1 4:2000 64:2400 88:1700 132:800 
1 14:2000 18:2200 29:2000 56:1600 57:1200 66:2400 67:2200 141:800 167:1700 
1 8:2000 9:1600 74:1600 82:1400 119:1600 158:700 
1 26:2000 55:1200 69:2500 
1 24:2200 70:1700 
1 65:2400 67:2200 99:800 106:1400 113:1600 117:1600 163:700 
1 7:2100 56:1600 60:1200 61:1400 67:2200 69:2500 90:1700 99:800 104:1200 
1 68:2200 126:1200 154:700 
1 20:1800 48:1200 52:1200 66:2400 68:2200 76:2200 83:1400 96:500 172:800 
1 48:1200 51:1200 65:2400 68:2200 114:1600 122:1200 147:800 175:800 
1 3:2400 83:1400 120:1600 
1 4:2000 53:1600 63:1200 68:2200 89:1700 
1 43:1200 46:1200 68:2200 79:2100 81:2000 85:1400 123:1200 129:800 144:800 174:800 
1 21:2200 45:1200 54:1200 64:2400 80:1800 90:1700 131:800 172:800 
1 5:1600 7:2100 8:2000 18:2200 21:2200 23:2200 52:1200 60:1200 134:800 
1 29:2000 63:1200 110:1600 114:1600 116:1600 123:1200 150:0 157:700 173:800 
1 81:2000 96:500 129:800 
1 16:2400 17:2000 59:1200 89:1700 95:700 104:1200 167:1700 
1 13:2200 23:2200 34:2300 40:2300 42:1100 88:1700 104:1200 121:1200 166:1700 
1 1:1200 8:2000 13:2200 45:1200 47:1200 106:1400 114:1600 164:1700 
1 33:2300 54:1200 82:1400 86:1500 109:1600 111:1600 124:1200 156:700 
1 8:2000 66:2400 78:2200 123:1200 
1 74:1600 90:1700 99:800 109:1600 168:1700 
1 19:2200 34:2300 54:1200 58:1800 63:1200 77:2200 85:1400 137:800 
1 9:1600 30:2200 36:2300 41:700 78:2200 96:500 98:500 
1 78:2200 82:1400 89:1700 113:1600 148:800 150:0 159:700 
1 22:2000 105:1200 168:1700 
1 3:2400 20:1800 26:2000 27:1800 29:2000 88:1700 117:1600 118:1600 160:700 
1 16:2400 47:1200 140:800 152:0 167:1700 
1 16:2400 26:2000 99:800 109:1600 153:700 
1 4:2000 18:2200 61:1400 69:2500 115:1600 123:1200 131:800 
1 67:2200 111:1600 152:0 164:1700 
1 27:1800 71:2200 82:1400 98:500 
1 2:1000 39:2000 46:1200 71:2200 87:1200 103:1200 117:1600 
1 18:2200 21:2200 69:2500 72:1700 74:1600 76:2200 87:1200 158:700 
1 10:2400 15:2300 21:2200 38:2200 
1 36:2300 69:2500 76:2200 90:1700 161:700 
1 72:1700 105:1200 113:1600 
1 47:1200 49:1200 66:2400 80:1800 135:800 
1 23:2200 49:1200 54:1200 111:1600 124:1200 137:800 144:800 173:800 
1 11:1000 19:2200 109:1600 
1 17:2000 38:2200 62:1200 90:1700 108:1200 115:1600 147:800 167:1700 175:800 
1 14:2000 46:1200 105:1200 111:1600 
1 10:2400 83:1400 
1 70:1700 84:1400 86:1500 114:1600 123:1200 
1 16:2400 33:2300 40:2300 49:1200 54:1200 100:800 111:1600 125:1200 157:700 166:1700 
1 10:2400 12:1500 29:2000 31:2300 109:1600 
1 63:1200 88:1700 102:1000 109:1600 119:1600 120:1600 152:0 156:700 170:800 
1 15:2300 22:2000 54:1200 118:1600 137:800 
1 10:2400 32:2300 43:1200 53:1600 90:1700 97:500 105:1200 141:800 175:800 
1 15:2300 19:2200 
1 15:2300 43:1200 76:2200 79:2100 109:1600 153:700 162:700 
1 3:2400 51:1200 55:1200 60:1200 108:1200 119:1600 131:800 152:0 
1 24:2200 44:1200 71:2200 88:1700 97:500 
1 3:2400 25:2300 36:2300 55:1200 67:2200 75:1600 77:2200 142:800 164:1700 173:800 
1 53:1600 68:2200 129:800 155:700 161:700 
1 22:2000 39:2000 64:2400 77:2200 96:500 100:800 113:1600 151:0 165:1700 
1 4:2000 27:1800 66:2400 93:700 105:1200 114:1600 135:800 136:800 173:800 
1 62:1200 67:2200 137:800 159:700 
1 10:2400 12:1500 26:2000 27:1800 48:1200 78:2200 85:1400 91:1800 129:800 169:800 
1 19:2200 29:2000 43:1200 59:1200 111:1600 125:1200 136:800 171:800 172:800 
1 8:2000 13:2200 25:2300 37:1700 52:1200 81:2000 83:1400 91:1800 115:1600 156:700 
1 60:1200 65:2400 90:1700 149:800 153:700 
1 12:1500 15:2300 24:2200 58:1800 60:1200 80:1800 86:1500 96:500 160:700 
1 16:2400 30:2200 78:2200 
1 53:1600 63:1200 67:2200 104:1200 106:1400 124:1200 170:800 
1 3:2400 62:1200 64:2400 65:2400 105:1200 144:800 
1 67:2200 105:1200 165:1700 
1 11:1000 46:1200 64:2400 70:1700 91:1800 93:700 126:1200 139:800 168:1700 
1 16:2400 29:2000 42:1100 53:1600 66:2400 67:2200 72:1700 83:1400 89:1700 168:1700 
1 48:1200 57:1200 71:2200 79:2100 98:500 107:1200 134:800 169:800 
1 17:2000 29:2000 45:1200 82:1400 85:1400 100:800 121:1200 131:800 
1 8:2000 40:2300 46:1200 71:2200 78:2200 139:800 
1 36:2300 40:2300 42:1100 69:2500 115:1600 134:800 142:800 172:800 
1 22:2000 32:2300 36:2300 40:2300 89:1700 92:700 108:1200 115:1600 129:800 170:800 
1 28:1900 47:1200 70:1700 107:1200 122:1200 127:1500 169:800 
1 4:2000 33:2300 39:2000 54:1200 66:2400 78:2200 101:1000 106:1400 112:1600 136:800 
1 53:1600 56:1600 61:1400 74:1600 114:1600 
1 4:2000 7:2100 9:1600 12:1500 26:2000 74:1600 92:700 99:800 165:1700 
1 12:1500 18:2200 84:1400 92:700 102:1000 112:1600 118:1600 146:800 162:700 
1 111:1600 123:1200 164:1700 174:800 
1 32:2300 46:1200 65:2400 76:2200 151:0 
1 2:1000 31:2300 36:2300 38:2200 44:1200 85:1400 93:700 166:1700 172:800 
1 3:2400 68:2200 110:1600 157:700 171:800 
1 56:1600 79:2100 107:1200 115:1600 117:1600 134:800 155:700 
1 1:1200 13:2200 63:1200 68:2200 76:2200 79:2100 144:800 149:800 
1 25:2300 44:1200 53:1600 71:2200 79:2100 92:700 122:1200 126:1200 165:1700 
1 16:2400 29:2000 42:1100 80:1800 82:1400 95:700 124:1200 136:800 
1 13:2200 40:2300 63:1200 
1 78:2200 94:700 116:1600 120:1600 139:800 
1 16:2400 38:2200 62:1200 66:2400 73:1900 109:1600 122:1200 152:0 175:800 
1 68:2200 87:1200 111:1600 135:800 
1 3:2400 26:2000 27:1800 66:2400 69:2500 102:1000 163:700 
1 11:1000 13:2200 18:2200 65:2400 106:1400 164:1700 171:800 175:800 
1 16:2400 25:2300 69:2500 88:1700 110:1600 114:1600 121:1200 128:500 
1 9:1600 20:1800 89:1700 94:700 158:700 
1 53:1600 79:2100 
1 14:2000 22:2000 
1 14:2000 35:800 38:2200 48:1200 73:1900 80:1800 
1 3:2400 46:1200 100:800 120:1600 149:800 167:1700 
1 7:2100 31:2300 59:1200 60:1200 84:1400 87:1200 99:800 111:1600 124:1200 145:800 
1 9:1600 45:1200 65:2400 72:1700 107:1200 132:800 157:700 170:800 
1 15:2300 27:1800 122:1200 
1 8:2000 38:2200 81:2000 109:1600 119:1600 132:800 156:700 167:1700 
1 49:1200 67:2200 114:1600 125:1200 144:800 170:800 
1 18:2200 32:2300 78:2200 89:1700 99:800 104:1200 173:800 
1 40:2300 83:1400 127:1500 
1 4:2000 51:1200 60:1200 81:2000 102:1000 104:1200 131:800 168:1700 
1 1:1200 22:2000 25:2300 28:1900 45:1200 102:1000 131:800 170:800 
1 45:1200 51:1200 65:2400 94:700 112:1600 117:1600 118:1600 136:800 157:700 174:800 
1 24:2200 25:2300 35:800 75:1600 93:700 123:1200 137:800 
1 10:2400 22:2000 96:500 116:1600 117:1600 126:1200 
1 10:2400 24:2200 35:800 57:1200 151:0 153:700 167:1700 
1 10:2400 34:2300 42:1100 143:800 
1 26:2000 27:1800 69:2500 78:2200 94:700 96:500 104:1200 131:800 166:1700 
1 13:2200 15:2300 55:1200 63:1200 80:1800 86:1500 88:1700 90:1700 118:1600 167:1700 
1 11:1000 22:2000 68:2200 82:1400 119:1600 146:800 155:700 166:1700 
1 7:2100 13:2200 15:2300 21:2200 36:2300 52:1200 69:2500 112:1600 128:500 
1 3:2400 34:2300 87:1200 88:1700 96:500 108:1200 112:1600 114:1600 134:800 151:0 
1 20:1800 46:1200 68:2200 88:1700 119:1600 135:800 143:800 
1 51:1200 68:2200 88:1700 147:800 168:1700 
1 11:1000 17:2000 22:2000 69:2500 98:500 115:1600 128:500 151:0 165:1700 171:800 
1 42:1100 56:1600 67:2200 82:1400 87:1200 107:1200 116:1600 131:800 
1 49:1200 81:2000 93:700 99:800 106:1400 113:1600 146:800 
1 25:2300 27:1800 44:1200 58:1800 74:1600 81:2000 84:1400 99:800 125:1200 163:700 
1 7:2100 18:2200 23:2200 24:2200 48:1200 90:1700 104:1200 165:1700 172:800 
1 7:2100 30:2200 33:2300 63:1200 64:2400 92:700 124:1200 146:800 147:800 162:700 
1 16:2400 30:2200 69:2500 74:1600 80:1800 87:1200 102:1000 139:800 144:800 173:800 
1 9:1600 39:2000 55:1200 58:1800 91:1800 99:800 110:1600 111:1600 131:800 
1 1:1200 32:2300 38:2200 45:1200 63:1200 78:2200 84:1400 123:1200 144:800 
1 11:1000 19:2200 31:2300 35:800 64:2400 84:1400 87:1200 109:1600 110:1600 
1 24:2200 27:1800 32:2300 55:1200 59:1200 107:1200 118:1600 119:1600 125:1200 146:800 
1 45:1200 76:2200 78:2200 81:2000 118:1600 119:1600 125:1200 137:800 169:800 
1 24:2200 43:1200 69:2500 72:1700 84:1400 91:1800 123:1200 
1 25:2300 44:1200 47:1200 85:1400 96:500 105:1200 155:700 158:700 
1 68:2200 69:2500 108:1200 
1 13:2200 109:1600 161:700 170:800 
1 1:1200 5:1600 10:2400 31:2300 45:1200 51:1200 63:1200 66:2400 119:1600 168:1700 
1 8:2000 9:1600 21:2200 45:1200 51:1200 66:2400 131:800 158:700 
1 14:2000 32:2300 83:1400 123:1200 170:800 
1 8:2000 32:2300 75:1600 105:1200 116:1600 118:1600 124:1200 160:700 170:800 
1 4:2000 74:1600 97:500 128:500 
1 66:2400 79:2100 87:1200 101:1000 149:800 154:700 
1 3:2400 12:1500 25:2300 81:2000 167:1700 
1 2:1000 3:2400 6:1400 26:2000 45:1200 66:2400 84:1400 87:1200 105:1200 
1 14:2000 31:2300 46:1200 55:1200 56:1600 92:700 101:1000 110:1600 147:800 172:800 
1 28:1900 31:2300 40:2300 47:1200 82:1400 97:500 107:1200 118:1600 
1 1:1200 20:1800 25:2300 51:1200 89:1700 113:1600 
1 10:2400 18:2200 19:2200 60:1200 104:1200 119:1600 121:1200 130:800 148:800 165:1700 
1 23:2200 53:1600 112:1600 113:1600 114:1600 120:1600 124:1200 143:800 155:700 
1 67:2200 70:1700 82:1400 
1 3:2400 22:2000 38:2200 61:1400 113:1600 127:1500 152:0 
1 10:2400 24:2200 38:2200 68:2200 83:1400 133:800 138:800 154:700 172:800 
1 13:2200 36:2300 45:1200 49:1200 76:2200 
1 23:2200 35:800 40:2300 66:2400 111:1600 113:1600 147:800 160:700 164:1700 170:800 
1 25:2300 33:2300 61:1400 65:2400 75:1600 86:1500 115:1600 158:700 174:800 
1 12:1500 23:2200 71:2200 88:1700 97:500 105:1200 119:1600 
1 21:2200 26:2000 
1 7:2100 24:2200 47:1200 56:1600 61:1400 76:2200 118:1600 130:800 148:800 156:700 
1 11:1000 12:1500 31:2300 68:2200 70:1700 90:1700 92:700 106:1400 134:800 
1 19:2200 48:1200 117:1600 164:1700 
1 63:1200 71:2200 144:800 
1 39:2000 73:1900 77:2200 80:1800 108:1200 
1 22:2000 24:2200 32:2300 40:2300 55:1200 56:1600 170:800 
1 24:2200 59:1200 80:1800 112:1600 126:1200 130:800 
1 36:2300 47:1200 59:1200 77:2200 124:1200 139:800 174:800 
1 46:1200 59:1200 71:2200 103:1200 111:1600 112:1600 130:800 
1 8:2000 24:2200 34:2300 38:2200 40:2300 60:1200 128:500 130:800 
1 5:1600 26:2000 34:2300 48:1200 65:2400 70:1700 86:1500 94:700 107:1200 111:1600 
1 15:2300 27:1800 28:1900 58:1800 98:500 100:800 109:1600 147:800 
1 10:2400 14:2000 35:800 37:1700 46:1200 138:800 159:700 161:700 173:800 
1 30:2200 38:2200 40:2300 58:1800 104:1200 122:1200 148:800 
1 26:2000 31:2300 50:1200 83:1400 111:1600 114:1600 123:1200 141:800 165:1700 171:800 
1 25:2300 56:1600 69:2500 91:1800 124:1200 130:800 144:800 
1 13:2200 18:2200 53:1600 87:1200 110:1600 
1 11:1000 21:2200 73:1900 79:2100 88:1700 96:500 115:1600 137:800 163:700 175:800 
1 9:1600 90:1700 113:1600 127:1500 159:700 
1 29:2000 40:2300 
1 55:1200 66:2400 72:1700 124:1200 148:800 156:700 
1 30:2200 59:1200 117:1600 
1 15:2300 16:2400 97:500 108:1200 117:1600 161:700 
1 10:2400 12:1500 13:2200 19:2200 52:1200 70:1700 97:500 135:800 146:800 159:700 
0.36328125 81:2000 
1 9:1600 20:1800 64:2400 65:2400 77:2200 103:1200 112:1600 135:800 149:800 
1 3:2400 33:2300 143:800 
1 6:1400 34:2300 52:1200 68:2200 71:2200 74:1600 116:1600 118:1600 134:800 161:700 
1 27:1800 44:1200 64:2400 68:2200 77:2200 160:700 161:700 165:1700 170:800 
1 7:2100 10:2400 12:1500 14:2000 64:2400 70:1700 99:800 153:700 
1 9:1600 27:1800 34:2300 43:1200 50:1200 61:1400 78:2200 117:1600 
1 24:2200 45:1200 59:1200 71:2200 132:800 172:800 
1 11:1000 61:1400 67:2200 69:2500 
1 4:2000 7:2100 42:1100 86:1500 109:1600 117:1600 127:1500 
1 20:1800 23:2200 41:700 45:1200 65:2400 89:1700 113:1600 121:1200 162:700 172:800 
1 21:2200 54:1200 109:1600 
1 25:2300 116:1600 
1 3:2400 15:2300 17:2000 21:2200 60:1200 70:1700 119:1600 
1 26:2000 33:2300 62:1200 80:1800 118:1600 120:1600 123:1200 
1 25:2300 77:2200 
1 1:1200 13:2200 68:2200 70:1700 104:1200 107:1200 117:1600 143:800 
1 70:1700 76:2200 110:1600 154:700 165:1700 
1 4:2000 16:2400 29:2000 61:1400 64:2400 101:1000 115:1600 117:1600 122:1200 
1 7:2100 12:1500 20:1800 27:1800 82:1400 140:800 162:700 
1 10:2400 37:1700 57:1200 65:2400 
1 40:2300 56:1600 106:1400 121:1200 160:700 171:800 
1 66:2400 78:2200 102:1000 131:800 157:700 
0.36328125 11:1000 16:2400 
1 32:2300 115:1600 127:1500 139:800 
1 17:2000 74:1600 87:1200 119:1600 
1 22:2000 52:1200 65:2400 99:800 109:1600 113:1600 118:1600 129:800 169:800 
1 15:2300 33:2300 40:2300 128:500 
1 10:2400 25:2300 36:2300 44:1200 95:700 99:800 123:1200 164:1700 
1 41:700 50:1200 88:1700 113:1600 117:1600 118:1600 165:1700 174:800 
1 8:2000 15:2300 19:2200 54:1200 123:1200 
1 23:2200 52:1200 54:1200 81:2000 85:1400 114:1600 117:1600 151:0 157:700 171:800 
1 53:1600 91:1800 118:1600 156:700 
1 4:2000 37:1700 48:1200 59:1200 90:1700 96:500 97:500 104:1200 109:1600 137:800 
1 60:1200 63:1200 74:1600 80:1800 93:700 121:1200 122:1200 161:700 168:1700 
1 27:1800 30:2200 40:2300 83:1400 106:1400 114:1600 141:800 155:700 166:1700 
1 28:1900 42:1100 79:2100 84:1400 162:700 
1 7:2100 22:2000 30:2200 56:1600 81:2000 89:1700 126:1200 161:700 164:1700 
1 25:2300 48:1200 109:1600 146:800 162:700 
1 52:1200 62:1200 66:2400 75:1600 98:500 111:1600 141:800 149:800 
1 28:1900 46:1200 56:1600 73:1900 80:1800 82:1400 85:1400 104:1200 119:1600 140:800 
1 11:1000 61:1400 64:2400 80:1800 122:1200 
1 24:2200 27:1800 59:1200 64:2400 79:2100 102:1000 129:800 
1 24:2200 65:2400 71:2200 76:2200 102:1000 140:800 146:800 155:700 173:800 
1 14:2000 18:2200 44:1200 72:1700 73:1900 109:1600 122:1200 135:800 168:1700 
1 73:1900 105:1200 117:1600 
1 46:1200 80:1800 119:1600 
1 44:1200 56:1600 104:1200 111:1600 135:800 153:700 169:800 
1 2:1000 4:2000 19:2200 25:2300 43:1200 60:1200 94:700 123:1200 135:800 142:800 
1 45:1200 112:1600 147:800 162:700 
1 34:2300 89:1700 106:1400 164:1700 
1 24:2200 47:1200 79:2100 142:800 164:1700 167:1700 169:800 
1 66:2400 73:1900 92:700 132:800 
1 4:2000 13:2200 17:2000 58:1800 61:1400 110:1600 136:800 142:800 150:0 151:0 
1 10:2400 24:2200 51:1200 
1 65:2400 68:2200 103:1200 141:800 153:700 175:800 
1 33:2300 58:1800 63:1200 74:1600 
1 16:2400 32:2300 56:1600 59:1200 71:2200 78:2200 83:1400 117:1600 120:1600 130:800 
1 16:2400 31:2300 47:1200 55:1200 96:500 149:800 150:0 163:700 175:800 
1 56:1600 64:2400 71:2200 121:1200 
1 69:2500 107:1200 112:1600 125:1200 
1 27:1800 68:2200 82:1400 98:500 103:1200 111:1600 113:1600 123:1200 
1 2:1000 24:2200 30:2200 49:1200 50:1200 59:1200 171:800 
1 19:2200 51:1200 64:2400 127:1500 
1 50:1200 87:1200 88:1700 114:1600 127:1500 148:800 157:700 162:700 175:800 
1 1:1200 24:2200 25:2300 52:1200 97:500 117:1600 140:800 152:0 174:800 175:800 
1 34:2300 36:2300 60:1200 76:2200 78:2200 94:700 140:800 
1 29:2000 39:2000 45:1200 76:2200 87:1200 98:500 108:1200 115:1600 
1 66:2400 80:1800 81:2000 91:1800 
1 12:1500 17:2000 46:1200 61:1400 67:2200 72:1700 82:1400 118:1600 137:800 167:1700 
1 40:2300 50:1200 59:1200 68:2200 139:800 145:800 154:700 
1 5:1600 42:1100 44:1200 46:1200 73:1900 74:1600 108:1200 115:1600 160:700 162:700 
1 22:2000 30:2200 33:2300 67:2200 81:2000 92:700 124:1200 139:800 141:800 170:800 
1 1:1200 73:1900 79:2100 84:1400 124:1200 140:800 
1 3:2400 52:1200 111:1600 119:1600 142:800 150:0 155:700 174:800 
1 3:2400 29:2000 35:800 44:1200 63:1200 87:1200 118:1600 155:700 166:1700 
1 44:1200 52:1200 82:1400 88:1700 116:1600 118:1600 125:1200 142:800 171:800 
1 30:2200 97:500 164:1700 
1 29:2000 36:2300 60:1200 78:2200 96:500 
1 9:1600 19:2200 37:1700 81:2000 105:1200 134:800 
1 15:2300 82:1400 
1 5:1600 25:2300 84:1400 111:1600 142:800 149:800 166:1700 
1 15:2300 16:2400 53:1600 69:2500 84:1400 85:1400 94:700 125:1200 157:700 173:800 
1 34:2300 47:1200 
1 3:2400 57:1200 132:800 
1 4:2000 51:1200 60:1200 81:2000 
1 10:2400 58:1800 79:2100 92:700 
1 3:2400 15:2300 56:1600 95:700 160:700 
1 5:1600 14:2000 15:2300 25:2300 47:1200 64:2400 91:1800 119:1600 154:700 173:800 
1 24:2200 49:1200 67:2200 69:2500 128:500 143:800 156:700 169:800 
1 13:2200 39:2000 46:1200 64:2400 153:700 172:800 
1 5:1600 45:1200 66:2400 81:2000 90:1700 105:1200 111:1600 
1 63:1200 65:2400 81:2000 89:1700 107:1200 115:1600 165:1700 
1 13:2200 22:2000 28:1900 108:1200 115:1600 127:1500 150:0 155:700 156:700 
1 17:2000 37:1700 68:2200 72:1700 115:1600 123:1200 134:800 136:800 152:0 
1 32:2300 59:1200 71:2200 106:1400 152:0 
1 10:2400 108:1200 120:1600 161:700 
1 24:2200 83:1400 84:1400 
1 6:1400 36:2300 37:1700 47:1200 57:1200 60:1200 66:2400 119:1600 171:800 
1 71:2200 81:2000 
1 10:2400 29:2000 39:2000 53:1600 54:1200 58:1800 89:1700 105:1200 169:800 
1 32:2300 42:1100 50:1200 90:1700 96:500 112:1600 117:1600 129:800 174:800 
1 46:1200 117:1600 
1 10:2400 18:2200 84:1400 88:1700 100:800 
1 11:1000 19:2200 20:1800 32:2300 53:1600 56:1600 93:700 123:1200 169:800 
1 10:2400 20:1800 42:1100 50:1200 78:2200 116:1600 121:1200 168:1700 
1 9:1600 26:2000 32:2300 50:1200 72:1700 85:1400 109:1600 152:0 
1 19:2200 23:2200 33:2300 36:2300 60:1200 83:1400 90:1700 100:800 138:800 
1 79:2100 82:1400 84:1400 102:1000 110:1600 113:1600 115:1600 125:1200 149:800 152:0 
1 8:2000 15:2300 26:2000 50:1200 53:1600 71:2200 108:1200 127:1500 141:800 175:800 
1 35:800 77:2200 78:2200 81:2000 82:1400 100:800 125:1200 
1 10:2400 12:1500 17:2000 47:1200 57:1200 78:2200 101:1000 112:1600 119:1600 138:800 
1 17:2000 41:700 69:2500 75:1600 98:500 141:800 
1 16:2400 49:1200 71:2200 133:800 138:800 
1 15:2300 30:2200 35:800 62:1200 111:1600 122:1200 123:1200 151:0 157:700 
1 37:1700 52:1200 62:1200 69:2500 75:1600 106:1400 111:1600 121:1200 136:800 157:700 
1 26:2000 32:2300 72:1700 77:2200 79:2100 89:1700 99:800 100:800 116:1600 
1 42:1100 105:1200 108:1200 114:1600 164:1700 
1 14:2000 18:2200 19:2200 35:800 40:2300 50:1200 62:1200 123:1200 152:0 
1 15:2300 31:2300 42:1100 48:1200 68:2200 116:1600 120:1600 138:800 145:800 147:800 
1 16:2400 41:700 61:1400 69:2500 113:1600 142:800 
1 4:2000 123:1200 
1 2:1000 38:2200 45:1200 48:1200 68:2200 69:2500 77:2200 104:1200 106:1400 132:800 
1 54:1200 65:2400 72:1700 90:1700 121:1200 125:1200 145:800 165:1700 
1 13:2200 21:2200 60:1200 81:2000 107:1200 157:700 163:700 
1 2:1000 50:1200 81:2000 109:1600 126:1200 127:1500 142:800 
1 5:1600 14:2000 19:2200 46:1200 58:1800 66:2400 91:1800 106:1400 167:1700 
1 2:1000 3:2400 46:1200 122:1200 154:700 171:800 
1 10:2400 15:2300 18:2200 93:700 110:1600 136:800 142:800 
1 14:2000 16:2400 17:2000 23:2200 46:1200 58:1800 69:2500 130:800 143:800 
1 12:1500 78:2200 112:1600 145:800 165:1700 
1 31:2300 64:2400 120:1600 
1 30:2200 35:800 56:1600 124:1200 160:700 
1 20:1800 39:2000 67:2200 70:1700 79:2100 
1 8:2000 21:2200 33:2300 35:800 56:1600 65:2400 111:1600 162:700 
1 18:2200 38:2200 73:1900 
1 23:2200 27:1800 28:1900 34:2300 71:2200 81:2000 114:1600 152:0 
1 18:2200 28:1900 67:2200 90:1700 154:700 
1 2:1000 4:2000 27:1800 71:2200 93:700 97:500 122:1200 130:800 165:1700 
1 12:1500 16:2400 26:2000 37:1700 38:2200 80:1800 99:800 
1 15:2300 59:1200 74:1600 111:1600 116:1600 121:1200 151:0 
1 6:1400 9:1600 55:1200 96:500 117:1600 
1 2:1000 25:2300 27:1800 41:700 56:1600 79:2100 85:1400 172:800 
1 29:2000 46:1200 71:2200 75:1600 82:1400 107:1200 153:700 155:700 164:1700 
1 25:2300 32:2300 38:2200 131:800 
1 5:1600 37:1700 47:1200 67:2200 79:2100 81:2000 153:700 168:1700 169:800 
1 24:2200 34:2300 60:1200 97:500 110:1600 126:1200 128:500 152:0 169:800 
1 7:2100 13:2200 47:1200 125:1200 171:800 
1 22:2000 41:700 64:2400 90:1700 93:700 113:1600 115:1600 154:700 171:800 
1 26:2000 33:2300 50:1200 93:700 109:1600 147:800 154:700 
1 26:2000 69:2500 125:1200 137:800 165:1700 
1 14:2000 24:2200 62:1200 63:1200 96:500 170:800 
1 14:2000 36:2300 84:1400 87:1200 144:800 150:0 
1 9:1600 18:2200 64:2400 108:1200 117:1600 158:700 
1 23:2200 25:2300 50:1200 68:2200 97:500 125:1200 161:700 
1 7:2100 15:2300 29:2000 104:1200 113:1600 118:1600 124:1200 163:700 171:800 
1 29:2000 48:1200 70:1700 71:2200 
1 7:2100 21:2200 35:800 77:2200 106:1400 109:1600 127:1500 
1 68:2200 72:1700 115:1600 
1 20:1800 27:1800 51:1200 76:2200 82:1400 114:1600 139:800 142:800 
1 7:2100 14:2000 47:1200 92:700 116:1600 118:1600 140:800 
1 47:1200 86:1500 106:1400 115:1600 123:1200 
1 5:1600 8:2000 58:1800 90:1700 114:1600 
1 12:1500 58:1800 72:1700 120:1600 145:800 147:800 
1 6:1400 31:2300 54:1200 59:1200 121:1200 150:0 165:1700 168:1700 
1 18:2200 27:1800 40:2300 68:2200 
1 4:2000 18:2200 70:1700 167:1700 169:800 
1 7:2100 25:2300 91:1800 92:700 
1 56:1600 68:2200 69:2500 126:1200 135:800 151:0 164:1700 
1 14:2000 24:2200 34:2300 37:1700 47:1200 149:800 165:1700 
1 31:2300 167:1700 
1 54:1200 79:2100 82:1400 119:1600 131:800 147:800 
1 40:2300 59:1200 107:1200 110:1600 125:1200 143:800 155:700 161:700 
1 82:1400 113:1600 125:1200 139:800 
1 7:2100 36:2300 37:1700 52:1200 65:2400 66:2400 102:1000 123:1200 125:1200 154:700 
1 28:1900 71:2200 79:2100 119:1600 129:800 
1 24:2200 33:2300 37:1700 42:1100 82:1400 94:700 130:800 153:700 159:700 171:800 
1 21:2200 65:2400 77:2200 106:1400 115:1600 161:700 
1 44:1200 68:2200 96:500 117:1600 124:1200 156:700 
1 23:2200 71:2200 167:1700 
1 3:2400 17:2000 64:2400 
1 7:2100 39:2000 47:1200 67:2200 73:1900 109:1600 166:1700 167:1700 172:800 
1 16:2400 35:800 45:1200 53:1600 66:2400 72:1700 112:1600 129:800 172:800 
1 33:2300 34:2300 54:1200 71:2200 84:1400 131:800 153:700 
1 28:1900 81:2000 108:1200 119:1600 148:800 
1 10:2400 21:2200 27:1800 29:2000 107:1200 112:1600 169:800 
1 16:2400 19:2200 58:1800 86:1500 137:800 153:700 159:700 
1 5:1600 34:2300 39:2000 46:1200 58:1800 82:1400 107:1200 138:800 164:1700 
1 10:2400 19:2200 69:2500 91:1800 109:1600 120:1600 133:800 144:800 175:800 
1 12:1500 13:2200 71:2200 72:1700 75:1600 89:1700 169:800 
1 69:2500 73:1900 131:800 168:1700 173:800 
1 38:2200 47:1200 73:1900 77:2200 101:1000 111:1600 112:1600 126:1200 134:800 166:1700 
1 2:1000 4:2000 36:2300 65:2400 66:2400 75:1600 104:1200 108:1200 121:1200 134:800 
1 10:2400 38:2200 46:1200 77:2200 101:1000 125:1200 159:700 165:1700 169:800 171:800 
1 32:2300 82:1400 113:1600 117:1600 126:1200 
1 17:2000 40:2300 54:1200 81:2000 104:1200 141:800 160:700 
1 19:2200 37:1700 80:1800 93:700 120:1600 147:800 
1 6:1400 21:2200 69:2500 72:1700 76:2200 106:1400 132:800 170:800 171:800 
1 7:2100 19:2200 45:1200 80:1800 136:800 156:700 
1 16:2400 33:2300 53:1600 68:2200 88:1700 118:1600 137:800 
1 26:2000 47:1200 64:2400 84:1400 85:1400 98:500 155:700 173:800 
1 1:1200 71:2200 117:1600 151:0 166:1700 
1 16:2400 85:1400 110:1600 119:1600 
1 40:2300 57:1200 72:1700 81:2000 84:1400 116:1600 150:0 171:800 
1 9:1600 15:2300 37:1700 59:1200 63:1200 74:1600 86:1500 117:1600 146:800 150:0 
1 4:2000 5:1600 10:2400 14:2000 53:1600 66:2400 70:1700 114:1600 143:800 150:0 
1 2:1000 6:1400 34:2300 48:1200 50:1200 59:1200 65:2400 89:1700 98:500 162:700 
1 9:1600 27:1800 67:2200 126:1200 136:800 173:800 
1 15:2300 36:2300 81:2000 99:800 163:700 
1 34:2300 40:2300 54:1200 65:2400 67:2200 81:2000 101:1000 108:1200 134:800 145:800 
1 28:1900 46:1200 55:1200 108:1200 120:1600 
1 27:1800 114:1600 122:1200 127:1500 140:800 167:1700 
1 14:2000 20:1800 30:2200 31:2300 77:2200 84:1400 118:1600 149:800 166:1700 
1 5:1600 46:1200 78:2200 88:1700 106:1400 115:1600 154:700 161:700 
1 27:1800 40:2300 44:1200 62:1200 63:1200 67:2200 104:1200 140:800 142:800 
1 10:2400 25:2300 59:1200 78:2200 79:2100 94:700 118:1600 131:800 172:800 
1 18:2200 47:1200 65:2400 71:2200 79:2100 142:800 148:800 159:700 167:1700 
1 17:2000 38:2200 46:1200 80:1800 92:700 127:1500 131:800 151:0 
1 22:2000 65:2400 73:1900 92:700 136:800 166:1700 
1 3:2400 28:1900 33:2300 49:1200 
1 75:1600 76:2200 96:500 118:1600 120:1600 167:1700 169:800 174:800 
1 10:2400 24:2200 59:1200 95:700 98:500 148:800 
1 4:2000 16:2400 25:2300 63:1200 65:2400 102:1000 113:1600 
1 14:2000 36:2300 37:1700 77:2200 78:2200 108:1200 124:1200 169:800 171:800 
1 51:1200 57:1200 65:2400 110:1600 
1 5:1600 10:2400 70:1700 105:1200 113:1600 124:1200 141:800 
1 28:1900 90:1700 
1 56:1600 82:1400 108:1200 162:700 171:800 
1 25:2300 36:2300 47:1200 60:1200 70:1700 82:1400 97:500 104:1200 107:1200 153:700 
1 53:1600 65:2400 67:2200 104:1200 124:1200 132:800 134:800 
1 18:2200 30:2200 38:2200 174:800 
1 9:1600 45:1200 50:1200 110:1600 114:1600 131:800 
1 66:2400 89:1700 122:1200 135:800 
1 3:2400 8:2000 16:2400 38:2200 41:700 43:1200 72:1700 122:1200 
1 40:2300 58:1800 78:2200 117:1600 
1 22:2000 69:2500 162:700 
1 13:2200 16:2400 19:2200 29:2000 30:2200 45:1200 77:2200 106:1400 135:800 172:800 
1 28:1900 30:2200 46:1200 52:1200 68:2200 119:1600 120:1600 166:1700 
1 18:2200 28:1900 56:1600 62:1200 68:2200 103:1200 106:1400 126:1200 141:800 
1 17:2000 56:1600 85:1400 99:800 117:1600 153:700 174:800 
1 23:2200 60:1200 73:1900 99:800 118:1600 169:800 170:800 
1 24:2200 44:1200 
1 5:1600 14:2000 49:1200 54:1200 69:2500 80:1800 121:1200 131:800 149:800 
1 42:1100 65:2400 68:2200 85:1400 109:1600 119:1600 120:1600 152:0 161:700 
1 7:2100 52:1200 70:1700 81:2000 119:1600 138:800 157:700 163:700 168:1700 
1 10:2400 29:2000 73:1900 80:1800 93:700 105:1200 150:0 156:700 
1 5:1600 32:2300 45:1200 66:2400 89:1700 98:500 135:800 166:1700 
1 4:2000 22:2000 28:1900 51:1200 71:2200 92:700 130:800 133:800 138:800 168:1700 
1 1:1200 22:2000 38:2200 46:1200 65:2400 71:2200 99:800 121:1200 175:800 
1 10:2400 31:2300 77:2200 126:1200 137:800 156:700 
1 4:2000 13:2200 60:1200 81:2000 175:800 
1 2:1000 12:1500 16:2400 69:2500 70:1700 89:1700 157:700 161:700 
1 10:2400 27:1800 34:2300 53:1600 67:2200 85:1400 117:1600 128:500 142:800 159:700 
1 22:2000 91:1800 
1 4:2000 21:2200 32:2300 79:2100 130:800 
1 6:1400 37:1700 40:2300 62:1200 69:2500 92:700 144:800 166:1700 
1 4:2000 22:2000 62:1200 63:1200 105:1200 109:1600 128:500 
1 22:2000 25:2300 26:2000 32:2300 41:700 54:1200 137:800 150:0 170:800 
1 24:2200 34:2300 106:1400 152:0 
1 18:2200 39:2000 61:1400 69:2500 70:1700 102:1000 121:1200 
1 34:2300 87:1200 110:1600 121:1200 
1 36:2300 51:1200 62:1200 114:1600 119:1600 150:0 156:700 158:700 172:800 175:800 
1 7:2100 28:1900 38:2200 45:1200 79:2100 81:2000 109:1600 162:700 
1 6:1400 18:2200 21:2200 31:2300 68:2200 73:1900 76:2200 112:1600 123:1200 162:700 
1 2:1000 6:1400 8:2000 25:2300 46:1200 48:1200 69:2500 83:1400 105:1200 151:0 
1 15:2300 27:1800 59:1200 66:2400 121:1200 123:1200 
1 25:2300 49:1200 50:1200 64:2400 73:1900 75:1600 96:500 123:1200 169:800 
1 19:2200 83:1400 105:1200 
1 33:2300 35:800 44:1200 56:1600 77:2200 88:1700 115:1600 161:700 
1 11:1000 27:1800 28:1900 46:1200 69:2500 79:2100 88:1700 93:700 122:1200 144:800 
1 15:2300 24:2200 48:1200 50:1200 60:1200 102:1000 103:1200 122:1200 159:700 171:800 
1 24:2200 26:2000 62:1200 
1 6:1400 10:2400 24:2200 109:1600 115:1600 120:1600 123:1200 166:1700 
1 11:1000 27:1800 46:1200 52:1200 71:2200 114:1600 128:500 132:800 152:0 174:800 
1 20:1800 52:1200 77:2200 156:700 
1 18:2200 23:2200 96:500 166:1700 
1 4:2000 10:2400 19:2200 21:2200 48:1200 51:1200 85:1400 128:500 130:800 141:800 
1 8:2000 36:2300 39:2000 78:2200 161:700 
1 3:2400 28:1900 40:2300 83:1400 84:1400 92:700 117:1600 173:800 
1 14:2000 45:1200 69:2500 71:2200 90:1700 96:500 100:800 134:800 
1 3:2400 10:2400 18:2200 48:1200 55:1200 115:1600 123:1200 
1 39:2000 48:1200 55:1200 76:2200 109:1600 142:800 171:800 
1 17:2000 30:2200 31:2300 42:1100 51:1200 90:1700 117:1600 140:800 
1 22:2000 61:1400 64:2400 71:2200 96:500 125:1200 
1 4:2000 84:1400 126:1200 137:800 
1 10:2400 22:2000 37:1700 39:2000 89:1700 92:700 103:1200 160:700 
1 24:2200 60:1200 97:500 99:800 115:1600 141:800 167:1700 
1 3:2400 36:2300 51:1200 83:1400 106:1400 136:800 153:700 157:700 
1 8:2000 9:1600 22:2000 40:2300 98:500 107:1200 116:1600 120:1600 129:800 
1 9:1600 17:2000 50:1200 56:1600 68:2200 69:2500 94:700 121:1200 140:800 
1 24:2200 26:2000 34:2300 38:2200 55:1200 61:1400 82:1400 174:800 
1 25:2300 168:1700 
1 13:2200 18:2200 29:2000 66:2400 69:2500 97:500 107:1200 152:0 172:800 174:800 
1 3:2400 50:1200 88:1700 
1 40:2300 65:2400 85:1400 147:800 
1 37:1700 49:1200 52:1200 97:500 109:1600 111:1600 117:1600 
1 9:1600 52:1200 66:2400 170:800 
1 81:2000 
1 37:1700 46:1200 49:1200 64:2400 101:1000 115:1600 134:800 158:700 
1 5:1600 31:2300 41:700 53:1600 69:2500 111:1600 123:1200 129:800 150:0 166:1700 
1 37:1700 40:2300 80:1800 102:1000 110:1600 117:1600 136:800 156:700 
1 5:1600 19:2200 34:2300 84:1400 91:1800 109:1600 117:1600 138:800 152:0 
1 11:1000 22:2000 84:1400 109:1600 127:1500 156:700 
1 2:1000 11:1000 12:1500 59:1200 118:1600 127:1500 
1 4:2000 30:2200 34:2300 46:1200 96:500 104:1200 113:1600 158:700 
1 19:2200 47:1200 48:1200 76:2200 77:2200 85:1400 114:1600 142:800 158:700 168:1700 
1 37:1700 64:2400 76:2200 81:2000 94:700 174:800 
1 37:1700 64:2400 68:2200 80:1800 91:1800 92:700 117:1600 132:800 159:700 
1 12:1500 66:2400 78:2200 89:1700 116:1600 134:800 138:800 
1 26:2000 64:2400 80:1800 168:1700 
1 9:1600 15:2300 27:1800 72:1700 93:700 122:1200 139:800 155:700 172:800 
1 82:1400 90:1700 99:800 111:1600 120:1600 135:800 150:0 167:1700 
1 20:1800 29:2000 34:2300 61:1400 71:2200 107:1200 115:1600 123:1200 129:800 148:800 
1 20:1800 44:1200 
1 10:2400 16:2400 76:2200 95:700 98:500 174:800 
1 8:2000 30:2200 44:1200 74:1600 90:1700 114:1600 126:1200 144:800 
1 5:1600 51:1200 68:2200 73:1900 76:2200 98:500 147:800 157:700 
1 17:2000 40:2300 55:1200 114:1600 
1 28:1900 46:1200 84:1400 86:1500 119:1600 126:1200 
1 16:2400 22:2000 54:1200 61:1400 85:1400 107:1200 123:1200 129:800 164:1700 
1 33:2300 53:1600 106:1400 157:700 167:1700 
1 9:1600 15:2300 80:1800 92:700 168:1700 
1 51:1200 97:500 116:1600 121:1200 145:800 151:0 168:1700 
1 25:2300 58:1800 81:2000 143:800 145:800 171:800 
1 8:2000 34:2300 56:1600 63:1200 96:500 123:1200 126:1200 129:800 144:800 172:800 
1 25:2300 36:2300 84:1400 115:1600 145:800 148:800 
1 16:2400 17:2000 59:1200 70:1700 74:1600 154:700 
1 7:2100 21:2200 22:2000 105:1200 117:1600 126:1200 131:800 170:800 
1 22:2000 31:2300 46:1200 51:1200 74:1600 102:1000 150:0 168:1700 174:800 
1 12:1500 39:2000 62:1200 67:2200 153:700 
1 24:2200 82:1400 91:1800 113:1600 172:800 
1 20:1800 57:1200 63:1200 81:2000 91:1800 105:1200 112:1600 153:700 167:1700 
1 41:700 66:2400 67:2200 76:2200 80:1800 104:1200 134:800 153:700 169:800 
1 6:1400 10:2400 24:2200 40:2300 64:2400 109:1600 124:1200 126:1200 
1 30:2200 33:2300 46:1200 85:1400 96:500 122:1200 
1 10:2400 59:1200 89:1700 101:1000 164:1700 
1 11:1000 28:1900 69:2500 79:2100 88:1700 93:700 104:1200 111:1600 133:800 
1 25:2300 36:2300 76:2200 111:1600 
1 80:1800 94:700 123:1200 
1 1:1200 3:2400 22:2000 46:1200 60:1200 66:2400 103:1200 107:1200 123:1200 163:700 
1 36:2300 52:1200 55:1200 66:2400 126:1200 
1 14:2000 37:1700 38:2200 60:1200 63:1200 74:1600 76:2200 105:1200 109:1600 134:800 
1 38:2200 58:1800 107:1200 115:1600 117:1600 159:700 
1 15:2300 19:2200 47:1200 115:1600 129:800 149:800 158:700 
1 18:2200 29:2000 59:1200 106:1400 114:1600 132:800 
1 52:1200 62:1200 71:2200 160:700 172:800 
1 25:2300 45:1200 48:1200 72:1700 74:1600 110:1600 157:700 
1 25:2300 29:2000 37:1700 72:1700 138:800 142:800 160:700 166:1700 
1 16:2400 94:700 105:1200 118:1600 130:800 131:800 154:700 160:700 166:1700 
1 14:2000 48:1200 107:1200 144:800 164:1700 
1 25:2300 41:700 110:1600 155:700 
1 25:2300 90:1700 93:700 98:500 117:1600 131:800 132:800 175:800 
1 24:2200 27:1800 34:2300 55:1200 77:2200 115:1600 116:1600 124:1200 127:1500 168:1700 
1 13:2200 37:1700 39:2000 42:1100 55:1200 65:2400 92:700 114:1600 129:800 134:800 
1 12:1500 81:2000 94:700 116:1600 159:700 
1 16:2400 44:1200 58:1800 67:2200 70:1700 141:800 
1 79:2100 118:1600 146:800 153:700 173:800 
1 10:2400 59:1200 69:2500 107:1200 114:1600 169:800 
1 19:2200 24:2200 55:1200 83:1400 93:700 96:500 108:1200 127:1500 152:0 156:700 
1 2:1000 9:1600 34:2300 82:1400 115:1600 
1 3:2400 9:1600 36:2300 54:1200 88:1700 89:1700 142:800 
1 9:1600 15:2300 25:2300 50:1200 58:1800 72:1700 75:1600 111:1600 126:1200 141:800 
1 14:2000 16:2400 60:1200 139:800 
1 38:2200 40:2300 49:1200 64:2400 138:800 147:800 165:1700 
1 34:2300 35:800 58:1800 87:1200 113:1600 124:1200 
1 27:1800 39:2000 80:1800 98:500 118:1600 123:1200 146:800 166:1700 
1 25:2300 53:1600 96:500 129:800 136:800 
1 9:1600 12:1500 46:1200 55:1200 67:2200 74:1600 108:1200 119:1600 127:1500 171:800 
1 16:2400 37:1700 55:1200 73:1900 138:800 148:800 167:1700 169:800 
1 22:2000 29:2000 62:1200 72:1700 102:1000 114:1600 150:0 175:800 
1 10:2400 22:2000 31:2300 50:1200 128:500 146:800 
1 4:2000 16:2400 21:2200 45:1200 88:1700 89:1700 93:700 158:700 
1 44:1200 79:2100 87:1200 113:1600 120:1600 125:1200 130:800 
1 24:2200 27:1800 38:2200 69:2500 78:2200 82:1400 88:1700 137:800 
1 7:2100 24:2200 51:1200 112:1600 170:800 
1 20:1800 45:1200 
1 48:1200 60:1200 67:2200 71:2200 90:1700 96:500 119:1600 139:800 172:800 
1 9:1600 21:2200 58:1800 67:2200 104:1200 114:1600 156:700 162:700 169:800 174:800 
1 8:2000 42:1100 49:1200 81:2000 115:1600 126:1200 131:800 136:800 
1 46:1200 107:1200 113:1600 162:700 
1 81:2000 97:500 133:800 
1 5:1600 25:2300 34:2300 51:1200 85:1400 93:700 99:800 108:1200 137:800 156:700 
1 40:2300 71:2200 72:1700 88:1700 142:800 
1 29:2000 34:2300 35:800 51:1200 77:2200 78:2200 82:1400 115:1600 159:700 
1 32:2300 63:1200 79:2100 81:2000 101:1000 113:1600 117:1600 166:1700 
1 25:2300 53:1600 67:2200 
1 8:2000 21:2200 24:2200 28:1900 44:1200 76:2200 86:1500 95:700 122:1200 169:800 
1 12:1500 31:2300 52:1200 64:2400 106:1400 107:1200 122:1200 174:800 
1 27:1800 32:2300 58:1800 69:2500 77:2200 116:1600 
1 3:2400 45:1200 51:1200 100:800 121:1200 136:800 145:800 155:700 163:700 173:800 
1 71:2200 91:1800 116:1600 147:800 
1 16:2400 53:1600 55:1200 108:1200 
1 35:800 43:1200 47:1200 81:2000 110:1600 124:1200 161:700 166:1700 
1 8:2000 14:2000 19:2200 28:1900 109:1600 116:1600 127:1500 143:800 
1 8:2000 19:2200 28:1900 56:1600 71:2200 
1 15:2300 30:2200 44:1200 68:2200 137:800 170:800 
1 27:1800 40:2300 117:1600 136:800 155:700 172:800 
1 29:2000 47:1200 78:2200 154:700 
1 71:2200 79:2100 130:800 
1 14:2000 66:2400 127:1500 
1 4:2000 10:2400 21:2200 
1 16:2400 25:2300 104:1200 110:1600 121:1200 138:800 143:800 
1 22:2000 51:1200 95:700 98:500 115:1600 118:1600 154:700 160:700 164:1700 
1 4:2000 10:2400 25:2300 41:700 148:800 
1 32:2300 42:1100 60:1200 66:2400 73:1900 111:1600 144:800 146:800 
1 3:2400 5:1600 20:1800 44:1200 69:2500 88:1700 118:1600 134:800 152:0 
1 7:2100 29:2000 79:2100 94:700 99:800 126:1200 154:700 
1 25:2300 30:2200 70:1700 157:700 
1 5:1600 14:2000 49:1200 97:500 116:1600 158:700 172:800 
1 1:1200 12:1500 17:2000 22:2000 25:2300 74:1600 85:1400 120:1600 164:1700 175:800 
1 9:1600 40:2300 162:700 166:1700 
1 49:1200 90:1700 113:1600 121:1200 127:1500 143:800 170:800 
1 9:1600 38:2200 118:1600 
1 37:1700 81:2000 107:1200 109:1600 
1 9:1600 34:2300 107:1200 144:800 165:1700 
1 4:2000 30:2200 43:1200 160:700 
1 4:2000 37:1700 48:1200 84:1400 103:1200 112:1600 139:800 156:700 166:1700 173:800 
1 65:2400 69:2500 108:1200 127:1500 
1 27:1800 40:2300 67:2200 92:700 110:1600 115:1600 140:800 143:800 160:700 
1 10:2400 16:2400 30:2200 122:1200 
1 79:2100 120:1600 
1 46:1200 66:2400 73:1900 80:1800 87:1200 89:1700 160:700 
1 4:2000 87:1200 95:700 117:1600 
1 9:1600 25:2300 28:1900 49:1200 53:1600 155:700 165:1700 
1 7:2100 59:1200 103:1200 104:1200 118:1600 127:1500 148:800 170:800 
1 30:2200 60:1200 
1 34:2300 35:800 66:2400 68:2200 71:2200 92:700 115:1600 160:700 167:1700 
1 48:1200 83:1400 108:1200 118:1600 158:700 163:700 173:800 
1 5:1600 14:2000 32:2300 71:2200 84:1400 123:1200 131:800 141:800 
1 9:1600 15:2300 41:700 52:1200 77:2200 81:2000 108:1200 129:800 146:800 172:800 
1 34:2300 49:1200 106:1400 110:1600 123:1200 153:700 
1 5:1600 23:2200 71:2200 96:500 161:700 
1 7:2100 13:2200 19:2200 58:1800 73:1900 75:1600 96:500 171:800 174:800 
1 3:2400 36:2300 104:1200 115:1600 121:1200 129:800 140:800 154:700 
1 28:1900 52:1200 65:2400 112:1600 
1 58:1800 59:1200 71:2200 77:2200 91:1800 120:1600 130:800 133:800 142:800 
1 18:2200 22:2000 39:2000 53:1600 69:2500 73:1900 96:500 102:1000 133:800 
1 17:2000 70:1700 111:1600 119:1600 152:0 
1 18:2200 44:1200 56:1600 68:2200 81:2000 129:800 138:800 143:800 166:1700 
1 9:1600 44:1200 75:1600 98:500 110:1600 115:1600 133:800 174:800 
1 16:2400 57:1200 63:1200 65:2400 96:500 99:800 117:1600 118:1600 152:0 154:700 
1 11:1000 19:2200 24:2200 31:2300 49:1200 
1 21:2200 80:1800 98:500 122:1200 128:500 146:800 154:700 172:800 
1 5:1600 59:1200 118:1600 120:1600 
1 26:2000 44:1200 45:1200 77:2200 97:500 122:1200 
1 10:2400 21:2200 37:1700 80:1800 83:1400 126:1200 127:1500 135:800 164:1700 
1 41:700 45:1200 64:2400 79:2100 82:1400 98:500 102:1000 133:800 147:800 157:700 
1 12:1500 16:2400 50:1200 53:1600 107:1200 160:700 
1 9:1600 34:2300 50:1200 59:1200 114:1600 152:0 153:700 166:1700 
1 8:2000 20:1800 30:2200 79:2100 84:1400 90:1700 145:800 146:800 157:700 
1 23:2200 34:2300 48:1200 57:1200 111:1600 152:0 175:800 
1 27:1800 62:1200 69:2500 88:1700 89:1700 91:1800 106:1400 127:1500 147:800 
1 1:1200 25:2300 31:2300 54:1200 57:1200 
1 3:2400 106:1400 
0.36328125 64:2400 108:1200 
1 1:1200 16:2400 24:2200 65:2400 123:1200 129:800 147:800 152:0 171:800 
1 29:2000 30:2200 42:1100 50:1200 73:1900 81:2000 89:1700 168:1700 174:800 
1 22:2000 35:800 40:2300 68:2200 127:1500 132:800 
1 4:2000 13:2200 15:2300 96:500 110:1600 130:800 131:800 158:700 
1 17:2000 51:1200 56:1600 72:1700 81:2000 113:1600 132:800 154:700 172:800 
1 40:2300 68:2200 79:2100 85:1400 104:1200 123:1200 125:1200 144:800 145:800 
1 4:2000 33:2300 50:1200 60:1200 78:2200 90:1700 94:700 98:500 104:1200 160:700 
1 20:1800 27:1800 36:2300 69:2500 84:1400 85:1400 96:500 129:800 173:800 
1 61:1400 109:1600 
1 79:2100 113:1600 
1 4:2000 10:2400 48:1200 57:1200 64:2400 84:1400 92:700 105:1200 111:1600 113:1600 
1 22:2000 42:1100 43:1200 71:2200 76:2200 79:2100 97:500 145:800 146:800 149:800 
1 23:2200 64:2400 65:2400 92:700 96:500 123:1200 149:800 
1 17:2000 19:2200 63:1200 74:1600 98:500 108:1200 124:1200 147:800 
1 59:1200 71:2200 84:1400 91:1800 113:1600 118:1600 122:1200 123:1200 
1 75:1600 77:2200 90:1700 112:1600 153:700 
1 15:2300 16:2400 51:1200 68:2200 89:1700 119:1600 125:1200 155:700 163:700 
1 3:2400 20:1800 22:2000 32:2300 34:2300 84:1400 119:1600 121:1200 
1 22:2000 67:2200 69:2500 105:1200 120:1600 124:1200 160:700 
1 58:1800 69:2500 104:1200 117:1600 120:1600 
1 5:1600 36:2300 48:1200 53:1600 60:1200 125:1200 152:0 162:700 
1 42:1100 79:2100 81:2000 117:1600 171:800 173:800 
1 118:1600 165:1700 
1 5:1600 37:1700 76:2200 83:1400 
1 14:2000 31:2300 58:1800 83:1400 88:1700 117:1600 155:700 157:700 173:800 
1 30:2200 35:800 40:2300 79:2100 108:1200 121:1200 
1 56:1600 66:2400 81:2000 93:700 117:1600 147:800 151:0 162:700 167:1700 
1 17:2000 26:2000 27:1800 54:1200 67:2200 71:2200 123:1200 140:800 174:800 
1 6:1400 25:2300 44:1200 55:1200 92:700 130:800 162:700 169:800 
1 11:1000 13:2200 30:2200 33:2300 76:2200 90:1700 147:800 157:700 
1 23:2200 55:1200 74:1600 94:700 109:1600 112:1600 
1 4:2000 27:1800 166:1700 
1 58:1800 66:2400 68:2200 71:2200 102:1000 114:1600 139:800 
1 41:700 80:1800 118:1600 163:700 
1 24:2200 28:1900 60:1200 111:1600 114:1600 
1 13:2200 67:2200 71:2200 92:700 112:1600 162:700 174:800 
1 2:1000 22:2000 30:2200 48:1200 71:2200 127:1500 164:1700 171:800 174:800 
1 5:1600 13:2200 30:2200 33:2300 113:1600 118:1600 121:1200 150:0 
1 29:2000 33:2300 87:1200 130:800 160:700 
1 42:1100 68:2200 71:2200 98:500 116:1600 126:1200 
1 66:2400 107:1200 
1 30:2200 36:2300 40:2300 81:2000 141:800 162:700 173:800 
1 34:2300 45:1200 56:1600 80:1800 93:700 123:1200 131:800 146:800 153:700 160:700 
1 40:2300 46:1200 71:2200 103:1200 
1 43:1200 79:2100 106:1400 164:1700 
1 2:1000 65:2400 93:700 118:1600 165:1700 
1 18:2200 21:2200 49:1200 119:1600 142:800 153:700 155:700 169:800 
1 9:1600 13:2200 23:2200 52:1200 57:1200 114:1600 118:1600 
1 22:2000 37:1700 60:1200 85:1400 110:1600 111:1600 112:1600 114:1600 150:0 
1 15:2300 22:2000 33:2300 76:2200 78:2200 82:1400 110:1600 153:700 
1 8:2000 25:2300 71:2200 165:1700 171:800 
1 57:1200 65:2400 86:1500 154:700 167:1700 
1 3:2400 4:2000 22:2000 41:700 89:1700 93:700 104:1200 
1 11:1000 16:2400 27:1800 38:2200 40:2300 66:2400 121:1200 132:800 149:800 157:700 
1 33:2300 42:1100 63:1200 67:2200 77:2200 80:1800 87:1200 103:1200 120:1600 135:800 
1 37:1700 58:1800 66:2400 72:1700 82:1400 138:800 
1 3:2400 14:2000 49:1200 58:1800 69:2500 113:1600 117:1600 
1 24:2200 57:1200 67:2200 69:2500 79:2100 109:1600 110:1600 129:800 135:800 136:800 
1 34:2300 71:2200 81:2000 83:1400 93:700 102:1000 135:800 168:1700 
1 20:1800 26:2000 60:1200 79:2100 107:1200 109:1600 120:1600 
1 3:2400 15:2300 79:2100 132:800 170:800 171:800 
1 10:2400 85:1400 119:1600 158:700 
1 7:2100 17:2000 34:2300 47:1200 116:1600 159:700 162:700 
1 26:2000 55:1200 110:1600 120:1600 156:700 161:700 
1 8:2000 9:1600 15:2300 28:1900 62:1200 108:1200 111:1600 136:800 149:800 
1 6:1400 42:1100 57:1200 68:2200 81:2000 89:1700 107:1200 136:800 
1 25:2300 36:2300 121:1200 175:800 
1 76:2200 79:2100 114:1600 121:1200 132:800 138:800 168:1700 170:800 
1 6:1400 29:2000 42:1100 45:1200 65:2400 74:1600 98:500 123:1200 153:700 170:800 
1 3:2400 13:2200 77:2200 88:1700 90:1700 98:500 111:1600 125:1200 133:800 164:1700 
1 27:1800 32:2300 52:1200 71:2200 77:2200 133:800 
1 14:2000 68:2200 76:2200 79:2100 80:1800 83:1400 87:1200 102:1000 145:800 168:1700 
1 10:2400 20:1800 31:2300 89:1700 154:700 
1 3:2400 4:2000 29:2000 39:2000 104:1200 110:1600 121:1200 125:1200 134:800 156:700 
1 17:2000 43:1200 58:1800 64:2400 65:2400 164:1700 167:1700 168:1700 170:800 
1 26:2000 27:1800 38:2200 61:1400 105:1200 
1 22:2000 31:2300 49:1200 67:2200 68:2200 74:1600 81:2000 85:1400 112:1600 113:1600 
1 2:1000 3:2400 48:1200 77:2200 78:2200 105:1200 119:1600 142:800 173:800 175:800 
1 34:2300 38:2200 60:1200 87:1200 89:1700 97:500 106:1400 119:1600 138:800 165:1700 
1 13:2200 23:2200 67:2200 70:1700 119:1600 142:800 
1 66:2400 81:2000 85:1400 111:1600 122:1200 126:1200 
1 7:2100 10:2400 16:2400 39:2000 59:1200 69:2500 116:1600 136:800 
1 14:2000 39:2000 42:1100 52:1200 55:1200 79:2100 113:1600 
1 15:2300 18:2200 25:2300 26:2000 44:1200 79:2100 121:1200 
1 6:1400 31:2300 38:2200 40:2300 56:1600 59:1200 130:800 159:700 
1 10:2400 24:2200 30:2200 120:1600 
1 10:2400 47:1200 63:1200 70:1700 89:1700 113:1600 121:1200 129:800 
1 31:2300 41:700 49:1200 65:2400 129:800 
1 19:2200 41:700 
1 3:2400 25:2300 72:1700 164:1700 
1 6:1400 31:2300 49:1200 52:1200 77:2200 115:1600 155:700 
1 16:2400 74:1600 82:1400 108:1200 116:1600 155:700 
1 38:2200 45:1200 64:2400 81:2000 91:1800 98:500 101:1000 105:1200 
1 33:2300 40:2300 53:1600 90:1700 140:800 
1 18:2200 22:2000 48:1200 68:2200 89:1700 110:1600 130:800 159:700 169:800 
1 26:2000 39:2000 59:1200 74:1600 88:1700 91:1800 
1 40:2300 53:1600 
1 12:1500 18:2200 23:2200 33:2300 57:1200 80:1800 88:1700 102:1000 126:1200 150:0 
1 6:1400 11:1000 22:2000 26:2000 47:1200 53:1600 77:2200 90:1700 112:1600 
1 18:2200 29:2000 96:500 107:1200 148:800 160:700 168:1700 
1 17:2000 18:2200 22:2000 56:1600 73:1900 81:2000 88:1700 105:1200 135:800 171:800 
1 31:2300 48:1200 75:1600 76:2200 87:1200 109:1600 134:800 136:800 
1 1:1200 38:2200 65:2400 69:2500 81:2000 
1 37:1700 54:1200 66:2400 114:1600 142:800 
1 26:2000 50:1200 64:2400 147:800 
1 68:2200 69:2500 70:1700 
1 10:2400 37:1700 45:1200 87:1200 88:1700 101:1000 106:1400 108:1200 159:700 175:800 
1 24:2200 26:2000 41:700 45:1200 51:1200 59:1200 74:1600 94:700 107:1200 125:1200 
0.36328125 65:2400 
1 26:2000 82:1400 96:500 114:1600 147:800 
1 14:2000 30:2200 37:1700 53:1600 58:1800 148:800 150:0 169:800 
1 22:2000 50:1200 67:2200 85:1400 
1 18:2200 20:1800 50:1200 69:2500 81:2000 103:1200 114:1600 126:1200 131:800 144:800 
1 7:2100 34:2300 80:1800 93:700 125:1200 
1 22:2000 33:2300 51:1200 86:1500 116:1600 128:500 160:700 
1 75:1600 77:2200 78:2200 87:1200 90:1700 113:1600 127:1500 138:800 150:0 
1 17:2000 48:1200 82:1400 93:700 102:1000 117:1600 155:700 166:1700 172:800 
1 11:1000 21:2200 78:2200 87:1200 88:1700 89:1700 118:1600 124:1200 147:800 
1 9:1600 68:2200 
1 1:1200 12:1500 22:2000 56:1600 109:1600 120:1600 133:800 161:700 
1 16:2400 31:2300 57:1200 92:700 115:1600 168:1700 169:800 
1 17:2000 49:1200 69:2500 93:700 109:1600 113:1600 119:1600 120:1600 169:800 
1 9:1600 24:2200 36:2300 57:1200 80:1800 136:800 171:800 175:800 
1 16:2400 58:1800 74:1600 123:1200 164:1700 
1 69:2500 82:1400 87:1200 108:1200 111:1600 123:1200 137:800 152:0 167:1700 
1 5:1600 42:1100 49:1200 68:2200 71:2200 86:1500 89:1700 115:1600 159:700 170:800 
1 4:2000 6:1400 21:2200 23:2200 84:1400 118:1600 133:800 153:700 157:700 163:700 
1 14:2000 25:2300 56:1600 80:1800 134:800 139:800 
1 18:2200 22:2000 27:1800 40:2300 80:1800 87:1200 142:800 151:0 162:700 
1 7:2100 8:2000 77:2200 78:2200 83:1400 90:1700 96:500 99:800 116:1600 147:800 
1 8:2000 34:2300 49:1200 106:1400 113:1600 166:1700 
1 20:1800 25:2300 33:2300 40:2300 78:2200 99:800 100:800 112:1600 118:1600 149:800 
1 15:2300 90:1700 117:1600 
1 3:2400 5:1600 12:1500 13:2200 52:1200 57:1200 78:2200 104:1200 143:800 165:1700 
1 5:1600 48:1200 54:1200 59:1200 69:2500 89:1700 105:1200 112:1600 128:500 133:800 
1 79:2100 114:1600 162:700 172:800 
1 25:2300 37:1700 68:2200 73:1900 90:1700 104:1200 141:800 149:800 151:0 160:700 
1 33:2300 40:2300 57:1200 60:1200 62:1200 64:2400 69:2500 130:800 132:800 158:700 
1 7:2100 20:1800 50:1200 80:1800 88:1700 146:800 
1 3:2400 44:1200 90:1700 102:1000 113:1600 142:800 164:1700 
1 32:2300 44:1200 66:2400 114:1600 
1 40:2300 85:1400 90:1700 104:1200 125:1200 132:800 
1 5:1600 6:1400 9:1600 68:2200 71:2200 81:2000 89:1700 146:800 171:800 
1 3:2400 49:1200 80:1800 84:1400 
1 27:1800 68:2200 90:1700 
1 26:2000 56:1600 57:1200 105:1200 116:1600 125:1200 161:700 170:800 
1 31:2300 32:2300 40:2300 54:1200 61:1400 82:1400 86:1500 91:1800 102:1000 137:800 
1 25:2300 38:2200 55:1200 84:1400 86:1500 87:1200 115:1600 116:1600 145:800 159:700 
1 1:1200 9:1600 10:2400 22:2000 28:1900 30:2200 53:1600 61:1400 160:700 172:800 
1 17:2000 29:2000 33:2300 56:1600 94:700 152:0 156:700 170:800 
1 9:1600 52:1200 64:2400 83:1400 102:1000 116:1600 127:1500 150:0 155:700 
1 12:1500 28:1900 41:700 64:2400 65:2400 116:1600 
1 7:2100 19:2200 40:2300 159:700 
1 9:1600 29:2000 50:1200 51:1200 121:1200 133:800 162:700 173:800 
1 13:2200 57:1200 69:2500 142:800 158:700 
1 7:2100 16:2400 54:1200 66:2400 67:2200 75:1600 78:2200 120:1600 132:800 
1 32:2300 35:800 45:1200 67:2200 75:1600 89:1700 98:500 115:1600 171:800 
1 13:2200 28:1900 63:1200 89:1700 112:1600 
1 20:1800 24:2200 25:2300 48:1200 53:1600 65:2400 91:1800 151:0 159:700 164:1700 
1 55:1200 67:2200 69:2500 118:1600 156:700 167:1700 
1 10:2400 33:2300 92:700 144:800 168:1700 175:800 
1 17:2000 51:1200 52:1200 61:1400 104:1200 110:1600 124:1200 143:800 171:800 173:800 
1 5:1600 47:1200 61:1400 78:2200 81:2000 122:1200 158:700 166:1700 167:1700 
1 53:1600 71:2200 73:1900 76:2200 111:1600 112:1600 124:1200 135:800 162:700 171:800 
1 10:2400 16:2400 30:2200 52:1200 54:1200 132:800 150:0 
1 21:2200 67:2200 104:1200 138:800 159:700 166:1700 
1 31:2300 56:1600 63:1200 80:1800 98:500 118:1600 137:800 145:800 173:800 
1 3:2400 32:2300 39:2000 46:1200 71:2200 89:1700 106:1400 167:1700 
1 116:1600 168:1700 
1 19:2200 22:2000 45:1200 54:1200 71:2200 142:800 
1 57:1200 67:2200 77:2200 87:1200 90:1700 104:1200 117:1600 136:800 142:800 159:700 
1 6:1400 10:2400 35:800 59:1200 66:2400 74:1600 81:2000 116:1600 117:1600 
1 16:2400 38:2200 48:1200 114:1600 117:1600 
1 60:1200 66:2400 87:1200 118:1600 141:800 156:700 173:800 
1 23:2200 36:2300 64:2400 71:2200 87:1200 115:1600 166:1700 
1 3:2400 31:2300 40:2300 91:1800 102:1000 115:1600 144:800 170:800 
1 40:2300 87:1200 110:1600 174:800 
1 3:2400 21:2200 28:1900 51:1200 86:1500 93:700 131:800 134:800 
1 49:1200 50:1200 55:1200 68:2200 80:1800 142:800 169:800 
1 18:2200 26:2000 78:2200 79:2100 83:1400 86:1500 120:1600 155:700 175:800 
1 4:2000 15:2300 39:2000 59:1200 87:1200 98:500 115:1600 136:800 157:700 
1 11:1000 18:2200 19:2200 46:1200 48:1200 85:1400 116:1600 151:0 156:700 166:1700 
1 14:2000 73:1900 81:2000 94:700 104:1200 172:800 
1 10:2400 28:1900 29:2000 33:2300 61:1400 85:1400 96:500 
1 54:1200 59:1200 75:1600 79:2100 113:1600 145:800 
1 44:1200 45:1200 80:1800 121:1200 
1 40:2300 49:1200 64:2400 81:2000 
1 21:2200 25:2300 51:1200 125:1200 140:800 145:800 169:800 
1 3:2400 7:2100 51:1200 53:1600 68:2200 90:1700 155:700 159:700 161:700 165:1700 
1 21:2200 79:2100 
1 37:1700 60:1200 68:2200 89:1700 122:1200 
1 30:2200 69:2500 72:1700 85:1400 145:800 174:800 
1 24:2200 66:2400 78:2200 83:1400 107:1200 166:1700 174:800 
1 69:2500 89:1700 104:1200 
1 30:2200 32:2300 37:1700 41:700 90:1700 102:1000 105:1200 
1 26:2000 35:800 54:1200 60:1200 64:2400 65:2400 69:2500 74:1600 155:700 
1 10:2400 11:1000 20:1800 31:2300 38:2200 59:1200 110:1600 112:1600 174:800 
1 15:2300 19:2200 29:2000 136:800 160:700 
1 57:1200 68:2200 70:1700 117:1600 118:1600 
1 9:1600 10:2400 48:1200 52:1200 65:2400 70:1700 136:800 147:800 
1 16:2400 31:2300 71:2200 74:1600 76:2200 93:700 97:500 145:800 
1 9:1600 15:2300 27:1800 93:700 94:700 103:1200 109:1600 137:800 143:800 159:700 
1 24:2200 33:2300 85:1400 97:500 113:1600 144:800 158:700 166:1700 
1 15:2300 24:2200 37:1700 43:1200 49:1200 64:2400 114:1600 146:800 
1 26:2000 54:1200 
1 15:2300 51:1200 55:1200 57:1200 74:1600 82:1400 111:1600 126:1200 145:800 158:700 
1 9:1600 16:2400 59:1200 102:1000 123:1200 145:800 157:700 
1 1:1200 20:1800 22:2000 23:2200 68:2200 81:2000 92:700 113:1600 129:800 145:800 
1 48:1200 78:2200 83:1400 109:1600 110:1600 136:800 141:800 
1 4:2000 56:1600 67:2200 122:1200 
1 21:2200 26:2000 27:1800 32:2300 65:2400 116:1600 148:800 
1 7:2100 9:1600 20:1800 61:1400 74:1600 75:1600 90:1700 122:1200 157:700 
1 15:2300 25:2300 98:500 104:1200 113:1600 124:1200 156:700 158:700 
1 8:2000 116:1600 120:1600 
1 16:2400 26:2000 37:1700 100:800 104:1200 111:1600 127:1500 158:700 162:700 170:800 
1 10:2400 36:2300 57:1200 69:2500 123:1200 
1 6:1400 40:2300 69:2500 77:2200 87:1200 91:1800 100:800 103:1200 174:800 
0.36328125 26:2000 66:2400 
1 1:1200 24:2200 34:2300 49:1200 
1 11:1000 74:1600 77:2200 92:700 104:1200 105:1200 110:1600 126:1200 135:800 
1 29:2000 40:2300 48:1200 56:1600 126:1200 145:800 153:700 175:800 
1 47:1200 51:1200 65:2400 85:1400 109:1600 154:700 159:700 
1 14:2000 71:2200 109:1600 112:1600 
1 25:2300 71:2200 121:1200 123:1200 149:800 173:800 
1 64:2400 108:1200 
1 9:1600 28:1900 64:2400 
1 48:1200 49:1200 50:1200 66:2400 78:2200 107:1200 108:1200 143:800 158:700 160:700 
1 3:2400 22:2000 24:2200 25:2300 112:1600 123:1200 131:800 
1 24:2200 30:2200 36:2300 39:2000 104:1200 
1 28:1900 51:1200 52:1200 68:2200 103:1200 113:1600 148:800 
1 7:2100 11:1000 23:2200 58:1800 63:1200 90:1700 118:1600 122:1200 147:800 163:700 
1 12:1500 45:1200 61:1400 68:2200 118:1600 
1 34:2300 46:1200 78:2200 88:1700 121:1200 139:800 163:700 
1 18:2200 40:2300 153:700 
1 38:2200 57:1200 58:1800 79:2100 108:1200 109:1600 113:1600 147:800 
1 22:2000 25:2300 36:2300 37:1700 47:1200 52:1200 81:2000 83:1400 136:800 
1 40:2300 42:1100 47:1200 82:1400 91:1800 111:1600 127:1500 140:800 146:800 170:800 
1 9:1600 28:1900 
1 17:2000 27:1800 37:1700 51:1200 61:1400 80:1800 116:1600 125:1200 157:700 169:800 
1 4:2000 22:2000 78:2200 126:1200 
1 57:1200 62:1200 66:2400 67:2200 90:1700 105:1200 110:1600 162:700 166:1700 
1 4:2000 8:2000 13:2200 18:2200 45:1200 51:1200 73:1900 158:700 
1 10:2400 30:2200 55:1200 141:800 152:0 
1 55:1200 69:2500 80:1800 117:1600 
1 17:2000 67:2200 78:2200 110:1600 116:1600 122:1200 124:1200 133:800 138:800 
1 19:2200 20:1800 36:2300 47:1200 94:700 165:1700 169:800 174:800 
1 23:2200 65:2400 73:1900 77:2200 79:2100 93:700 108:1200 156:700 162:700 
1 25:2300 52:1200 114:1600 
1 14:2000 30:2200 41:700 77:2200 94:700 96:500 113:1600 169:800 
1 18:2200 49:1200 71:2200 86:1500 94:700 107:1200 119:1600 165:1700 173:800 
1 31:2300 36:2300 45:1200 54:1200 84:1400 112:1600 118:1600 135:800 149:800 171:800 
1 60:1200 64:2400 94:700 148:800 162:700 174:800 
1 37:1700 106:1400 113:1600 144:800 168:1700 
1 40:2300 114:1600 115:1600 137:800 157:700 169:800 
1 66:2400 111:1600 122:1200 146:800 
1 17:2000 34:2300 
1 71:2200 72:1700 75:1600 84:1400 86:1500 112:1600 121:1200 161:700 
1 33:2300 52:1200 111:1600 
1 3:2400 13:2200 29:2000 54:1200 69:2500 77:2200 97:500 101:1000 155:700 165:1700 
1 7:2100 22:2000 24:2200 68:2200 82:1400 85:1400 116:1600 128:500 135:800 154:700 
1 36:2300 48:1200 
1 3:2400 7:2100 41:700 51:1200 90:1700 143:800 149:800 
1 50:1200 65:2400 73:1900 132:800 
1 33:2300 49:1200 65:2400 119:1600 141:800 
1 21:2200 67:2200 129:800 
1 12:1500 27:1800 29:2000 31:2300 40:2300 108:1200 120:1600 128:500 159:700 172:800 
1 17:2000 24:2200 45:1200 102:1000 103:1200 110:1600 120:1600 146:800 
1 25:2300 50:1200 53:1600 63:1200 66:2400 124:1200 137:800 167:1700 
1 18:2200 52:1200 147:800 159:700 
1 1:1200 26:2000 56:1600 58:1800 124:1200 162:700 
1 3:2400 29:2000 66:2400 76:2200 88:1700 109:1600 110:1600 130:800 
1 21:2200 27:1800 36:2300 64:2400 68:2200 95:700 110:1600 128:500 161:700 174:800 
1 8:2000 9:1600 60:1200 62:1200 108:1200 133:800 
1 4:2000 9:1600 31:2300 76:2200 88:1700 100:800 101:1000 123:1200 159:700 
1 48:1200 68:2200 116:1600 174:800 
1 5:1600 15:2300 29:2000 44:1200 52:1200 68:2200 106:1400 157:700 169:800 
1 2:1000 26:2000 42:1100 46:1200 48:1200 64:2400 79:2100 96:500 105:1200 145:800 
1 9:1600 63:1200 68:2200 72:1700 73:1900 79:2100 85:1400 163:700 
1 42:1100 45:1200 52:1200 61:1400 68:2200 75:1600 112:1600 119:1600 126:1200 131:800 
1 10:2400 58:1800 97:500 146:800 163:700 
1 68:2200 107:1200 114:1600 135:800 
1 1:1200 24:2200 69:2500 77:2200 96:500 103:1200 147:800 168:1700 
1 3:2400 47:1200 66:2400 109:1600 128:500 148:800 150:0 159:700 165:1700 
1 12:1500 54:1200 79:2100 107:1200 112:1600 121:1200 129:800 135:800 165:1700 
1 40:2300 67:2200 101:1000 123:1200 127:1500 134:800 
1 25:2300 26:2000 28:1900 61:1400 77:2200 109:1600 121:1200 129:800 159:700 172:800 
1 16:2400 19:2200 44:1200 70:1700 105:1200 124:1200 147:800 
1 18:2200 63:1200 71:2200 95:700 98:500 110:1600 
1 4:2000 16:2400 23:2200 25:2300 75:1600 78:2200 159:700 
1 17:2000 19:2200 37:1700 39:2000 49:1200 80:1800 162:700 
1 18:2200 22:2000 47:1200 63:1200 67:2200 85:1400 127:1500 142:800 156:700 
1 32:2300 80:1800 
1 30:2200 31:2300 127:1500 170:800 
1 10:2400 55:1200 62:1200 119:1600 124:1200 125:1200 168:1700 
1 7:2100 8:2000 14:2000 47:1200 76:2200 84:1400 87:1200 141:800 153:700 166:1700 
1 44:1200 106:1400 114:1600 122:1200 133:800 
1 24:2200 32:2300 81:2000 109:1600 
1 24:2200 34:2300 91:1800 
1 3:2400 32:2300 92:700 94:700 103:1200 108:1200 110:1600 131:800 163:700 
1 25:2300 44:1200 47:1200 69:2500 76:2200 
1 10:2400 32:2300 55:1200 77:2200 88:1700 102:1000 110:1600 114:1600 138:800 
1 15:2300 27:1800 45:1200 55:1200 102:1000 104:1200 122:1200 140:800 173:800 
1 3:2400 8:2000 48:1200 63:1200 111:1600 124:1200 127:1500 132:800 144:800 146:800 
1 19:2200 21:2200 38:2200 52:1200 56:1600 95:700 105:1200 145:800 167:1700 174:800 
1 7:2100 58:1800 67:2200 100:800 113:1600 114:1600 121:1200 156:700 
0.36328125 10:2400 147:800 
1 29:2000 58:1800 84:1400 92:700 106:1400 130:800 150:0 158:700 
1 30:2200 79:2100 100:800 118:1600 121:1200 151:0 168:1700 
1 6:1400 18:2200 25:2300 63:1200 73:1900 87:1200 111:1600 122:1200 128:500 175:800 
1 3:2400 39:2000 52:1200 74:1600 91:1800 125:1200 161:700 
1 8:2000 13:2200 46:1200 65:2400 67:2200 71:2200 85:1400 119:1600 120:1600 149:800 
1 37:1700 39:2000 40:2300 55:1200 70:1700 122:1200 156:700 
1 3:2400 71:2200 
1 29:2000 49:1200 55:1200 81:2000 99:800 112:1600 116:1600 119:1600 130:800 
1 7:2100 13:2200 58:1800 69:2500 77:2200 99:800 137:800 144:800 154:700 160:700 
1 31:2300 45:1200 54:1200 76:2200 91:1800 106:1400 147:800 163:700 167:1700 170:800 
1 14:2000 56:1600 80:1800 83:1400 84:1400 129:800 157:700 
1 25:2300 108:1200 116:1600 122:1200 127:1500 175:800 
1 3:2400 10:2400 42:1100 84:1400 111:1600 117:1600 131:800 159:700 171:800 
1 19:2200 65:2400 76:2200 89:1700 114:1600 173:800 
1 23:2200 26:2000 69:2500 96:500 113:1600 
1 55:1200 64:2400 74:1600 87:1200 127:1500 155:700 
1 17:2000 62:1200 85:1400 134:800 161:700 
1 22:2000 34:2300 36:2300 45:1200 48:1200 108:1200 143:800 149:800 157:700 
1 3:2400 9:1600 23:2200 43:1200 75:1600 77:2200 139:800 153:700 168:1700 170:800 
1 4:2000 19:2200 83:1400 
1 24:2200 47:1200 68:2200 116:1600 169:800 
1 62:1200 74:1600 90:1700 117:1600 123:1200 129:800 139:800 151:0 153:700 
1 3:2400 22:2000 42:1100 49:1200 114:1600 128:500 129:800 
1 8:2000 12:1500 14:2000 16:2400 34:2300 79:2100 105:1200 134:800 150:0 
1 44:1200 107:1200 116:1600 
1 9:1600 22:2000 47:1200 55:1200 68:2200 111:1600 125:1200 
1 23:2200 59:1200 60:1200 67:2200 68:2200 106:1400 112:1600 159:700 173:800 174:800 
1 19:2200 67:2200 79:2100 98:500 158:700 
1 27:1800 40:2300 41:700 65:2400 95:700 97:500 127:1500 135:800 
1 3:2400 115:1600 122:1200 169:800 
1 18:2200 53:1600 56:1600 90:1700 114:1600 137:800 143:800 154:700 158:700 162:700 
1 10:2400 27:1800 55:1200 81:2000 101:1000 117:1600 152:0 
1 14:2000 22:2000 27:1800 49:1200 110:1600 128:500 
1 14:2000 25:2300 42:1100 167:1700 
1 25:2300 55:1200 72:1700 97:500 127:1500 151:0 
1 36:2300 47:1200 
1 28:1900 32:2300 37:1700 51:1200 69:2500 87:1200 113:1600 131:800 
1 15:2300 35:800 53:1600 69:2500 110:1600 119:1600 122:1200 152:0 153:700 
1 28:1900 59:1200 110:1600 119:1600 125:1200 153:700 156:700 158:700 
1 2:1000 7:2100 15:2300 16:2400 42:1100 68:2200 146:800 163:700 171:800 
1 4:2000 21:2200 45:1200 166:1700 173:800 
1 24:2200 27:1800 61:1400 79:2100 
1 6:1400 36:2300 50:1200 77:2200 
1 9:1600 10:2400 13:2200 24:2200 46:1200 100:800 138:800 168:1700 169:800 
1 17:2000 25:2300 29:2000 47:1200 97:500 
1 31:2300 66:2400 99:800 113:1600 120:1600 122:1200 166:1700 169:800 173:800 
1 14:2000 20:1800 22:2000 34:2300 63:1200 96:500 108:1200 144:800 167:1700 172:800 
1 4:2000 10:2400 40:2300 55:1200 99:800 120:1600 136:800 156:700 174:800 
1 47:1200 107:1200 118:1600 157:700 
1 13:2200 15:2300 69:2500 98:500 100:800 108:1200 122:1200 136:800 154:700 
1 2:1000 23:2200 32:2300 55:1200 62:1200 120:1600 122:1200 156:700 
1 6:1400 30:2200 63:1200 69:2500 
1 30:2200 64:2400 103:1200 110:1600 122:1200 
1 8:2000 11:1000 81:2000 83:1400 91:1800 97:500 122:1200 147:800 
1 60:1200 66:2400 
1 40:2300 56:1600 71:2200 83:1400 117:1600 
1 19:2200 40:2300 45:1200 48:1200 75:1600 81:2000 93:700 101:1000 162:700 172:800 
1 33:2300 64:2400 82:1400 119:1600 
1 14:2000 37:1700 63:1200 64:2400 112:1600 156:700 164:1700 175:800 
1 10:2400 42:1100 106:1400 108:1200 157:700 159:700 
1 10:2400 27:1800 40:2300 49:1200 106:1400 110:1600 132:800 152:0 157:700 
1 31:2300 44:1200 98:500 111:1600 140:800 156:700 
1 75:1600 79:2100 88:1700 91:1800 99:800 122:1200 126:1200 174:800 
1 22:2000 74:1600 90:1700 96:500 131:800 154:700 166:1700 170:800 
1 37:1700 42:1100 53:1600 109:1600 110:1600 166:1700 
1 23:2200 33:2300 70:1700 71:2200 139:800 
1 29:2000 41:700 47:1200 66:2400 99:800 
1 39:2000 42:1100 56:1600 96:500 104:1200 115:1600 156:700 165:1700 
1 3:2400 24:2200 54:1200 86:1500 88:1700 128:500 140:800 
1 40:2300 113:1600 119:1600 140:800 
1 24:2200 40:2300 52:1200 78:2200 170:800 
1 38:2200 41:700 79:2100 137:800 173:800 
1 18:2200 40:2300 62:1200 90:1700 116:1600 152:0 166:1700 169:800 
1 1:1200 17:2000 38:2200 39:2000 40:2300 67:2200 76:2200 81:2000 156:700 173:800 
1 10:2400 39:2000 79:2100 108:1200 159:700 
1 29:2000 30:2200 49:1200 63:1200 64:2400 83:1400 94:700 154:700 157:700 165:1700 
1 3:2400 19:2200 65:2400 67:2200 120:1600 169:800 170:800 
1 4:2000 12:1500 47:1200 60:1200 64:2400 112:1600 119:1600 142:800 149:800 158:700 
1 30:2200 107:1200 
1 26:2000 58:1800 155:700 
1 16:2400 25:2300 34:2300 35:800 89:1700 129:800 130:800 
1 20:1800 43:1200 71:2200 80:1800 92:700 116:1600 170:800 
1 18:2200 19:2200 34:2300 49:1200 72:1700 144:800 165:1700 168:1700 
1 4:2000 73:1900 74:1600 110:1600 116:1600 159:700 168:1700 170:800 
1 16:2400 24:2200 39:2000 56:1600 92:700 101:1000 112:1600 113:1600 132:800 172:800 
1 19:2200 50:1200 72:1700 90:1700 105:1200 112:1600 
1 36:2300 66:2400 93:700 133:800 
1 19:2200 30:2200 79:2100 90:1700 103:1200 117:1600 148:800 152:0 155:700 175:800 
1 4:2000 20:1800 31:2300 79:2100 87:1200 104:1200 132:800 160:700 
1 9:1600 59:1200 95:700 96:500 103:1200 116:1600 118:1600 137:800 158:700 170:800 
1 13:2200 21:2200 68:2200 76:2200 139:800 155:700 
1 4:2000 33:2300 51:1200 88:1700 107:1200 147:800 165:1700 172:800 
1 3:2400 46:1200 90:1700 
1 75:1600 77:2200 123:1200 
1 10:2400 32:2300 49:1200 55:1200 103:1200 113:1600 121:1200 150:0 
1 10:2400 15:2300 45:1200 161:700 
1 29:2000 49:1200 63:1200 111:1600 174:800 
1 63:1200 65:2400 66:2400 87:1200 140:800 143:800 159:700 165:1700 
1 18:2200 39:2000 68:2200 78:2200 85:1400 135:800 171:800 
1 10:2400 48:1200 95:700 108:1200 110:1600 144:800 
1 26:2000 30:2200 37:1700 51:1200 102:1000 117:1600 126:1200 141:800 
1 52:1200 64:2400 75:1600 110:1600 114:1600 117:1600 139:800 165:1700 168:1700 169:800 
1 21:2200 31:2300 60:1200 76:2200 77:2200 102:1000 104:1200 139:800 152:0 174:800 
1 47:1200 51:1200 66:2400 89:1700 91:1800 118:1600 123:1200 142:800 155:700 165:1700 
1 32:2300 45:1200 58:1800 66:2400 71:2200 84:1400 153:700 165:1700 
1 3:2400 42:1100 53:1600 98:500 117:1600 148:800 
1 4:2000 15:2300 63:1200 85:1400 91:1800 
1 23:2200 34:2300 44:1200 61:1400 80:1800 112:1600 168:1700 175:800 
1 22:2000 46:1200 64:2400 73:1900 97:500 109:1600 120:1600 159:700 164:1700 172:800 
1 28:1900 57:1200 71:2200 84:1400 
1 16:2400 34:2300 38:2200 48:1200 58:1800 98:500 101:1000 
1 4:2000 56:1600 71:2200 122:1200 144:800 163:700 
1 22:2000 36:2300 68:2200 70:1700 93:700 103:1200 107:1200 141:800 
1 44:1200 68:2200 112:1600 
1 18:2200 30:2200 49:1200 56:1600 91:1800 114:1600 118:1600 137:800 173:800 174:800 
1 39:2000 45:1200 85:1400 88:1700 112:1600 121:1200 143:800 147:800 169:800 
1 7:2100 8:2000 47:1200 
1 23:2200 28:1900 70:1700 87:1200 108:1200 143:800 161:700 168:1700 
1 65:2400 78:2200 83:1400 
1 20:1800 31:2300 40:2300 54:1200 59:1200 78:2200 126:1200 149:800 174:800 
1 3:2400 32:2300 35:800 77:2200 117:1600 166:1700 
1 8:2000 18:2200 38:2200 111:1600 136:800 152:0 168:1700 
1 11:1000 59:1200 68:2200 90:1700 105:1200 151:0 160:700 172:800 
1 3:2400 27:1800 28:1900 64:2400 71:2200 150:0 
1 4:2000 90:1700 
1 12:1500 19:2200 70:1700 84:1400 160:700 174:800 
1 22:2000 24:2200 28:1900 47:1200 54:1200 87:1200 100:800 111:1600 167:1700 
1 25:2300 27:1800 74:1600 81:2000 98:500 111:1600 123:1200 129:800 
1 16:2400 85:1400 108:1200 
1 24:2200 33:2300 81:2000 106:1400 139:800 147:800 
1 22:2000 59:1200 110:1600 140:800 143:800 156:700 
1 26:2000 59:1200 83:1400 153:700 
1 45:1200 78:2200 112:1600 
1 1:1200 3:2400 121:1200 
1 65:2400 70:1700 167:1700 
1 80:1800 88:1700 94:700 104:1200 
1 29:2000 39:2000 42:1100 59:1200 77:2200 80:1800 92:700 148:800 174:800 
1 11:1000 33:2300 47:1200 81:2000 100:800 163:700 164:1700 
1 4:2000 45:1200 143:800 148:800 162:700 174:800 
1 50:1200 80:1800 138:800 
1 10:2400 24:2200 41:700 59:1200 83:1400 95:700 121:1200 139:800 149:800 
1 25:2300 36:2300 
1 30:2200 82:1400 110:1600 113:1600 138:800 174:800 
1 7:2100 28:1900 29:2000 72:1700 98:500 108:1200 121:1200 
1 12:1500 62:1200 111:1600 117:1600 138:800 173:800 
1 26:2000 40:2300 65:2400 122:1200 123:1200 134:800 157:700 173:800 
1 13:2200 46:1200 62:1200 77:2200 115:1600 
1 5:1600 36:2300 71:2200 80:1800 94:700 141:800 164:1700 
1 8:2000 16:2400 26:2000 49:1200 69:2500 73:1900 74:1600 128:500 139:800 161:700 
1 32:2300 51:1200 63:1200 94:700 99:800 110:1600 114:1600 150:0 168:1700 
1 3:2400 61:1400 69:2500 94:700 114:1600 125:1200 148:800 154:700 
1 29:2000 37:1700 111:1600 115:1600 125:1200 145:800 155:700 162:700 
1 63:1200 65:2400 66:2400 68:2200 85:1400 98:500 119:1600 130:800 156:700 164:1700 
1 4:2000 53:1600 66:2400 94:700 97:500 119:1600 122:1200 131:800 152:0 162:700 
1 19:2200 49:1200 53:1600 80:1800 108:1200 124:1200 133:800 146:800 167:1700 
1 5:1600 14:2000 38:2200 66:2400 79:2100 90:1700 99:800 124:1200 173:800 
1 9:1600 22:2000 108:1200 175:800 
1 36:2300 39:2000 112:1600 127:1500 
1 4:2000 18:2200 19:2200 50:1200 74:1600 111:1600 155:700 174:800 
1 15:2300 29:2000 47:1200 57:1200 58:1800 123:1200 126:1200 128:500 138:800 153:700 
1 16:2400 67:2200 80:1800 
1 6:1400 25:2300 68:2200 84:1400 118:1600 121:1200 138:800 
1 12:1500 24:2200 99:800 118:1600 151:0 155:700 
1 17:2000 31:2300 45:1200 80:1800 81:2000 94:700 102:1000 141:800 
1 4:2000 13:2200 27:1800 34:2300 46:1200 84:1400 92:700 107:1200 117:1600 
1 17:2000 56:1600 70:1700 73:1900 89:1700 120:1600 135:800 164:1700 
1 9:1600 24:2200 25:2300 37:1700 53:1600 61:1400 74:1600 90:1700 133:800 
1 60:1200 111:1600 
1 44:1200 54:1200 61:1400 73:1900 104:1200 106:1400 112:1600 124:1200 132:800 146:800 
1 3:2400 14:2000 48:1200 50:1200 113:1600 170:800 
1 17:2000 64:2400 73:1900 91:1800 166:1700 169:800 
1 10:2400 39:2000 42:1100 74:1600 102:1000 119:1600 121:1200 127:1500 154:700 156:700 
1 1:1200 18:2200 27:1800 65:2400 87:1200 91:1800 142:800 156:700 169:800 
1 5:1600 12:1500 60:1200 64:2400 66:2400 
1 3:2400 5:1600 15:2300 16:2400 27:1800 71:2200 100:800 117:1600 159:700 175:800 
1 18:2200 31:2300 69:2500 80:1800 100:800 104:1200 113:1600 119:1600 
1 24:2200 31:2300 83:1400 91:1800 
1 32:2300 44:1200 86:1500 123:1200 167:1700 
1 36:2300 62:1200 80:1800 85:1400 92:700 111:1600 138:800 172:800 
1 26:2000 52:1200 111:1600 
1 7:2100 20:1800 24:2200 30:2200 70:1700 111:1600 154:700 169:800 
1 1:1200 26:2000 36:2300 45:1200 123:1200 170:800 
1 24:2200 44:1200 68:2200 73:1900 105:1200 133:800 
1 24:2200 61:1400 76:2200 102:1000 109:1600 
1 38:2200 65:2400 71:2200 78:2200 86:1500 139:800 160:700 
1 15:2300 29:2000 49:1200 77:2200 84:1400 148:800 160:700 
1 33:2300 40:2300 48:1200 143:800 170:800 
1 24:2200 42:1100 116:1600 172:800 
1 2:1000 4:2000 45:1200 168:1700 
1 14:2000 16:2400 77:2200 84:1400 86:1500 89:1700 104:1200 134:800 166:1700 170:800 
1 90:1700 92:700 101:1000 118:1600 127:1500 154:700 168:1700 
1 77:2200 88:1700 91:1800 115:1600 148:800 159:700 171:800 
1 8:2000 18:2200 59:1200 84:1400 111:1600 121:1200 127:1500 157:700 
1 76:2200 85:1400 113:1600 139:800 158:700 
1 12:1500 16:2400 54:1200 79:2100 
1 12:1500 111:1600 119:1600 153:700 
1 15:2300 24:2200 46:1200 82:1400 86:1500 89:1700 148:800 
1 30:2200 40:2300 50:1200 58:1800 69:2500 72:1700 108:1200 
1 1:1200 39:2000 62:1200 67:2200 84:1400 90:1700 162:700 171:800 
1 15:2300 43:1200 85:1400 107:1200 158:700 165:1700 
1 16:2400 24:2200 31:2300 58:1800 59:1200 78:2200 90:1700 134:800 153:700 160:700 
1 25:2300 35:800 52:1200 69:2500 75:1600 108:1200 
1 22:2000 23:2200 48:1200 114:1600 138:800 142:800 149:800 166:1700 173:800 
1 15:2300 53:1600 56:1600 68:2200 77:2200 115:1600 121:1200 136:800 163:700 170:800 
1 42:1100 48:1200 62:1200 65:2400 68:2200 153:700 172:800 
1 32:2300 40:2300 66:2400 132:800 164:1700 
1 4:2000 77:2200 114:1600 124:1200 141:800 146:800 162:700 165:1700 
1 50:1200 54:1200 62:1200 64:2400 106:1400 113:1600 
1 25:2300 48:1200 75:1600 82:1400 93:700 
1 58:1800 61:1400 71:2200 80:1800 93:700 116:1600 130:800 
1 19:2200 30:2200 32:2300 38:2200 82:1400 162:700 
1 3:2400 10:2400 24:2200 54:1200 77:2200 93:700 96:500 107:1200 119:1600 157:700 
1 11:1000 38:2200 71:2200 73:1900 89:1700 108:1200 156:700 165:1700 
1 1:1200 14:2000 39:2000 61:1400 79:2100 82:1400 107:1200 120:1600 127:1500 156:700 
1 3:2400 28:1900 40:2300 44:1200 75:1600 112:1600 116:1600 154:700 171:800 
1 48:1200 78:2200 81:2000 144:800 147:800 167:1700 175:800 
1 33:2300 47:1200 82:1400 106:1400 108:1200 145:800 158:700 
1 24:2200 80:1800 
1 4:2000 20:1800 81:2000 93:700 144:800 
1 28:1900 38:2200 81:2000 138:800 
1 31:2300 51:1200 58:1800 66:2400 70:1700 158:700 167:1700 
1 10:2400 32:2300 86:1500 104:1200 154:700 169:800 
1 57:1200 76:2200 80:1800 88:1700 165:1700 173:800 
1 65:2400 75:1600 80:1800 81:2000 127:1500 155:700 166:1700 
1 17:2000 19:2200 65:2400 93:700 113:1600 158:700 
1 21:2200 24:2200 27:1800 74:1600 114:1600 122:1200 133:800 147:800 151:0 
1 44:1200 76:2200 91:1800 115:1600 141:800 167:1700 
1 52:1200 113:1600 
1 3:2400 20:1800 96:500 
1 17:2000 68:2200 71:2200 73:1900 98:500 116:1600 121:1200 
1 36:2300 68:2200 
1 12:1500 16:2400 77:2200 91:1800 106:1400 111:1600 116:1600 136:800 
1 24:2200 64:2400 116:1600 127:1500 
1 29:2000 32:2300 53:1600 66:2400 109:1600 169:800 
1 2:1000 16:2400 38:2200 54:1200 116:1600 149:800 
1 1:1200 32:2300 43:1200 52:1200 57:1200 64:2400 112:1600 113:1600 150:0 
1 37:1700 59:1200 84:1400 99:800 110:1600 115:1600 126:1200 130:800 142:800 166:1700 
1 43:1200 49:1200 79:2100 81:2000 84:1400 147:800 149:800 162:700 
1 8:2000 9:1600 72:1700 77:2200 83:1400 152:0 174:800 
1 37:1700 56:1600 116:1600 
1 4:2000 11:1000 13:2200 51:1200 61:1400 
1 13:2200 17:2000 50:1200 114:1600 146:800 158:700 
1 1:1200 29:2000 32:2300 67:2200 68:2200 84:1400 171:800 174:800 
1 8:2000 62:1200 69:2500 78:2200 87:1200 108:1200 173:800 
1 34:2300 49:1200 73:1900 118:1600 160:700 
1 27:1800 34:2300 45:1200 81:2000 111:1600 
1 58:1800 122:1200 
1 16:2400 18:2200 22:2000 56:1600 61:1400 84:1400 105:1200 119:1600 
1 3:2400 5:1600 21:2200 69:2500 127:1500 150:0 172:800 
1 32:2300 90:1700 167:1700 
1 22:2000 25:2300 87:1200 95:700 100:800 113:1600 137:800 168:1700 173:800 
1 3:2400 31:2300 37:1700 76:2200 81:2000 85:1400 136:800 150:0 163:700 175:800 
1 6:1400 28:1900 38:2200 50:1200 151:0 162:700 169:800 
1 8:2000 37:1700 52:1200 55:1200 60:1200 75:1600 117:1600 125:1200 161:700 
1 10:2400 27:1800 55:1200 130:800 174:800 
1 10:2400 82:1400 87:1200 124:1200 152:0 154:700 
1 37:1700 70:1700 72:1700 73:1900 89:1700 110:1600 151:0 174:800 
1 19:2200 34:2300 56:1600 64:2400 71:2200 76:2200 108:1200 126:1200 127:1500 129:800 
1 35:800 67:2200 68:2200 87:1200 111:1600 157:700 
1 17:2000 22:2000 40:2300 46:1200 62:1200 103:1200 113:1600 166:1700 174:800 
1 44:1200 66:2400 119:1600 147:800 154:700 166:1700 
1 30:2200 53:1600 54:1200 64:2400 85:1400 163:700 166:1700 
1 10:2400 56:1600 68:2200 80:1800 83:1400 85:1400 152:0 162:700 169:800 
1 3:2400 40:2300 82:1400 104:1200 
1 14:2000 24:2200 71:2200 72:1700 80:1800 97:500 100:800 105:1200 133:800 
1 12:1500 64:2400 
1 3:2400 29:2000 39:2000 63:1200 69:2500 91:1800 93:700 97:500 106:1400 
1 10:2400 42:1100 43:1200 47:1200 56:1600 69:2500 70:1700 72:1700 125:1200 153:700 
1 77:2200 79:2100 
1 3:2400 10:2400 21:2200 32:2300 69:2500 82:1400 90:1700 139:800 144:800 161:700 
1 10:2400 22:2000 24:2200 114:1600 119:1600 131:800 133:800 144:800 153:700 
1 12:1500 30:2200 76:2200 79:2100 117:1600 122:1200 140:800 
1 13:2200 43:1200 69:2500 111:1600 156:700 
1 8:2000 74:1600 78:2200 79:2100 111:1600 112:1600 113:1600 158:700 164:1700 169:800 
1 25:2300 68:2200 142:800 
1 40:2300 58:1800 115:1600 117:1600 120:1600 123:1200 133:800 137:800 169:800 
1 65:2400 82:1400 141:800 
1 27:1800 31:2300 62:1200 99:800 116:1600 124:1200 155:700 
1 20:1800 46:1200 86:1500 90:1700 148:800 167:1700 169:800 
1 1:1200 38:2200 58:1800 81:2000 123:1200 124:1200 147:800 
1 32:2300 36:2300 66:2400 105:1200 174:800 
1 19:2200 88:1700 
1 56:1600 63:1200 109:1600 111:1600 115:1600 133:800 154:700 164:1700 168:1700 
1 5:1600 10:2400 19:2200 30:2200 45:1200 136:800 150:0 151:0 164:1700 
1 17:2000 47:1200 50:1200 111:1600 117:1600 137:800 146:800 158:700 
1 9:1600 33:2300 
1 33:2300 49:1200 84:1400 112:1600 172:800 174:800 
1 59:1200 76:2200 91:1800 113:1600 137:800 
1 69:2500 84:1400 86:1500 90:1700 
1 22:2000 54:1200 109:1600 160:700 163:700 167:1700 171:800 172:800 
1 44:1200 64:2400 77:2200 
1 3:2400 27:1800 79:2100 89:1700 105:1200 115:1600 118:1600 135:800 163:700 166:1700 
1 6:1400 31:2300 40:2300 63:1200 69:2500 100:800 106:1400 126:1200 166:1700 
1 8:2000 69:2500 79:2100 100:800 105:1200 123:1200 
1 25:2300 26:2000 49:1200 60:1200 129:800 175:800 
1 9:1600 44:1200 85:1400 111:1600 150:0 
1 3:2400 34:2300 42:1100 58:1800 69:2500 73:1900 74:1600 78:2200 130:800 
1 4:2000 24:2200 145:800 
1 6:1400 60:1200 68:2200 77:2200 98:500 126:1200 
1 10:2400 14:2000 53:1600 64:2400 67:2200 80:1800 119:1600 161:700 165:1700 172:800 
1 26:2000 28:1900 46:1200 56:1600 66:2400 141:800 
1 29:2000 58:1800 105:1200 119:1600 152:0 167:1700 
1 9:1600 36:2300 53:1600 87:1200 90:1700 121:1200 
1 26:2000 70:1700 73:1900 85:1400 97:500 123:1200 156:700 158:700 
1 24:2200 75:1600 90:1700 97:500 147:800 
1 8:2000 19:2200 27:1800 82:1400 156:700 159:700 
1 9:1600 17:2000 30:2200 88:1700 139:800 
1 1:1200 16:2400 57:1200 72:1700 82:1400 128:500 130:800 165:1700 
1 4:2000 61:1400 77:2200 78:2200 86:1500 103:1200 110:1600 112:1600 147:800 172:800 
1 24:2200 27:1800 28:1900 
1 33:2300 45:1200 56:1600 79:2100 101:1000 146:800 
1 21:2200 25:2300 51:1200 90:1700 104:1200 105:1200 106:1400 126:1200 
1 18:2200 20:1800 74:1600 118:1600 122:1200 152:0 
1 48:1200 69:2500 83:1400 85:1400 110:1600 118:1600 128:500 163:700 
1 28:1900 34:2300 59:1200 73:1900 75:1600 98:500 112:1600 139:800 
1 17:2000 22:2000 92:700 93:700 104:1200 118:1600 130:800 161:700 
1 7:2100 20:1800 34:2300 85:1400 93:700 
1 19:2200 24:2200 
1 10:2400 31:2300 77:2200 119:1600 
1 10:2400 41:700 62:1200 64:2400 81:2000 139:800 142:800 173:800 
1 17:2000 65:2400 73:1900 108:1200 111:1600 143:800 154:700 171:800 
1 4:2000 8:2000 55:1200 59:1200 67:2200 87:1200 90:1700 109:1600 147:800 164:1700 
1 12:1500 26:2000 66:2400 174:800 
1 10:2400 32:2300 34:2300 37:1700 42:1100 55:1200 119:1600 139:800 
1 24:2200 32:2300 73:1900 84:1400 85:1400 88:1700 131:800 
1 3:2400 41:700 50:1200 76:2200 89:1700 94:700 111:1600 120:1600 
1 24:2200 25:2300 26:2000 36:2300 46:1200 62:1200 74:1600 97:500 144:800 164:1700 
1 40:2300 44:1200 78:2200 91:1800 139:800 150:0 161:700 172:800 173:800 
1 14:2000 34:2300 89:1700 107:1200 117:1600 119:1600 121:1200 146:800 157:700 
1 66:2400 67:2200 72:1700 84:1400 88:1700 103:1200 135:800 162:700 
1 29:2000 32:2300 45:1200 83:1400 96:500 106:1400 109:1600 
1 3:2400 8:2000 40:2300 47:1200 52:1200 98:500 103:1200 133:800 163:700 173:800 
1 60:1200 66:2400 125:1200 
1 54:1200 61:1400 69:2500 132:800 173:800 
1 32:2300 43:1200 52:1200 112:1600 
1 82:1400 112:1600 141:800 
1 3:2400 74:1600 
1 12:1500 30:2200 32:2300 36:2300 76:2200 139:800 
1 13:2200 18:2200 24:2200 41:700 58:1800 59:1200 102:1000 147:800 
1 27:1800 34:2300 58:1800 68:2200 99:800 120:1600 146:800 
1 18:2200 24:2200 52:1200 67:2200 70:1700 96:500 120:1600 174:800 
1 45:1200 71:2200 72:1700 78:2200 101:1000 131:800 143:800 161:700 172:800 
1 36:2300 39:2000 48:1200 77:2200 170:800 
1 65:2400 70:1700 94:700 123:1200 
1 21:2200 58:1800 77:2200 80:1800 88:1700 101:1000 119:1600 131:800 135:800 
1 26:2000 32:2300 51:1200 106:1400 117:1600 161:700 166:1700 
1 4:2000 22:2000 27:1800 39:2000 49:1200 68:2200 119:1600 153:700 
1 2:1000 10:2400 14:2000 15:2300 39:2000 59:1200 77:2200 78:2200 109:1600 
1 3:2400 16:2400 22:2000 71:2200 112:1600 135:800 147:800 156:700 165:1700 
1 14:2000 25:2300 
1 37:1700 80:1800 117:1600 
0.3642578125 36:2300 
1 23:2200 44:1200 67:2200 106:1400 130:800 
1 36:2300 71:2200 73:1900 84:1400 93:700 108:1200 128:500 143:800 
1 29:2000 37:1700 80:1800 86:1500 92:700 111:1600 
1 8:2000 38:2200 78:2200 117:1600 157:700 159:700 170:800 
1 10:2400 107:1200 
1 8:2000 31:2300 66:2400 84:1400 91:1800 153:700 167:1700 
1 5:1600 23:2200 25:2300 54:1200 64:2400 82:1400 114:1600 131:800 155:700 166:1700 
1 46:1200 65:2400 115:1600 119:1600 165:1700 
1 15:2300 69:2500 97:500 101:1000 114:1600 164:1700 171:800 
1 3:2400 68:2200 108:1200 154:700 
1 16:2400 18:2200 59:1200 91:1800 136:800 162:700 
1 3:2400 16:2400 50:1200 165:1700 
1 16:2400 28:1900 36:2300 89:1700 108:1200 118:1600 122:1200 126:1200 158:700 170:800 
1 9:1600 26:2000 63:1200 84:1400 86:1500 104:1200 114:1600 
1 24:2200 37:1700 46:1200 116:1600 123:1200 146:800 160:700 
1 27:1800 38:2200 69:2500 129:800 137:800 161:700 
1 59:1200 118:1600 
1 14:2000 60:1200 64:2400 71:2200 80:1800 85:1400 98:500 99:800 141:800 
1 3:2400 90:1700 
1 46:1200 112:1600 
1 4:2000 28:1900 47:1200 49:1200 84:1400 125:1200 159:700 160:700 
1 21:2200 49:1200 71:2200 87:1200 94:700 114:1600 132:800 155:700 167:1700 
1 14:2000 39:2000 65:2400 70:1700 78:2200 
1 48:1200 64:2400 83:1400 112:1600 115:1600 172:800 
1 31:2300 53:1600 70:1700 93:700 97:500 113:1600 124:1200 148:800 152:0 
1 56:1600 112:1600 
1 85:1400 108:1200 166:1700 
1 13:2200 16:2400 61:1400 73:1900 90:1700 135:800 170:800 
1 13:2200 27:1800 40:2300 63:1200 64:2400 137:800 159:700 169:800 
1 9:1600 109:1600 135:800 165:1700 
1 3:2400 23:2200 38:2200 98:500 105:1200 129:800 151:0 153:700 166:1700 
1 8:2000 57:1200 71:2200 77:2200 110:1600 135:800 
1 18:2200 62:1200 69:2500 118:1600 138:800 152:0 159:700 
1 28:1900 74:1600 99:800 106:1400 112:1600 116:1600 121:1200 161:700 165:1700 
1 16:2400 32:2300 56:1600 82:1400 165:1700 174:800 
1 9:1600 61:1400 67:2200 83:1400 
1 21:2200 59:1200 64:2400 99:800 107:1200 120:1600 158:700 
1 33:2300 65:2400 105:1200 111:1600 115:1600 124:1200 
1 31:2300 164:1700 
1 48:1200 116:1600 
1 27:1800 61:1400 81:2000 86:1500 108:1200 
1 6:1400 12:1500 22:2000 53:1600 93:700 105:1200 106:1400 114:1600 120:1600 
1 25:2300 37:1700 38:2200 75:1600 101:1000 105:1200 119:1600 136:800 162:700 
1 2:1000 4:2000 25:2300 74:1600 91:1800 97:500 104:1200 127:1500 129:800 
1 9:1600 10:2400 26:2000 57:1200 94:700 113:1600 123:1200 
1 15:2300 29:2000 71:2200 76:2200 84:1400 98:500 170:800 
1 4:2000 8:2000 69:2500 160:700 165:1700 
1 22:2000 50:1200 63:1200 67:2200 83:1400 107:1200 113:1600 140:800 143:800 159:700 
1 20:1800 39:2000 44:1200 111:1600 116:1600 161:700 173:800 
1 9:1600 56:1600 
1 29:2000 49:1200 69:2500 111:1600 123:1200 142:800 
1 1:1200 27:1800 29:2000 32:2300 48:1200 52:1200 78:2200 104:1200 169:800 174:800 
1 30:2200 44:1200 116:1600 142:800 165:1700 
1 1:1200 25:2300 90:1700 129:800 161:700 
1 58:1800 81:2000 87:1200 88:1700 114:1600 146:800 157:700 160:700 
1 12:1500 13:2200 68:2200 88:1700 101:1000 115:1600 142:800 167:1700 
1 3:2400 50:1200 175:800 
1 34:2300 53:1600 62:1200 84:1400 126:1200 135:800 154:700 157:700 
1 16:2400 66:2400 74:1600 76:2200 90:1700 134:800 163:700 165:1700 
1 19:2200 30:2200 91:1800 171:800 
1 13:2200 16:2400 23:2200 62:1200 65:2400 79:2100 117:1600 132:800 154:700 170:800 
1 23:2200 31:2300 68:2200 69:2500 75:1600 89:1700 92:700 93:700 143:800 152:0 
1 10:2400 29:2000 54:1200 55:1200 67:2200 87:1200 96:500 103:1200 132:800 
1 4:2000 8:2000 15:2300 59:1200 86:1500 113:1600 142:800 
1 23:2200 44:1200 71:2200 89:1700 147:800 164:1700 
1 64:2400 93:700 108:1200 
1 5:1600 29:2000 32:2300 37:1700 48:1200 78:2200 97:500 102:1000 141:800 
1 34:2300 45:1200 130:800 
1 15:2300 18:2200 30:2200 59:1200 89:1700 91:1800 92:700 100:800 140:800 166:1700 
1 7:2100 41:700 71:2200 97:500 108:1200 114:1600 140:800 149:800 165:1700 
1 8:2000 33:2300 55:1200 56:1600 105:1200 120:1600 131:800 149:800 151:0 160:700 
1 33:2300 42:1100 58:1800 102:1000 113:1600 117:1600 149:800 161:700 175:800 
1 12:1500 54:1200 55:1200 67:2200 75:1600 95:700 99:800 116:1600 126:1200 127:1500 
1 9:1600 10:2400 19:2200 27:1800 37:1700 72:1700 94:700 125:1200 152:0 174:800 
1 10:2400 12:1500 108:1200 112:1600 131:800 
1 5:1600 15:2300 22:2000 48:1200 49:1200 64:2400 118:1600 120:1600 129:800 168:1700 
1 41:700 57:1200 69:2500 85:1400 89:1700 108:1200 116:1600 147:800 
1 14:2000 17:2000 24:2200 79:2100 
1 19:2200 26:2000 41:700 42:1100 64:2400 98:500 108:1200 115:1600 
1 4:2000 14:2000 17:2000 73:1900 88:1700 
1 12:1500 15:2300 40:2300 58:1800 84:1400 120:1600 136:800 138:800 167:1700 170:800 
1 5:1600 73:1900 84:1400 114:1600 116:1600 125:1200 
1 11:1000 23:2200 24:2200 33:2300 38:2200 40:2300 90:1700 92:700 102:1000 124:1200 
1 3:2400 33:2300 34:2300 50:1200 66:2400 131:800 138:800 139:800 156:700 159:700 
1 17:2000 34:2300 81:2000 87:1200 96:500 102:1000 143:800 146:800 157:700 
1 3:2400 11:1000 17:2000 27:1800 29:2000 36:2300 93:700 102:1000 150:0 
1 12:1500 20:1800 24:2200 118:1600 169:800 
1 61:1400 71:2200 107:1200 120:1600 145:800 156:700 
1 3:2400 9:1600 
1 25:2300 69:2500 81:2000 89:1700 115:1600 
1 30:2200 36:2300 38:2200 75:1600 
1 44:1200 114:1600 162:700 
1 12:1500 75:1600 76:2200 84:1400 104:1200 117:1600 120:1600 127:1500 153:700 167:1700 
1 3:2400 47:1200 58:1800 172:800 
1 4:2000 46:1200 48:1200 67:2200 147:800 158:700 
1 24:2200 28:1900 32:2300 59:1200 101:1000 141:800 152:0 160:700 
1 15:2300 40:2300 60:1200 146:800 160:700 
1 43:1200 57:1200 117:1600 127:1500 164:1700 
1 33:2300 56:1600 75:1600 85:1400 
1 26:2000 27:1800 37:1700 49:1200 93:700 108:1200 120:1600 143:800 
1 6:1400 75:1600 76:2200 84:1400 105:1200 117:1600 124:1200 156:700 
1 13:2200 25:2300 38:2200 40:2300 48:1200 72:1700 77:2200 78:2200 86:1500 166:1700 
1 58:1800 80:1800 89:1700 90:1700 131:800 148:800 160:700 
1 12:1500 16:2400 24:2200 58:1800 59:1200 111:1600 140:800 150:0 153:700 
1 9:1600 10:2400 35:800 69:2500 89:1700 
1 14:2000 62:1200 104:1200 
1 39:2000 41:700 65:2400 98:500 106:1400 114:1600 147:800 157:700 
1 15:2300 25:2300 42:1100 73:1900 74:1600 116:1600 130:800 138:800 156:700 159:700 
1 30:2200 71:2200 77:2200 116:1600 157:700 168:1700 
1 19:2200 25:2300 43:1200 71:2200 80:1800 82:1400 96:500 109:1600 113:1600 157:700 
1 22:2000 33:2300 49:1200 57:1200 75:1600 115:1600 126:1200 131:800 134:800 
1 2:1000 3:2400 5:1600 59:1200 69:2500 88:1700 108:1200 137:800 140:800 155:700 
1 13:2200 24:2200 27:1800 70:1700 160:700 
1 5:1600 38:2200 60:1200 70:1700 87:1200 112:1600 119:1600 144:800 
1 22:2000 31:2300 71:2200 132:800 149:800 156:700 
1 3:2400 144:800 175:800 
1 44:1200 92:700 114:1600 115:1600 119:1600 149:800 
1 70:1700 80:1800 105:1200 
1 23:2200 25:2300 79:2100 83:1400 122:1200 133:800 146:800 148:800 166:1700 169:800 
1 7:2100 25:2300 46:1200 73:1900 78:2200 90:1700 152:0 
1 53:1600 78:2200 80:1800 162:700 172:800 
1 59:1200 69:2500 87:1200 98:500 106:1400 115:1600 142:800 161:700 
1 9:1600 15:2300 29:2000 30:2200 
1 51:1200 76:2200 116:1600 141:800 159:700 165:1700 
1 46:1200 115:1600 
1 8:2000 18:2200 19:2200 47:1200 72:1700 76:2200 109:1600 122:1200 145:800 
1 24:2200 70:1700 106:1400 109:1600 121:1200 146:800 
1 12:1500 66:2400 67:2200 79:2100 94:700 111:1600 150:0 153:700 166:1700 
1 19:2200 20:1800 60:1200 106:1400 153:700 
1 8:2000 9:1600 63:1200 64:2400 69:2500 113:1600 
1 43:1200 62:1200 68:2200 86:1500 97:500 105:1200 112:1600 130:800 
1 32:2300 94:700 115:1600 
1 4:2000 31:2300 63:1200 70:1700 105:1200 
1 18:2200 80:1800 89:1700 113:1600 174:800 
1 6:1400 36:2300 44:1200 55:1200 117:1600 127:1500 158:700 
1 1:1200 3:2400 16:2400 22:2000 24:2200 74:1600 79:2100 145:800 155:700 159:700 
1 2:1000 18:2200 60:1200 66:2400 67:2200 87:1200 147:800 158:700 
1 10:2400 37:1700 94:700 110:1600 115:1600 
1 33:2300 39:2000 53:1600 56:1600 115:1600 
1 7:2100 19:2200 30:2200 62:1200 79:2100 90:1700 121:1200 130:800 158:700 168:1700 
1 15:2300 27:1800 29:2000 56:1600 76:2200 81:2000 113:1600 129:800 175:800 
1 25:2300 27:1800 126:1200 130:800 
1 5:1600 27:1800 31:2300 45:1200 
1 7:2100 34:2300 66:2400 70:1700 96:500 108:1200 137:800 162:700 
1 3:2400 83:1400 91:1800 100:800 104:1200 108:1200 118:1600 162:700 165:1700 
1 9:1600 13:2200 38:2200 70:1700 125:1200 
1 4:2000 38:2200 65:2400 67:2200 92:700 118:1600 123:1200 135:800 147:800 154:700 
1 56:1600 74:1600 92:700 119:1600 150:0 
1 19:2200 31:2300 34:2300 47:1200 57:1200 69:2500 93:700 118:1600 163:700 171:800 
1 74:1600 116:1600 122:1200 158:700 
1 15:2300 32:2300 41:700 44:1200 46:1200 58:1800 69:2500 101:1000 122:1200 150:0 
1 13:2200 32:2300 41:700 88:1700 115:1600 130:800 165:1700 
1 10:2400 40:2300 71:2200 152:0 
1 24:2200 74:1600 78:2200 93:700 106:1400 139:800 158:700 165:1700 
1 9:1600 17:2000 41:700 53:1600 78:2200 105:1200 108:1200 156:700 157:700 
1 21:2200 26:2000 33:2300 80:1800 120:1600 171:800 
1 11:1000 13:2200 15:2300 65:2400 68:2200 78:2200 148:800 174:800 
1 27:1800 37:1700 68:2200 152:0 
1 10:2400 51:1200 58:1800 69:2500 98:500 99:800 111:1600 121:1200 147:800 
1 5:1600 22:2000 28:1900 52:1200 111:1600 114:1600 125:1200 128:500 129:800 157:700 
1 2:1000 14:2000 45:1200 78:2200 96:500 125:1200 136:800 173:800 
1 25:2300 70:1700 125:1200 162:700 168:1700 
1 64:2400 119:1600 
1 29:2000 44:1200 81:2000 86:1500 151:0 165:1700 172:800 
1 33:2300 79:2100 93:700 106:1400 114:1600 126:1200 140:800 143:800 165:1700 
1 8:2000 41:700 52:1200 56:1600 71:2200 72:1700 126:1200 135:800 142:800 155:700 
1 5:1600 62:1200 69:2500 72:1700 80:1800 105:1200 107:1200 123:1200 167:1700 171:800 
1 10:2400 44:1200 59:1200 109:1600 123:1200 152:0 
1 20:1800 55:1200 60:1200 64:2400 76:2200 116:1600 123:1200 
1 33:2300 36:2300 63:1200 77:2200 85:1400 
1 24:2200 117:1600 
1 2:1000 19:2200 27:1800 46:1200 127:1500 159:700 174:800 
1 14:2000 58:1800 165:1700 
1 11:1000 22:2000 49:1200 56:1600 71:2200 80:1800 89:1700 90:1700 131:800 161:700 
1 8:2000 9:1600 26:2000 34:2300 70:1700 71:2200 81:2000 128:500 143:800 
1 18:2200 47:1200 57:1200 69:2500 116:1600 122:1200 126:1200 164:1700 
1 13:2200 42:1100 82:1400 88:1700 110:1600 139:800 155:700 160:700 174:800 
1 81:2000 88:1700 118:1600 121:1200 
1 30:2200 63:1200 68:2200 87:1200 122:1200 170:800 
1 23:2200 70:1700 80:1800 93:700 149:800 160:700 
1 9:1600 18:2200 21:2200 30:2200 57:1200 79:2100 173:800 
1 59:1200 64:2400 80:1800 115:1600 159:700 
1 19:2200 25:2300 43:1200 51:1200 78:2200 88:1700 110:1600 159:700 
1 8:2000 15:2300 27:1800 76:2200 
1 22:2000 55:1200 63:1200 68:2200 75:1600 76:2200 95:700 121:1200 
1 32:2300 52:1200 80:1800 107:1200 126:1200 
1 5:1600 14:2000 26:2000 37:1700 60:1200 64:2400 65:2400 83:1400 160:700 
1 31:2300 51:1200 65:2400 69:2500 83:1400 99:800 118:1600 166:1700 172:800 175:800 
1 6:1400 25:2300 39:2000 65:2400 73:1900 88:1700 90:1700 100:800 129:800 170:800 
1 19:2200 58:1800 65:2400 69:2500 81:2000 140:800 147:800 174:800 
1 36:2300 
1 1:1200 52:1200 72:1700 76:2200 109:1600 132:800 159:700 
1 19:2200 71:2200 88:1700 100:800 162:700 171:800 
1 1:1200 26:2000 44:1200 66:2400 89:1700 92:700 106:1400 150:0 152:0 163:700 
1 10:2400 11:1000 12:1500 18:2200 21:2200 58:1800 108:1200 113:1600 
1 3:2400 14:2000 56:1600 64:2400 86:1500 
1 4:2000 14:2000 59:1200 88:1700 89:1700 
1 17:2000 18:2200 70:1700 
1 26:2000 63:1200 69:2500 108:1200 126:1200 135:800 142:800 150:0 
1 8:2000 21:2200 157:700 161:700 164:1700 168:1700 
1 3:2400 8:2000 17:2000 31:2300 52:1200 108:1200 113:1600 117:1600 162:700 170:800 
1 1:1200 16:2400 38:2200 62:1200 68:2200 85:1400 111:1600 132:800 137:800 
1 32:2300 53:1600 65:2400 72:1700 125:1200 152:0 156:700 163:700 
1 60:1200 80:1800 84:1400 174:800 
1 23:2200 53:1600 70:1700 84:1400 93:700 113:1600 174:800 175:800 
1 13:2200 15:2300 27:1800 40:2300 44:1200 96:500 160:700 
1 23:2200 68:2200 70:1700 116:1600 122:1200 149:800 160:700 162:700 165:1700 
1 52:1200 56:1600 63:1200 99:800 111:1600 116:1600 122:1200 130:800 141:800 156:700 
1 25:2300 76:2200 
1 6:1400 24:2200 28:1900 38:2200 47:1200 59:1200 73:1900 92:700 116:1600 170:800 
1 13:2200 25:2300 28:1900 29:2000 46:1200 96:500 99:800 110:1600 135:800 174:800 
1 23:2200 42:1100 65:2400 97:500 117:1600 128:500 173:800 175:800 
1 5:1600 19:2200 29:2000 47:1200 119:1600 175:800 
1 19:2200 60:1200 114:1600 
1 32:2300 38:2200 90:1700 
1 23:2200 88:1700 93:700 112:1600 168:1700 
1 16:2400 44:1200 67:2200 87:1200 94:700 167:1700 175:800 
1 21:2200 36:2300 40:2300 
1 30:2200 37:1700 43:1200 72:1700 120:1600 152:0 153:700 166:1700 
1 31:2300 42:1100 58:1800 59:1200 66:2400 138:800 
1 10:2400 129:800 
1 25:2300 27:1800 29:2000 37:1700 55:1200 65:2400 79:2100 83:1400 112:1600 136:800 
1 9:1600 42:1100 56:1600 88:1700 99:800 135:800 159:700 
1 8:2000 33:2300 50:1200 69:2500 
1 14:2000 17:2000 18:2200 25:2300 70:1700 76:2200 152:0 164:1700 165:1700 
1 19:2200 20:1800 74:1600 78:2200 93:700 97:500 102:1000 106:1400 117:1600 155:700 
1 15:2300 28:1900 39:2000 72:1700 80:1800 93:700 107:1200 111:1600 157:700 158:700 
1 3:2400 18:2200 67:2200 81:2000 101:1000 106:1400 125:1200 
1 25:2300 76:2200 92:700 96:500 119:1600 135:800 171:800 174:800 
1 39:2000 42:1100 69:2500 82:1400 
1 14:2000 87:1200 97:500 109:1600 136:800 
1 21:2200 28:1900 58:1800 
1 11:1000 27:1800 31:2300 33:2300 52:1200 107:1200 118:1600 122:1200 
1 1:1200 13:2200 32:2300 48:1200 70:1700 165:1700 
1 7:2100 38:2200 
1 10:2400 34:2300 37:1700 73:1900 88:1700 126:1200 
1 24:2200 39:2000 47:1200 57:1200 112:1600 123:1200 155:700 159:700 
1 4:2000 10:2400 41:700 43:1200 52:1200 86:1500 
1 25:2300 46:1200 66:2400 69:2500 93:700 129:800 154:700 
1 42:1100 66:2400 123:1200 135:800 
1 14:2000 54:1200 65:2400 157:700 172:800 
1 26:2000 30:2200 46:1200 119:1600 144:800 159:700 
1 54:1200 68:2200 86:1500 88:1700 97:500 122:1200 
1 5:1600 27:1800 62:1200 67:2200 136:800 161:700 171:800 
1 14:2000 85:1400 90:1700 
1 10:2400 14:2000 45:1200 73:1900 117:1600 169:800 
1 10:2400 13:2200 50:1200 96:500 98:500 115:1600 173:800 
1 3:2400 34:2300 52:1200 109:1600 148:800 
1 12:1500 57:1200 69:2500 86:1500 114:1600 122:1200 126:1200 128:500 
1 16:2400 49:1200 75:1600 123:1200 151:0 
1 45:1200 59:1200 65:2400 67:2200 92:700 113:1600 114:1600 136:800 145:800 158:700 
1 3:2400 28:1900 53:1600 88:1700 90:1700 127:1500 141:800 156:700 170:800 
1 13:2200 16:2400 27:1800 47:1200 72:1700 98:500 141:800 144:800 146:800 161:700 
1 33:2300 66:2400 
1 7:2100 19:2200 24:2200 25:2300 33:2300 34:2300 39:2000 59:1200 156:700 
1 17:2000 64:2400 
1 17:2000 27:1800 52:1200 54:1200 68:2200 75:1600 90:1700 129:800 164:1700 
1 4:2000 17:2000 44:1200 47:1200 48:1200 67:2200 80:1800 110:1600 146:800 170:800 
1 12:1500 14:2000 15:2300 23:2200 51:1200 80:1800 87:1200 88:1700 143:800 151:0 
1 14:2000 54:1200 60:1200 62:1200 66:2400 72:1700 88:1700 116:1600 
1 24:2200 31:2300 39:2000 48:1200 56:1600 64:2400 115:1600 131:800 139:800 
1 11:1000 22:2000 69:2500 78:2200 98:500 115:1600 135:800 139:800 163:700 
1 19:2200 43:1200 55:1200 57:1200 69:2500 82:1400 114:1600 
1 8:2000 33:2300 42:1100 88:1700 117:1600 173:800 
1 1:1200 21:2200 28:1900 39:2000 59:1200 69:2500 73:1900 126:1200 
1 3:2400 10:2400 51:1200 81:2000 159:700 
1 3:2400 26:2000 74:1600 82:1400 88:1700 163:700 
1 27:1800 40:2300 52:1200 65:2400 76:2200 125:1200 129:800 149:800 153:700 
1 18:2200 25:2300 42:1100 55:1200 141:800 149:800 
1 92:700 106:1400 108:1200 113:1600 120:1600 
1 8:2000 19:2200 48:1200 83:1400 84:1400 96:500 97:500 143:800 144:800 
1 45:1200 66:2400 76:2200 87:1200 146:800 163:700 
1 24:2200 30:2200 36:2300 66:2400 71:2200 96:500 100:800 143:800 166:1700 
1 14:2000 76:2200 81:2000 88:1700 90:1700 143:800 166:1700 
1 12:1500 25:2300 32:2300 37:1700 62:1200 112:1600 159:700 
1 26:2000 62:1200 91:1800 111:1600 113:1600 137:800 153:700 157:700 168:1700 
1 13:2200 33:2300 42:1100 69:2500 81:2000 90:1700 134:800 167:1700 170:800 
1 50:1200 67:2200 91:1800 105:1200 
1 1:1200 17:2000 37:1700 53:1600 68:2200 82:1400 93:700 127:1500 168:1700 
1 19:2200 29:2000 78:2200 156:700 170:800 
1 4:2000 68:2200 119:1600 131:800 137:800 150:0 166:1700 
1 10:2400 83:1400 87:1200 90:1700 107:1200 112:1600 125:1200 146:800 153:700 163:700 
1 10:2400 11:1000 32:2300 67:2200 89:1700 121:1200 153:700 158:700 
1 50:1200 53:1600 59:1200 78:2200 98:500 117:1600 124:1200 127:1500 140:800 142:800 
1 12:1500 14:2000 78:2200 80:1800 84:1400 111:1600 166:1700 168:1700 
1 21:2200 22:2000 69:2500 143:800 
1 10:2400 33:2300 43:1200 49:1200 68:2200 83:1400 109:1600 116:1600 157:700 
1 59:1200 65:2400 67:2200 94:700 119:1600 148:800 
1 12:1500 23:2200 33:2300 64:2400 87:1200 116:1600 119:1600 
1 12:1500 20:1800 21:2200 29:2000 41:700 57:1200 69:2500 114:1600 138:800 172:800 
1 39:2000 43:1200 58:1800 89:1700 93:700 116:1600 118:1600 132:800 169:800 
1 2:1000 10:2400 66:2400 68:2200 73:1900 88:1700 99:800 160:700 
1 16:2400 77:2200 83:1400 104:1200 114:1600 123:1200 154:700 175:800 
1 16:2400 17:2000 30:2200 167:1700 
1 10:2400 146:800 
1 48:1200 80:1800 
1 14:2000 71:2200 74:1600 112:1600 120:1600 174:800 
1 9:1600 41:700 47:1200 115:1600 119:1600 124:1200 137:800 
0.375 34:2300 
1 58:1800 67:2200 70:1700 71:2200 94:700 
1 9:1600 90:1700 
1 34:2300 36:2300 50:1200 79:2100 113:1600 124:1200 153:700 157:700 171:800 
1 25:2300 111:1600 129:800 
1 16:2400 26:2000 43:1200 53:1600 
