svm_type c_svc
kernel_type rbf
gamma 0.00571429
nr_class 2
total_sv 100
rho 0.529412
label 1 -1
nr_sv 32 68
SV
1 16:2400 17:2000 23:2200 44:1200 60:1200 67:2200 89:1700 118:1600 160:700 
1 3:2400 7:2100 11:1000 14:2000 84:1400 123:1200 130:800 
1 22:2000 26:2000 
1 7:2100 26:2000 32:2300 60:1200 82:1400 84:1400 103:1200 
1 8:2000 15:2300 16:2400 25:2300 70:1700 135:800 137:800 144:800 161:700 172:800 
1 9:1600 37:1700 61:1400 62:1200 75:1600 98:500 118:1600 141:800 
1 1:1200 4:2000 21:2200 38:2200 80:1800 122:1200 151:0 
1 14:2000 62:1200 73:1900 88:1700 104:1200 108:1200 109:1600 
1 1:1200 30:2200 40:2300 62:1200 107:1200 114:1600 155:700 
1 13:2200 61:1400 66:2400 79:2100 94:700 109:1600 174:800 
1 11:1000 16:2400 21:2200 36:2300 90:1700 115:1600 123:1200 145:800 172:800 
1 26:2000 68:2200 80:1800 119:1600 125:1200 143:800 171:800 173:800 
1 77:2200 97:500 117:1600 163:700 
1 9:1600 72:1700 83:1400 90:1700 108:1200 124:1200 131:800 152:0 
1 3:2400 24:2200 43:1200 66:2400 129:800 163:700 
1 7:2100 52:1200 76:2200 80:1800 95:700 121:1200 158:700 
1 12:1500 40:2300 51:1200 69:2500 105:1200 
1 12:1500 15:2300 25:2300 77:2200 79:2100 84:1400 86:1500 137:800 142:800 155:700 
1 21:2200 44:1200 49:1200 66:2400 81:2000 91:1800 104:1200 111:1600 164:1700 
1 7:2100 60:1200 64:2400 68:2200 80:1800 96:500 154:700 
1 49:1200 53:1600 84:1400 101:1000 105:1200 110:1600 122:1200 163:700 
1 30:2200 
1 10:2400 53:1600 57:1200 61:1400 72:1700 88:1700 115:1600 125:1200 165:1700 
1 1:1200 36:2300 52:1200 58:1800 94:700 105:1200 140:800 159:700 174:800 
1 24:2200 68:2200 78:2200 
1 38:2200 81:2000 89:1700 123:1200 174:800 
1 14:2000 49:1200 64:2400 80:1800 98:500 170:800 
1 15:2300 60:1200 72:1700 105:1200 108:1200 118:1600 164:1700 
1 26:2000 69:2500 79:2100 98:500 116:1600 117:1600 121:1200 130:800 139:800 151:0 
1 3:2400 46:1200 140:800 
1 7:2100 27:1800 47:1200 58:1800 67:2200 110:1600 150:0 162:700 
1 21:2200 29:2000 34:2300 45:1200 59:1200 72:1700 148:800 151:0 
-0.470703125 20:2000 36:2300 42:1200 49:1000 53:1800 64:2200 73:1900 95:1900 135:1400 
-0.470703125 4:1450 26:2300 32:2000 42:1200 141:1400 174:1000 
-0.470703125 66:1000 81:400 103:2100 107:1600 130:2500 139:2500 156:500 
-0.470703125 13:2000 34:2200 43:1600 82:800 95:1900 153:800 158:500 164:1700 173:1000 
-0.470703125 11:1500 18:1900 21:1700 45:400 78:2200 122:2500 159:1300 
-0.470703125 1:2000 63:900 85:1500 86:2100 112:1400 128:900 149:1400 160:500 162:500 
-0.470703125 1:2200 41:1400 58:1200 80:1000 82:700 99:2400 144:600 151:200 
-0.470703125 121:2500 
-0.470703125 63:2500 89:2100 
-0.470703125 11:1600 19:1800 37:1200 101:2200 124:700 141:1400 156:800 173:1000 
-0.470703125 20:2000 85:1500 104:1100 114:1400 147:1400 164:1700 
-0.470703125 6:2200 28:2200 41:800 46:400 49:1000 82:800 101:2200 133:1400 148:1400 174:1000 
-0.470703125 24:1100 163:2500 
-0.470703125 6:400 15:1700 19:400 47:2500 57:2500 59:2500 63:2500 120:200 156:650 
-0.470703125 33:1000 93:600 122:100 150:2500 152:2500 
-0.470703125 53:1800 56:600 74:2100 104:1100 136:1400 138:1400 153:800 
-0.470703125 125:800 139:2500 144:2500 145:2500 168:600 
-0.470703125 8:1800 81:1200 99:2400 165:1300 173:700 
-0.470703125 5:2200 24:1500 30:2100 31:2300 37:1200 101:2200 110:1400 136:1400 146:1400 166:1700 
-0.470703125 67:2200 102:2400 105:800 160:50 
-0.470703125 14:800 97:1800 
-0.470703125 76:2100 102:1300 143:300 150:2500 
-0.470703125 22:1300 34:2200 36:2300 63:900 103:1700 108:1100 139:1400 143:1400 149:1400 
-0.470703125 27:200 134:2500 136:2500 
-0.470703125 130:2500 
-0.470703125 63:200 109:2500 113:2500 137:800 171:600 
-0.470703125 131:2500 
-0.470703125 26:2300 88:1600 109:1400 140:1400 
-0.470703125 14:2100 18:2000 50:200 75:2100 86:2100 147:1400 149:1400 
-0.470703125 44:2500 48:2500 49:2500 92:1900 105:300 108:300 139:500 144:500 
-0.470703125 54:400 98:50 116:500 132:2500 136:2500 
-0.470703125 163:2500 
-0.4697265625 37:1700 81:400 128:2500 
-0.4697265625 26:2300 33:2000 102:1400 127:1200 172:1000 
-0.4697265625 70:1800 84:1200 146:1400 
-0.4697265625 116:2500 131:800 173:600 
-0.470703125 18:2000 29:2200 30:2100 57:1000 101:2200 134:1400 157:800 
-0.470703125 98:600 123:2500 141:1000 160:1300 175:700 
-0.470703125 165:1800 
-0.470703125 8:2100 67:2000 132:1400 140:1400 150:100 172:1000 174:1000 
-0.470703125 10:800 90:1700 124:1400 163:2500 
-0.470703125 5:2200 20:2000 56:600 74:2100 91:1600 99:1200 107:1100 118:1400 145:1400 148:1400 
-0.470703125 43:2400 45:2500 61:2500 75:0 79:1200 84:1800 90:2100 98:1000 106:300 
-0.470703125 9:1200 11:1600 40:1500 95:1900 107:1100 136:1400 160:500 
-0.470703125 54:700 74:2100 112:1400 133:1400 
-0.470703125 38:1900 45:2500 91:1400 150:200 154:650 175:600 
-0.470703125 5:2200 14:2100 17:2000 27:1600 41:800 63:900 85:1500 86:2100 
-0.470703125 140:2500 
-0.470703125 40:1100 45:2500 53:2500 77:1900 95:1900 155:650 
-0.470703125 6:2200 83:1900 100:1800 115:1400 120:1400 124:700 128:900 
-0.470703125 157:2500 167:1600 174:1000 
-0.470703125 5:2000 42:900 64:2300 68:400 103:500 109:2500 111:2500 114:2500 146:800 
-0.470703125 42:2400 44:2500 45:2500 49:2500 51:2500 67:200 97:1000 120:200 147:500 166:1800 
-0.470703125 40:1100 57:2500 63:2500 93:1900 94:1900 111:200 148:500 
-0.470703125 2:2100 27:1600 65:1800 112:1400 147:1400 
-0.470703125 95:1000 131:600 156:2500 
-0.470703125 66:1000 128:2500 139:2500 
-0.470703125 48:2500 61:2500 96:1000 158:100 
-0.470703125 34:1500 123:2500 
-0.470703125 27:2400 
-0.470703125 32:1400 44:400 145:2500 149:2500 
-0.470703125 54:2500 86:1500 98:1000 149:500 157:650 
-0.470703125 3:500 13:2200 51:400 76:2500 149:2500 151:800 
-0.470703125 2:2100 15:2100 97:0 121:700 141:1400 169:1000 170:1000 
-0.4697265625 44:2500 84:1800 125:250 148:500 
-0.4697265625 13:1500 112:2500 150:100 
-0.4697265625 60:2500 
-0.4697265625 42:1200 86:2100 140:1400 
