svm_type c_svc
kernel_type rbf
gamma 0.00571429
nr_class 2
total_sv 3075
rho 0.999023
label 1 -1
nr_sv 3 3072
SV
1 8:2000 40:2300 
1 39:2200 68:2200 
1 48:1000 71:2200 120:1800 
-0.0009765625 10:2400 31:2300 51:1200 55:1200 67:2200 122:1200 169:800 
-0.0009765625 58:1800 69:2500 
-0.0009765625 9:1600 58:1800 87:1200 94:700 98:500 120:1600 145:800 148:800 
-0.0009765625 2:1000 19:2200 26:2000 37:1700 53:1600 55:1200 61:1400 64:2400 80:1800 81:2000 
-0.0009765625 52:2500 61:2500 76:1900 106:300 152:200 
-0.0009765625 63:900 86:2100 131:1400 147:1400 155:800 158:500 
-0.0009765625 26:2300 70:1800 80:1600 127:1200 146:1400 174:1000 
-0.0009765625 7:2100 12:1500 58:1800 71:2200 72:1700 75:1600 117:1600 154:700 162:700 172:800 
-0.0009765625 23:2200 106:1400 113:1600 
-0.0009765625 113:500 156:2500 
-0.0009765625 9:1200 23:2100 133:1400 
-0.0009765625 53:400 128:2500 139:2500 
-0.0009765625 7:1400 36:900 48:2500 60:2500 61:2500 73:2200 143:500 148:500 165:1800 172:600 
-0.0009765625 5:2200 36:2300 105:1100 
-0.0009765625 119:2400 127:2500 
-0.0009765625 41:700 47:1200 57:1200 68:2200 82:1400 107:1200 108:1200 162:700 163:700 165:1700 
-0.0009765625 14:2000 17:2000 34:2300 47:1200 78:2200 110:1600 116:1600 134:800 
-0.0009765625 19:1800 32:1400 115:500 126:800 149:2500 151:800 152:800 
-0.0009765625 63:1200 64:2400 124:1200 
-0.0009765625 7:2100 12:1500 55:1200 58:1800 67:2200 68:2200 72:1700 109:1600 113:1600 
-0.0009765625 37:2200 59:2500 122:250 131:500 
-0.0009765625 2:2100 6:2200 11:1600 41:800 65:1800 69:1600 92:500 114:1400 148:1400 159:500 
-0.0009765625 68:1800 138:300 150:2500 
-0.0009765625 20:2000 36:2300 91:1600 92:500 95:1900 145:1400 166:1700 
-0.0009765625 1:2000 7:2300 12:1100 67:2000 132:1400 157:800 
-0.0009765625 17:900 42:2400 51:2500 63:2500 72:1800 98:1000 137:500 147:500 174:600 
-0.0009765625 2:2100 43:1600 66:1900 95:1900 112:1400 165:1700 
-0.0009765625 12:600 19:1800 56:1600 61:400 77:2500 97:50 108:1600 144:2500 146:2500 169:400 
-0.0009765625 2:2100 86:2100 100:1800 114:1400 157:800 161:500 
-0.0009765625 3:2400 36:2300 51:1200 102:1000 128:500 170:800 
-0.0009765625 14:1800 17:1800 35:2500 37:1600 98:400 145:1200 147:1200 
-0.0009765625 13:2200 25:2300 50:1200 54:1200 60:1200 107:1200 108:1200 154:700 157:700 
-0.0009765625 16:2400 48:1200 61:1400 80:1800 140:800 170:800 
-0.0009765625 18:1900 82:700 96:600 123:2500 175:700 
-0.0009765625 2:2100 109:1400 139:1400 
-0.0009765625 3:2400 58:1800 
-0.0009765625 1:1200 65:2400 82:1400 105:1200 113:1600 159:700 167:1700 
-0.0009765625 19:2200 106:1400 115:1600 169:800 
-0.0009765625 20:1300 79:1000 90:1400 155:2500 156:2500 165:1600 
-0.0009765625 21:2200 23:2200 42:1100 58:1800 104:1200 161:700 
-0.0009765625 7:1400 47:2500 48:2500 54:2500 62:2500 132:500 139:500 154:650 
-0.0009765625 12:1500 30:2200 31:2300 32:2300 68:2200 69:2500 91:1800 93:700 
-0.0009765625 39:2300 61:1500 84:1200 136:1400 159:500 
-0.0009765625 5:2200 36:2300 96:200 
-0.0009765625 42:900 112:2500 
-0.0009765625 70:1400 73:800 87:1400 104:1600 136:2500 159:250 
-0.0009765625 73:2000 158:1300 
-0.0009765625 15:2300 21:2200 29:2000 57:1200 69:2500 108:1200 131:800 145:800 166:1700 
-0.0009765625 23:2100 28:2200 45:200 75:2100 108:1100 132:1400 151:100 
-0.0009765625 13:2200 16:2400 18:2200 80:1800 118:1600 127:1500 136:800 167:1700 
-0.0009765625 60:400 130:2500 133:2500 170:400 
-0.0009765625 1:2000 35:2000 79:1400 130:1400 156:800 
-0.0009765625 31:1500 59:1200 68:2200 99:2400 149:600 151:200 165:1300 
-0.0009765625 7:2100 8:2000 9:1600 17:2000 50:1200 55:1200 155:700 
-0.0009765625 9:1600 85:1400 
-0.0009765625 4:2000 8:2000 24:2200 80:1800 109:1600 150:0 172:800 
-0.0009765625 16:2400 29:2000 40:2300 54:1200 70:1700 73:1900 128:500 
-0.0009765625 25:400 42:200 134:2500 139:2500 
-0.0009765625 51:1200 62:1200 85:1400 112:1600 119:1600 125:1200 142:800 158:700 
-0.0009765625 57:2500 
-0.0009765625 66:1300 98:1800 
-0.0009765625 10:2400 12:1500 15:2300 50:1200 74:1600 153:700 
-0.0009765625 6:2050 82:400 104:2500 105:2500 112:200 144:1700 166:500 
-0.0009765625 59:1200 71:2200 
-0.0009765625 2:1000 37:1700 50:1200 79:2100 92:700 99:800 111:1600 125:1200 132:800 139:800 
-0.0009765625 22:2000 32:2300 33:2300 93:700 162:700 172:800 
-0.0009765625 18:2200 39:2000 42:1100 107:1200 111:1600 165:1700 
-0.0009765625 14:2000 22:2000 65:2400 69:2500 79:2100 96:500 109:1600 146:800 
-0.0009765625 12:2200 23:1400 35:1500 62:2500 127:250 165:1800 
-0.0009765625 27:1800 34:2300 51:1200 64:2400 88:1700 106:1400 166:1700 170:800 
-0.0009765625 24:2200 85:1400 104:1200 118:1600 151:0 
-0.0009765625 2:2100 12:1100 66:1900 105:1100 
-0.0009765625 18:2200 40:2300 45:1200 50:1200 60:1200 116:1600 118:1600 129:800 163:700 173:800 
-0.0009765625 51:800 95:1900 102:1400 143:1400 146:1400 
-0.0009765625 8:2100 23:2100 36:2300 37:1200 70:1800 146:1400 148:1400 165:1700 
-0.0009765625 56:250 160:2500 
-0.0009765625 53:2500 61:2500 128:700 140:500 
-0.0009765625 2:750 11:2000 12:1000 51:650 154:2500 
-0.0009765625 29:2000 158:450 173:2500 
-0.0009765625 13:1300 37:2200 46:2500 78:1900 84:1800 94:1900 96:1000 125:250 174:600 
-0.0009765625 9:1200 11:1600 46:400 85:1500 89:1800 101:2200 136:1400 174:1000 
-0.0009765625 10:1800 41:800 100:1800 132:1400 
-0.0009765625 13:1300 42:2400 46:2500 108:300 
-0.0009765625 2:450 12:1800 16:1700 62:400 73:2000 87:1600 123:2500 163:1300 
-0.0009765625 31:1400 44:400 98:1300 102:200 158:450 172:2500 173:2500 
-0.0009765625 36:900 50:2500 53:2500 56:2500 62:2500 64:600 95:1900 96:1000 101:200 111:200 
-0.0009765625 71:1400 158:450 174:2500 
-0.0009765625 6:2400 26:1900 64:2300 118:2500 137:800 162:650 163:650 
-0.0009765625 14:2000 20:1800 33:2300 45:1200 78:2200 85:1400 94:700 114:1600 135:800 
-0.0009765625 15:2300 27:1800 40:2300 63:1200 154:700 175:800 
-0.0009765625 55:2500 
-0.0009765625 27:1600 33:2000 56:600 86:2100 95:1900 102:1400 135:1400 145:1400 
-0.0009765625 14:2000 25:2300 46:1200 127:1500 141:800 
-0.0009765625 107:1300 124:2500 
-0.0009765625 9:1600 66:2400 93:700 94:700 95:700 113:1600 114:1600 144:800 155:700 159:700 
-0.0009765625 4:2400 5:2000 96:100 111:2500 119:400 152:100 
-0.0009765625 10:2400 24:2200 78:2200 115:1600 125:1200 173:800 
-0.0009765625 78:2200 120:2400 156:650 
-0.0009765625 104:1600 129:2500 137:2500 
-0.0009765625 50:2500 96:1000 
-0.0009765625 37:1300 95:1700 99:2400 100:2400 111:500 
-0.0009765625 38:2500 76:2500 84:400 121:800 128:2500 
-0.0009765625 22:2000 23:2200 45:1200 71:2200 96:500 104:1200 
-0.0009765625 41:2400 90:2100 
-0.0009765625 108:2500 124:800 137:1700 
-0.0009765625 6:1400 40:2300 65:2400 79:2100 115:1600 120:1600 145:800 149:800 
-0.0009765625 5:1600 46:1200 47:1200 97:500 115:1600 141:800 161:700 
-0.0009765625 33:2300 51:1200 174:800 
-0.0009765625 49:1200 54:1200 65:2400 82:1400 103:1200 114:1600 136:800 146:800 154:700 
-0.0009765625 52:1200 57:1200 66:2400 85:1400 115:1600 143:800 153:700 157:700 162:700 
-0.0009765625 1:1200 19:2200 33:2300 37:1700 38:2200 45:1200 63:1200 92:700 99:800 113:1600 
-0.0009765625 101:2200 112:1400 
-0.0009765625 9:1600 127:1500 145:800 157:700 
-0.0009765625 20:1800 64:2400 66:2400 118:1600 122:1200 134:800 156:700 160:700 170:800 
-0.0009765625 71:1400 169:2500 
-0.0009765625 41:2400 77:1900 78:1900 82:1800 136:500 
-0.0009765625 18:1600 49:400 60:400 73:800 106:1600 125:800 131:2500 137:2500 142:2500 170:400 
-0.0009765625 25:2300 32:2300 44:1200 117:1600 126:1200 134:800 
-0.0009765625 31:1100 40:1700 46:400 111:500 114:500 124:800 128:2500 141:2500 142:2500 143:2500 
-0.0009765625 112:100 127:100 129:300 150:2500 152:2500 
-0.0009765625 30:2200 47:1200 115:1600 140:800 152:0 
-0.0009765625 45:2500 48:2500 59:2500 155:650 
-0.0009765625 2:450 53:400 97:600 120:2400 127:2500 132:1000 161:1300 
-0.0009765625 28:2200 43:1600 51:800 90:800 110:1400 119:1400 129:1400 130:1400 138:1400 155:800 
-0.0009765625 63:400 123:2500 144:1000 
-0.0009765625 7:2300 39:2300 61:1500 96:200 154:800 
-0.0009765625 3:2400 48:1200 76:2200 99:800 129:800 167:1700 
-0.0009765625 43:1000 155:2500 158:1400 
-0.0009765625 52:400 93:800 105:1600 139:2500 151:800 
-0.0009765625 82:1400 117:1600 122:1200 
-0.0009765625 70:1800 84:1800 
-0.0009765625 6:1400 14:2000 18:2200 22:2000 32:2300 41:700 67:2200 76:2200 102:1000 
-0.0009765625 14:2100 29:2200 43:1600 69:1600 81:1400 124:700 131:1400 147:1400 151:100 173:1000 
-0.0009765625 6:1400 21:2200 30:2200 48:1200 65:2400 86:1500 119:1600 136:800 154:700 168:1700 
-0.0009765625 44:2500 86:1500 172:600 
-0.0009765625 8:2000 34:2300 39:2000 58:1800 63:1200 90:1700 91:1800 97:500 103:1200 123:1200 
-0.0009765625 37:1700 57:300 61:300 76:2500 105:2500 108:2500 130:1700 
-0.0009765625 35:1500 52:2500 54:2500 65:600 66:600 89:2100 157:650 
-0.0009765625 8:2000 25:2300 66:2400 77:2200 147:800 
-0.0009765625 19:1900 122:2500 150:500 
-0.0009765625 91:800 107:1600 130:2500 146:2500 152:800 164:600 
-0.0009765625 27:200 35:400 58:400 105:1300 108:1300 119:2400 120:2400 121:2500 163:1300 166:1500 
-0.0009765625 2:450 11:1500 49:400 87:1600 95:700 122:2500 126:2500 128:1000 132:1000 
-0.0009765625 8:2100 32:2000 39:2300 88:1600 138:1400 153:800 155:800 
-0.0009765625 3:1500 5:2200 23:2100 43:1600 73:1900 100:1800 113:1400 167:1700 
-0.0009765625 26:800 47:650 154:2500 
-0.0009765625 8:2100 11:1600 27:1600 70:1800 74:2100 76:1600 102:1400 120:1400 165:1700 
-0.0009765625 49:2500 
-0.0009765625 3:2400 7:2100 76:2200 95:700 107:1200 114:1600 119:1600 121:1200 173:800 
-0.0009765625 5:2200 8:2100 24:1500 29:2200 43:1600 48:200 91:1600 148:1400 169:1000 
-0.0009765625 58:250 86:800 123:1400 130:750 136:750 139:750 158:2500 160:2500 
-0.0009765625 54:1200 62:1200 67:2200 80:1800 82:1400 120:1600 
-0.0009765625 21:2200 32:2300 46:1200 91:1800 114:1600 125:1200 167:1700 
-0.0009765625 6:2000 23:2500 30:1200 122:2500 129:1000 169:700 171:700 
-0.0009765625 83:1900 149:1400 
-0.0009765625 35:2000 54:700 70:1800 77:1600 81:1400 130:1400 145:1400 
-0.0009765625 3:2400 11:1000 93:700 116:1600 142:800 
-0.0009765625 3:2400 15:2300 44:1200 58:1800 82:1400 96:500 97:500 104:1200 137:800 
-0.0009765625 2:2100 23:2100 52:700 66:1900 86:2100 92:500 130:1400 133:1400 
-0.0009765625 12:1500 45:1200 116:1600 125:1200 143:800 156:700 165:1700 
-0.0009765625 110:500 156:2500 
-0.0009765625 16:2400 23:2200 33:2300 116:1600 136:800 
-0.0009765625 19:1800 28:2200 56:600 101:2200 
-0.0009765625 26:2300 28:2200 35:2000 61:1500 67:2000 128:900 175:1000 
-0.0009765625 38:2200 53:400 101:300 103:2200 126:2500 150:500 163:1300 
-0.0009765625 21:2100 41:2400 57:2500 95:1900 96:1000 124:250 135:500 162:100 
-0.0009765625 12:1500 19:2200 44:1200 54:1200 70:1700 71:2200 86:1500 120:1600 136:800 162:700 
-0.0009765625 4:2000 44:1200 50:1200 65:2400 71:2200 82:1400 93:700 107:1200 134:800 
-0.0009765625 2:1000 10:2400 16:2400 18:2200 21:2200 38:2200 61:1400 66:2400 160:700 173:800 
-0.0009765625 57:1000 80:1600 132:1400 167:1700 
-0.0009765625 34:2200 61:1500 67:2000 81:1400 144:1400 147:1400 
-0.0009765625 21:2200 22:2000 26:2000 40:2300 50:1200 52:1200 68:2200 75:1600 111:1600 158:700 
-0.0009765625 12:1500 15:2300 24:2200 108:1200 
-0.0009765625 13:2200 66:1000 82:400 83:400 96:50 130:2500 140:2500 146:2500 150:800 
-0.0009765625 14:2100 20:2000 39:2300 41:800 80:1600 121:700 138:1400 
-0.0009765625 42:1000 64:1300 67:1800 68:1800 133:300 150:2500 
-0.0009765625 65:2400 112:1600 165:1700 
-0.0009765625 18:2200 28:1900 34:2300 62:1200 84:1400 104:1200 147:800 170:800 
-0.0009765625 22:600 90:800 106:1600 132:2500 133:2500 
-0.0009765625 40:1600 121:2500 
-0.0009765625 32:1400 46:400 56:1600 74:0 111:500 122:800 140:2500 142:2500 148:2500 
-0.0009765625 33:2300 73:1900 77:2200 
-0.0009765625 22:1200 73:1700 156:2500 
-0.0009765625 5:2200 61:1500 110:1400 125:700 146:1400 
-0.0009765625 17:2200 32:1400 47:400 88:800 129:2500 139:2500 152:800 170:400 
-0.0009765625 10:2400 53:1600 55:1200 59:1200 72:1700 104:1200 110:1600 141:800 166:1700 
-0.0009765625 23:2200 67:2200 87:1200 118:1600 
-0.0009765625 4:1250 11:600 92:1300 113:1000 118:1000 137:200 151:100 162:450 172:2500 174:2500 
-0.0009765625 7:2100 25:2300 72:1700 80:1800 100:800 164:1700 
-0.0009765625 64:2200 115:1400 147:1400 149:1400 153:800 172:1000 
-0.0009765625 14:2100 30:2100 36:2300 41:800 43:1600 47:400 105:1100 116:1400 129:1400 156:800 
-0.0009765625 23:2500 84:700 85:700 86:1000 96:600 123:2500 126:2500 146:1000 159:1300 163:1300 
-0.0009765625 10:2400 64:2400 140:800 
-0.0009765625 1:2000 5:2200 20:2000 53:1800 61:1500 67:2000 122:700 134:1400 157:800 172:1000 
-0.0009765625 27:1800 43:1200 67:2200 76:2200 116:1600 119:1600 
-0.0009765625 41:2400 142:500 
-0.0009765625 9:1600 10:2400 30:2200 32:2300 62:1200 70:1700 75:1600 95:700 
-0.0009765625 12:2200 17:900 55:2500 57:2500 103:1800 
-0.0009765625 31:2400 65:1600 120:1600 137:750 147:750 159:2500 
-0.0009765625 79:1200 96:600 120:2400 141:1000 173:700 
-0.0009765625 18:2200 27:1800 80:1800 94:700 109:1600 148:800 159:700 162:700 168:1700 172:800 
-0.0009765625 66:1200 93:700 113:400 124:2500 141:1000 150:500 160:1300 
-0.0009765625 11:1600 30:2100 67:2000 
-0.0009765625 30:2200 48:1200 91:1800 111:1600 127:1500 131:800 155:700 
-0.0009765625 8:2000 33:2300 37:1700 47:1200 71:2200 120:1600 131:800 144:800 
-0.0009765625 88:1300 98:1800 150:2500 
-0.0009765625 19:600 154:2500 
-0.0009765625 3:2400 37:1700 71:2200 95:700 112:1600 118:1600 126:1200 138:800 171:800 
-0.0009765625 29:2000 68:2200 135:800 
-0.0009765625 6:400 46:2500 49:2500 86:1500 88:2100 142:500 152:200 
-0.0009765625 10:1800 53:1800 100:1800 136:1400 168:1700 173:1000 
-0.0009765625 2:2100 8:2100 26:2300 77:1600 82:800 105:1100 143:1400 159:500 164:1700 
-0.0009765625 30:2100 50:200 73:1900 83:1900 85:1500 93:100 101:2200 138:1400 169:1000 173:1000 
-0.0009765625 45:2500 83:1800 90:2100 93:1900 97:1000 105:300 150:200 
-0.0009765625 11:1200 20:500 56:2500 76:1900 84:1800 94:1900 99:300 143:500 
-0.0009765625 1:1300 31:2100 112:2500 
-0.0009765625 7:1400 85:1800 92:1900 
-0.0009765625 15:2300 20:1800 54:1200 57:1200 58:1800 65:2400 103:1200 142:800 144:800 158:700 
-0.0009765625 65:2400 68:2200 70:1700 90:1700 150:0 161:700 
-0.0009765625 5:2000 97:100 113:2500 
-0.0009765625 5:2200 29:2200 74:2100 81:1400 103:1700 120:1400 142:1400 149:1400 154:800 
-0.0009765625 69:1600 95:1900 101:2200 108:1100 130:1400 143:1400 154:800 171:1000 174:1000 
-0.0009765625 16:1400 23:2100 31:2300 94:600 97:0 100:1800 139:1400 142:1400 147:1400 160:500 
-0.0009765625 30:2200 38:2200 
-0.0009765625 13:2200 36:1400 72:1500 93:700 122:2500 171:700 
-0.0009765625 43:2400 60:2500 63:2500 87:1800 91:1400 101:200 115:200 119:200 134:500 167:1800 
-0.0009765625 70:1800 94:1900 95:1900 
-0.0009765625 24:2000 28:800 77:2200 124:2500 126:2500 130:1000 
-0.0009765625 57:2500 58:2500 90:2100 98:1000 157:650 173:600 
-0.0009765625 3:2400 10:2400 35:800 38:2200 109:1600 152:0 
-0.0009765625 10:2400 11:1000 12:1500 30:2200 50:1200 54:1200 66:2400 107:1200 172:800 
-0.0009765625 20:1800 34:2300 52:1200 150:0 156:700 
-0.0009765625 31:2400 51:250 80:400 115:500 128:750 134:750 154:800 159:2500 160:2500 
-0.0009765625 37:2200 48:2500 62:2500 71:200 86:1500 136:500 
-0.0009765625 6:2000 15:2000 123:2500 140:1000 
-0.0009765625 17:1900 113:2500 
-0.0009765625 1:2000 7:2300 36:2300 42:1200 60:700 66:1900 146:1400 
-0.0009765625 53:2500 61:2500 
-0.0009765625 29:2000 34:2300 45:1200 69:2500 87:1200 88:1700 125:1200 156:700 158:700 168:1700 
-0.0009765625 45:2500 49:2500 51:2500 70:1800 90:2100 128:700 
-0.0009765625 5:2200 13:2000 33:2000 35:2000 45:200 74:2100 90:800 104:1100 111:1400 133:1400 
-0.0009765625 140:600 157:2500 
-0.0009765625 36:1400 121:2500 171:700 
-0.0009765625 6:2000 29:900 80:0 92:700 122:2500 125:2500 126:2500 171:700 
-0.0009765625 2:1900 50:1200 69:1900 97:700 102:2400 124:500 151:200 159:50 174:700 
-0.0009765625 22:2300 41:2400 42:2400 58:2500 93:1900 117:200 142:500 146:500 159:100 165:1800 
-0.0009765625 19:2200 31:2300 58:1800 106:1400 111:1600 132:800 134:800 
-0.0009765625 9:1200 30:2100 47:400 88:1600 95:1900 108:1100 130:1400 138:1400 142:1400 
-0.0009765625 159:450 171:2500 
-0.0009765625 153:2500 160:1400 175:1000 
-0.0009765625 46:1200 114:1600 118:1600 124:1200 142:800 
-0.0009765625 28:1900 59:1200 64:2400 
-0.0009765625 17:2000 43:1600 61:1500 86:2100 101:2200 114:1400 128:900 136:1400 
-0.0009765625 4:2000 7:2100 9:1600 11:1000 20:1800 26:2000 49:1200 51:1200 72:1700 
-0.0009765625 10:100 33:1100 46:2500 54:2500 85:1800 93:1900 
-0.0009765625 101:200 163:2500 
-0.0009765625 71:800 108:1600 135:2500 
-0.0009765625 34:2300 42:1100 82:1400 94:700 117:1600 122:1200 144:800 154:700 
-0.0009765625 3:2400 120:1600 
-0.0009765625 44:2500 63:2500 93:1900 135:500 158:100 163:100 172:600 
-0.0009765625 14:800 70:1600 97:1300 158:450 160:450 170:2500 172:2500 
-0.0009765625 13:2200 46:1200 56:1600 67:2200 84:1400 130:800 175:800 
-0.0009765625 7:2300 18:2000 54:700 55:1200 64:2200 124:700 143:1400 148:1400 151:100 165:1700 
-0.0009765625 35:1500 54:2500 58:2500 
-0.0009765625 9:1600 12:1500 17:2000 54:1200 57:1200 80:1800 85:1400 108:1200 149:800 171:800 
-0.0009765625 26:2000 40:2300 78:2200 89:1700 102:1000 142:800 
-0.0009765625 32:2300 44:1200 63:1200 110:1600 155:700 161:700 167:1700 171:800 
-0.0009765625 44:2500 63:2500 134:500 
-0.0009765625 36:2300 60:700 101:2200 133:1400 137:1400 141:1400 145:1400 150:100 165:1700 
-0.0009765625 39:1500 50:2500 58:2500 61:2500 82:1800 93:1900 120:200 136:500 145:500 152:200 
-0.0009765625 34:1000 57:2500 153:650 167:1800 
-0.0009765625 2:750 32:1100 52:650 79:1000 87:800 102:800 144:600 155:2500 156:2500 157:2500 
-0.0009765625 30:1000 52:500 108:900 146:300 150:2500 151:2500 
-0.0009765625 15:2000 112:400 125:2500 146:1000 159:1300 
-0.0009765625 48:400 136:2500 150:800 175:400 
-0.0009765625 28:1300 62:2500 83:1800 84:1800 
-0.0009765625 8:1200 98:2200 
-0.0009765625 16:2400 27:1800 90:1700 125:1200 151:0 
-0.0009765625 43:2400 58:2500 61:2500 68:200 92:1900 150:200 161:100 
-0.0009765625 1:2200 74:1300 92:1700 
-0.0009765625 49:1200 71:2200 116:1600 
-0.0009765625 18:2000 55:1200 75:2100 91:1600 113:1400 143:1400 
-0.0009765625 15:2300 26:2000 44:1200 52:1200 67:2200 85:1400 103:1200 115:1600 142:800 158:700 
-0.0009765625 12:2200 47:2500 61:2500 95:1900 96:1000 
-0.0009765625 54:1200 56:1600 67:2200 77:2200 
-0.0009765625 26:2000 50:1200 58:1800 112:1600 161:700 
-0.0009765625 32:1400 33:1400 54:400 115:500 131:2500 132:2500 149:2500 150:800 
-0.0009765625 14:800 45:2500 58:2500 174:600 
-0.0009765625 52:1200 89:1700 104:1200 114:1600 144:800 
-0.0009765625 25:2300 48:1200 54:1200 102:1000 117:1600 150:0 
-0.0009765625 3:2400 34:2300 81:2000 149:800 153:700 161:700 172:800 
-0.0009765625 44:200 64:2300 112:2500 113:2500 
-0.0009765625 13:2200 26:2000 34:2300 66:2400 68:2200 103:1200 118:1600 174:800 
-0.0009765625 21:1700 22:1300 25:900 43:900 78:2200 103:2200 104:1300 105:1300 121:2500 125:2500 
-0.0009765625 22:1300 28:2200 54:700 86:2100 101:2200 133:1400 150:100 174:1000 
-0.0009765625 23:1800 28:1100 56:1600 59:400 95:800 147:2500 149:2500 
-0.0009765625 9:1600 20:1800 54:1200 70:1700 123:1200 170:800 
-0.0009765625 22:2000 25:2300 60:1200 65:2400 86:1500 115:1600 130:800 132:800 134:800 143:800 
-0.0009765625 40:2300 46:1200 55:1200 71:2200 77:2200 81:2000 117:1600 141:800 142:800 148:800 
-0.0009765625 44:400 136:2500 138:2500 
-0.0009765625 14:2100 18:2000 40:1500 75:2100 110:1400 148:1400 151:100 169:1000 
-0.0009765625 22:1300 43:1600 119:1400 139:1400 143:1400 168:1700 
-0.0009765625 64:2400 84:1400 104:1200 111:1600 115:1600 125:1200 132:800 158:700 
-0.0009765625 45:1200 74:1600 80:1800 114:1600 
-0.0009765625 11:400 44:400 80:0 133:2500 137:2500 140:2500 145:2500 148:2500 
-0.0009765625 31:2300 58:1800 86:1500 133:800 
-0.0009765625 9:1600 23:2200 32:2300 85:1400 98:500 117:1600 120:1600 137:800 164:1700 170:800 
-0.0009765625 2:2100 15:2100 16:1400 111:1400 135:1400 144:1400 153:800 
-0.0009765625 107:950 156:2500 168:1600 
-0.0009765625 47:400 103:2100 108:1600 120:200 134:2500 139:2500 148:2500 159:250 161:250 
-0.0009765625 4:2000 44:1200 115:1600 129:800 156:700 166:1700 
-0.0009765625 1:2000 7:2300 120:1400 128:900 
-0.0009765625 38:2200 52:1200 58:1800 100:800 116:1600 166:1700 
-0.0009765625 76:2500 130:2500 172:400 
-0.0009765625 8:2000 45:1200 59:1200 75:1600 76:2200 159:700 
-0.0009765625 28:1900 37:1700 60:1200 64:2400 79:2100 97:500 137:800 160:700 164:1700 170:800 
-0.0009765625 13:1300 27:2400 33:1100 35:1500 47:2500 54:2500 82:1800 103:1800 120:200 170:600 
-0.0009765625 80:1600 91:1600 97:0 144:1400 146:1400 
-0.0009765625 21:2100 56:2500 103:1800 
-0.0009765625 3:2400 7:2100 8:2000 32:2300 126:1200 131:800 140:800 
-0.0009765625 6:2200 73:1900 101:2200 112:1400 116:1400 118:1400 142:1400 149:1400 159:500 160:500 
-0.0009765625 12:1500 73:1900 93:700 109:1600 112:1600 139:800 
-0.0009765625 6:2200 42:1200 83:1900 88:1600 133:1400 135:1400 149:1400 155:800 164:1700 167:1700 
-0.0009765625 6:1700 65:1000 127:800 145:2500 147:2500 
-0.0009765625 10:2400 30:2200 47:1200 55:1200 88:1700 92:700 106:1400 151:0 157:700 163:700 
-0.0009765625 3:2400 11:1000 68:2200 174:800 
-0.0009765625 1:2000 27:1600 150:100 169:1000 170:1000 
-0.0009765625 24:2200 26:2000 79:2100 114:1600 118:1600 123:1200 139:800 143:800 144:800 170:800 
-0.0009765625 37:1700 46:1200 60:1200 106:1400 109:1600 159:700 
-0.0009765625 9:1600 25:2300 60:1200 101:1000 125:1200 
-0.0009765625 14:2000 30:2200 41:700 62:1200 67:2200 76:2200 105:1200 110:1600 140:800 167:1700 
-0.0009765625 6:2200 67:2000 77:1600 85:1500 103:1700 109:1400 116:1400 133:1400 
-0.0009765625 14:2000 27:1800 34:2300 38:2200 48:1200 77:2200 96:500 117:1600 153:700 158:700 
-0.0009765625 21:2100 59:2500 60:2500 61:2500 86:1500 105:300 130:500 138:500 159:100 
-0.0009765625 159:450 175:2500 
-0.0009765625 6:1300 59:650 154:2500 
-0.0009765625 26:2000 52:1200 115:1600 166:1700 175:800 
-0.0009765625 76:2200 126:2500 
-0.0009765625 41:700 156:2500 170:1000 
-0.0009765625 34:1800 41:800 83:700 90:1700 108:700 129:750 163:2500 
-0.0009765625 1:100 129:2500 134:2500 154:500 
-0.0009765625 14:1200 72:1500 160:2500 
-0.0009765625 108:950 109:2500 
-0.0009765625 11:1600 13:2000 37:1200 55:1200 67:2000 77:1600 101:2200 108:1100 129:1400 139:1400 
-0.0009765625 7:2300 35:2000 40:1500 65:1800 70:1800 99:1200 146:1400 148:1400 
-0.0009765625 48:1200 66:2400 101:1000 109:1600 110:1600 153:700 167:1700 
-0.0009765625 40:2300 65:2400 80:1800 112:1600 121:1200 134:800 
-0.0009765625 70:1800 88:2100 93:1900 
-0.0009765625 28:1200 41:700 66:400 82:400 99:300 106:2500 107:2500 128:2500 139:1700 172:600 
-0.0009765625 42:1100 69:2500 84:1400 106:1400 127:1500 132:800 143:800 162:700 166:1700 
-0.0009765625 29:2000 61:1400 106:1400 125:1200 154:700 165:1700 
-0.0009765625 75:0 117:500 122:1400 123:1400 141:750 158:2500 162:2500 
-0.0009765625 18:2200 27:1800 49:1200 81:2000 104:1200 153:700 169:800 
-0.0009765625 7:1400 16:400 49:2500 56:2500 69:400 73:2200 87:1800 88:2100 95:1900 98:1000 
-0.0009765625 23:2100 70:1800 155:800 168:1700 
-0.0009765625 33:2300 48:1200 73:1900 77:2200 111:1600 172:800 
-0.0009765625 26:2000 37:1700 69:2500 97:500 133:800 135:800 
-0.0009765625 31:2300 90:1700 94:700 109:1600 116:1600 154:700 160:700 
-0.0009765625 18:1600 48:2500 62:2500 93:1900 98:1000 
-0.0009765625 22:2000 40:2300 84:1400 123:1200 165:1700 
-0.0009765625 9:1200 57:1000 89:1800 102:1400 112:1400 131:1400 
-0.0009765625 3:2400 19:2200 28:1900 33:2300 57:1200 79:2100 112:1600 122:1200 139:800 143:800 
-0.0009765625 13:2000 75:2100 104:1100 170:1000 171:1000 174:1000 
-0.0009765625 4:2000 29:2000 84:1400 109:1600 116:1600 125:1200 151:0 157:700 161:700 
-0.0009765625 1:2200 35:1800 36:1600 50:1200 102:2400 111:500 
-0.0009765625 9:1600 60:1200 68:2200 69:2500 84:1400 121:1200 
-0.0009765625 21:2200 25:2300 45:1200 64:2400 81:2000 94:700 100:800 103:1200 109:1600 
-0.0009765625 3:2400 35:800 48:1200 58:1800 105:1200 
-0.0009765625 29:2000 39:2000 68:2200 71:2200 85:1400 93:700 96:500 105:1200 112:1600 131:800 
-0.0009765625 4:2400 46:200 74:200 91:1900 110:2500 111:2500 118:2500 174:600 
-0.0009765625 17:2000 34:2300 47:1200 50:1200 60:1200 76:2200 91:1800 100:800 105:1200 135:800 
-0.0009765625 28:1900 54:1200 60:1200 64:2400 127:1500 142:800 
-0.0009765625 26:2300 81:1400 114:1400 119:1400 141:1400 175:1000 
-0.0009765625 24:2200 30:2200 76:2200 79:2100 85:1400 148:800 164:1700 167:1700 
-0.0009765625 37:2200 96:1000 
-0.0009765625 6:1400 22:2000 64:2400 114:1600 118:1600 121:1200 123:1200 168:1700 
-0.0009765625 45:650 79:1000 144:600 154:2500 162:1400 
-0.0009765625 28:1900 68:2200 86:1500 92:700 169:800 
-0.0009765625 110:500 124:800 130:2500 147:2500 152:800 
-0.0009765625 2:1000 3:2400 6:1400 90:1700 117:1600 126:1200 
-0.0009765625 4:2000 5:1600 10:2400 71:2200 84:1400 89:1700 128:500 137:800 172:800 
-0.0009765625 18:2000 30:2100 32:2000 34:2200 138:1400 148:1400 149:1400 169:1000 
-0.0009765625 15:2100 23:2100 74:2100 170:1000 
-0.0009765625 14:2100 39:2300 61:1500 67:2000 137:1400 169:1000 
-0.0009765625 39:1500 49:2500 61:2500 77:1900 97:1000 162:100 
-0.0009765625 3:1500 22:1300 52:700 55:1200 83:1900 101:2200 103:1700 112:1400 148:1400 
-0.0009765625 147:2500 150:800 
-0.0009765625 13:2200 23:2200 25:2300 36:2300 57:1200 73:1900 158:700 
-0.0009765625 155:2500 157:2500 174:1000 
-0.0009765625 58:2500 76:1900 88:2100 
-0.0009765625 12:1800 21:1700 35:400 78:2200 89:1000 107:1300 119:2400 127:2500 160:1300 169:700 
-0.0009765625 26:2300 142:1400 
-0.0009765625 65:1000 76:2500 106:1600 137:2500 
-0.0009765625 16:2400 22:2000 30:2200 72:1700 111:1600 148:800 
-0.0009765625 34:2300 42:1100 51:1200 66:2400 
-0.0009765625 84:400 148:2500 
-0.0009765625 69:2500 90:1700 
-0.0009765625 62:2500 70:1800 89:2100 
-0.0009765625 19:1300 30:1300 161:2500 
-0.0009765625 4:2000 87:1200 
-0.0009765625 20:2100 40:1700 107:1600 129:2500 132:2500 140:2500 153:500 158:250 
-0.0009765625 5:1600 60:1200 63:1200 75:1600 77:2200 87:1200 124:1200 145:800 156:700 167:1700 
-0.0009765625 29:2200 41:800 54:700 65:1800 86:2100 102:1400 112:1400 116:1400 141:1400 173:1000 
-0.0009765625 6:2000 59:400 70:700 92:700 126:2500 129:1000 160:1300 175:700 
-0.0009765625 58:650 79:1000 105:950 106:950 125:700 147:600 153:2500 156:2500 158:1400 161:1400 
-0.0009765625 46:2500 56:2500 
-0.0009765625 85:400 145:2500 
-0.0009765625 29:800 58:2500 63:2500 92:1900 135:500 155:650 168:1800 
-0.0009765625 30:1200 39:2400 124:2500 142:1000 145:1000 152:500 163:1300 167:1500 174:700 
-0.0009765625 128:2500 170:600 
-0.0009765625 32:2300 36:2300 50:1200 61:1400 69:2500 106:1400 135:800 143:800 150:0 
-0.0009765625 33:1100 43:2400 89:2100 
-0.0009765625 3:2400 76:2200 112:1600 132:800 154:700 162:700 174:800 
-0.0009765625 8:800 38:2500 98:50 143:2500 144:2500 170:400 
-0.0009765625 4:2000 13:2200 28:1900 40:2300 45:1200 55:1200 66:2400 105:1200 167:1700 
-0.0009765625 15:1600 64:1000 114:500 132:2500 135:2500 151:800 
-0.0009765625 11:1600 35:2000 37:1200 56:600 120:1400 130:1400 133:1400 143:1400 171:1000 
-0.0009765625 14:2100 24:1500 31:2300 57:1000 89:1800 99:1200 105:1100 107:1100 130:1400 137:1400 
-0.0009765625 9:1600 40:2300 54:1200 55:1200 117:1600 130:800 171:800 175:800 
-0.0009765625 15:2300 89:1700 164:1700 
-0.0009765625 16:2400 20:1800 38:2200 39:2000 82:1400 106:1400 
-0.0009765625 47:2500 61:2500 70:1800 103:1800 111:200 132:500 
-0.0009765625 8:1200 70:700 103:2200 104:1300 127:2500 149:1000 163:1300 169:700 
-0.0009765625 16:1700 38:2200 50:400 90:1000 124:2500 159:1300 162:1300 
-0.0009765625 39:2300 175:2500 
-0.0009765625 45:1200 115:1600 124:1200 163:700 
-0.0009765625 4:2000 63:1200 65:2400 85:1400 132:800 172:800 
-0.0009765625 36:1500 86:800 152:300 161:2500 
-0.0009765625 10:2400 60:1200 77:2200 102:1000 127:1500 128:500 146:800 151:0 160:700 
-0.0009765625 19:400 49:2500 55:2500 87:1800 94:1900 107:300 143:500 
-0.0009765625 112:2500 114:2500 132:800 144:800 
-0.0009765625 20:2000 76:1600 83:1900 94:600 101:2200 117:1400 124:700 139:1400 170:1000 
-0.0009765625 25:2300 74:1600 105:1200 
-0.0009765625 4:2000 79:2100 154:700 
-0.0009765625 15:2300 68:2200 133:800 159:700 169:800 
-0.0009765625 26:300 33:1400 42:200 87:1400 105:1600 121:800 131:2500 133:2500 149:2500 
-0.0009765625 81:1100 122:2500 
-0.0009765625 30:2200 82:1400 114:1600 
-0.0009765625 84:1200 94:600 105:1100 109:1400 138:1400 175:1000 
-0.0009765625 13:2200 44:1200 66:2400 99:800 122:1200 
-0.0009765625 15:2100 26:2300 36:2300 53:1800 88:1600 126:700 129:1400 133:1400 161:500 165:1700 
-0.0009765625 85:1500 94:600 100:1800 144:1400 164:1700 
-0.0009765625 2:50 29:1800 39:2400 77:2500 90:300 106:2500 128:2500 129:1700 152:1000 
-0.0009765625 14:2000 22:2000 32:2300 37:1700 64:2400 65:2400 110:1600 139:800 143:800 162:700 
-0.0009765625 45:1200 65:2400 111:1600 122:1200 123:1200 139:800 
-0.0009765625 7:1600 77:2500 112:500 118:500 127:800 128:2500 143:2500 145:2500 
-0.0009765625 36:2300 56:1600 74:1600 84:1400 108:1200 156:700 
-0.0009765625 25:400 103:2100 131:2500 
-0.0009765625 15:1700 45:2500 46:2500 86:1500 101:200 144:500 
-0.0009765625 124:2500 127:2500 136:1000 173:700 
-0.0009765625 2:2100 105:1100 117:1400 134:1400 
-0.0009765625 36:1500 162:2500 
-0.0009765625 31:2400 38:1000 94:400 105:700 136:750 158:2500 161:2500 
-0.0009765625 11:1600 36:2300 83:1900 112:1400 164:1700 
-0.0009765625 20:1800 30:2200 38:2200 47:1200 56:1600 64:2400 140:800 
-0.0009765625 83:1900 86:2100 91:1600 137:1400 139:1400 154:800 
-0.0009765625 1:2200 47:1200 52:1200 91:2000 100:2400 121:500 128:600 151:200 
-0.0009765625 44:2500 84:1800 148:500 166:1800 173:600 
-0.0009765625 15:2300 16:2400 41:700 76:2200 84:1400 90:1700 109:1600 139:800 147:800 
-0.0009765625 31:1100 130:2500 131:2500 135:2500 162:250 
-0.0009765625 49:2500 76:1900 166:1800 174:600 
-0.0009765625 55:400 91:800 107:1600 135:2500 
-0.0009765625 6:2100 39:2300 48:400 
-0.0009765625 59:800 77:2300 97:2200 98:2200 
-0.0009765625 7:2300 35:2000 80:1600 86:2100 147:1400 154:800 169:1000 
-0.0009765625 19:2200 32:2300 60:1200 89:1700 96:500 100:800 108:1200 167:1700 
-0.0009765625 15:1800 63:650 74:0 93:1000 109:700 125:700 153:2500 155:2500 169:1000 171:1000 
-0.0009765625 15:2100 34:2200 104:1100 130:1400 156:800 160:500 
-0.0009765625 10:2400 13:2200 48:1200 125:1200 155:700 
-0.0009765625 51:1200 111:1600 
-0.0009765625 6:2200 29:2200 96:200 140:1400 
-0.0009765625 34:1800 114:2500 145:800 
-0.0009765625 67:2200 81:2000 126:1200 136:800 
-0.0009765625 15:2000 34:1500 76:2200 99:400 124:2500 140:1000 
-0.0009765625 47:1200 56:1600 57:1200 65:2400 76:2200 118:1600 146:800 172:800 
-0.0009765625 37:2200 90:2100 137:500 
-0.0009765625 1:2200 67:2200 79:1100 99:2400 
-0.0009765625 12:1100 15:2100 18:2000 75:2100 84:1200 98:100 132:1400 137:1400 148:1400 173:1000 
-0.0009765625 43:1300 69:1000 131:300 151:2500 
-0.0009765625 14:800 20:500 51:2500 57:2500 92:1900 
-0.0009765625 19:2200 30:2200 34:2300 50:1200 59:1200 63:1200 102:1000 104:1200 158:700 
-0.0009765625 40:1700 132:2500 
-0.0009765625 46:400 77:2200 122:2500 163:1300 
-0.0009765625 10:2400 57:1200 147:800 175:800 
-0.0009765625 69:500 70:1400 109:500 128:2500 140:2500 147:2500 
-0.0009765625 12:1800 39:2400 59:400 88:1000 106:1300 121:2500 131:1000 151:500 
-0.0009765625 98:1800 124:100 152:2500 
-0.0009765625 133:600 156:2500 158:1400 
-0.0009765625 68:2200 100:2400 143:600 
-0.0009765625 77:2500 172:600 
-0.0009765625 83:400 129:2500 140:2500 142:2500 171:400 174:400 
-0.0009765625 9:1200 17:2000 28:2200 33:2000 34:2200 148:1400 156:800 
-0.0009765625 5:2200 20:2000 59:0 80:1600 100:1800 167:1700 171:1000 
-0.0009765625 72:1700 103:1700 114:1400 134:1400 
-0.0009765625 28:1900 66:2400 123:1200 156:700 
-0.0009765625 45:2500 90:2100 110:200 172:600 
-0.0009765625 10:2400 45:1200 88:1700 137:800 152:0 
-0.0009765625 15:1700 45:2500 139:500 
-0.0009765625 9:1600 10:2400 62:1200 65:2400 91:1800 109:1600 
-0.0009765625 35:2000 60:700 100:1800 103:1700 119:1400 162:500 
-0.0009765625 24:1500 30:2100 60:700 75:2100 99:1200 145:1400 
-0.0009765625 26:1000 31:2400 130:750 156:800 159:2500 
-0.0009765625 2:2100 11:1600 13:2000 32:2000 36:2300 71:1300 95:1900 158:500 165:1700 
-0.0009765625 31:2300 89:1800 106:1200 110:1400 141:1400 145:1400 
-0.0009765625 34:1000 61:2500 85:1800 87:1800 91:1400 152:200 
-0.0009765625 14:2000 39:2000 50:1200 82:1400 107:1200 109:1600 139:800 151:0 161:700 
-0.0009765625 16:2400 18:2200 52:1200 63:1200 65:2400 69:2500 94:700 106:1400 121:1200 127:1500 
-0.0009765625 151:2500 166:400 
-0.0009765625 15:2000 21:1700 42:600 121:2500 152:500 
-0.0009765625 41:700 70:1400 104:2500 135:1700 
-0.0009765625 61:400 123:2500 
-0.0009765625 80:1800 85:1400 
-0.0009765625 164:1800 
-0.0009765625 66:1900 74:2100 75:2100 100:1800 145:1400 
-0.0009765625 31:2300 95:1900 143:1400 
-0.0009765625 45:2500 46:2500 107:300 
-0.0009765625 3:2400 58:1800 60:1200 83:1400 116:1600 141:800 157:700 
-0.0009765625 41:2400 55:2500 75:0 95:1900 
-0.0009765625 10:2400 65:2400 86:1500 96:500 119:1600 
-0.0009765625 3:2400 35:800 48:1200 66:2400 77:2200 82:1400 89:1700 124:1200 151:0 
-0.0009765625 24:2200 70:1700 82:1400 91:1800 103:1200 108:1200 136:800 154:700 169:800 
-0.0009765625 21:2200 58:1800 61:1400 108:1200 143:800 158:700 
-0.0009765625 33:2000 40:1500 55:1200 75:2100 77:1600 92:500 101:2200 132:1400 142:1400 
-0.0009765625 2:450 122:2500 
-0.0009765625 20:2000 26:2300 28:2200 57:1000 61:1500 76:1600 99:1200 143:1400 158:500 
-0.0009765625 21:2200 66:2400 67:2200 77:2200 97:500 109:1600 144:800 146:800 166:1700 168:1700 
-0.0009765625 12:2200 54:2500 87:1800 139:500 
-0.0009765625 20:1800 22:2000 38:2200 52:1200 60:1200 75:1600 84:1400 97:500 163:700 
-0.0009765625 6:2400 8:1500 110:2500 118:2500 120:400 
-0.0009765625 105:1300 127:2500 172:700 
-0.0009765625 6:1400 20:1800 24:2200 32:2300 62:1200 108:1200 111:1600 132:800 144:800 160:700 
-0.0009765625 37:2200 
-0.0009765625 60:2500 85:1800 92:1900 95:1900 140:500 149:500 174:600 
-0.0009765625 30:1000 31:200 63:500 68:1800 97:1800 98:1800 152:2500 157:100 
-0.0009765625 2:2100 21:1800 94:600 117:1400 136:1400 137:1400 163:500 
-0.0009765625 1:500 107:2500 139:1700 
-0.0009765625 4:2000 24:2200 38:2200 70:1700 71:2200 76:2200 88:1700 93:700 118:1600 168:1700 
-0.0009765625 20:2100 145:2500 152:800 
-0.0009765625 8:2000 30:2200 41:700 65:2400 76:2200 81:2000 88:1700 130:800 
-0.0009765625 48:2500 94:1900 161:100 
-0.0009765625 44:400 126:800 130:2500 146:2500 173:400 
-0.0009765625 2:1000 55:1200 65:2400 78:2200 94:700 98:500 115:1600 117:1600 119:1600 151:0 
-0.0009765625 11:1000 14:2000 21:2200 65:2400 67:2200 70:1700 78:2200 134:800 150:0 
-0.0009765625 1:2000 21:1800 74:2100 96:200 101:2200 107:1100 112:1400 148:1400 
-0.0009765625 48:1200 64:2400 77:2200 88:1700 116:1600 132:800 140:800 157:700 
-0.0009765625 7:2100 10:2400 21:2200 49:1200 126:1200 127:1500 
-0.0009765625 94:1300 105:100 169:2500 173:2500 
-0.0009765625 117:2500 
-0.0009765625 54:1200 101:2400 171:700 
-0.0009765625 16:1700 76:2200 106:1300 107:1300 125:2500 
-0.0009765625 2:2100 27:1600 73:1900 121:700 133:1400 158:500 173:1000 
-0.0009765625 104:2500 148:1700 152:1000 
-0.0009765625 92:2500 
-0.0009765625 4:1450 5:2200 7:2300 33:2000 123:700 141:1400 
-0.0009765625 41:2400 45:2500 58:2500 68:200 122:250 136:500 
-0.0009765625 22:2000 40:2300 60:1200 71:2200 138:800 149:800 155:700 
-0.0009765625 10:2400 63:1200 69:2500 110:1600 
-0.0009765625 3:500 6:1700 45:400 106:1600 135:2500 144:2500 169:400 170:400 
-0.0009765625 17:2000 21:2200 24:2200 80:1800 116:1600 140:800 146:800 153:700 163:700 
-0.0009765625 45:400 87:1600 89:1000 107:1300 119:2400 135:1000 139:1000 158:1300 
-0.0009765625 101:2200 111:1400 126:700 145:1400 147:1400 
-0.0009765625 9:300 34:1000 42:2400 52:2500 93:1900 131:500 154:650 
-0.0009765625 43:1000 94:2500 97:2200 162:100 
-0.0009765625 20:2100 30:1300 60:400 78:2500 91:800 105:1600 117:500 121:800 135:2500 141:2500 
-0.0009765625 10:2400 13:2200 58:1800 64:2400 65:2400 76:2200 83:1400 97:500 108:1200 172:800 
-0.0009765625 16:2400 114:1600 169:800 
-0.0009765625 15:2300 33:2300 43:1200 45:1200 99:800 120:1600 143:800 150:0 155:700 160:700 
-0.0009765625 20:2000 28:2200 112:1400 166:1700 171:1000 
-0.0009765625 58:1800 117:1600 154:700 167:1700 
-0.0009765625 41:800 55:1200 56:600 75:2100 102:1400 117:1400 128:900 134:1400 171:1000 
-0.0009765625 2:1800 12:2000 45:700 129:1200 
-0.0009765625 100:1800 120:1400 137:1400 
-0.0009765625 16:2400 29:2000 37:1700 46:1200 148:800 165:1700 
-0.0009765625 151:2500 
-0.0009765625 10:2400 25:2300 67:2200 133:800 152:0 154:700 
-0.0009765625 99:400 123:2500 125:2500 
-0.0009765625 38:2200 42:1100 71:2200 73:1900 112:1600 146:800 147:800 
-0.0009765625 16:2400 30:2200 70:1700 81:2000 91:1800 93:700 140:800 141:800 151:0 
-0.0009765625 48:2500 58:2500 72:1800 108:300 
-0.0009765625 85:700 150:2500 
-0.0009765625 17:2200 57:400 107:1600 114:500 123:800 131:2500 
-0.0009765625 58:2500 77:1900 164:1800 
-0.0009765625 52:1200 64:2400 72:1700 77:2200 88:1700 97:500 121:1200 
-0.0009765625 28:1900 68:2200 75:1600 77:2200 146:800 158:700 
-0.0009765625 22:2300 49:2500 73:2200 90:2100 95:1900 108:300 124:250 163:100 
-0.0009765625 54:2500 59:2500 65:600 83:1800 86:1500 92:1900 94:1900 104:300 120:200 
-0.0009765625 3:2500 86:200 109:2500 111:2500 
-0.0009765625 18:2200 25:2300 42:1100 65:2400 103:1200 107:1200 128:500 163:700 
-0.0009765625 2:1000 19:2200 23:2200 24:2200 46:1200 50:1200 80:1800 115:1600 126:1200 168:1700 
-0.0009765625 7:1400 61:2500 
-0.0009765625 108:1300 127:2500 144:1000 154:650 160:1300 
-0.0009765625 31:2300 41:700 116:1600 166:1700 
-0.0009765625 35:700 56:1900 123:800 135:1700 
-0.0009765625 30:1500 42:1400 62:1200 63:1200 101:2400 102:2400 152:200 159:50 163:50 165:1300 
-0.0009765625 39:2000 54:1200 77:2200 81:2000 101:1000 110:1600 122:1200 134:800 150:0 153:700 
-0.0009765625 13:2200 40:1700 105:1600 113:500 145:2500 156:500 
-0.0009765625 29:2000 51:1200 65:2400 
-0.0009765625 13:2200 23:2200 41:700 54:1200 116:1600 125:1200 
-0.0009765625 11:200 21:1400 22:1400 78:2100 93:600 144:300 150:2500 151:2500 153:100 
-0.0009765625 44:2500 149:500 
-0.0009765625 4:2000 12:1500 19:2200 76:2200 85:1400 121:1200 127:1500 155:700 173:800 
-0.0009765625 87:800 155:2500 
-0.0009765625 6:400 22:2300 41:2400 45:2500 92:1900 98:1000 127:250 
-0.0009765625 9:1600 18:2200 23:2200 57:1200 122:1200 166:1700 
-0.0009765625 9:0 105:1600 123:800 133:2500 145:2500 157:500 
-0.0009765625 40:1700 45:400 62:400 73:800 76:2500 105:1600 130:2500 134:2500 
-0.0009765625 40:1100 49:2500 90:2100 137:500 165:1800 171:600 
-0.0009765625 12:1500 61:1400 64:2400 70:1700 73:1900 111:1600 
-0.0009765625 9:600 105:2500 122:800 134:1700 
-0.0009765625 11:1000 13:2200 22:2000 27:1800 39:2000 82:1400 163:700 173:800 
-0.0009765625 1:1200 25:2300 80:1800 92:700 115:1600 127:1500 151:0 152:0 
-0.0009765625 10:1900 105:950 111:2500 132:800 163:650 
-0.0009765625 3:2500 64:2300 
-0.0009765625 78:2500 134:2500 
-0.0009765625 47:1200 52:1200 68:2200 74:1600 
-0.0009765625 5:2100 13:2200 20:2500 42:600 45:400 51:400 54:400 123:2500 127:2500 
-0.0009765625 3:2400 33:2300 104:1200 105:1200 136:800 140:800 157:700 159:700 167:1700 
-0.0009765625 11:1000 30:2200 49:1200 68:2200 74:1600 154:700 
-0.0009765625 5:1600 29:2000 33:2300 91:1800 108:1200 162:700 
-0.0009765625 65:2400 
-0.0009765625 28:1900 42:1100 81:2000 
-0.0009765625 2:1000 44:1200 60:1200 69:2500 72:1700 112:1600 119:1600 157:700 173:800 
-0.0009765625 61:1500 76:1600 101:2200 105:1100 138:1400 149:1400 153:800 163:500 
-0.0009765625 30:2200 56:1600 66:2400 131:800 165:1700 
-0.0009765625 8:2000 9:1600 37:1700 58:1800 60:1200 75:1600 79:2100 120:1600 156:700 159:700 
-0.0009765625 78:1600 86:2100 103:1700 153:800 
-0.0009765625 55:650 155:2500 
-0.0009765625 2:2100 19:1800 48:200 83:1900 107:1100 112:1400 137:1400 151:100 167:1700 172:1000 
-0.0009765625 146:2500 
-0.0009765625 4:2000 15:2300 16:2400 50:1200 66:2400 84:1400 110:1600 139:800 155:700 158:700 
-0.0009765625 20:2100 59:400 96:50 104:1600 109:500 147:2500 
-0.0009765625 8:1200 50:400 103:2200 120:2400 
-0.0009765625 65:1000 146:2500 
-0.0009765625 16:2400 26:2000 44:1200 48:1200 52:1200 75:1600 82:1400 110:1600 135:800 
-0.0009765625 159:2500 
-0.0009765625 47:2500 
-0.0009765625 9:1600 12:1500 33:2300 82:1400 83:1400 84:1400 111:1600 147:800 
-0.0009765625 119:200 134:2500 141:2500 149:2500 
-0.0009765625 3:2400 25:2300 90:1700 101:1000 
-0.0009765625 39:2300 53:1800 55:1200 123:700 137:1400 
-0.0009765625 2:1900 93:1700 146:600 165:1300 
-0.0009765625 75:2100 112:1400 170:1000 
-0.0009765625 16:400 48:2500 51:2500 
-0.0009765625 25:2300 139:800 
-0.0009765625 6:1700 76:2500 133:2500 148:2500 
-0.0009765625 1:1200 67:2200 78:2200 84:1400 105:1200 106:1400 146:800 158:700 163:700 
-0.0009765625 90:2100 
-0.0009765625 83:400 131:2500 132:2500 
-0.0009765625 11:1000 13:2200 23:2200 27:1800 30:2200 33:2300 84:1400 98:500 
-0.0009765625 26:2300 28:2200 51:800 74:2100 114:1400 152:100 
-0.0009765625 6:1700 148:2500 
-0.0009765625 88:1700 90:1700 92:700 111:1600 117:1600 149:800 161:700 169:800 
-0.0009765625 18:2000 26:2300 88:1600 152:100 165:1700 
-0.0009765625 33:2300 36:2300 69:2500 82:1400 134:800 
-0.0009765625 18:1600 41:200 46:400 71:800 77:2500 87:1400 132:2500 136:2500 139:2500 145:2500 
-0.0009765625 82:700 83:700 161:2500 
-0.0009765625 7:2100 14:2000 32:2300 93:700 110:1600 
-0.0009765625 16:2400 30:2200 73:1900 80:1800 97:500 112:1600 120:1600 135:800 142:800 150:0 
-0.0009765625 4:2000 58:1800 84:1400 92:700 99:800 152:0 164:1700 173:800 
-0.0009765625 55:300 105:2500 150:1000 171:600 
-0.0009765625 16:800 47:400 68:800 107:1600 128:2500 130:2500 
-0.0009765625 1:2000 7:2300 16:1400 57:1000 88:1600 95:1900 111:1400 125:700 
-0.0009765625 8:2100 31:2300 135:1400 154:800 160:500 
-0.0009765625 38:1900 44:2500 58:2500 122:250 128:700 137:500 166:1800 
-0.0009765625 68:500 105:950 153:2500 159:1400 164:1600 
-0.0009765625 111:500 133:600 155:2500 
-0.0009765625 40:2300 56:1600 122:1200 173:800 
-0.0009765625 8:2000 15:2300 18:2200 26:2000 48:1200 125:1200 141:800 144:800 160:700 
-0.0009765625 37:2200 51:2500 72:1800 92:1900 104:300 136:500 
-0.0009765625 1:2000 22:1300 41:800 64:2200 72:1700 106:1200 137:1400 154:800 
-0.0009765625 27:2400 58:2500 127:250 152:200 
-0.0009765625 19:2200 59:1200 61:1400 105:1200 119:1600 
-0.0009765625 27:1800 53:1600 84:1400 113:1600 162:700 
-0.0009765625 8:2100 86:2100 149:1400 163:500 
-0.0009765625 3:2400 5:1600 25:2300 97:500 115:1600 138:800 142:800 
-0.0009765625 31:2300 67:2200 72:1700 74:1600 81:2000 171:800 
-0.0009765625 42:1100 49:1200 91:1800 116:1600 125:1200 133:800 168:1700 169:800 
-0.0009765625 16:400 45:2500 57:2500 60:2500 79:1200 
-0.0009765625 3:2400 12:1500 13:2200 21:2200 31:2300 33:2300 35:800 44:1200 108:1200 154:700 
-0.0009765625 39:2400 77:2500 80:0 134:2500 
-0.0009765625 5:1600 9:1600 47:1200 82:1400 101:1000 118:1600 
-0.0009765625 70:1800 106:1200 113:1400 124:700 140:1400 173:1000 174:1000 
-0.0009765625 1:1200 42:1100 54:1200 79:2100 80:1800 173:800 
-0.0009765625 111:500 154:2500 
-0.0009765625 13:2200 52:400 71:800 139:2500 148:2500 174:400 
-0.0009765625 87:1600 94:700 127:2500 138:1000 158:1300 161:1300 174:700 
-0.0009765625 14:1800 39:2400 73:2000 127:2500 138:1000 152:500 162:1300 
-0.0009765625 82:800 99:1200 114:1400 138:1400 
-0.0009765625 11:1600 53:1800 67:2000 105:1100 124:700 173:1000 
-0.0009765625 23:2500 39:2400 121:2500 133:1000 
-0.0009765625 37:1700 105:2500 
-0.0009765625 34:2200 36:2300 75:2100 83:1900 102:1400 111:1400 124:700 
-0.0009765625 53:1800 104:1100 
-0.0009765625 5:1300 12:1800 16:600 19:1300 30:1300 34:1800 52:250 159:2500 161:2500 163:2500 
-0.0009765625 18:2200 33:2300 39:2000 44:1200 47:1200 68:2200 88:1700 168:1700 169:800 
-0.0009765625 43:2400 48:2500 
-0.0009765625 41:600 126:2500 
-0.0009765625 2:2100 23:2100 39:2300 62:400 92:500 98:100 109:1400 143:1400 
-0.0009765625 8:2000 24:2200 80:1800 82:1400 104:1200 143:800 174:800 
-0.0009765625 4:1300 15:1200 98:300 117:500 123:1400 141:750 153:800 159:2500 161:2500 
-0.0009765625 1:2200 2:1900 61:1200 68:2200 84:700 94:1700 154:400 
-0.0009765625 32:2000 53:1800 101:2200 125:700 128:900 137:1400 
-0.0009765625 54:650 105:950 142:600 153:2500 160:1400 
-0.0009765625 15:2100 76:1600 95:1900 
-0.0009765625 30:2100 35:2000 39:2300 62:400 83:1900 95:1900 151:100 164:1700 174:1000 
-0.0009765625 18:1900 108:1300 125:2500 132:1000 175:700 
-0.0009765625 41:2400 47:2500 61:2500 123:250 168:1800 170:600 
-0.0009765625 8:1100 45:2500 81:1200 96:1000 
-0.0009765625 23:2100 26:2300 51:800 80:1600 86:2100 89:1800 101:2200 155:800 168:1700 
-0.0009765625 55:2500 62:2500 77:1900 79:1200 88:2100 99:300 164:1800 165:1800 173:600 
-0.0009765625 48:2500 88:2100 115:200 
-0.0009765625 36:1600 99:2400 
-0.0009765625 17:2000 46:1200 59:1200 69:2500 77:2200 83:1400 
-0.0009765625 74:0 103:2200 122:2500 157:650 
-0.0009765625 4:2000 5:1600 22:2000 44:1200 58:1800 64:2400 116:1600 146:800 154:700 
-0.0009765625 23:2200 36:2300 61:1400 84:1400 152:0 
-0.0009765625 24:700 107:950 109:2500 113:2500 117:2500 136:800 144:800 171:600 
-0.0009765625 41:2400 47:2500 48:2500 73:2200 99:300 147:500 148:500 
-0.0009765625 9:1600 11:1000 30:2200 32:2300 58:1800 85:1400 108:1200 121:1200 138:800 
-0.0009765625 32:2300 69:2500 118:1600 120:1600 132:800 146:800 
-0.0009765625 11:1500 47:400 109:400 119:2400 129:1000 159:1300 175:700 
-0.0009765625 48:1200 64:2400 68:2200 125:1200 136:800 139:800 163:700 
-0.0009765625 8:2100 29:2200 63:900 73:1900 82:800 140:1400 149:1400 153:800 157:800 165:1700 
-0.0009765625 7:2100 13:2200 19:2200 47:1200 99:800 108:1200 140:800 
-0.0009765625 7:2100 32:2300 45:1200 81:2000 
-0.0009765625 25:2300 38:2200 53:1600 65:2400 141:800 154:700 
-0.0009765625 25:2300 30:2200 44:1200 129:800 147:800 161:700 
-0.0009765625 27:1600 77:1600 80:1600 100:1800 128:900 153:800 170:1000 
-0.0009765625 40:2300 58:1800 67:2200 70:1700 71:2200 77:2200 80:1800 111:1600 123:1200 
-0.0009765625 19:2200 30:2200 48:1200 62:1200 78:2200 91:1800 107:1200 137:800 139:800 172:800 
-0.0009765625 7:2300 11:1600 32:2000 51:800 72:1700 73:1900 129:1400 132:1400 141:1400 
-0.0009765625 60:2500 72:1800 
-0.0009765625 68:1400 69:1400 100:700 161:450 168:1400 170:2500 174:2500 
-0.0009765625 39:2400 71:800 84:400 95:800 140:2500 141:2500 144:2500 150:800 173:400 174:400 
-0.0009765625 31:2300 35:2000 36:2300 75:2100 104:1100 106:1200 143:1400 153:800 
-0.0009765625 31:1100 48:400 98:50 130:2500 139:2500 149:2500 158:250 165:600 
-0.0009765625 14:2100 29:2200 101:2200 
-0.0009765625 8:2000 10:2400 25:2300 138:800 
-0.0009765625 5:1850 20:2100 51:400 79:950 129:2500 132:2500 
-0.0009765625 31:2400 63:250 81:900 151:300 158:2500 
-0.0009765625 9:1600 18:2200 26:2000 50:1200 70:1700 84:1400 86:1500 146:800 
-0.0009765625 16:2400 57:1200 61:1400 86:1500 92:700 116:1600 172:800 175:800 
-0.0009765625 7:2100 69:2500 87:1200 92:700 107:1200 
-0.0009765625 13:1300 49:2500 72:1800 79:1200 82:1800 166:1800 168:1800 
-0.0009765625 24:1100 150:100 157:2500 166:1600 
-0.0009765625 149:2500 
-0.0009765625 34:2200 49:1000 60:700 86:2100 119:1400 131:1400 147:1400 167:1700 168:1700 
-0.0009765625 57:1200 114:1600 
-0.0009765625 2:1000 48:1200 82:1400 143:800 160:700 
-0.0009765625 17:2000 30:2200 48:1200 71:2200 91:1800 148:800 168:1700 
-0.0009765625 132:2500 141:2500 
-0.0009765625 134:2500 171:400 
-0.0009765625 9:1200 28:2200 61:1500 94:600 104:1100 146:1400 
-0.0009765625 60:300 91:400 104:2500 108:2500 134:1700 
-0.0009765625 15:2300 23:2200 34:2300 52:1200 67:2200 105:1200 169:800 
-0.0009765625 28:2200 138:1400 167:1700 
-0.0009765625 34:2200 57:1000 124:700 131:1400 140:1400 167:1700 
-0.0009765625 17:1900 41:0 54:200 112:2500 117:2500 136:800 
-0.0009765625 17:2000 36:2300 58:1800 60:1200 75:1600 87:1200 88:1700 173:800 
-0.0009765625 43:2400 88:2100 
-0.0009765625 8:2000 12:1500 25:2300 27:1800 157:700 161:700 
-0.0009765625 24:300 41:2400 49:2500 60:2500 63:2500 94:1900 
-0.0009765625 38:2500 47:400 92:800 110:500 122:800 128:2500 133:2500 154:500 170:400 172:400 
-0.0009765625 13:2000 26:2300 64:2200 67:2000 135:1400 155:800 163:500 
-0.0009765625 5:2200 16:1400 20:2000 37:1200 43:1600 53:1800 57:1000 67:2000 74:2100 145:1400 
-0.0009765625 5:1600 32:2300 79:2100 109:1600 116:1600 150:0 
-0.0009765625 43:1200 57:1200 67:2200 81:2000 89:1700 92:700 109:1600 118:1600 139:800 173:800 
-0.0009765625 37:1700 67:2200 79:2100 83:1400 96:500 143:800 
-0.0009765625 48:2500 61:2500 107:300 138:500 166:1800 174:600 
-0.0009765625 100:2400 
-0.0009765625 15:1700 61:2500 92:1900 96:1000 154:650 
-0.0009765625 64:1600 66:1600 146:750 149:750 155:800 160:2500 162:2500 
-0.0009765625 58:2500 61:2500 68:200 96:1000 
-0.0009765625 15:2300 49:1200 53:1600 55:1200 67:2200 82:1400 91:1800 117:1600 143:800 
-0.0009765625 6:2000 122:2500 
-0.0009765625 26:2300 27:1600 
-0.0009765625 29:2000 51:1200 58:1800 66:2400 85:1400 95:700 114:1600 
-0.0009765625 17:2200 64:1000 71:800 130:2500 143:2500 154:500 
-0.0009765625 4:1450 14:2100 39:2300 100:1800 101:2200 102:1400 103:1700 130:1400 
-0.0009765625 33:2300 48:1200 76:2200 86:1500 96:500 149:800 160:700 
-0.0009765625 146:600 156:2500 168:1600 
-0.0009765625 22:1200 23:600 91:1000 133:600 152:100 155:2500 156:2500 158:1400 171:1000 
-0.0009765625 6:400 57:2500 70:1800 79:1200 95:1900 97:1000 151:200 168:1800 
-0.0009765625 15:2300 42:1100 67:2200 109:1600 117:1600 138:800 160:700 166:1700 174:800 
-0.0009765625 4:1450 74:2100 156:800 
-0.0009765625 105:1300 126:2500 127:2500 131:1000 136:1000 166:1500 
-0.0009765625 62:1200 66:2400 90:1700 91:1800 
-0.0009765625 18:1900 23:2500 24:2000 31:1700 46:400 84:700 87:1600 121:2500 124:2500 133:1000 
-0.0009765625 40:1700 41:200 141:2500 
-0.0009765625 42:800 106:700 163:2500 
-0.0009765625 116:500 128:2500 
-0.0009765625 115:500 154:2500 
-0.0009765625 17:1600 73:700 159:2500 161:2500 
-0.0009765625 17:1900 72:400 109:2500 117:2500 
-0.0009765625 4:50 32:1100 47:2500 50:2500 51:2500 138:500 148:500 165:1800 
-0.0009765625 42:2400 54:2500 72:1800 81:1200 94:1900 106:300 
-0.0009765625 18:2200 25:2300 38:2200 66:2400 115:1600 147:800 165:1700 
-0.0009765625 72:1600 119:700 157:2500 168:1600 
-0.0009765625 1:1200 11:1000 37:1700 40:2300 48:1200 68:2200 82:1400 90:1700 104:1200 167:1700 
-0.0009765625 9:1600 72:1700 
-0.0009765625 56:600 66:1900 83:1900 86:2100 102:1400 132:1400 166:1700 
-0.0009765625 9:1600 56:1600 159:700 
-0.0009765625 61:1500 86:2100 141:1400 
-0.0009765625 71:2200 117:1600 154:700 
-0.0009765625 6:2200 34:2200 144:1400 
-0.0009765625 11:1600 19:1800 135:1400 
-0.0009765625 14:2000 29:2000 81:2000 84:1400 161:700 
-0.0009765625 5:1600 9:1600 26:2000 32:2300 43:1200 48:1200 51:1200 97:500 133:800 146:800 
-0.0009765625 32:1400 60:400 77:2500 82:400 99:200 132:2500 141:2500 
-0.0009765625 2:200 44:2500 54:2500 55:2500 85:1800 
-0.0009765625 93:800 139:2500 
-0.0009765625 1:2200 46:1200 76:1800 82:700 96:700 102:2400 107:800 160:50 
-0.0009765625 9:1200 17:2000 49:1000 83:1900 147:1400 
-0.0009765625 31:2300 52:700 61:1500 102:1400 126:700 143:1400 167:1700 173:1000 
-0.0009765625 1:2000 41:800 93:100 106:1200 112:1400 120:1400 130:1400 
-0.0009765625 9:1600 10:2400 39:2000 57:1200 68:2200 103:1200 105:1200 131:800 154:700 
-0.0009765625 63:900 116:1400 133:1400 135:1400 156:800 168:1700 
-0.0009765625 56:2500 95:1900 152:200 172:600 
-0.0009765625 20:2500 37:1500 72:1500 111:400 120:2400 139:1000 
-0.0009765625 85:1800 89:2100 
-0.0009765625 106:950 110:2500 112:2500 125:300 159:650 170:600 175:600 
-0.0009765625 26:2000 45:1200 116:1600 165:1700 
-0.0009765625 44:1200 71:2200 96:500 108:1200 165:1700 166:1700 
-0.0009765625 54:2500 61:2500 86:1500 92:1900 117:200 167:1800 
-0.0009765625 1:2000 28:2200 44:700 56:600 85:1500 95:1900 101:2200 113:1400 
-0.0009765625 7:2300 49:1000 56:600 84:1200 99:1200 137:1400 142:1400 173:1000 174:1000 
-0.0009765625 24:2000 78:2200 83:700 96:600 161:1300 162:1300 169:700 
-0.0009765625 97:1000 101:800 145:600 157:2500 
-0.0009765625 30:2200 32:2300 36:2300 66:2400 82:1400 154:700 
-0.0009765625 114:1000 169:2500 
-0.0009765625 5:2200 39:2300 50:200 96:200 101:2200 114:1400 118:1400 125:700 173:1000 
-0.0009765625 15:700 174:2500 
-0.0009765625 29:2200 34:2200 54:700 72:1700 75:2100 97:0 101:2200 135:1400 142:1400 154:800 
-0.0009765625 125:2500 
-0.0009765625 20:1800 30:2200 33:2300 36:2300 70:1700 81:2000 92:700 139:800 172:800 
-0.0009765625 11:2000 47:650 92:1000 111:500 160:1400 171:1000 
-0.0009765625 25:1200 36:1600 43:1600 99:2400 142:600 
-0.0009765625 5:2100 38:2200 43:900 97:600 121:2500 133:1000 152:500 153:650 
-0.0009765625 13:2200 33:2300 58:1800 82:1400 156:700 158:700 
-0.0009765625 18:1900 30:1200 121:2500 
-0.0009765625 19:1300 45:300 76:2500 97:200 107:2500 138:1700 152:1000 171:600 
-0.0009765625 2:2100 
-0.0009765625 27:1800 33:2300 36:2300 44:1200 58:1800 112:1600 137:800 144:800 166:1700 
-0.0009765625 35:700 126:800 128:2500 
-0.0009765625 34:2300 36:2300 50:1200 70:1700 97:500 100:800 114:1600 127:1500 137:800 158:700 
-0.0009765625 8:1200 125:2500 137:1000 
-0.0009765625 39:1500 54:2500 70:1800 
-0.0009765625 19:2200 36:2300 66:2400 84:1400 87:1200 91:1800 92:700 93:700 161:700 
-0.0009765625 6:2200 52:700 61:1500 92:500 102:1400 107:1100 133:1400 157:800 165:1700 
-0.0009765625 12:2200 42:2400 57:2500 61:2500 67:200 96:1000 115:200 131:500 133:500 
-0.0009765625 76:1800 100:2400 175:700 
-0.0009765625 6:2200 20:2000 75:2100 92:500 
-0.0009765625 39:2300 57:1000 66:1900 86:2100 117:1400 133:1400 135:1400 167:1700 
-0.0009765625 9:1600 16:2400 46:1200 48:1200 77:2200 87:1200 97:500 117:1600 162:700 
-0.0009765625 4:1250 71:1400 98:1300 170:2500 171:2500 173:2500 175:2500 
-0.0009765625 42:1100 75:1600 78:2200 85:1400 96:500 116:1600 127:1500 
-0.0009765625 55:1200 72:1700 75:2100 162:500 
-0.0009765625 33:2300 48:1200 66:2400 79:2100 96:500 97:500 117:1600 129:800 151:0 156:700 
-0.0009765625 13:1600 100:2400 152:200 
-0.0009765625 44:1200 45:1200 71:2200 106:1400 107:1200 146:800 160:700 
-0.0009765625 7:2100 12:1500 42:1100 53:1600 71:2200 80:1800 88:1700 119:1600 123:1200 
-0.0009765625 44:2500 83:1800 92:1900 144:500 167:1800 
-0.0009765625 16:2400 75:1600 77:2200 130:800 150:0 
-0.0009765625 23:2500 54:400 78:2200 120:2400 
-0.0009765625 96:50 117:500 123:800 131:2500 134:2500 
-0.0009765625 114:500 142:2500 147:2500 152:800 169:400 
-0.0009765625 20:2100 41:200 144:2500 
-0.0009765625 51:2500 56:2500 59:2500 108:300 119:200 
-0.0009765625 25:2300 28:1900 41:700 60:1200 68:2200 86:1500 109:1600 120:1600 150:0 
-0.0009765625 69:1500 126:2500 
-0.0009765625 15:2000 23:2500 100:400 122:2500 132:1000 
-0.0009765625 71:2200 83:1400 
-0.0009765625 9:300 34:1000 37:2200 46:2500 57:2500 62:2500 84:1800 128:700 133:500 
-0.0009765625 76:1800 100:2400 
-0.0009765625 9:1000 17:1900 105:950 111:2500 112:2500 
-0.0009765625 5:1600 13:2200 16:2400 91:1800 141:800 
-0.0009765625 39:2400 62:400 131:2500 
-0.0009765625 44:2500 52:2500 115:200 135:500 
-0.0009765625 4:2000 51:1200 82:1400 103:1200 105:1200 111:1600 126:1200 130:800 140:800 165:1700 
-0.0009765625 1:2200 9:1300 46:1200 
-0.0009765625 10:2400 24:2200 34:2300 53:1600 56:1600 114:1600 129:800 131:800 148:800 172:800 
-0.0009765625 33:2300 37:1700 38:2200 164:1700 
-0.0009765625 6:1400 16:2400 21:2200 54:1200 80:1800 114:1600 152:0 
-0.0009765625 4:1450 16:1400 39:2300 72:1700 88:1600 100:1800 127:1200 147:1400 149:1400 171:1000 
-0.0009765625 47:2500 98:1000 167:1800 173:600 
-0.0009765625 41:1000 152:2500 
-0.0009765625 46:1200 86:1500 119:1600 
-0.0009765625 28:600 60:650 87:800 128:900 152:100 156:2500 157:2500 
-0.0009765625 24:800 92:2500 
-0.0009765625 37:300 134:2500 149:2500 
-0.0009765625 36:2300 97:500 106:1400 111:1600 113:1600 161:700 166:1700 
-0.0009765625 59:400 77:2200 105:1300 106:1300 125:2500 127:2500 160:1300 171:700 
-0.0009765625 50:1200 67:2200 120:1600 129:800 
-0.0009765625 11:1200 50:2500 61:2500 119:200 151:200 
-0.0009765625 17:1000 37:800 67:1800 97:1800 118:100 120:100 128:1200 151:2500 152:2500 154:100 
-0.0009765625 11:1000 19:2200 67:2200 118:1600 155:700 
-0.0009765625 32:1400 61:400 127:800 133:2500 139:2500 152:800 
-0.0009765625 11:1600 15:2100 106:1200 107:1100 116:1400 135:1400 
-0.0009765625 44:1200 47:1200 67:2200 117:1600 141:800 
-0.0009765625 4:2000 28:1900 48:1200 50:1200 76:2200 77:2200 79:2100 107:1200 130:800 167:1700 
-0.0009765625 57:1200 61:1400 66:2400 107:1200 159:700 
-0.0009765625 12:2200 46:2500 59:2500 
-0.0009765625 7:2100 98:500 114:1600 115:1600 124:1200 165:1700 
-0.0009765625 25:400 48:400 73:800 135:2500 146:2500 147:2500 157:500 
-0.0009765625 21:2100 46:2500 62:2500 146:500 
-0.0009765625 23:2200 55:1200 56:1600 91:1800 106:1400 122:1200 
-0.0009765625 39:2400 103:2200 
-0.0009765625 6:2000 21:1700 126:2500 169:700 
-0.0009765625 27:200 47:400 121:800 143:2500 149:2500 
-0.0009765625 55:2500 95:1900 166:1800 
-0.0009765625 14:2100 36:2300 39:2300 57:1000 89:1800 
-0.0009765625 76:2500 96:50 134:2500 149:2500 153:500 158:250 
-0.0009765625 1:1200 22:2000 31:2300 32:2300 52:1200 89:1700 92:700 121:1200 135:800 175:800 
-0.0009765625 24:2200 26:2000 37:1700 54:1200 79:2100 81:2000 88:1700 107:1200 122:1200 
-0.0009765625 41:2400 144:500 
-0.0009765625 8:2000 29:2000 72:1700 81:2000 
-0.0009765625 5:2000 31:2100 116:2500 171:600 
-0.0009765625 11:2000 69:1300 153:2500 154:2500 172:1000 
-0.0009765625 13:2200 14:2000 41:700 45:1200 55:1200 69:2500 114:1600 126:1200 144:800 
-0.0009765625 28:1300 54:2500 
-0.0009765625 6:2000 8:1200 11:1500 13:2200 122:2500 135:1000 169:700 
-0.0009765625 9:1600 14:2000 68:2200 84:1400 94:700 111:1600 154:700 174:800 
-0.0009765625 51:1200 54:1200 55:1200 74:1600 77:2200 78:2200 125:1200 133:800 161:700 171:800 
-0.0009765625 10:2400 147:800 
-0.0009765625 11:1800 73:2100 80:0 93:2500 96:2200 133:200 
-0.0009765625 31:2300 36:2300 38:2200 154:700 
-0.0009765625 103:1700 109:1400 164:1700 
-0.0009765625 27:1800 29:2000 52:1200 57:1200 60:1200 67:2200 107:1200 123:1200 124:1200 
-0.0009765625 19:2200 25:2300 30:2200 125:1200 
-0.0009765625 3:2400 16:2400 53:1600 64:2400 95:700 119:1600 155:700 
-0.0009765625 7:2100 70:1700 112:1600 121:1200 
-0.0009765625 4:2000 42:1100 49:1200 57:1200 69:2500 81:2000 99:800 129:800 
-0.0009765625 1:1200 39:2000 54:1200 58:1800 78:2200 123:1200 146:800 
-0.0009765625 27:1800 59:1200 70:1700 82:1400 92:700 106:1400 117:1600 121:1200 159:700 
-0.0009765625 14:2000 48:1200 53:1600 68:2200 84:1400 96:500 98:500 107:1200 149:800 
-0.0009765625 57:400 117:500 139:2500 145:2500 
-0.0009765625 76:2500 134:2500 148:2500 
-0.0009765625 31:1700 72:1500 93:700 117:400 124:2500 127:2500 150:500 
-0.0009765625 55:1200 102:2400 138:600 
-0.0009765625 22:1300 122:2500 170:700 
-0.0009765625 71:2400 
-0.0009765625 21:1700 41:600 86:1000 126:2500 163:1300 
-0.0009765625 11:1300 37:1300 50:1200 69:1900 96:700 100:2400 139:600 
-0.0009765625 11:1000 16:2400 17:2000 34:2300 37:1700 68:2200 92:700 113:1600 151:0 152:0 
-0.0009765625 36:2300 55:1200 95:1900 101:2200 102:1400 143:1400 146:1400 152:100 
-0.0009765625 31:1100 91:800 139:2500 140:2500 
-0.0009765625 6:2200 36:2300 44:700 135:1400 
-0.0009765625 19:2200 30:2200 32:2300 81:2000 
-0.0009765625 3:2500 11:200 114:2500 
-0.0009765625 20:1800 22:2000 41:700 56:1600 86:1500 90:1700 112:1600 139:800 161:700 167:1700 
-0.0009765625 1:300 2:200 12:2200 22:2300 27:2400 52:2500 59:2500 90:2100 156:650 160:100 
-0.0009765625 10:2400 22:2000 33:2300 81:2000 162:700 166:1700 
-0.0009765625 51:2500 98:1000 
-0.0009765625 32:2300 40:2300 61:1400 84:1400 128:500 161:700 
-0.0009765625 10:2400 21:2200 62:1200 132:800 141:800 
-0.0009765625 35:400 38:2200 39:2400 67:600 121:2500 163:1300 
-0.0009765625 10:1800 33:2000 65:1800 75:2100 100:1800 153:800 157:800 
-0.0009765625 16:2400 59:1200 86:1500 103:1200 137:800 
-0.0009765625 36:900 60:2500 61:2500 82:1800 96:1000 99:300 124:250 143:500 150:200 157:650 
-0.0009765625 24:2200 34:2300 54:1200 67:2200 72:1700 90:1700 117:1600 118:1600 127:1500 169:800 
-0.0009765625 36:900 48:2500 60:2500 82:1800 92:1900 137:500 
-0.0009765625 9:950 64:1400 173:2500 
-0.0009765625 20:1800 33:2300 45:1200 
-0.0009765625 16:2400 34:2300 84:1400 96:500 107:1200 147:800 168:1700 
-0.0009765625 8:2100 13:2000 42:1200 73:1900 120:1400 140:1400 145:1400 152:100 167:1700 
-0.0009765625 13:2200 27:1800 44:1200 62:1200 83:1400 89:1700 97:500 106:1400 109:1600 114:1600 
-0.0009765625 2:1900 4:800 92:1700 
-0.0009765625 46:2500 51:2500 61:2500 77:1900 84:1800 122:250 134:500 
-0.0009765625 17:2200 54:400 66:1000 77:2500 92:800 128:2500 146:2500 
-0.0009765625 2:2100 6:2200 65:1800 
-0.0009765625 3:2400 29:2000 55:1200 123:1200 125:1200 163:700 164:1700 171:800 
-0.0009765625 16:2400 33:2300 35:800 52:1200 160:700 172:800 
-0.0009765625 35:1500 54:2500 55:2500 59:2500 78:1900 109:200 127:250 146:500 153:650 
-0.0009765625 70:1400 129:2500 141:2500 144:2500 163:250 
-0.0009765625 63:400 73:2000 88:1000 97:600 125:2500 149:1000 152:500 159:1300 
-0.0009765625 2:2100 18:2000 26:2300 39:2300 68:1300 118:1400 
-0.0009765625 67:2200 75:1600 87:1200 96:500 106:1400 145:800 
-0.0009765625 16:2400 62:1200 110:1600 159:700 
-0.0009765625 38:1900 48:2500 53:2500 146:500 
-0.0009765625 73:800 95:800 106:1600 128:2500 129:2500 134:2500 135:2500 
-0.0009765625 1:2000 30:2100 34:2200 75:2100 94:600 116:1400 129:1400 145:1400 
-0.0009765625 5:2200 39:2300 60:700 71:1300 79:1400 83:1900 98:100 130:1400 139:1400 
-0.0009765625 16:2400 
-0.0009765625 39:1200 48:1200 93:1700 94:1700 102:2400 107:800 114:500 175:700 
-0.0009765625 9:1200 15:2100 26:2300 41:800 100:1800 124:700 138:1400 
-0.0009765625 83:1900 170:1000 
-0.0009765625 45:2500 53:2500 60:2500 107:300 132:500 133:500 160:100 
-0.0009765625 91:1400 97:600 117:400 125:2500 135:1000 
-0.0009765625 8:2100 18:2000 35:2000 43:1600 102:1400 108:1100 122:700 138:1400 166:1700 
-0.0009765625 54:1200 114:1600 140:800 
-0.0009765625 7:1400 43:2400 46:2500 51:2500 79:1200 87:1800 107:300 144:500 154:650 
-0.0009765625 56:2500 90:2100 98:1000 
-0.0009765625 21:2200 65:2400 95:700 127:1500 
-0.0009765625 7:1600 8:1200 72:1500 76:2200 77:2200 96:600 97:600 108:1300 121:2500 
-0.0009765625 35:800 58:1800 67:2200 107:1200 109:1600 150:0 163:700 
-0.0009765625 124:2500 173:700 
-0.0009765625 45:1200 50:1200 53:1600 65:2400 78:2200 96:500 117:1600 120:1600 152:0 162:700 
-0.0009765625 2:2100 33:2000 81:1400 109:1400 134:1400 138:1400 156:800 169:1000 
-0.0009765625 13:2200 60:400 73:2000 121:2500 
-0.0009765625 27:1800 40:2300 71:2200 78:2200 105:1200 112:1600 162:700 
-0.0009765625 2:1000 24:2200 33:2300 57:1200 64:2400 76:2200 95:700 159:700 161:700 
-0.0009765625 8:2000 12:1500 28:1900 68:2200 72:1700 80:1800 118:1600 126:1200 139:800 
-0.0009765625 5:1600 26:2000 102:1000 104:1200 106:1400 107:1200 115:1600 124:1200 160:700 
-0.0009765625 66:1000 94:800 108:1600 121:800 136:2500 150:800 
-0.0009765625 16:2400 21:2200 53:1600 96:500 109:1600 141:800 145:800 159:700 
-0.0009765625 41:700 52:1200 69:2500 102:1000 124:1200 139:800 150:0 156:700 163:700 
-0.0009765625 89:1700 113:1600 
-0.0009765625 54:500 64:1300 97:1800 98:1800 104:900 152:2500 
-0.0009765625 19:2200 37:1700 61:1400 73:1900 106:1400 131:800 
-0.0009765625 28:1300 37:2200 57:2500 173:600 
-0.0009765625 9:1600 33:2300 125:1200 149:800 
-0.0009765625 5:2200 53:1800 62:400 111:1400 118:1400 120:1400 135:1400 139:1400 159:500 161:500 
-0.0009765625 49:1000 72:1700 147:1400 149:1400 171:1000 
-0.0009765625 30:800 38:2500 39:2400 107:2500 108:2500 134:1700 
-0.0009765625 59:1200 69:1900 100:2400 143:600 144:600 172:700 
-0.0009765625 32:1800 92:700 118:400 123:2500 159:1300 
-0.0009765625 101:2200 119:1400 
-0.0009765625 30:700 40:1100 57:2500 61:2500 93:1900 134:500 147:500 167:1800 169:600 
-0.0009765625 68:2200 79:2100 84:1400 171:800 
-0.0009765625 110:2500 114:2500 136:800 160:650 
-0.0009765625 26:1900 29:1700 109:2500 
-0.0009765625 13:2200 16:2400 25:2300 53:1600 62:1200 75:1600 104:1200 131:800 141:800 
-0.0009765625 22:1300 100:1800 108:1100 118:1400 141:1400 165:1700 171:1000 
-0.0009765625 42:1200 83:1900 117:1400 120:1400 
-0.0009765625 56:600 74:2100 99:1200 107:1100 113:1400 115:1400 134:1400 154:800 161:500 170:1000 
-0.0009765625 2:1000 10:2400 29:2000 49:1200 78:2200 
-0.0009765625 56:2500 77:1900 164:1800 
-0.0009765625 132:2500 168:600 
-0.0009765625 2:1900 53:1200 56:1200 92:1700 94:1700 101:2400 119:800 175:700 
-0.0009765625 23:2100 62:400 101:2200 131:1400 
-0.0009765625 15:1700 60:2500 70:1800 103:1800 124:250 
-0.0009765625 41:800 83:1900 101:2200 126:700 130:1400 
-0.0009765625 2:1900 102:2400 172:700 
-0.0009765625 13:2200 18:2200 94:700 118:1600 122:1200 132:800 173:800 
-0.0009765625 53:2500 62:2500 134:500 153:650 
-0.0009765625 8:2000 24:2200 59:1200 60:1200 66:2400 75:1600 161:700 
-0.0009765625 15:2000 74:0 103:2200 119:2400 121:2500 132:1000 159:1300 170:700 
-0.0009765625 45:2500 61:2500 165:1800 
-0.0009765625 64:2400 65:2400 69:2500 76:2200 118:1600 
-0.0009765625 80:1600 83:1900 140:1400 144:1400 153:800 160:500 167:1700 
-0.0009765625 75:2100 133:1400 
-0.0009765625 4:1450 6:2200 18:2000 53:1800 111:1400 133:1400 146:1400 147:1400 170:1000 175:1000 
-0.0009765625 4:2000 11:1000 62:1200 77:2200 85:1400 86:1500 149:800 150:0 159:700 
-0.0009765625 7:2300 10:1800 11:1600 17:2000 83:1900 170:1000 
-0.0009765625 35:2000 154:800 166:1700 174:1000 
-0.0009765625 50:1200 68:2200 107:1200 110:1600 
-0.0009765625 11:600 56:800 114:1000 152:100 171:2500 174:2500 
-0.0009765625 15:2100 20:2000 24:1500 27:1600 29:2200 82:800 99:1200 135:1400 146:1400 
-0.0009765625 27:2400 63:2500 73:2200 91:1400 96:1000 106:300 153:650 165:1800 
-0.0009765625 48:400 53:400 122:800 131:2500 132:2500 138:2500 144:2500 171:400 
-0.0009765625 104:2500 169:600 
-0.0009765625 43:2400 63:2500 77:1900 
-0.0009765625 7:2300 166:1700 
-0.0009765625 39:2300 49:1000 57:1000 116:1400 120:1400 138:1400 146:1400 163:500 
-0.0009765625 111:2500 143:800 
-0.0009765625 13:2200 26:2000 34:2300 67:2200 85:1400 110:1600 
-0.0009765625 27:1800 125:1200 
-0.0009765625 134:2500 
-0.0009765625 11:1600 34:2200 39:2300 65:1800 110:1400 129:1400 139:1400 162:500 168:1700 
-0.0009765625 19:2200 31:2300 40:2300 73:1900 109:1600 168:1700 
-0.0009765625 6:2050 93:500 97:200 99:300 106:2500 135:1700 150:1000 
-0.0009765625 14:2000 25:2300 63:1200 127:1500 
-0.0009765625 4:2000 61:1400 76:2200 
-0.0009765625 17:2200 39:2400 142:2500 
-0.0009765625 12:2200 26:0 54:2500 60:2500 
-0.0009765625 53:1600 62:1200 71:2200 98:500 106:1400 120:1600 143:800 
-0.0009765625 8:2000 29:2000 37:1700 42:1100 65:2400 66:2400 69:2500 75:1600 114:1600 149:800 
-0.0009765625 8:2000 20:1800 81:2000 163:700 
-0.0009765625 40:2300 48:1200 55:1200 66:1000 73:2200 101:2400 138:600 150:200 157:400 
-0.0009765625 13:2200 25:2300 40:2300 44:1200 46:1200 105:1200 119:1600 129:800 155:700 158:700 
-0.0009765625 46:2500 134:500 
-0.0009765625 85:700 127:2500 147:1000 151:500 175:700 
-0.0009765625 14:2000 24:2200 69:2500 
-0.0009765625 18:2000 49:1000 86:2100 87:500 99:1200 117:1400 123:700 127:1200 142:1400 144:1400 
-0.0009765625 8:1100 25:300 48:2500 58:2500 59:2500 136:500 
-0.0009765625 75:2100 90:800 101:2200 169:1000 
-0.0009765625 27:1800 120:1600 154:700 
-0.0009765625 5:1600 28:1900 47:1200 59:1200 66:2400 130:800 170:800 
-0.0009765625 150:2500 
-0.0009765625 26:1900 36:2200 42:900 81:1600 108:950 109:2500 114:2500 130:800 
-0.0009765625 26:1200 125:2500 134:1000 151:500 156:650 168:1500 
-0.0009765625 56:1200 102:2400 
-0.0009765625 14:2000 19:2200 71:2200 83:1400 90:1700 96:500 137:800 148:800 151:0 164:1700 
-0.0009765625 27:1800 66:2400 74:1600 81:2000 116:1600 145:800 160:700 166:1700 
-0.0009765625 34:1700 39:1200 71:2200 99:2400 102:2400 136:600 150:200 
-0.0009765625 44:1200 53:1600 78:2200 80:1800 89:1700 108:1200 140:800 157:700 
-0.0009765625 6:1400 42:1100 57:1200 81:2000 83:1400 85:1400 90:1700 113:1600 118:1600 147:800 
-0.0009765625 32:1800 122:2500 123:2500 164:1500 
-0.0009765625 85:1500 106:1200 173:1000 
-0.0009765625 48:300 106:2500 
-0.0009765625 3:2500 43:200 93:300 105:950 112:2500 116:2500 
-0.0009765625 3:2400 16:2400 36:2300 55:1200 61:1400 66:2400 
-0.0009765625 17:2000 29:2000 48:1200 79:2100 81:2000 84:1400 87:1200 99:800 131:800 156:700 
-0.0009765625 74:2100 86:2100 158:500 164:1700 170:1000 
-0.0009765625 17:2000 48:1200 50:1200 61:1400 81:2000 112:1600 128:500 130:800 163:700 172:800 
-0.0009765625 17:2200 21:1400 54:400 70:1400 79:950 92:800 112:500 130:2500 148:2500 152:800 
-0.0009765625 5:1850 12:600 38:2500 50:400 94:800 135:2500 138:2500 151:800 
-0.0009765625 25:2500 67:2400 
-0.0009765625 2:2100 26:2300 106:1200 109:1400 
-0.0009765625 9:1200 75:2100 
-0.0009765625 1:2000 6:2200 20:2000 39:2300 59:0 99:1200 101:2200 112:1400 123:700 124:700 
-0.0009765625 7:2100 11:1000 47:1200 49:1200 64:2400 77:2200 98:500 126:1200 137:800 
-0.0009765625 26:2000 40:2300 60:1200 83:1400 87:1200 131:800 134:800 163:700 166:1700 
-0.0009765625 14:1500 15:1800 17:1200 56:650 72:1600 153:2500 156:2500 160:1400 167:1600 
-0.0009765625 33:2300 42:1100 43:1200 46:1200 89:1700 104:1200 106:1400 124:1200 173:800 
-0.0009765625 17:2000 44:1200 67:2200 115:1600 
-0.0009765625 48:1200 76:1800 97:700 101:2400 117:500 
-0.0009765625 3:2400 22:2000 26:2000 44:1200 62:1200 77:2200 86:1500 95:700 98:500 175:800 
-0.0009765625 23:1400 32:1100 46:2500 48:2500 49:2500 88:2100 96:1000 165:1800 
-0.0009765625 21:2200 22:2000 24:2200 45:1200 89:1700 157:700 175:800 
-0.0009765625 12:2200 55:2500 74:0 84:1800 
-0.0009765625 10:2400 25:2300 65:2400 70:1700 139:800 151:0 168:1700 
-0.0009765625 120:2400 
-0.0009765625 15:2300 21:2200 42:1100 88:1700 94:700 116:1600 126:1200 140:800 148:800 165:1700 
-0.0009765625 6:2200 13:2000 81:1400 168:1700 172:1000 
-0.0009765625 42:2400 45:2500 103:1800 111:200 148:500 165:1800 
-0.0009765625 10:900 157:2500 
-0.0009765625 10:2400 31:2300 39:2000 58:1800 60:1200 85:1400 96:500 147:800 151:0 
-0.0009765625 7:2300 35:2000 84:1200 142:1400 146:1400 151:100 
-0.0009765625 4:2000 18:2200 22:2000 24:2200 64:2400 87:1200 126:1200 142:800 164:1700 
-0.0009765625 2:2100 5:2200 6:2200 26:2300 64:2200 90:800 102:1400 113:1400 137:1400 157:800 
-0.0009765625 32:1900 72:1300 73:2200 99:2400 
-0.0009765625 2:100 17:2200 39:2400 89:800 93:800 114:500 140:2500 141:2500 146:2500 
-0.0009765625 26:1900 109:2500 140:800 
-0.0009765625 16:2400 54:1200 56:1600 69:2500 98:500 126:1200 138:800 
-0.0009765625 20:2500 32:1800 41:600 
-0.0009765625 22:2000 31:2300 51:1200 81:2000 
-0.0009765625 16:2400 49:1200 60:1200 77:2200 87:1200 92:700 109:1600 137:800 170:800 172:800 
-0.0009765625 14:2000 21:2200 23:2200 79:2100 97:500 113:1600 136:800 147:800 158:700 
-0.0009765625 64:1600 161:2500 
-0.0009765625 2:1000 10:2400 42:1100 58:1800 68:2200 113:1600 116:1600 
-0.0009765625 9:1600 59:1200 119:1600 152:0 
-0.0009765625 87:1600 119:2400 160:1300 
-0.0009765625 59:2500 84:1800 94:1900 116:200 156:650 169:600 
-0.0009765625 5:700 56:2500 59:2500 60:2500 142:500 
-0.0009765625 45:1200 61:1400 77:2200 107:1200 118:1600 162:700 
-0.0009765625 54:400 124:2500 
-0.0009765625 63:2500 85:1800 169:600 
-0.0009765625 16:1700 18:1900 20:2500 44:400 113:400 125:2500 126:2500 143:1000 151:500 154:650 
-0.0009765625 21:1400 108:1600 111:500 145:2500 148:2500 163:250 
-0.0009765625 30:2200 35:800 54:1200 69:2500 70:1700 79:2100 87:1200 121:1200 122:1200 132:800 
-0.0009765625 12:2200 89:2100 
-0.0009765625 9:1600 16:2400 64:2400 
-0.0009765625 2:2100 41:800 74:2100 100:1800 115:1400 
-0.0009765625 8:2000 11:1000 19:2200 29:2000 50:1200 105:1200 
-0.0009765625 130:2500 139:2500 
-0.0009765625 8:2000 69:2500 86:1500 99:800 118:1600 158:700 
-0.0009765625 16:2400 59:1200 79:2100 
-0.0009765625 102:2400 136:600 
-0.0009765625 10:2400 38:2200 60:1200 63:1200 70:1700 90:1700 110:1600 113:1600 124:1200 166:1700 
-0.0009765625 47:1200 66:2400 93:700 95:700 96:500 99:800 110:1600 112:1600 114:1600 
-0.0009765625 5:1600 16:2400 45:1200 96:500 110:1600 117:1600 123:1200 143:800 165:1700 
-0.0009765625 24:2200 35:800 87:1200 104:1200 113:1600 
-0.0009765625 101:2200 163:500 172:1000 
-0.0009765625 28:1900 29:2000 38:2200 39:2000 45:1200 79:2100 135:800 161:700 
-0.0009765625 65:2400 67:2200 77:2200 82:1400 85:1400 112:1600 125:1200 154:700 162:700 
-0.0009765625 1:2000 46:400 51:800 91:1600 126:700 135:1400 140:1400 163:500 175:1000 
-0.0009765625 28:1900 48:1200 50:1200 66:2400 72:1700 131:800 141:800 163:700 
-0.0009765625 9:1600 28:1900 47:1200 84:1400 147:800 164:1700 167:1700 
-0.0009765625 7:1600 24:1000 39:2400 130:2500 135:2500 170:400 
-0.0009765625 11:1000 17:2000 19:2200 84:1400 110:1600 125:1200 167:1700 
-0.0009765625 25:1000 160:2500 
-0.0009765625 39:1500 43:2400 45:2500 48:2500 58:2500 66:600 108:300 141:500 162:100 
-0.0009765625 15:2300 33:2300 35:800 69:2500 93:700 107:1200 124:1200 144:800 
-0.0009765625 3:2400 13:2200 55:1200 77:2200 106:1400 155:700 160:700 
-0.0009765625 5:2200 15:2100 34:2200 53:1800 77:1600 86:2100 93:100 122:700 130:1400 150:100 
-0.0009765625 63:400 125:2500 138:1000 155:650 
-0.0009765625 82:400 110:500 143:2500 149:2500 
-0.0009765625 1:2000 10:1800 19:1800 29:2200 85:1500 101:2200 131:1400 
-0.0009765625 18:2200 46:1200 52:1200 78:2200 108:1200 117:1600 122:1200 149:800 161:700 167:1700 
-0.0009765625 21:2200 25:2300 46:1200 114:1600 
-0.0009765625 19:2200 111:1600 154:700 
-0.0009765625 19:1900 124:2500 157:650 172:700 
-0.0009765625 22:2000 51:1200 66:2400 71:2200 72:1700 90:1700 125:1200 137:800 168:1700 
-0.0009765625 10:2400 59:1200 62:1200 63:1200 65:2400 67:2200 136:800 
-0.0009765625 1:2000 26:2300 49:1000 62:400 82:800 114:1400 117:1400 131:1400 144:1400 170:1000 
-0.0009765625 28:1300 41:2400 42:2400 43:2400 46:2500 81:1200 85:1800 114:200 
-0.0009765625 19:1800 30:1300 76:2500 122:800 132:2500 
-0.0009765625 18:1900 45:400 59:400 103:2200 119:2400 126:2500 165:1500 
-0.0009765625 24:2200 28:1900 44:1200 
-0.0009765625 77:2200 79:2100 80:1800 116:1600 119:1600 121:1200 
-0.0009765625 172:2500 
-0.0009765625 36:1400 39:2400 119:2400 122:2500 172:700 
-0.0009765625 19:1800 142:2500 146:2500 
-0.0009765625 8:2000 16:2400 40:2300 47:1200 68:2200 90:1700 110:1600 133:800 157:700 
-0.0009765625 16:500 38:2500 76:2500 108:2500 151:1000 174:600 
-0.0009765625 11:1200 54:2500 58:2500 59:2500 73:2200 79:1200 83:1800 126:250 145:500 147:500 
-0.0009765625 12:1500 15:2300 26:2000 59:1200 65:2400 82:1400 118:1600 150:0 
-0.0009765625 84:1800 
-0.0009765625 9:0 13:2200 132:2500 
-0.0009765625 28:1300 35:1500 49:2500 62:2500 90:2100 118:200 172:600 
-0.0009765625 5:1600 35:800 37:1700 63:1200 68:2200 72:1700 103:1200 114:1600 121:1200 168:1700 
-0.0009765625 65:2400 77:2200 85:1400 167:1700 
-0.0009765625 6:2200 28:2200 40:1500 76:1600 90:800 101:2200 109:1400 135:1400 150:100 162:500 
-0.0009765625 21:2200 51:1200 60:1200 72:1700 74:1600 81:2000 136:800 137:800 175:800 
-0.0009765625 100:1800 137:1400 
-0.0009765625 32:2300 50:1200 67:2200 71:2200 97:500 113:1600 121:1200 138:800 147:800 168:1700 
-0.0009765625 3:1500 100:1800 137:1400 167:1700 
-0.0009765625 21:2200 33:2300 54:1200 81:2000 104:1200 156:700 
-0.0009765625 75:2100 175:1000 
-0.0009765625 4:1300 24:1100 151:300 163:2500 
-0.0009765625 7:2300 99:1200 114:1400 
-0.0009765625 11:1200 47:2500 74:0 93:1900 
-0.0009765625 45:250 128:750 158:2500 
-0.0009765625 66:2400 90:1700 
-0.0009765625 2:1000 15:2300 21:2200 32:2300 34:2300 110:1600 115:1600 121:1200 148:800 157:700 
-0.0009765625 73:1900 81:2000 
-0.0009765625 31:2400 81:900 83:700 163:2500 
-0.0009765625 22:1300 23:2500 32:1800 38:2200 97:600 103:2200 122:2500 171:700 
-0.0009765625 35:2000 53:1800 61:1500 122:700 132:1400 144:1400 157:800 158:500 
-0.0009765625 7:2300 41:800 72:1700 100:1800 109:1400 113:1400 128:900 135:1400 156:800 161:500 
-0.0009765625 2:2100 49:1000 74:2100 103:1700 120:1400 
-0.0009765625 3:2400 16:2400 18:2200 34:2300 104:1200 139:800 153:700 
-0.0009765625 5:1600 22:2000 23:2200 30:2200 34:2300 37:1700 59:1200 116:1600 129:800 
-0.0009765625 4:2000 20:1800 47:1200 135:800 164:1700 
-0.0009765625 16:2400 76:2200 80:1800 103:1200 174:800 
-0.0009765625 39:2000 65:2400 69:2500 90:1700 139:800 147:800 160:700 164:1700 169:800 
-0.0009765625 49:2500 55:2500 64:600 163:100 
-0.0009765625 4:2000 37:1700 45:1200 148:800 
-0.0009765625 25:1100 29:2000 72:1400 169:2500 
-0.0009765625 5:2200 86:2100 115:1400 121:700 132:1400 151:100 172:1000 
-0.0009765625 17:2000 28:1900 60:1200 70:1700 90:1700 113:1600 134:800 154:700 
-0.0009765625 35:1500 87:1800 92:1900 109:200 124:250 156:650 
-0.0009765625 24:1100 72:1600 154:2500 
-0.0009765625 39:2300 80:1600 116:1400 128:900 166:1700 
-0.0009765625 12:1800 97:600 127:2500 
-0.0009765625 8:200 39:1400 102:800 153:2500 155:2500 
-0.0009765625 21:2100 30:700 43:2400 46:2500 95:1900 97:1000 100:300 144:500 167:1800 
-0.0009765625 2:1000 20:1800 79:2100 82:1400 94:700 108:1200 109:1600 113:1600 
-0.0009765625 7:2100 16:2400 31:2300 42:1100 122:1200 131:800 163:700 
-0.0009765625 4:2000 80:1800 
-0.0009765625 52:2500 62:2500 
-0.0009765625 17:2000 100:1800 106:1200 108:1100 109:1400 147:1400 172:1000 173:1000 
-0.0009765625 10:2400 60:1200 121:1200 150:0 
-0.0009765625 8:2100 11:1600 17:2000 18:2000 34:2200 56:600 149:1400 158:500 173:1000 175:1000 
-0.0009765625 28:1300 46:2500 90:2100 
-0.0009765625 87:1200 112:1600 
-0.0009765625 40:1100 45:2500 82:1800 175:600 
-0.0009765625 2:1000 7:2100 14:2000 15:2300 37:1700 46:1200 123:1200 134:800 159:700 
-0.0009765625 5:2100 23:2500 30:1200 82:700 91:1400 97:600 121:2500 125:2500 131:1000 136:1000 
-0.0009765625 33:2300 38:2200 55:1200 76:2200 84:1400 91:1800 96:500 125:1200 157:700 
-0.0009765625 51:1200 85:1400 107:1200 121:1200 
-0.0009765625 132:1400 164:1700 167:1700 
-0.0009765625 17:2000 75:2100 83:1900 96:200 109:1400 127:1200 132:1400 
-0.0009765625 5:2200 8:2100 12:1100 73:1900 75:2100 132:1400 144:1400 147:1400 
-0.0009765625 29:1200 32:1400 48:400 58:400 93:800 100:200 134:2500 135:2500 142:2500 173:400 
-0.0009765625 6:2000 87:1600 120:2400 151:500 
-0.0009765625 108:1300 127:2500 
-0.0009765625 9:1600 66:2400 94:700 111:1600 132:800 
-0.0009765625 4:50 22:2300 36:900 48:2500 52:2500 92:1900 159:100 
-0.0009765625 6:2200 23:2100 31:2300 41:800 67:2000 81:1400 133:1400 158:500 170:1000 
-0.0009765625 19:1800 30:2100 37:1200 99:1200 136:1400 147:1400 162:500 
-0.0009765625 1:1200 16:2400 19:2200 31:2300 83:1400 102:1000 121:1200 161:700 
-0.0009765625 33:2300 36:2300 46:1200 108:1200 112:1600 128:500 156:700 167:1700 
-0.0009765625 7:1600 136:2500 
-0.0009765625 8:2000 16:2400 66:2400 107:1200 109:1600 
-0.0009765625 45:400 62:400 78:2500 117:500 122:800 140:2500 145:2500 169:400 
-0.0009765625 40:2300 64:2400 69:2500 135:800 
-0.0009765625 70:1800 100:1800 127:1200 
-0.0009765625 17:2000 64:2400 90:1700 174:800 
-0.0009765625 16:2400 50:1200 60:1200 76:2200 109:1600 133:800 
-0.0009765625 19:2200 24:2200 37:1700 94:700 96:500 99:800 109:1600 122:1200 151:0 171:800 
-0.0009765625 75:2100 99:1200 119:1400 124:700 
-0.0009765625 94:2500 107:600 
-0.0009765625 63:400 116:500 134:2500 137:2500 
-0.0009765625 99:1200 117:1400 168:1700 
-0.0009765625 111:2500 140:800 
-0.0009765625 43:1600 47:400 75:2100 109:1400 144:1400 151:100 158:500 161:500 
-0.0009765625 32:1200 40:2100 100:700 135:200 170:2500 172:2500 
-0.0009765625 10:2400 24:2200 25:2300 30:2200 46:1200 120:1600 121:1200 130:800 174:800 
-0.0009765625 17:2000 21:2200 23:2200 30:2200 77:2200 118:1600 134:800 135:800 166:1700 
-0.0009765625 34:2300 39:2000 40:2300 50:1200 61:1400 65:2400 116:1600 125:1200 167:1700 169:800 
-0.0009765625 1:2000 13:2000 16:1400 26:2300 29:2200 77:1600 96:200 100:1800 105:1100 
-0.0009765625 60:2500 135:500 
-0.0009765625 54:400 126:2500 163:1300 
-0.0009765625 6:2100 57:400 127:200 153:600 162:450 171:2500 172:2500 
-0.0009765625 15:1700 42:1400 97:700 100:2400 
-0.0009765625 36:2300 42:1100 57:1200 91:1800 109:1600 114:1600 120:1600 124:1200 150:0 
-0.0009765625 3:2400 7:2100 29:2000 44:1200 47:1200 75:1600 102:1000 106:1400 110:1600 
-0.0009765625 33:1800 99:400 158:2500 
-0.0009765625 23:2200 88:1700 98:500 110:1600 127:1500 145:800 170:800 174:800 
-0.0009765625 12:1500 22:2000 101:1000 113:1600 124:1200 152:0 173:800 
-0.0009765625 147:2500 
-0.0009765625 29:2000 63:1200 65:2400 70:1700 73:1900 75:1600 103:1200 122:1200 
-0.0009765625 34:1000 73:2200 83:1800 94:1900 
-0.0009765625 10:2400 36:2300 92:700 98:500 
-0.0009765625 99:700 172:2500 
-0.0009765625 48:1200 109:1600 136:800 172:800 
-0.0009765625 12:1500 24:2200 67:2200 84:1400 122:1200 134:800 169:800 
-0.0009765625 106:950 109:2500 
-0.0009765625 3:1300 98:1800 
-0.0009765625 10:2400 15:2300 81:2000 83:1400 145:800 
-0.0009765625 39:2400 108:2500 166:500 
-0.0009765625 158:2500 160:2500 
-0.0009765625 28:2200 37:1200 48:200 75:2100 119:1400 136:1400 138:1400 151:100 164:1700 
-0.0009765625 70:600 162:2500 
-0.0009765625 20:1800 47:1200 52:1200 115:1600 152:0 155:700 165:1700 171:800 
-0.0009765625 24:2200 31:2300 32:2300 62:1200 135:800 
-0.0009765625 2:1000 18:2200 25:2300 75:1600 161:700 170:800 
-0.0009765625 108:950 117:2500 118:2500 
-0.0009765625 1:2000 9:1200 11:1600 17:2000 19:1800 22:1300 53:1800 119:1400 131:1400 141:1400 
-0.0009765625 20:1800 81:2000 87:1200 100:800 166:1700 
-0.0009765625 8:2000 24:2200 34:2300 60:1200 82:1400 141:800 165:1700 
-0.0009765625 32:1100 47:2500 57:2500 94:1900 146:500 
-0.0009765625 9:1600 31:2300 65:2400 134:800 149:800 161:700 
-0.0009765625 15:2300 18:2200 38:2200 143:800 164:1700 
-0.0009765625 12:600 13:2200 61:400 66:1000 103:2100 132:2500 144:2500 152:800 170:400 
-0.0009765625 66:1000 67:800 105:1600 124:800 138:2500 146:2500 
-0.0009765625 18:2200 35:800 46:1200 78:2200 93:700 117:1600 148:800 156:700 163:700 173:800 
-0.0009765625 45:400 112:500 133:2500 148:2500 155:500 
-0.0009765625 13:2200 19:2200 54:1200 67:2200 73:1900 84:1400 140:800 154:700 167:1700 
-0.0009765625 144:2500 
-0.0009765625 22:2000 38:2200 48:1200 49:1200 79:2100 81:2000 110:1600 115:1600 124:1200 158:700 
-0.0009765625 19:2200 23:2200 68:2200 72:1700 87:1200 104:1200 127:1500 
-0.0009765625 47:1200 68:2200 106:1400 112:1600 120:1600 125:1200 130:800 131:800 166:1700 
-0.0009765625 13:2200 67:2200 113:1600 
-0.0009765625 23:2200 25:2300 31:2300 70:1700 73:1900 101:1000 124:1200 148:800 161:700 
-0.0009765625 29:2000 39:2000 41:700 48:1200 90:1700 104:1200 109:1600 111:1600 129:800 162:700 
-0.0009765625 10:2400 19:2200 42:1100 80:1800 100:800 103:1200 109:1600 118:1600 
-0.0009765625 22:2300 42:2400 
-0.0009765625 17:2000 28:1900 56:1600 64:2400 83:1400 98:500 142:800 163:700 164:1700 
-0.0009765625 5:1600 47:1200 65:2400 66:2400 76:2200 105:1200 133:800 
-0.0009765625 38:2500 129:2500 
-0.0009765625 5:2200 18:2000 28:2200 89:1800 111:1400 119:1400 125:700 134:1400 175:1000 
-0.0009765625 30:2200 62:1200 91:1800 153:700 
-0.0009765625 34:2300 60:1200 62:1200 67:2200 72:1700 87:1200 88:1700 140:800 173:800 
-0.0009765625 10:2400 60:1200 61:1400 77:2200 92:700 113:1600 
-0.0009765625 67:2000 134:1400 170:1000 
-0.0009765625 28:1900 31:2300 38:2200 48:1200 145:800 156:700 
-0.0009765625 128:2500 
-0.0009765625 90:1000 101:300 122:2500 127:2500 
-0.0009765625 18:2200 20:1800 26:2000 30:2200 40:2300 45:1200 76:2200 108:1200 128:500 158:700 
-0.0009765625 19:2200 32:2300 151:0 
-0.0009765625 18:1600 143:2500 
-0.0009765625 1:1200 5:1600 19:2200 29:2000 59:1200 71:2200 72:1700 83:1400 126:1200 
-0.0009765625 44:400 114:400 124:2500 125:2500 126:2500 148:1000 
-0.0009765625 9:1600 43:1200 51:1200 55:1200 71:2200 81:2000 95:700 119:1600 158:700 
-0.0009765625 56:1600 76:2500 86:400 87:1400 135:2500 
-0.0009765625 167:1800 
-0.0009765625 5:1600 9:1600 10:2400 68:2200 69:2500 116:1600 122:1200 138:800 171:800 
-0.0009765625 121:1400 162:2500 
-0.0009765625 38:2200 61:1400 76:2200 93:700 99:800 117:1600 159:700 160:700 163:700 175:800 
-0.0009765625 22:600 47:400 53:400 78:2500 102:0 122:800 128:2500 137:2500 140:2500 
-0.0009765625 10:2400 32:2300 34:2300 78:2200 80:1800 94:700 97:500 118:1600 125:1200 168:1700 
-0.0009765625 6:2200 61:1500 75:2100 84:1200 123:700 129:1400 144:1400 
-0.0009765625 88:800 102:0 124:800 136:2500 138:2500 
-0.0009765625 133:2500 
-0.0009765625 133:750 158:2500 
-0.0009765625 15:1600 58:400 145:2500 149:2500 171:400 
-0.0009765625 32:2000 53:1800 70:1800 115:1400 139:1400 145:1400 
-0.0009765625 16:1200 43:1000 129:600 157:2500 172:1000 
-0.0009765625 3:2400 35:800 56:1600 148:800 159:700 172:800 
-0.0009765625 21:2200 25:2300 27:1800 80:1800 163:700 
-0.0009765625 91:800 146:2500 
-0.0009765625 8:2100 36:2300 61:1500 63:900 95:1900 104:1100 125:700 159:500 
-0.0009765625 26:2000 50:1200 64:2400 78:2200 114:1600 142:800 149:800 166:1700 170:800 
-0.0009765625 6:1400 24:2200 45:1200 74:1600 77:2200 98:500 120:1600 133:800 151:0 172:800 
-0.0009765625 23:2200 71:2200 87:1200 
-0.0009765625 15:2300 66:2400 
-0.0009765625 96:200 104:2500 
-0.0009765625 24:2200 26:2000 37:1700 54:1200 68:2200 114:1600 142:800 152:0 168:1700 
-0.0009765625 1:300 43:2400 44:2500 49:2500 87:1800 127:250 130:500 140:500 162:100 
-0.0009765625 144:600 157:2500 
-0.0009765625 41:600 126:2500 137:1000 
-0.0009765625 12:1500 65:2400 
-0.0009765625 29:2000 81:2000 87:1200 104:1200 150:0 167:1700 
-0.0009765625 30:700 37:2200 45:2500 53:2500 61:2500 155:650 158:100 172:600 
-0.0009765625 2:2100 68:1300 135:1400 174:1000 
-0.0009765625 74:2100 101:2200 109:1400 121:700 129:1400 134:1400 143:1400 156:800 166:1700 
-0.0009765625 10:100 37:2200 51:2500 52:2500 131:500 154:650 174:600 175:600 
-0.0009765625 97:50 142:2500 
-0.0009765625 15:2300 25:2300 28:1900 51:1200 90:1700 143:800 161:700 172:800 175:800 
-0.0009765625 119:1600 135:750 163:2500 
-0.0009765625 7:2300 35:2000 40:1500 60:700 82:800 102:1400 141:1400 146:1400 160:500 
-0.0009765625 12:2200 61:2500 94:1900 136:500 
-0.0009765625 27:200 29:1200 40:1700 47:400 128:2500 130:2500 147:2500 
-0.0009765625 50:2500 60:2500 63:2500 
-0.0009765625 3:2400 16:2400 32:2300 67:2200 89:1700 93:700 117:1600 172:800 173:800 
-0.0009765625 67:2000 137:1400 
-0.0009765625 2:1000 4:2000 47:1200 67:2200 85:1400 98:500 104:1200 130:800 166:1700 174:800 
-0.0009765625 18:1600 41:2400 57:2500 
-0.0009765625 107:950 117:2500 169:600 
-0.0009765625 63:400 79:950 91:800 104:1600 119:200 130:2500 148:2500 152:800 153:500 
-0.0009765625 30:2200 59:1200 121:1200 
-0.0009765625 60:300 61:300 107:2500 108:2500 133:1700 171:600 
-0.0009765625 39:2400 46:400 50:400 112:500 138:2500 148:2500 
-0.0009765625 35:2000 80:1600 117:1400 143:1400 152:100 
-0.0009765625 4:2000 21:2200 142:800 168:1700 
-0.0009765625 19:1800 23:1800 40:1700 76:2500 95:800 143:2500 156:500 
-0.0009765625 20:1800 67:2200 90:1700 114:1600 
-0.0009765625 17:2000 35:2000 50:200 80:1600 113:1400 118:1400 134:1400 138:1400 167:1700 
-0.0009765625 165:1800 
-0.0009765625 34:1500 97:600 123:2500 
-0.0009765625 35:2000 77:1600 89:1800 103:1700 147:1400 168:1700 
-0.0009765625 33:2000 73:1900 132:1400 
-0.0009765625 22:2300 44:2500 51:2500 58:2500 75:0 111:200 130:500 168:1800 169:600 
-0.0009765625 48:1200 71:2200 75:1600 122:1200 165:1700 
-0.0009765625 13:2000 19:1800 81:1400 91:1600 95:1900 96:200 146:1400 172:1000 
-0.0009765625 20:2500 105:1300 114:400 162:1300 
-0.0009765625 21:2100 54:2500 
-0.0009765625 115:1000 171:2500 
-0.0009765625 2:2100 10:1800 19:1800 51:800 73:1900 132:1400 
-0.0009765625 39:2000 62:1200 68:2200 123:1200 140:800 
-0.0009765625 22:2000 64:2400 104:1200 109:1600 131:800 
-0.0009765625 55:1200 58:1800 107:1200 114:1600 
-0.0009765625 9:1600 15:2300 32:2300 66:2400 106:1400 139:800 
-0.0009765625 26:2300 68:1300 95:1900 96:200 118:1400 125:700 136:1400 165:1700 
-0.0009765625 13:2200 175:800 
-0.0009765625 112:400 122:2500 
-0.0009765625 17:2000 19:2200 44:1200 89:1700 104:1200 113:1600 
-0.0009765625 13:2300 
-0.0009765625 26:2300 31:2300 57:1000 85:1500 152:100 
-0.0009765625 30:2200 48:1200 
-0.0009765625 29:2200 81:1400 85:1500 86:2100 111:1400 122:700 129:1400 142:1400 
-0.0009765625 30:2100 31:2300 33:2000 82:800 86:2100 102:1400 105:1100 132:1400 133:1400 
-0.0009765625 4:2000 20:1800 48:1200 60:1200 78:2200 97:500 124:1200 158:700 159:700 172:800 
-0.0009765625 18:1600 41:2400 85:1800 
-0.0009765625 96:1800 97:1800 99:700 103:2400 135:300 147:300 152:2500 165:400 
-0.0009765625 35:1500 46:2500 54:2500 78:1900 96:1000 97:1000 105:300 172:600 
-0.0009765625 1:500 16:500 48:300 104:2500 105:2500 141:1700 148:1700 162:100 169:600 
-0.0009765625 28:1900 72:1700 115:1600 161:700 
-0.0009765625 41:2400 89:2100 
-0.0009765625 65:1800 100:1800 116:1400 
-0.0009765625 31:1700 119:2400 151:500 174:700 
-0.0009765625 54:700 98:100 101:2200 111:1400 139:1400 158:500 
-0.0009765625 6:1400 9:1600 22:2000 31:2300 69:2500 96:500 138:800 163:700 
-0.0009765625 34:2200 95:1900 144:1400 
-0.0009765625 23:2100 74:2100 82:800 96:200 102:1400 114:1400 127:1200 142:1400 153:800 
-0.0009765625 46:1200 51:1200 69:2500 71:2200 77:2200 105:1200 125:1200 129:800 168:1700 170:800 
-0.0009765625 10:2400 149:800 
-0.0009765625 6:2000 17:2100 49:400 55:400 93:700 104:1300 125:2500 152:500 172:700 
-0.0009765625 17:2000 81:2000 85:1400 88:1700 116:1600 137:800 
-0.0009765625 23:2500 42:600 121:2500 123:2500 127:2500 167:1500 
-0.0009765625 154:2500 
-0.0009765625 3:2400 54:1200 65:2400 72:1700 115:1600 157:700 
-0.0009765625 128:2500 149:2500 
-0.0009765625 24:2200 50:1200 96:500 136:800 165:1700 172:800 
-0.0009765625 141:2500 
-0.0009765625 36:2300 51:1200 66:2400 75:1600 107:1200 123:1200 125:1200 126:1200 152:0 167:1700 
-0.0009765625 13:2200 17:2000 61:1400 68:2200 
-0.0009765625 40:2300 67:2200 84:1400 113:1600 121:1200 172:800 
-0.0009765625 5:2200 53:1800 74:2100 77:1600 95:1900 128:900 
-0.0009765625 2:1000 4:2000 31:2300 59:1200 60:1200 106:1400 119:1600 155:700 172:800 
-0.0009765625 76:2500 78:2500 83:400 131:2500 144:2500 148:2500 
-0.0009765625 83:1900 106:1200 170:1000 
-0.0009765625 3:2400 16:2400 20:1800 52:1200 56:1600 114:1600 119:1600 126:1200 163:700 
-0.0009765625 94:700 121:2500 
-0.0009765625 8:2000 12:1500 19:2200 88:1700 130:800 153:700 
-0.0009765625 6:2200 20:2000 29:2200 51:800 117:1400 133:1400 138:1400 159:500 160:500 163:500 
-0.0009765625 2:2100 6:2200 14:2100 36:2300 144:1400 161:500 
-0.0009765625 67:2000 74:2100 81:1400 101:2200 120:1400 121:700 122:700 135:1400 145:1400 146:1400 
-0.0009765625 67:2000 80:1600 102:1400 131:1400 
-0.0009765625 32:2000 36:2300 50:200 83:1900 133:1400 144:1400 161:500 164:1700 
-0.0009765625 14:2000 41:700 52:1200 116:1600 117:1600 159:700 168:1700 
-0.0009765625 21:2200 34:2300 54:1200 66:2400 93:700 162:700 
-0.0009765625 17:2000 18:2200 48:1200 108:1200 175:800 
-0.0009765625 123:2500 144:1000 170:700 
-0.0009765625 10:2400 53:1600 54:1200 56:1600 61:1400 84:1400 121:1200 123:1200 144:800 173:800 
-0.0009765625 45:1200 80:1800 120:1600 128:500 144:800 158:700 
-0.0009765625 28:2200 38:1600 55:1200 86:2100 100:1800 131:1400 150:100 173:1000 
-0.0009765625 16:2400 18:2200 101:1000 110:1600 112:1600 151:0 174:800 
-0.0009765625 4:2000 7:2100 22:2000 35:800 49:1200 80:1800 111:1600 127:1500 139:800 
-0.0009765625 13:2200 17:2200 58:400 60:400 75:0 78:2500 134:2500 136:2500 147:2500 168:600 
-0.0009765625 4:2000 8:2000 67:2200 88:1700 108:1200 112:1600 135:800 
-0.0009765625 27:1600 110:1400 137:1400 166:1700 
-0.0009765625 26:2300 30:2100 34:2200 116:1400 121:700 131:1400 171:1000 
-0.0009765625 4:2000 50:1200 82:1400 85:1400 91:1800 112:1600 165:1700 
-0.0009765625 8:2000 16:2400 66:2400 69:2500 78:2200 83:1400 169:800 
-0.0009765625 33:2300 81:2000 103:1200 172:800 
-0.0009765625 12:2200 
-0.0009765625 22:2000 55:1200 71:2200 98:500 101:1000 112:1600 116:1600 119:1600 157:700 
-0.0009765625 3:2400 17:2000 22:2000 145:800 174:800 
-0.0009765625 55:2500 85:1800 96:1000 164:1800 165:1800 
-0.0009765625 10:2400 31:2300 41:700 79:2100 81:2000 140:800 
-0.0009765625 6:1400 27:1800 36:2300 62:1200 76:2200 78:2200 94:700 161:700 172:800 
-0.0009765625 161:450 170:2500 
-0.0009765625 25:400 134:2500 136:2500 143:2500 
-0.0009765625 19:2200 20:1800 48:1200 69:2500 91:1800 139:800 152:0 
-0.0009765625 25:2300 37:1700 59:1200 64:2400 76:2200 80:1800 84:1400 113:1600 171:800 175:800 
-0.0009765625 131:2500 139:2500 
-0.0009765625 30:2200 80:1800 121:1200 
-0.0009765625 25:300 44:2500 53:2500 59:2500 173:600 
-0.0009765625 28:2200 74:2100 109:1400 
-0.0009765625 7:2100 25:2300 52:1200 63:1200 68:2200 72:1700 81:2000 86:1500 112:1600 
-0.0009765625 52:2500 83:1800 
-0.0009765625 16:1400 66:1900 84:1200 99:1200 102:1400 135:1400 141:1400 166:1700 
-0.0009765625 25:2300 50:1200 
-0.0009765625 31:2300 56:1600 119:1600 132:800 174:800 
-0.0009765625 8:2000 53:1600 124:1200 
-0.0009765625 3:2400 32:2300 38:2200 65:2400 68:2200 81:2000 108:1200 128:500 136:800 153:700 
-0.0009765625 1:2200 41:1400 
-0.0009765625 69:2500 
-0.0009765625 4:2400 94:300 114:2500 133:800 141:800 
-0.0009765625 19:2200 31:2300 53:1600 71:2200 97:500 119:1600 122:1200 144:800 
-0.0009765625 24:2200 
-0.0009765625 18:2200 20:1800 43:1200 50:1200 88:1700 91:1800 102:1000 169:800 
-0.0009765625 32:2300 40:2300 65:2400 
-0.0009765625 12:1500 40:2300 128:500 167:1700 
-0.0009765625 41:200 93:800 130:2500 145:2500 
-0.0009765625 2:1000 10:2400 47:1200 65:2400 85:1400 92:700 117:1600 120:1600 162:700 166:1700 
-0.0009765625 16:2400 82:1400 84:1400 98:500 102:1000 107:1200 122:1200 
-0.0009765625 47:2500 50:2500 56:2500 60:2500 104:300 108:300 111:200 131:500 
-0.0009765625 82:800 101:2200 111:1400 137:1400 139:1400 149:1400 174:1000 
-0.0009765625 14:1800 38:2200 42:600 76:2200 114:400 122:2500 123:2500 131:1000 149:1000 
-0.0009765625 22:2000 53:1600 58:1800 80:1800 82:1400 125:1200 131:800 142:800 150:0 160:700 
-0.0009765625 20:1800 29:2000 56:1600 57:1200 154:700 169:800 
-0.0009765625 91:1400 125:2500 
-0.0009765625 2:2100 5:2200 39:2300 129:1400 164:1700 
-0.0009765625 37:1500 117:400 121:2500 160:1300 
-0.0009765625 17:2000 33:2000 103:1700 108:1100 115:1400 132:1400 167:1700 175:1000 
-0.0009765625 4:0 49:400 129:2500 130:2500 143:2500 150:800 
-0.0009765625 93:2500 95:2500 107:600 124:200 
-0.0009765625 52:2500 87:1800 89:2100 95:1900 96:1000 130:500 
-0.0009765625 80:0 120:2400 122:2500 132:1000 143:1000 159:1300 
-0.0009765625 19:400 57:2500 81:1200 82:1800 94:1900 95:1900 96:1000 127:250 154:650 173:600 
-0.0009765625 13:2000 85:1500 101:2200 106:1200 168:1700 
-0.0009765625 91:2000 102:2400 118:500 175:700 
-0.0009765625 8:800 25:400 138:2500 148:2500 150:800 
-0.0009765625 23:2200 66:2400 87:1200 95:700 
-0.0009765625 76:2200 80:1800 85:1400 91:1800 120:1600 163:700 173:800 
-0.0009765625 8:2000 19:2200 23:2200 26:2000 50:1200 98:500 128:500 130:800 168:1700 
-0.0009765625 85:1800 
-0.0009765625 22:2000 24:2200 50:1200 65:2400 66:2400 112:1600 153:700 
-0.0009765625 12:1500 30:2200 36:2300 40:2300 75:1600 82:1400 142:800 
-0.0009765625 5:2200 6:2200 9:1200 41:800 67:2000 70:1800 144:1400 
-0.0009765625 5:1000 22:1600 71:2200 97:700 102:2400 168:1300 175:700 
-0.0009765625 77:2500 137:2500 152:800 
-0.0009765625 2:2100 13:2000 14:2100 25:900 39:2300 75:2100 81:1400 101:2200 123:700 136:1400 
-0.0009765625 21:2200 29:2000 40:2300 58:1800 65:2400 113:1600 166:1700 174:800 
-0.0009765625 20:1800 44:1200 47:1200 111:1600 122:1200 157:700 
-0.0009765625 44:400 119:2400 151:500 
-0.0009765625 37:1700 51:1200 76:2200 100:800 116:1600 120:1600 134:800 151:0 159:700 
-0.0009765625 1:1200 9:1600 21:2200 23:2200 80:1800 87:1200 102:1000 118:1600 123:1200 145:800 
-0.0009765625 2:2100 17:2000 30:2100 34:2200 59:0 88:1600 108:1100 117:1400 131:1400 172:1000 
-0.0009765625 26:2000 37:1700 38:2200 44:1200 52:1200 93:700 122:1200 126:1200 170:800 
-0.0009765625 40:2300 52:1200 89:900 101:2400 
-0.0009765625 89:800 134:2500 
-0.0009765625 1:1200 58:1800 77:2200 83:1400 127:1500 156:700 173:800 
-0.0009765625 38:2200 53:1600 86:1500 91:1800 102:1000 115:1600 124:1200 150:0 156:700 
-0.0009765625 13:2000 43:1600 147:1400 165:1700 169:1000 170:1000 
-0.0009765625 40:2300 60:1200 64:2400 94:700 97:500 
-0.0009765625 7:2300 55:1200 75:2100 130:1400 139:1400 153:800 169:1000 
-0.0009765625 18:2200 80:1800 89:1700 154:700 
-0.0009765625 13:1300 52:2500 55:2500 88:2100 90:2100 100:300 151:200 
-0.0009765625 22:1200 155:2500 
-0.0009765625 18:2000 26:2300 28:2200 39:2300 47:400 96:200 132:1400 148:1400 154:800 160:500 
-0.0009765625 11:1600 29:2200 42:1200 124:700 128:900 129:1400 
-0.0009765625 34:2200 41:800 52:700 88:1600 119:1400 138:1400 142:1400 165:1700 
-0.0009765625 15:2300 16:2400 20:1800 90:1700 97:500 111:1600 124:1200 128:500 137:800 155:700 
-0.0009765625 50:400 64:1200 78:2200 124:2500 141:1000 162:1300 170:700 
-0.0009765625 37:1600 66:700 106:950 135:600 157:2500 159:1400 162:1400 170:1000 174:1000 
-0.0009765625 46:1200 69:2500 70:1700 98:500 148:800 154:700 168:1700 
-0.0009765625 28:2200 30:2100 32:2000 35:2000 90:800 107:1100 130:1400 151:100 
-0.0009765625 3:2400 12:1500 28:1900 81:2000 122:1200 124:1200 
-0.0009765625 59:2500 73:2200 91:1400 175:600 
-0.0009765625 23:2200 31:2300 39:2000 63:1200 108:1200 118:1600 
-0.0009765625 9:1200 31:2300 35:2000 109:1400 
-0.0009765625 32:2300 54:1200 58:1800 111:1600 
-0.0009765625 43:1200 59:1200 68:2200 69:2500 74:1600 166:1700 171:800 
-0.0009765625 10:2400 46:1200 58:1800 93:700 103:1200 122:1200 133:800 154:700 160:700 165:1700 
-0.0009765625 1:1200 7:2100 22:2000 24:2200 54:1200 81:2000 153:700 158:700 175:800 
-0.0009765625 12:2200 51:2500 57:2500 78:1900 103:1800 142:500 144:500 
-0.0009765625 8:800 16:800 43:200 78:2500 87:1400 139:2500 140:2500 
-0.0009765625 7:2300 11:1600 12:1100 53:1800 75:2100 104:1100 
-0.0009765625 107:950 111:2500 115:2500 165:400 175:600 
-0.0009765625 1:1200 7:2100 25:2300 60:1200 66:2400 77:2200 101:1000 108:1200 137:800 
-0.0009765625 1:2000 61:1500 112:1400 
-0.0009765625 43:2400 48:2500 60:2500 61:2500 66:600 72:1800 106:300 150:200 
-0.0009765625 3:1600 81:1200 100:2400 
-0.0009765625 24:2000 87:1600 95:700 110:400 125:2500 133:1000 163:1300 
-0.0009765625 42:2400 47:2500 77:1900 93:1900 113:200 114:200 137:500 170:600 
-0.0009765625 52:400 55:400 61:400 73:2000 77:2200 84:700 122:2500 125:2500 126:2500 160:1300 
-0.0009765625 6:400 40:1900 62:500 77:2100 86:200 96:1800 150:2500 
-0.0009765625 37:1700 96:200 106:2500 132:1700 135:1700 151:1000 164:500 175:600 
-0.0009765625 5:2100 31:1700 37:1500 48:400 95:700 111:400 121:2500 123:2500 135:1000 
-0.0009765625 57:400 78:2500 102:0 134:2500 144:2500 148:2500 
-0.0009765625 21:2200 23:2200 33:2300 39:2000 65:2400 71:2200 75:1600 85:1400 91:1800 119:1600 
-0.0009765625 35:1800 45:1200 68:2200 73:2200 130:600 
-0.0009765625 51:2500 79:1200 
-0.0009765625 6:1400 10:2400 17:2000 48:1200 
-0.0009765625 7:2100 9:1600 45:1200 84:1400 162:700 
-0.0009765625 75:0 98:300 163:2500 
-0.0009765625 32:1800 89:1000 97:600 122:2500 140:1000 160:1300 175:700 
-0.0009765625 15:1700 22:2300 52:2500 90:2100 137:500 144:500 
-0.0009765625 10:2400 26:2000 30:2200 45:1200 64:2400 89:1700 125:1200 130:800 152:0 
-0.0009765625 21:2100 45:2500 47:2500 74:0 166:1800 
-0.0009765625 57:2500 60:2500 75:0 
-0.0009765625 16:2400 53:1600 89:1700 94:700 105:1200 
-0.0009765625 5:2200 11:1600 35:2000 81:1400 84:1200 113:1400 123:700 147:1400 169:1000 
-0.0009765625 37:2200 48:2500 60:2500 127:250 135:500 138:500 140:500 164:1800 175:600 
-0.0009765625 50:2500 78:1900 82:1800 131:500 
-0.0009765625 40:1700 46:300 108:2500 152:1000 175:600 
-0.0009765625 15:2300 47:1200 58:1800 100:800 104:1200 148:800 
